{"learner":{"attributes":{"best_iteration":"314","best_score":"0.7811718482491131","scikit_learn":"{\"_estimator_type\": \"regressor\"}"},"feature_names":[],"feature_types":[],"gradient_booster":{"model":{"cats":{"enc":[],"feature_segments":[],"sorted_idx":[]},"gbtree_model_param":{"num_parallel_tree":"1","num_trees":"365"},"iteration_indptr":[0,1,2,3,4,5,6,7,8,9,10,11,12,13,14,15,16,17,18,19,20,21,22,23,24,25,26,27,28,29,30,31,32,33,34,35,36,37,38,39,40,41,42,43,44,45,46,47,48,49,50,51,52,53,54,55,56,57,58,59,60,61,62,63,64,65,66,67,68,69,70,71,72,73,74,75,76,77,78,79,80,81,82,83,84,85,86,87,88,89,90,91,92,93,94,95,96,97,98,99,100,101,102,103,104,105,106,107,108,109,110,111,112,113,114,115,116,117,118,119,120,121,122,123,124,125,126,127,128,129,130,131,132,133,134,135,136,137,138,139,140,141,142,143,144,145,146,147,148,149,150,151,152,153,154,155,156,157,158,159,160,161,162,163,164,165,166,167,168,169,170,171,172,173,174,175,176,177,178,179,180,181,182,183,184,185,186,187,188,189,190,191,192,193,194,195,196,197,198,199,200,201,202,203,204,205,206,207,208,209,210,211,212,213,214,215,216,217,218,219,220,221,222,223,224,225,226,227,228,229,230,231,232,233,234,235,236,237,238,239,240,241,242,243,244,245,246,247,248,249,250,251,252,253,254,255,256,257,258,259,260,261,262,263,264,265,266,267,268,269,270,271,272,273,274,275,276,277,278,279,280,281,282,283,284,285,286,287,288,289,290,291,292,293,294,295,296,297,298,299,300,301,302,303,304,305,306,307,308,309,310,311,312,313,314,315,316,317,318,319,320,321,322,323,324,325,326,327,328,329,330,331,332,333,334,335,336,337,338,339,340,341,342,343,344,345,346,347,348,349,350,351,352,353,354,355,356,357,358,359,360,361,362,363,364,365],"tree_info":[0,0,0,0,0,0,0,0,0,0,0,0,0,0,0,0,0,0,0,0,0,0,0,0,0,0,0,0,0,0,0,0,0,0,0,0,0,0,0,0,0,0,0,0,0,0,0,0,0,0,0,0,0,0,0,0,0,0,0,0,0,0,0,0,0,0,0,0,0,0,0,0,0,0,0,0,0,0,0,0,0,0,0,0,0,0,0,0,0,0,0,0,0,0,0,0,0,0,0,0,0,0,0,0,0,0,0,0,0,0,0,0,0,0,0,0,0,0,0,0,0,0,0,0,0,0,0,0,0,0,0,0,0,0,0,0,0,0,0,0,0,0,0,0,0,0,0,0,0,0,0,0,0,0,0,0,0,0,0,0,0,0,0,0,0,0,0,0,0,0,0,0,0,0,0,0,0,0,0,0,0,0,0,0,0,0,0,0,0,0,0,0,0,0,0,0,0,0,0,0,0,0,0,0,0,0,0,0,0,0,0,0,0,0,0,0,0,0,0,0,0,0,0,0,0,0,0,0,0,0,0,0,0,0,0,0,0,0,0,0,0,0,0,0,0,0,0,0,0,0,0,0,0,0,0,0,0,0,0,0,0,0,0,0,0,0,0,0,0,0,0,0,0,0,0,0,0,0,0,0,0,0,0,0,0,0,0,0,0,0,0,0,0,0,0,0,0,0,0,0,0,0,0,0,0,0,0,0,0,0,0,0,0,0,0,0,0,0,0,0,0,0,0,0,0,0,0,0,0,0,0,0,0,0,0,0,0,0,0,0,0,0,0,0,0,0,0,0,0,0,0,0,0,0,0,0,0,0,0,0,0,0,0,0,0],"trees":[{"base_weights":[-5.106158E-3,1.0476817E0,-1.0920057E-1,-2.922454E-1,1.2397223E0,8.663621E-2,-2.4867691E-1,-5.231786E-1,1.4632517E-2,-8.83274E-2,1.4220752E0,2.916856E-1,-1.4673951E-1,9.700493E-1,-2.88127E-1,-3.4673258E-3,-2.2539431E-2,1.335964E-2,-3.136867E-1,7.564657E-1,1.8318129E0,3.7187323E-1,-6.963725E-1,-4.4655364E-2,-9.30752E-1,1.2635735E0,-2.293358E-3,-5.9690446E-1,-1.9476138E-1,-1.7336681E-2,5.367967E-3,5.6316364E-1,1.352529E0,4.8759294E-1,2.2489712E0,6.3299066E-1,1.8594359E-1,1.8058166E-2,-9.640516E-1,3.92337E-1,-1.2964043E-1,-6.77844E-3,-1.041943E0,5.7749175E-2,2.8798817E-2,-8.64003E-2,-8.45445E-1,-3.0564177E-1,1.7924146E-1,1.1981978E-3,2.3438748E-2,5.4618742E-2,2.0736445E-2,3.34785E-2,2.5685574E-3,8.854608E-2,3.9688278E-2,3.959362E-3,2.765622E-2,-2.9017609E-3,1.1211454E-2,-3.4829233E-2,-1.5690941E-2,1.7732136E-2,-6.1049694E-3,9.319257E-3,-6.4445203E-3,-3.534545E-2,-1.8756064E-2,-1.6825965E-2,3.1213805E-3,-2.8486619E-2,2.5895987E-2,1.2782848E-2,-9.9111665E-3,1.3990261E-3,2.995778E-2],"categories":[],"categories_nodes":[],"categories_segments":[],"categories_sizes":[],"default_left":[0,0,0,0,0,0,0,0,0,0,0,0,0,0,0,0,0,0,0,0,0,0,0,0,0,0,0,0,0,0,0,0,0,0,0,0,0,0,0,0,0,0,0,0,0,0,0,0,0,0,0,0,0,0,0,0,0,0,0,0,0,0,0,0,0,0,0,0,0,0,0,0,0,0,0,0,0],"id":0,"left_children":[1,3,5,7,9,11,13,15,-1,17,19,21,23,25,27,-1,-1,-1,29,31,33,35,37,39,41,43,-1,45,47,-1,-1,49,51,53,55,57,59,-1,61,63,65,-1,67,-1,-1,69,71,73,75,-1,-1,-1,-1,-1,-1,-1,-1,-1,-1,-1,-1,-1,-1,-1,-1,-1,-1,-1,-1,-1,-1,-1,-1,-1,-1,-1,-1],"loss_changes":[2.2532048E2,4.7966553E1,5.112716E1,4.578228E0,3.9357742E1,3.7320717E1,5.2829704E1,1.6799445E0,0E0,2.6050768E0,3.747769E1,3.313943E1,2.9171299E1,1.0694008E1,3.0428284E1,0E0,0E0,0E0,2.0556717E0,5.6906357E0,4.796927E1,1.8549576E1,1.1527522E1,1.208352E1,3.0560265E0,3.5739517E0,0E0,3.1076225E1,3.3852493E1,0E0,0E0,4.9905043E0,2.7658176E0,5.461289E0,3.9359863E1,2.296341E1,1.2031591E1,0E0,1.6942177E0,6.3961697E0,1.0267244E1,0E0,1.3073463E0,0E0,0E0,7.4227076E0,3.017073E1,1.1523258E1,2.0271343E1,0E0,0E0,0E0,0E0,0E0,0E0,0E0,0E0,0E0,0E0,0E0,0E0,0E0,0E0,0E0,0E0,0E0,0E0,0E0,0E0,0E0,0E0,0E0,0E0,0E0,0E0,0E0,0E0],"parents":[2147483647,0,0,1,1,2,2,3,3,4,4,5,5,6,6,7,7,9,9,10,10,11,11,12,12,13,13,14,14,18,18,19,19,20,20,21,21,22,22,23,23,24,24,25,25,27,27,28,28,31,31,32,32,33,33,34,34,35,35,36,36,38,38,39,39,40,40,42,42,45,45,46,46,47,47,48,48],"right_children":[2,4,6,8,10,12,14,16,-1,18,20,22,24,26,28,-1,-1,-1,30,32,34,36,38,40,42,44,-1,46,48,-1,-1,50,52,54,56,58,60,-1,62,64,66,-1,68,-1,-1,70,72,74,76,-1,-1,-1,-1,-1,-1,-1,-1,-1,-1,-1,-1,-1,-1,-1,-1,-1,-1,-1,-1,-1,-1,-1,-1,-1,-1,-1,-1],"split_conditions":[-3.4265676E-1,-7.405348E-3,-2.644175E-1,5.806462E-1,-1.3312058E0,1.5044421E-2,-1.8359366E-1,-2.3910487E-1,1.4632517E-2,-9.659479E-2,-1.6438046E-1,4.0842783E-1,5.430413E-1,-3.6095187E-2,-2.1497977E-1,-3.4673258E-3,-2.2539431E-2,1.335964E-2,6.426073E-2,-1.3455424E-1,3.0550417E-1,-2.4947388E-1,-1.5195353E-1,-3.6903396E-2,-7.2988164E-1,-1.6187368E-1,-2.293358E-3,5.8460232E-2,2.1110302E-1,-1.7336681E-2,5.367967E-3,-6.0557067E-2,2.8605187E-1,-1.7453703E-1,1.3776299E0,-2.2123031E-1,1.12826146E-1,1.8058166E-2,-2.6816756E-1,1.6187298E-1,-2.7077913E-1,-6.77844E-3,-3.2907277E-1,5.7749175E-2,2.8798817E-2,4.2744696E-2,3.420651E-1,-4.2968926E-1,1.0009581E-1,1.1981978E-3,2.3438748E-2,5.4618742E-2,2.0736445E-2,3.34785E-2,2.5685574E-3,8.854608E-2,3.9688278E-2,3.959362E-3,2.765622E-2,-2.9017609E-3,1.1211454E-2,-3.4829233E-2,-1.5690941E-2,1.7732136E-2,-6.1049694E-3,9.319257E-3,-6.4445203E-3,-3.534545E-2,-1.8756064E-2,-1.6825965E-2,3.1213805E-3,-2.8486619E-2,2.5895987E-2,1.2782848E-2,-9.9111665E-3,1.3990261E-3,2.995778E-2],"split_indices":[198,155,331,9,390,208,27,215,0,152,231,207,9,189,182,0,0,0,118,213,367,62,145,154,38,45,0,224,134,0,0,108,368,377,391,3,377,0,139,36,36,0,62,0,0,55,84,355,363,0,0,0,0,0,0,0,0,0,0,0,0,0,0,0,0,0,0,0,0,0,0,0,0,0,0,0,0],"split_type":[0,0,0,0,0,0,0,0,0,0,0,0,0,0,0,0,0,0,0,0,0,0,0,0,0,0,0,0,0,0,0,0,0,0,0,0,0,0,0,0,0,0,0,0,0,0,0,0,0,0,0,0,0,0,0,0,0,0,0,0,0,0,0,0,0,0,0,0,0,0,0,0,0,0,0,0,0],"sum_hessian":[2.054E3,1.84E2,1.87E3,2.3E1,1.61E2,7.78E2,1.092E3,1.8E1,5E0,1.95E1,1.415E2,4.14E2,3.64E2,3.35E1,1.0585E3,7E0,1.1E1,5.5E0,1.4E1,5.5E1,8.65E1,3.835E2,3.05E1,3.23E2,4.1E1,2.6E1,7.5E0,2.445E2,8.14E2,9E0,5E0,4.3E1,1.2E1,2.1E1,6.55E1,1.585E2,2.25E2,5E0,2.55E1,5.2E1,2.71E2,6E0,3.5E1,6.5E0,1.95E1,8.05E1,1.64E2,6.28E2,1.86E2,1.3E1,3E1,6E0,6E0,7.5E0,1.35E1,3.6E1,2.95E1,5.85E1,1E2,9E1,1.35E2,1.65E1,9E0,3.9E1,1.3E1,4.35E1,2.275E2,2.5E1,1E1,2.25E1,5.8E1,1.55E2,9E0,2E1,6.08E2,1.61E2,2.5E1],"tree_param":{"num_deleted":"0","num_feature":"404","num_nodes":"77","size_leaf_vector":"1"}},{"base_weights":[9.000426E-3,1.0825962E0,-1.01442605E-1,2.752791E0,9.0810823E-1,9.7033225E-2,-2.4426061E-1,2.316445E-2,1.0365541E-1,1.9305031E-1,1.2208309E0,2.2208978E-1,-2.5526482E-1,-3.3117744E-1,4.1624692E-1,-2.6894465E-1,6.401664E-1,6.214951E-1,1.7297077E0,1.3508081E-1,7.215888E-1,-5.4021573E-1,1.1299035E-1,-6.685077E-1,-2.2440983E-1,1.1483557E0,4.3264505E-2,-5.1272094E-1,1.6068904E-2,3.976005E-2,2.5596884E-1,1.2396985E-1,1.1063855E0,2.2133632E0,9.161387E-1,2.4392793E-1,-1.2566923E-1,8.7353617E-1,3.954047E-3,-6.6395545E-1,7.237936E-1,-2.989214E-2,9.8357564E-1,-1.4819479E-1,-9.1464245E-1,-3.0850944E-1,8.695362E-2,1.3344238E0,-3.746439E-4,2.7827406E-1,-4.7105688E-1,-2.3395471E-2,-1.2065831E-3,-1.3339421E-2,1.9214418E-2,1.8473173E-2,-1.0345296E-2,4.435977E-2,1.1853516E-2,2.2840733E-2,7.626879E-2,1.4188128E-2,3.4079704E-2,7.136345E-4,1.4645042E-2,-1.3587938E-2,6.0325987E-3,3.372798E-2,8.603488E-3,-2.6561348E-2,-8.847744E-3,3.1809313E-3,3.6627717E-2,-4.9166116E-3,2.4765607E-2,1.5566031E-2,4.3177705E-2,-1.7295783E-2,2.3182582E-3,8.572044E-3,-2.8907508E-2,-1.077734E-2,2.400801E-3,9.258258E-3,-1.7076373E-2,5.1925465E-2,2.7637478E-2,1.3212284E-2,-1.3314327E-2,-1.918763E-2,7.183285E-3],"categories":[],"categories_nodes":[],"categories_segments":[],"categories_sizes":[],"default_left":[0,0,0,0,0,0,0,0,0,0,0,0,0,0,0,0,0,0,0,0,0,0,0,0,0,0,0,0,0,0,0,0,0,0,0,0,0,0,0,0,0,0,0,0,0,0,0,0,0,0,0,0,0,0,0,0,0,0,0,0,0,0,0,0,0,0,0,0,0,0,0,0,0,0,0,0,0,0,0,0,0,0,0,0,0,0,0,0,0,0,0],"id":1,"left_children":[1,3,5,7,9,11,13,-1,-1,15,17,19,21,23,25,27,29,31,33,35,37,39,41,43,45,47,49,51,-1,-1,53,55,57,59,61,63,65,67,-1,69,71,73,75,77,79,81,83,85,-1,87,89,-1,-1,-1,-1,-1,-1,-1,-1,-1,-1,-1,-1,-1,-1,-1,-1,-1,-1,-1,-1,-1,-1,-1,-1,-1,-1,-1,-1,-1,-1,-1,-1,-1,-1,-1,-1,-1,-1,-1,-1],"loss_changes":[2.485164E2,5.4474503E1,5.3895126E1,2.2373383E1,3.967955E1,3.512621E1,6.360376E1,0E0,0E0,1.1636548E1,3.674353E1,2.5457533E1,2.1992382E1,3.5055557E1,3.517553E1,5.766444E0,7.1630983E0,1.3975681E1,2.4139145E1,1.4278362E1,7.6815147E0,1.893673E1,1.147341E1,2.9896194E1,1.9508873E1,9.412487E0,1.0586377E1,2.745441E0,0E0,0E0,5.5379944E0,7.1292496E0,7.226959E0,1.7646317E1,2.0448627E0,1.9048805E1,1.5970894E1,9.828625E0,0E0,8.563759E0,3.2487378E0,9.304965E0,2.0060778E0,7.4326057E0,9.616257E0,1.1580257E1,2.330102E1,4.5476913E0,0E0,7.219991E0,3.446023E0,0E0,0E0,0E0,0E0,0E0,0E0,0E0,0E0,0E0,0E0,0E0,0E0,0E0,0E0,0E0,0E0,0E0,0E0,0E0,0E0,0E0,0E0,0E0,0E0,0E0,0E0,0E0,0E0,0E0,0E0,0E0,0E0,0E0,0E0,0E0,0E0,0E0,0E0,0E0,0E0],"parents":[2147483647,0,0,1,1,2,2,3,3,4,4,5,5,6,6,9,9,10,10,11,11,12,12,13,13,14,14,15,15,16,16,17,17,18,18,19,19,20,20,21,21,22,22,23,23,24,24,25,25,26,26,27,27,30,30,31,31,32,32,33,33,34,34,35,35,36,36,37,37,39,39,40,40,41,41,42,42,43,43,44,44,45,45,46,46,47,47,49,49,50,50],"right_children":[2,4,6,8,10,12,14,-1,-1,16,18,20,22,24,26,28,30,32,34,36,38,40,42,44,46,48,50,52,-1,-1,54,56,58,60,62,64,66,68,-1,70,72,74,76,78,80,82,84,86,-1,88,90,-1,-1,-1,-1,-1,-1,-1,-1,-1,-1,-1,-1,-1,-1,-1,-1,-1,-1,-1,-1,-1,-1,-1,-1,-1,-1,-1,-1,-1,-1,-1,-1,-1,-1,-1,-1,-1,-1,-1,-1],"split_conditions":[-3.4971386E-1,-4.3346488E-1,-2.656686E-1,3.536041E-1,2.6037905E-1,2.3216899E-1,7.195276E-2,2.316445E-2,1.0365541E-1,-3.1296584E-1,-1.8377703E-1,2.2561042E-1,3.21807E-1,-2.1497977E-1,-3.5557404E-1,-2.3843548E-1,-1.0024071E-1,-5.253896E-3,2.1109866E-1,4.3792162E-2,1.7238108E-2,-1.8914714E-1,-3.509263E-2,1.550681E-1,2.0397761E-1,-2.0571119E-1,6.955092E-2,4.040099E-1,1.6068904E-2,3.976005E-2,7.039927E-3,2.6676214E-1,-5.119492E-1,5.4817297E-2,4.5202293E-2,1.6485994E-1,6.172148E-1,-1.5785092E-1,3.954047E-3,-2.9713535E-1,-4.7183275E-1,7.5227314E-1,-2.2610936E-1,-3.404162E-1,-9.057114E-2,1.4518988E-1,-1.5597475E-1,1.447612E-1,-3.746439E-4,-1.062932E-1,2.9298154E-1,-2.3395471E-2,-1.2065831E-3,-1.3339421E-2,1.9214418E-2,1.8473173E-2,-1.0345296E-2,4.435977E-2,1.1853516E-2,2.2840733E-2,7.626879E-2,1.4188128E-2,3.4079704E-2,7.136345E-4,1.4645042E-2,-1.3587938E-2,6.0325987E-3,3.372798E-2,8.603488E-3,-2.6561348E-2,-8.847744E-3,3.1809313E-3,3.6627717E-2,-4.9166116E-3,2.4765607E-2,1.5566031E-2,4.3177705E-2,-1.7295783E-2,2.3182582E-3,8.572044E-3,-2.8907508E-2,-1.077734E-2,2.400801E-3,9.258258E-3,-1.7076373E-2,5.1925465E-2,2.7637478E-2,1.3212284E-2,-1.3314327E-2,-1.918763E-2,7.183285E-3],"split_indices":[198,228,331,236,31,58,357,0,0,41,120,85,295,182,121,264,260,143,261,188,72,313,343,144,134,293,323,117,0,0,95,289,97,166,224,234,238,121,0,51,76,225,1,300,59,120,228,201,0,202,148,0,0,0,0,0,0,0,0,0,0,0,0,0,0,0,0,0,0,0,0,0,0,0,0,0,0,0,0,0,0,0,0,0,0,0,0,0,0,0,0],"split_type":[0,0,0,0,0,0,0,0,0,0,0,0,0,0,0,0,0,0,0,0,0,0,0,0,0,0,0,0,0,0,0,0,0,0,0,0,0,0,0,0,0,0,0,0,0,0,0,0,0,0,0,0,0,0,0,0,0,0,0,0,0,0,0,0,0,0,0,0,0,0,0,0,0,0,0,0,0,0,0,0,0,0,0,0,0,0,0,0,0,0,0],"sum_hessian":[2.094E3,1.945E2,1.8995E3,1.7E1,1.775E2,7.95E2,1.1045E3,5E0,1.2E1,5.45E1,1.23E2,5.87E2,2.08E2,9.765E2,1.28E2,2.7E1,2.75E1,5.75E1,6.55E1,5.01E2,8.6E1,1.17E2,9.1E1,2.335E2,7.43E2,4.25E1,8.55E1,2.1E1,6E0,9E0,1.85E1,2.9E1,2.85E1,4E1,2.55E1,3.535E2,1.475E2,6.8E1,1.8E1,1.07E2,1E1,7.9E1,1.2E1,7.55E1,1.58E2,5.85E2,1.58E2,3.65E1,6E0,5.9E1,2.65E1,1.3E1,8E0,6.5E0,1.2E1,1.4E1,1.5E1,1.8E1,1.05E1,8E0,3.2E1,9.5E0,1.6E1,1.865E2,1.67E2,7.35E1,7.4E1,4.7E1,2.1E1,6.6E1,4.1E1,5E0,5E0,6.9E1,1E1,7E0,5E0,2.55E1,5E1,6E0,1.52E2,5.175E2,6.75E1,1.185E2,3.95E1,1.7E1,1.95E1,4.85E1,1.05E1,2.15E1,5E0],"tree_param":{"num_deleted":"0","num_feature":"404","num_nodes":"91","size_leaf_vector":"1"}},{"base_weights":[6.438779E-4,-1.0027673E-1,6.840721E-1,3.478767E-2,-2.7166688E-1,2.0493352E0,4.798599E-1,7.109876E-1,-4.2032383E-2,-4.9706104E-1,-4.9233973E-2,2.6517346E0,9.248499E-3,-2.0872967E-1,7.1850413E-1,9.037434E-1,-1.6569094E-1,-3.4345245E-1,7.525051E-2,1.8919522E-2,-6.244931E-1,7.1953714E-1,-1.04161255E-1,9.471933E-2,5.7682E-2,2.0809717E-1,-3.3731845E-1,1.556139E0,3.6819866E-1,1.2453686E0,4.4843408E-1,3.1270415E-3,-1.8344099E-2,-3.0756814E-2,-2.6174712E-1,2.938645E-1,-1.3963927E-1,-3.95125E-1,3.061732E-1,-1.0123636E0,-5.0479144E-1,1.290257E0,5.665169E-3,-1.2029149E-2,-5.226435E-1,-5.8358493E-3,2.2936044E-2,5.430232E-3,-4.0333366E-1,1.8763068E0,-4.3936656E-3,8.03501E-1,-2.1096182E-1,2.7530912E-2,4.974672E-2,-6.8282154E-3,1.6732853E-2,-1.1128718E-2,3.001665E-3,-1.4867764E-2,1.2370804E-2,9.995914E-3,-6.222115E-3,5.567054E-3,-1.516343E-2,2.7020946E-2,4.3139565E-3,-3.218167E-2,-8.441947E-3,-1.6933542E-2,3.768012E-3,5.4295056E-2,1.82819E-2,1.6873252E-2,-2.2129433E-2,-2.4691781E-2,1.5379342E-3,-2.2831604E-2,1.6336706E-2,-1.5068212E-2,-3.4238219E-3,8.0732524E-2,4.300601E-2,7.625559E-2,1.811797E-2,-1.3831919E-2,5.2134176E-3],"categories":[],"categories_nodes":[],"categories_segments":[],"categories_sizes":[],"default_left":[0,0,0,0,0,0,0,0,0,0,0,0,0,0,0,0,0,0,0,0,0,0,0,0,0,0,0,0,0,0,0,0,0,0,0,0,0,0,0,0,0,0,0,0,0,0,0,0,0,0,0,0,0,0,0,0,0,0,0,0,0,0,0,0,0,0,0,0,0,0,0,0,0,0,0,0,0,0,0,0,0,0,0,0,0,0,0],"id":2,"left_children":[1,3,5,7,9,11,13,15,17,19,21,23,-1,25,27,29,31,33,35,37,39,41,43,-1,-1,45,47,49,51,53,55,-1,-1,-1,57,59,61,63,65,67,69,71,73,75,77,-1,-1,-1,79,81,-1,83,85,-1,-1,-1,-1,-1,-1,-1,-1,-1,-1,-1,-1,-1,-1,-1,-1,-1,-1,-1,-1,-1,-1,-1,-1,-1,-1,-1,-1,-1,-1,-1,-1,-1,-1],"loss_changes":[1.4339241E2,4.1943336E1,7.3596504E1,5.2702843E1,4.0008392E1,3.536641E1,3.860271E1,1.7639675E1,3.224866E1,2.6082664E1,1.709223E1,3.3277588E0,0E0,3.33975E0,5.048353E1,1.2662872E1,2.4101167E0,1.3964182E1,3.090552E1,9.576374E0,1.4253319E1,1.0993054E1,1.4529194E1,0E0,0E0,3.509263E0,1.6812248E0,2.8075699E1,3.1431137E1,4.9717407E0,2.9355311E0,0E0,0E0,0E0,9.105242E0,3.0700748E1,1.0706904E1,2.2078967E0,4.4559317E0,2.963028E0,9.285141E0,4.203497E0,5.795054E0,1.5955437E1,1.7715763E1,0E0,0E0,0E0,1.1444683E0,1.16549835E1,0E0,2.3096252E1,5.276269E0,0E0,0E0,0E0,0E0,0E0,0E0,0E0,0E0,0E0,0E0,0E0,0E0,0E0,0E0,0E0,0E0,0E0,0E0,0E0,0E0,0E0,0E0,0E0,0E0,0E0,0E0,0E0,0E0,0E0,0E0,0E0,0E0,0E0,0E0],"parents":[2147483647,0,0,1,1,2,2,3,3,4,4,5,5,6,6,7,7,8,8,9,9,10,10,11,11,13,13,14,14,15,15,16,16,17,17,18,18,19,19,20,20,21,21,22,22,25,25,26,26,27,27,28,28,29,29,30,30,34,34,35,35,36,36,37,37,38,38,39,39,40,40,41,41,42,42,43,43,44,44,48,48,49,49,51,51,52,52],"right_children":[2,4,6,8,10,12,14,16,18,20,22,24,-1,26,28,30,32,34,36,38,40,42,44,-1,-1,46,48,50,52,54,56,-1,-1,-1,58,60,62,64,66,68,70,72,74,76,78,-1,-1,-1,80,82,-1,84,86,-1,-1,-1,-1,-1,-1,-1,-1,-1,-1,-1,-1,-1,-1,-1,-1,-1,-1,-1,-1,-1,-1,-1,-1,-1,-1,-1,-1,-1,-1,-1,-1,-1,-1],"split_conditions":[5.3240484E-1,-1.7175359E-1,2.0391923E-1,-1.02720216E-1,1.1709042E-1,-4.933762E-1,-1.3312058E0,3.1596372E-1,2.9102355E-1,1.9250545E-1,-2.953878E-1,-3.1265512E-1,9.248499E-3,-8.777945E-1,-6.192436E-2,1.7615166E-1,3.2452422E-1,-1.6915196E-1,-1.5682307E-1,1.6406739E-1,-1.4483061E-1,-1.1032246E-1,2.477543E-1,9.471933E-2,5.7682E-2,-3.1499225E-1,6.1353874E-1,-3.646865E-2,-3.0062658E-1,3.0373257E-1,-9.516918E-1,3.1270415E-3,-1.8344099E-2,-3.0756814E-2,1.07257426E-1,-1.9667298E-3,-1.4828132E-1,-7.9053E-2,-2.3937741E-1,1.4180249E-1,1.1774659E-1,2.3425993E-1,6.2048835E-1,-5.1912047E-2,3.1728396E-1,-5.8358493E-3,2.2936044E-2,5.430232E-3,7.820605E-1,-3.1165308E-1,-4.3936656E-3,2.0012268E-1,4.5984414E-1,2.7530912E-2,4.974672E-2,-6.8282154E-3,1.6732853E-2,-1.1128718E-2,3.001665E-3,-1.4867764E-2,1.2370804E-2,9.995914E-3,-6.222115E-3,5.567054E-3,-1.516343E-2,2.7020946E-2,4.3139565E-3,-3.218167E-2,-8.441947E-3,-1.6933542E-2,3.768012E-3,5.4295056E-2,1.82819E-2,1.6873252E-2,-2.2129433E-2,-2.4691781E-2,1.5379342E-3,-2.2831604E-2,1.6336706E-2,-1.5068212E-2,-3.4238219E-3,8.0732524E-2,4.300601E-2,7.625559E-2,1.811797E-2,-1.3831919E-2,5.2134176E-3],"split_indices":[218,293,135,367,197,181,390,154,16,207,344,63,0,294,277,26,353,211,330,245,362,193,157,0,0,80,16,344,121,18,390,0,0,0,153,148,178,155,63,156,23,18,100,23,94,0,0,0,284,347,0,368,203,0,0,0,0,0,0,0,0,0,0,0,0,0,0,0,0,0,0,0,0,0,0,0,0,0,0,0,0,0,0,0,0,0,0],"split_type":[0,0,0,0,0,0,0,0,0,0,0,0,0,0,0,0,0,0,0,0,0,0,0,0,0,0,0,0,0,0,0,0,0,0,0,0,0,0,0,0,0,0,0,0,0,0,0,0,0,0,0,0,0,0,0,0,0,0,0,0,0,0,0,0,0,0,0,0,0,0,0,0,0,0,0,0,0,0,0,0,0,0,0,0,0,0,0],"sum_hessian":[2.077E3,1.8105E3,2.665E2,1.013E3,7.975E2,3.35E1,2.33E2,1.025E2,9.105E2,3.955E2,4.02E2,2.45E1,9E0,6E1,1.73E2,8.4E1,1.85E1,2.545E2,6.56E2,7.85E1,3.17E2,2.6E1,3.76E2,1.25E1,1.2E1,1.4E1,4.6E1,5E1,1.23E2,4.7E1,3.7E1,1.2E1,6.5E0,2.6E1,2.285E2,3.25E2,3.31E2,3.2E1,4.65E1,7.3E1,2.44E2,1.4E1,1.2E1,3.09E2,6.7E1,8.5E0,5.5E0,5E0,4.1E1,4.2E1,8E0,7E1,5.3E1,2.8E1,1.9E1,5E0,3.2E1,1.755E2,5.3E1,4.2E1,2.83E2,4.1E1,2.9E2,5E0,2.7E1,9E0,3.75E1,6.7E1,6E0,2.23E2,2.1E1,7E0,7E0,7E0,5E0,2.15E1,2.875E2,5.5E1,1.2E1,3E1,1.1E1,1.3E1,2.9E1,6E0,6.4E1,3.2E1,2.1E1],"tree_param":{"num_deleted":"0","num_feature":"404","num_nodes":"87","size_leaf_vector":"1"}},{"base_weights":[-4.235104E-3,-1.0325469E-1,6.4691436E-1,-3.5289252E-1,-2.1692954E-2,2.0803797E0,4.3778598E-1,-4.4839463E-1,2.611315E-1,-6.989762E-2,6.032304E-1,1.4554852E-2,2.5737455E0,7.128711E-1,-3.1855717E-1,-8.529015E-1,-3.3229584E-1,4.108499E-1,-3.2327884E-1,-1.9210449E-1,1.2632398E-1,-2.1450518E-2,7.6864654E-1,4.077269E-2,8.588871E-2,2.1519256E0,5.96231E-1,-4.372971E-1,9.268761E-2,-9.626983E-1,5.8031124E-3,-4.4257116E-1,2.2893645E-1,3.7305795E-2,2.8796563E-1,-1.680576E-2,1.3945582E-3,-3.1634426E-1,-3.7670825E-2,-4.1217977E-1,2.095553E-1,9.920745E-1,1.6592513E-1,9.48353E-2,2.5057686E-2,-4.6217984E-1,6.964272E-1,-5.063833E-1,2.078987E-3,-9.144693E-3,2.3186501E-2,-3.0767355E-2,-1.116149E-3,2.5287017E-2,-1.4153069E-2,1.2317165E-2,-1.5063337E-2,-5.6315362E-3,1.2469428E-2,-5.518327E-3,-2.008604E-2,2.5036342E-3,-1.0777057E-2,1.6830593E-3,-2.4119189E-2,1.2047961E-2,-1.6380508E-3,1.4400688E-2,3.7743777E-2,-1.57287E-2,1.0940802E-2,-1.9487849E-2,-2.1837398E-3,3.5141125E-2,1.1775958E-2,-9.019384E-4,-1.7580597E-2],"categories":[],"categories_nodes":[],"categories_segments":[],"categories_sizes":[],"default_left":[0,0,0,0,0,0,0,0,0,0,0,0,0,0,0,0,0,0,0,0,0,0,0,0,0,0,0,0,0,0,0,0,0,0,0,0,0,0,0,0,0,0,0,0,0,0,0,0,0,0,0,0,0,0,0,0,0,0,0,0,0,0,0,0,0,0,0,0,0,0,0,0,0,0,0,0,0],"id":3,"left_children":[1,3,5,7,9,11,13,15,17,19,21,-1,23,25,27,29,31,33,35,37,39,-1,41,-1,-1,43,45,47,49,51,-1,53,55,-1,57,-1,-1,59,61,63,65,67,69,-1,-1,71,73,75,-1,-1,-1,-1,-1,-1,-1,-1,-1,-1,-1,-1,-1,-1,-1,-1,-1,-1,-1,-1,-1,-1,-1,-1,-1,-1,-1,-1,-1],"loss_changes":[1.3530635E2,3.7079712E1,8.2127815E1,2.6417393E1,4.1432846E1,2.6297226E1,5.0785355E1,1.7961617E1,5.4701357E0,3.0634258E1,2.202845E1,0E0,5.4182434E0,2.8678444E1,3.2389746E0,1.0066299E1,1.888496E1,4.6557274E0,1.1648667E0,1.50881E1,2.2070768E1,0E0,1.168589E1,0E0,0E0,1.4634659E1,1.7979E1,1.8200331E0,4.4265614E0,4.5010757E0,0E0,9.93103E0,6.911764E0,0E0,2.7504175E0,0E0,0E0,2.0265251E1,1.3740234E1,1.21540985E1,2.160738E1,8.114925E0,3.6210275E0,0E0,0E0,1.047375E0,2.1551003E1,1.6893377E0,0E0,0E0,0E0,0E0,0E0,0E0,0E0,0E0,0E0,0E0,0E0,0E0,0E0,0E0,0E0,0E0,0E0,0E0,0E0,0E0,0E0,0E0,0E0,0E0,0E0,0E0,0E0,0E0,0E0],"parents":[2147483647,0,0,1,1,2,2,3,3,4,4,5,5,6,6,7,7,8,8,9,9,10,10,12,12,13,13,14,14,15,15,16,16,17,17,18,18,19,19,20,20,22,22,25,25,26,26,27,27,28,28,29,29,31,31,32,32,34,34,37,37,38,38,39,39,40,40,41,41,42,42,45,45,46,46,47,47],"right_children":[2,4,6,8,10,12,14,16,18,20,22,-1,24,26,28,30,32,34,36,38,40,-1,42,-1,-1,44,46,48,50,52,-1,54,56,-1,58,-1,-1,60,62,64,66,68,70,-1,-1,72,74,76,-1,-1,-1,-1,-1,-1,-1,-1,-1,-1,-1,-1,-1,-1,-1,-1,-1,-1,-1,-1,-1,-1,-1,-1,-1,-1,-1,-1,-1],"split_conditions":[5.3240484E-1,-6.027121E-2,2.0391923E-1,2.5868803E-2,2.1730155E-2,4.495841E-1,7.735682E-2,-1.3282788E-1,-9.9826545E-2,4.3203562E-1,-2.2093268E-1,1.4554852E-2,-1.7866558E-1,-3.8941798E-1,4.1975483E-1,-6.6005856E-2,1.2397911E-1,3.0710407E-2,5.5221E-2,7.9867154E-2,6.3078076E-2,-2.1450518E-2,-1.1688135E-1,4.077269E-2,8.588871E-2,5.001443E-1,4.0958777E-2,3.9734292E-1,6.107697E-2,2.0043348E-1,5.8031124E-3,-4.5507106E-1,-1.8461134E-1,3.7305795E-2,-9.516918E-1,-1.680576E-2,1.3945582E-3,-5.3424835E-2,8.2661286E-2,-1.8904158E-1,-3.8738504E-2,-3.78595E-1,-3.0616733E-1,9.48353E-2,2.5057686E-2,-6.573582E-3,-6.192436E-2,-1.8465224E-1,2.078987E-3,-9.144693E-3,2.3186501E-2,-3.0767355E-2,-1.116149E-3,2.5287017E-2,-1.4153069E-2,1.2317165E-2,-1.5063337E-2,-5.6315362E-3,1.2469428E-2,-5.518327E-3,-2.008604E-2,2.5036342E-3,-1.0777057E-2,1.6830593E-3,-2.4119189E-2,1.2047961E-2,-1.6380508E-3,1.4400688E-2,3.7743777E-2,-1.57287E-2,1.0940802E-2,-1.9487849E-2,-2.1837398E-3,3.5141125E-2,1.1775958E-2,-9.019384E-4,-1.7580597E-2],"split_indices":[218,90,135,50,1,281,303,211,40,0,261,0,139,21,240,332,353,43,285,191,48,0,343,0,0,48,170,378,314,48,0,28,34,0,390,0,0,150,227,28,150,294,34,0,0,25,277,273,0,0,0,0,0,0,0,0,0,0,0,0,0,0,0,0,0,0,0,0,0,0,0,0,0,0,0,0,0],"split_type":[0,0,0,0,0,0,0,0,0,0,0,0,0,0,0,0,0,0,0,0,0,0,0,0,0,0,0,0,0,0,0,0,0,0,0,0,0,0,0,0,0,0,0,0,0,0,0,0,0,0,0,0,0,0,0,0,0,0,0,0,0,0,0,0,0,0,0,0,0,0,0,0,0,0,0,0,0],"sum_hessian":[2.0965E3,1.8205E3,2.76E2,4.475E2,1.373E3,3.4E1,2.42E2,3.875E2,6E1,1.2755E3,9.75E1,8.5E0,2.55E1,1.775E2,6.45E1,8.5E1,3.025E2,4.8E1,1.2E1,7.86E2,4.895E2,1.05E1,8.7E1,6E0,1.95E1,1.2E1,1.655E2,5E1,1.45E1,7.7E1,8E0,2.53E2,4.95E1,5E0,4.3E1,7E0,5E0,4.35E2,3.51E2,6.5E1,4.245E2,6.3E1,2.4E1,6E0,6E0,1.4E1,1.515E2,4.4E1,6E0,9.5E0,5E0,7.2E1,5E0,5E0,2.48E2,4E1,9.5E0,9E0,3.4E1,3.175E2,1.175E2,2.555E2,9.55E1,3E1,3.5E1,2.455E2,1.79E2,2.25E1,4.05E1,5E0,1.9E1,9E0,5E0,5.8E1,9.35E1,6.5E0,3.75E1],"tree_param":{"num_deleted":"0","num_feature":"404","num_nodes":"77","size_leaf_vector":"1"}},{"base_weights":[-8.558453E-3,9.3223774E-1,-1.0538965E-1,2.5685246E0,7.199932E-1,7.707919E-2,-2.3108862E-1,2.5271203E-2,9.0799935E-2,1.2682828E-1,1.0555118E0,-5.688504E-1,1.2828603E-1,-3.097146E-1,3.2717773E-1,7.5769925E-1,-1.988924E-1,3.002625E-1,1.3921894E0,-8.006405E-1,1.8018812E-2,3.3631298E-1,-3.305899E-2,-6.071761E-1,-2.1426341E-1,5.616364E-1,-5.8151495E-1,-4.4334675E-3,3.8570188E-2,-2.9986106E-2,-1.5861889E-3,-8.721517E-3,4.689434E-1,1.8342704E0,4.0813178E-1,1.3277531E-2,-9.5549417E-1,-2.886849E-1,4.674828E-1,1.2454851E-1,-3.0904868E-1,-1.1223241E-1,-8.5394216E-1,3.427003E-1,-2.5818938E-1,1.094773E0,2.0840622E-1,-7.581475E-1,2.4576755E-3,-5.3493064E-3,2.4429215E-2,1.9932888E-2,-1.0757332E-2,6.896215E-2,3.338441E-2,2.453488E-2,-7.065886E-3,-4.1559245E-2,-2.2332815E-2,-1.7052205E-2,8.817713E-3,-1.2648806E-2,1.559709E-2,8.960668E-3,-3.8640457E-3,-3.7021685E-2,-6.540653E-3,6.0087694E-3,-1.1086871E-2,8.360631E-3,-2.7473837E-2,-2.9467814E-2,1.4845247E-2,-4.5891395E-3,-1.41984625E-2,3.9576273E-2,5.9930854E-3,1.0637182E-2,-1.0660533E-2,-1.352851E-2,-3.3372257E-2],"categories":[],"categories_nodes":[],"categories_segments":[],"categories_sizes":[],"default_left":[0,0,0,0,0,0,0,0,0,0,0,0,0,0,0,0,0,0,0,0,0,0,0,0,0,0,0,0,0,0,0,0,0,0,0,0,0,0,0,0,0,0,0,0,0,0,0,0,0,0,0,0,0,0,0,0,0,0,0,0,0,0,0,0,0,0,0,0,0,0,0,0,0,0,0,0,0,0,0,0,0],"id":4,"left_children":[1,3,5,7,9,11,13,-1,-1,15,17,19,21,23,25,27,29,31,33,35,-1,37,39,41,43,45,47,-1,-1,-1,49,-1,51,53,55,-1,57,59,61,63,65,67,69,71,73,75,77,79,-1,-1,-1,-1,-1,-1,-1,-1,-1,-1,-1,-1,-1,-1,-1,-1,-1,-1,-1,-1,-1,-1,-1,-1,-1,-1,-1,-1,-1,-1,-1,-1,-1],"loss_changes":[1.903573E2,6.587282E1,4.3470345E1,1.4848419E1,3.449523E1,2.565727E1,4.9350655E1,0E0,0E0,1.3301913E1,2.7806564E1,1.5932066E1,2.4093372E1,2.780867E1,2.994067E1,1.0707551E1,6.791216E0,3.6752183E0,3.2531418E1,9.66375E0,0E0,2.5835957E1,1.7655201E1,2.9033424E1,1.8351734E1,2.0675354E1,3.4604626E0,0E0,0E0,0E0,5.263872E0,0E0,4.7677817E0,1.5034332E1,6.785284E0,0E0,2.8696785E0,9.130335E0,1.2313801E1,1.14431E1,1.2150537E1,6.5479894E0,1.1394119E1,1.1573031E1,1.5600018E1,8.574791E0,5.7293634E0,2.0014029E0,0E0,0E0,0E0,0E0,0E0,0E0,0E0,0E0,0E0,0E0,0E0,0E0,0E0,0E0,0E0,0E0,0E0,0E0,0E0,0E0,0E0,0E0,0E0,0E0,0E0,0E0,0E0,0E0,0E0,0E0,0E0,0E0,0E0],"parents":[2147483647,0,0,1,1,2,2,3,3,4,4,5,5,6,6,9,9,10,10,11,11,12,12,13,13,14,14,15,15,16,16,17,17,18,18,19,19,21,21,22,22,23,23,24,24,25,25,26,26,30,30,32,32,33,33,34,34,36,36,37,37,38,38,39,39,40,40,41,41,42,42,43,43,44,44,45,45,46,46,47,47],"right_children":[2,4,6,8,10,12,14,-1,-1,16,18,20,22,24,26,28,30,32,34,36,-1,38,40,42,44,46,48,-1,-1,-1,50,-1,52,54,56,-1,58,60,62,64,66,68,70,72,74,76,78,80,-1,-1,-1,-1,-1,-1,-1,-1,-1,-1,-1,-1,-1,-1,-1,-1,-1,-1,-1,-1,-1,-1,-1,-1,-1,-1,-1,-1,-1,-1,-1,-1,-1],"split_conditions":[-3.4971386E-1,-4.1857553E-1,-2.644175E-1,1.3157238E-1,2.9034185E-1,-4.4850212E-1,7.195276E-2,2.5271203E-2,9.0799935E-2,-3.1378746E-1,-3.5174546E-1,4.771445E0,3.819494E-2,-2.1497977E-1,1.8938671E-1,-2.249977E-1,-5.922863E-1,-5.3643906E-1,2.3408853E-1,1.08352944E-1,1.8018812E-2,-2.7957943E-1,-5.1061645E-2,5.4961026E-2,-3.918141E-1,-3.5557404E-1,-2.4857864E-2,-4.4334675E-3,3.8570188E-2,-2.9986106E-2,-1.7688866E-1,-8.721517E-3,4.842965E0,1.5313935E-1,8.354324E-2,1.3277531E-2,1.4615741E-1,9.556158E-2,-3.308835E-2,-2.335372E-1,2.832217E-1,7.617108E-2,-7.79517E-3,-3.52188E-1,1.698257E-1,2.3130931E-1,-2.649019E-2,-1.4127654E-1,2.4576755E-3,-5.3493064E-3,2.4429215E-2,1.9932888E-2,-1.0757332E-2,6.896215E-2,3.338441E-2,2.453488E-2,-7.065886E-3,-4.1559245E-2,-2.2332815E-2,-1.7052205E-2,8.817713E-3,-1.2648806E-2,1.559709E-2,8.960668E-3,-3.8640457E-3,-3.7021685E-2,-6.540653E-3,6.0087694E-3,-1.1086871E-2,8.360631E-3,-2.7473837E-2,-2.9467814E-2,1.4845247E-2,-4.5891395E-3,-1.41984625E-2,3.9576273E-2,5.9930854E-3,1.0637182E-2,-1.0660533E-2,-1.352851E-2,-3.3372257E-2],"split_indices":[198,228,331,74,31,17,357,0,0,258,4,392,354,182,318,320,38,76,140,204,0,3,357,224,288,121,147,0,0,0,241,0,389,134,303,0,59,12,43,252,361,22,218,366,122,253,131,215,0,0,0,0,0,0,0,0,0,0,0,0,0,0,0,0,0,0,0,0,0,0,0,0,0,0,0,0,0,0,0,0,0],"split_type":[0,0,0,0,0,0,0,0,0,0,0,0,0,0,0,0,0,0,0,0,0,0,0,0,0,0,0,0,0,0,0,0,0,0,0,0,0,0,0,0,0,0,0,0,0,0,0,0,0,0,0,0,0,0,0,0,0,0,0,0,0,0,0,0,0,0,0,0,0,0,0,0,0,0,0,0,0,0,0,0,0],"sum_hessian":[2.0875E3,1.94E2,1.8935E3,2.1E1,1.73E2,7.725E2,1.121E3,5E0,1.6E1,6.3E1,1.1E2,5.6E1,7.165E2,9.83E2,1.38E2,2.1E1,4.2E1,3.45E1,7.55E1,4.7E1,9E0,3.125E2,4.04E2,2.375E2,7.455E2,1.1E2,2.8E1,8E0,1.3E1,7.5E0,3.45E1,7.5E0,2.7E1,5.15E1,2.4E1,5E0,4.2E1,5.4E1,2.585E2,2.575E2,1.465E2,7.95E1,1.58E2,5.4E1,6.915E2,4.3E1,6.7E1,2.2E1,6E0,2.9E1,5.5E0,2.2E1,5E0,3E1,2.15E1,1.45E1,9.5E0,1.2E1,3E1,3.65E1,1.75E1,1.4E1,2.445E2,1.525E2,1.05E2,1.2E1,1.345E2,3.6E1,4.35E1,8E0,1.5E2,5E0,4.9E1,4.655E2,2.26E2,3.4E1,9E0,5.35E1,1.35E1,1.3E1,9E0],"tree_param":{"num_deleted":"0","num_feature":"404","num_nodes":"81","size_leaf_vector":"1"}},{"base_weights":[3.5428528E-3,9.8465085E-1,-8.625882E-2,6.3454056E-1,1.6096971E0,-3.6725393E-1,-2.9423863E-3,4.9475852E-1,1.892077E0,-1.1026199E-1,2.1370585E0,-8.985481E-1,-2.7594352E-1,-4.3735452E-2,6.237171E-1,6.3238114E-1,-3.5937387E-1,7.6152906E-2,2.7911326E-2,1.0203737E-2,-1.2915578E-2,8.795019E-2,1.3365412E0,-2.9397443E-2,-1.0280648E-3,1.865246E-1,-4.180851E-1,4.6865763E-3,-4.1637093E-1,1.1343341E-1,9.9443537E-1,2.8383955E-1,9.7846055E-1,-1.9146962E-2,4.9585663E-3,1.1517853E-2,1.7121338E0,3.364434E-1,-5.138226E-1,-4.5490155E-1,2.7739236E-1,-3.1581086E-1,6.662821E-2,2.5057064E-2,-6.77064E-1,4.936027E-1,-4.947976E-1,5.0415856E-1,1.3102951E0,3.3655807E-2,4.628384E-3,6.993328E-3,3.835994E-2,6.0514696E-2,2.2976853E-2,-1.497439E-2,1.4048262E-2,-2.2909662E-2,-2.5054594E-3,-5.0770584E-3,-1.722306E-2,-3.3760315E-3,2.6431147E-2,-6.3867797E-3,-1.666629E-2,9.22566E-3,-7.8264077E-4,9.257387E-3,-1.54853705E-2,-1.0381502E-2,-2.8248051E-2,2.001066E-4,1.9026171E-2,-2.405403E-2,1.6091436E-3,5.104006E-3,2.1669583E-2,2.5160262E-2,4.6920583E-2],"categories":[],"categories_nodes":[],"categories_segments":[],"categories_sizes":[],"default_left":[0,0,0,0,0,0,0,0,0,0,0,0,0,0,0,0,0,0,0,0,0,0,0,0,0,0,0,0,0,0,0,0,0,0,0,0,0,0,0,0,0,0,0,0,0,0,0,0,0,0,0,0,0,0,0,0,0,0,0,0,0,0,0,0,0,0,0,0,0,0,0,0,0,0,0,0,0,0,0],"id":5,"left_children":[1,3,5,7,9,11,13,15,17,19,21,23,25,27,29,31,33,-1,-1,-1,-1,-1,35,-1,-1,37,39,41,43,45,47,49,51,-1,-1,-1,53,55,57,59,61,63,65,67,69,71,73,75,77,-1,-1,-1,-1,-1,-1,-1,-1,-1,-1,-1,-1,-1,-1,-1,-1,-1,-1,-1,-1,-1,-1,-1,-1,-1,-1,-1,-1,-1,-1],"loss_changes":[1.8334361E2,3.7165314E1,4.4632965E1,1.9015018E1,5.6472122E1,2.0903587E1,3.7643764E1,1.23934765E1,4.475876E0,2.3821435E0,2.6296585E1,4.431965E0,2.4630358E1,2.4947456E1,1.6912632E1,1.051804E1,2.3000743E0,0E0,0E0,0E0,0E0,0E0,8.466415E0,0E0,0E0,9.464948E0,7.4492188E0,2.432998E1,1.8314245E1,9.262233E0,7.3920555E0,4.8213253E0,9.659119E0,0E0,0E0,0E0,3.6503143E0,8.330314E0,1.6563015E0,9.164867E0,3.6298122E0,4.7792797E0,2.2945827E1,9.366441E0,8.430721E0,1.673142E0,2.6527677E0,1.4802756E0,2.3978004E0,0E0,0E0,0E0,0E0,0E0,0E0,0E0,0E0,0E0,0E0,0E0,0E0,0E0,0E0,0E0,0E0,0E0,0E0,0E0,0E0,0E0,0E0,0E0,0E0,0E0,0E0,0E0,0E0,0E0,0E0],"parents":[2147483647,0,0,1,1,2,2,3,3,4,4,5,5,6,6,7,7,8,8,9,9,10,10,11,11,12,12,13,13,14,14,15,15,16,16,22,22,25,25,26,26,27,27,28,28,29,29,30,30,31,31,32,32,36,36,37,37,38,38,39,39,40,40,41,41,42,42,43,43,44,44,45,45,46,46,47,47,48,48],"right_children":[2,4,6,8,10,12,14,16,18,20,22,24,26,28,30,32,34,-1,-1,-1,-1,-1,36,-1,-1,38,40,42,44,46,48,50,52,-1,-1,-1,54,56,58,60,62,64,66,68,70,72,74,76,78,-1,-1,-1,-1,-1,-1,-1,-1,-1,-1,-1,-1,-1,-1,-1,-1,-1,-1,-1,-1,-1,-1,-1,-1,-1,-1,-1,-1,-1,-1],"split_conditions":[-3.4971386E-1,5.5508894E-1,-6.903479E-2,3.0736E-1,3.0550417E-1,-1.348887E-1,2.6418604E-2,4.0894532E-1,1.24284804E-1,6.2267864E-1,2.4634413E-1,7.809093E-2,-2.6283238E-2,-1.0715702E-1,2.053469E-1,-6.841706E-1,4.3682957E-1,7.6152906E-2,2.7911326E-2,1.0203737E-2,-1.2915578E-2,8.795019E-2,4.0750718E-1,-2.9397443E-2,-1.0280648E-3,2.8971398E-1,3.3663422E-1,-1.3312058E0,-1.4567633E-1,-5.5442225E-2,-2.6519138E-1,1.7135085E-1,4.123499E-1,-1.9146962E-2,4.9585663E-3,1.1517853E-2,2.5037903E-1,-1.1414487E0,-5.2884802E-2,1.5018944E-1,-2.8160292E-1,-2.6028097E-1,-3.0354404E-1,2.6757246E-1,3.7401177E-2,-7.327199E-3,-2.6136428E-1,-2.2559212E-1,2.4989113E-2,3.3655807E-2,4.628384E-3,6.993328E-3,3.835994E-2,6.0514696E-2,2.2976853E-2,-1.497439E-2,1.4048262E-2,-2.2909662E-2,-2.5054594E-3,-5.0770584E-3,-1.722306E-2,-3.3760315E-3,2.6431147E-2,-6.3867797E-3,-1.666629E-2,9.22566E-3,-7.8264077E-4,9.257387E-3,-1.54853705E-2,-1.0381502E-2,-2.8248051E-2,2.001066E-4,1.9026171E-2,-2.405403E-2,1.6091436E-3,5.104006E-3,2.1669583E-2,2.5160262E-2,4.6920583E-2],"split_indices":[198,361,90,26,367,194,1,90,82,361,341,135,285,114,185,39,341,0,0,0,0,0,210,0,0,65,227,390,198,128,279,156,86,0,0,0,166,390,69,86,4,11,333,238,129,68,4,115,306,0,0,0,0,0,0,0,0,0,0,0,0,0,0,0,0,0,0,0,0,0,0,0,0,0,0,0,0,0,0],"split_type":[0,0,0,0,0,0,0,0,0,0,0,0,0,0,0,0,0,0,0,0,0,0,0,0,0,0,0,0,0,0,0,0,0,0,0,0,0,0,0,0,0,0,0,0,0,0,0,0,0,0,0,0,0,0,0,0,0,0,0,0,0,0,0,0,0,0,0,0,0,0,0,0,0,0,0,0,0,0,0],"sum_hessian":[2.079E3,1.735E2,1.9055E3,1.125E2,6.1E1,4.35E2,1.4705E3,1.025E2,1E1,1.45E1,4.65E1,6.25E1,3.725E2,1.3815E3,8.9E1,8.85E1,1.4E1,5E0,5E0,6E0,8.5E0,2.2E1,2.45E1,5.7E1,5.5E0,8.75E1,2.85E2,1.2235E3,1.58E2,3.8E1,5.1E1,4.5E1,4.35E1,9E0,5E0,7.5E0,1.7E1,7.25E1,1.5E1,2.71E2,1.4E1,1.975E2,1.026E3,5.9E1,9.9E1,2.35E1,1.45E1,2.1E1,3E1,5E0,4E1,1.3E1,3.05E1,1.2E1,5E0,9.5E0,6.3E1,9E0,6E0,8.05E1,1.905E2,9E0,5E0,1.395E2,5.8E1,2.845E2,7.415E2,3.9E1,2E1,4.5E1,5.4E1,5.5E0,1.8E1,9E0,5.5E0,9E0,1.2E1,1.2E1,1.8E1],"tree_param":{"num_deleted":"0","num_feature":"404","num_nodes":"79","size_leaf_vector":"1"}},{"base_weights":[4.765012E-3,-9.328461E-2,6.5552247E-1,1.0130218E-2,-2.750475E-1,2.2556934E0,4.7323582E-1,5.9947675E-1,-6.236153E-2,6.63738E-1,-3.2604453E-1,2.7090478E0,1.623017E-2,8.0466884E-1,-3.212467E-2,7.2862875E-1,-6.3151366E-1,-1.14252955E-1,4.7120878E-1,1.0901394E0,-2.0884281E-1,-8.8082574E-2,-4.951648E-1,5.0683472E-2,8.984204E-2,1.1169336E0,-1.002136E-2,5.735013E-1,-2.1498351E-1,3.7407246E-1,1.0334598E0,-6.4332723E-3,-3.1428013E-2,-5.102639E-1,-5.2472062E-2,6.996975E-1,-3.7491098E-1,4.177251E-2,6.0090697E-3,-1.520825E-2,3.641571E-3,-2.503156E-1,2.8136578E-1,-5.0287798E-2,-5.931081E-1,1.7292303E0,5.894848E-1,2.2576371E-2,-1.9760974E-1,1.0398839E0,-1.0332957E-2,1.6965926E-2,-4.599293E-1,1.3846813E-2,-5.76439E-3,6.490098E-2,2.681831E-2,-1.0166207E-2,-2.6947502E-2,-3.540947E-3,1.0579882E-2,3.8297586E-2,1.0970408E-2,1.129332E-2,-2.7215539E-2,-3.961033E-3,-1.9299142E-2,-2.322314E-3,1.8106345E-2,-1.3296191E-2,1.6785648E-2,-2.5925303E-2,-1.4189019E-2,8.0384046E-2,3.3487737E-2,-1.0743874E-2,2.171806E-2,1.240125E-2,-1.0626267E-2,5.4982703E-2,1.4633313E-2,2.0044833E-2,-6.671136E-3,1.0769917E-3,-1.8272031E-2],"categories":[],"categories_nodes":[],"categories_segments":[],"categories_sizes":[],"default_left":[0,0,0,0,0,0,0,0,0,0,0,0,0,0,0,0,0,0,0,0,0,0,0,0,0,0,0,0,0,0,0,0,0,0,0,0,0,0,0,0,0,0,0,0,0,0,0,0,0,0,0,0,0,0,0,0,0,0,0,0,0,0,0,0,0,0,0,0,0,0,0,0,0,0,0,0,0,0,0,0,0,0,0,0,0],"id":6,"left_children":[1,3,5,7,9,11,13,15,17,19,21,23,-1,25,27,29,31,33,35,37,39,41,43,-1,-1,45,47,49,51,53,55,-1,-1,57,59,61,63,-1,-1,-1,-1,65,67,69,71,73,75,-1,77,79,-1,81,83,-1,-1,-1,-1,-1,-1,-1,-1,-1,-1,-1,-1,-1,-1,-1,-1,-1,-1,-1,-1,-1,-1,-1,-1,-1,-1,-1,-1,-1,-1,-1,-1],"loss_changes":[1.3230016E2,3.387494E1,7.812629E1,4.9147205E1,3.1502907E1,1.9911835E1,4.1061676E1,2.0492237E1,2.8419909E1,1.2878036E1,2.4927902E1,1.203186E0,0E0,3.766223E1,1.0976212E1,1.1988541E1,1.9445729E0,2.283662E1,1.7855246E1,5.907587E0,1.2428244E0,1.5594042E1,1.5765282E1,0E0,0E0,3.353685E1,6.1567564E0,1.0204655E1,4.3257456E0,2.7884712E0,7.6821213E0,0E0,0E0,8.074238E0,2.1542305E1,1.3406914E1,8.340034E0,0E0,0E0,0E0,0E0,8.305283E0,9.236143E0,1.6181746E1,9.263496E0,2.5550034E1,7.776287E0,0E0,3.44737E0,5.891157E0,0E0,6.3827877E0,2.7579107E0,0E0,0E0,0E0,0E0,0E0,0E0,0E0,0E0,0E0,0E0,0E0,0E0,0E0,0E0,0E0,0E0,0E0,0E0,0E0,0E0,0E0,0E0,0E0,0E0,0E0,0E0,0E0,0E0,0E0,0E0,0E0,0E0],"parents":[2147483647,0,0,1,1,2,2,3,3,4,4,5,5,6,6,7,7,8,8,9,9,10,10,11,11,13,13,14,14,15,15,16,16,17,17,18,18,19,19,20,20,21,21,22,22,25,25,26,26,27,27,28,28,29,29,30,30,33,33,34,34,35,35,36,36,41,41,42,42,43,43,44,44,45,45,46,46,48,48,49,49,51,51,52,52],"right_children":[2,4,6,8,10,12,14,16,18,20,22,24,-1,26,28,30,32,34,36,38,40,42,44,-1,-1,46,48,50,52,54,56,-1,-1,58,60,62,64,-1,-1,-1,-1,66,68,70,72,74,76,-1,78,80,-1,82,84,-1,-1,-1,-1,-1,-1,-1,-1,-1,-1,-1,-1,-1,-1,-1,-1,-1,-1,-1,-1,-1,-1,-1,-1,-1,-1,-1,-1,-1,-1,-1,-1],"split_conditions":[5.3240484E-1,-1.4898196E-1,-1.4093101E-1,-9.49149E-2,-6.372287E-1,-1.7896989E-1,-2.0138934E-1,4.2231387E-1,8.854477E-2,-3.9215416E-1,1.5264793E-1,-7.1754284E-2,1.623017E-2,1.7567112E0,-1.26394E-1,-3.0654818E-3,1.5240243E-1,2.0259069E-1,3.6562932E-1,-4.879342E-2,1.1977797E-1,3.661924E-2,-1.2930524E-1,5.0683472E-2,8.984204E-2,-3.9744994E-1,-1.0015745E-2,6.1816774E-2,-4.477746E-1,7.761252E-2,-1.1414487E0,-6.4332723E-3,-3.1428013E-2,3.806128E-2,2.264631E-1,-1.15350366E-1,5.770652E-1,4.177251E-2,6.0090697E-3,-1.520825E-2,3.641571E-3,4.2047578E-1,-2.4079007E-1,-1.2954363E-1,-9.3932495E-2,4.631164E-1,-1.08906716E-1,2.2576371E-2,4.679293E-1,4.8795745E-1,-1.0332957E-2,-4.779066E-1,1.3151674E-1,1.3846813E-2,-5.76439E-3,6.490098E-2,2.681831E-2,-1.0166207E-2,-2.6947502E-2,-3.540947E-3,1.0579882E-2,3.8297586E-2,1.0970408E-2,1.129332E-2,-2.7215539E-2,-3.961033E-3,-1.9299142E-2,-2.322314E-3,1.8106345E-2,-1.3296191E-2,1.6785648E-2,-2.5925303E-2,-1.4189019E-2,8.0384046E-2,3.3487737E-2,-1.0743874E-2,2.171806E-2,1.240125E-2,-1.0626267E-2,5.4982703E-2,1.4633313E-2,2.0044833E-2,-6.671136E-3,1.0769917E-3,-1.8272031E-2],"split_indices":[218,293,108,367,76,113,113,393,45,110,144,233,0,393,47,186,0,212,48,172,302,152,327,0,0,97,274,233,181,206,390,0,0,327,311,128,219,0,0,0,0,212,146,181,194,18,92,0,272,168,0,264,14,0,0,0,0,0,0,0,0,0,0,0,0,0,0,0,0,0,0,0,0,0,0,0,0,0,0,0,0,0,0,0,0],"split_type":[0,0,0,0,0,0,0,0,0,0,0,0,0,0,0,0,0,0,0,0,0,0,0,0,0,0,0,0,0,0,0,0,0,0,0,0,0,0,0,0,0,0,0,0,0,0,0,0,0,0,0,0,0,0,0,0,0,0,0,0,0,0,0,0,0,0,0,0,0,0,0,0,0,0,0,0,0,0,0,0,0,0,0,0,0],"sum_hessian":[2.0715E3,1.801E3,2.705E2,1.1485E3,6.525E2,2.65E1,2.44E2,1.25E2,1.0235E3,3.3E1,6.195E2,2.05E1,6E0,1.47E2,9.7E1,1.135E2,1.15E1,9.335E2,9E1,2.2E1,1.1E1,2.58E2,3.615E2,6E0,1.45E1,1.06E2,4.1E1,2.2E1,7.5E1,5.35E1,6E1,6.5E0,5E0,1.25E2,8.085E2,7.1E1,1.9E1,1.6E1,6E0,5.5E0,5.5E0,1.795E2,7.85E1,6.55E1,2.96E2,4.8E1,5.8E1,7.5E0,3.35E1,1.45E1,7.5E0,3.9E1,3.6E1,4.65E1,7E0,5E0,5.5E1,8.8E1,3.7E1,6.965E2,1.12E2,2.5E1,4.6E1,8E0,1.1E1,1.39E2,4.05E1,3.75E1,4.1E1,4E1,2.55E1,8.9E1,2.07E2,1.75E1,3.05E1,7E0,5.1E1,6.5E0,2.7E1,5E0,9.5E0,1E1,2.9E1,8.5E0,2.75E1],"tree_param":{"num_deleted":"0","num_feature":"404","num_nodes":"85","size_leaf_vector":"1"}},{"base_weights":[1.5843902E-3,8.665181E-1,-8.8072814E-2,7.179013E-1,2.621875E0,-3.510757E-1,-3.4814968E-3,1.0677373E-1,1.0151442E0,4.6882153E-2,8.985509E-2,-4.269993E-1,2.1339117E-1,2.2228824E-1,-9.3654364E-2,-2.5144607E-1,6.5071124E-1,4.3048632E-1,1.6318717E0,-2.4358692E-2,-5.067464E-1,2.4970563E-2,9.1621906E-2,-4.6653146E-1,3.4367263E-1,-6.008348E-2,-7.567372E-1,-4.1845602E-1,2.0852963E-2,3.234471E-1,4.817603E-2,9.5776135E-1,6.117163E-2,2.1513143E0,8.289884E-1,2.0125653E-1,-4.0089342E-1,-8.2361424E-1,-4.1258547E-1,-2.2811942E-1,3.2244602E-1,-6.5389544E-1,2.1284673E-2,1.8592475E-1,9.099488E-1,-6.2577146E-1,-2.6437582E-2,-2.5380434E-2,-1.030291E0,-1.316206E-5,-1.8969147E-2,-4.5156176E-3,1.5612004E-2,3.9463513E-2,7.0808753E-3,9.147795E-3,-1.1151584E-2,7.270425E-2,1.2278337E-2,4.606235E-2,1.7268358E-2,1.538831E-2,-5.415031E-4,-2.08508E-2,-1.5988969E-3,-2.6723737E-2,-3.9859163E-3,-1.540042E-2,5.7890796E-4,-1.6980024E-2,7.995206E-3,1.5015362E-2,3.2588737E-3,-3.2797813E-2,-8.385708E-3,-1.0476264E-2,1.1595197E-2,3.1444773E-2,-1.806439E-2,2.2877935E-2,-2.339581E-2,8.260998E-3,-3.3610205E-3,-1.0226716E-2,8.207485E-3,-3.4486637E-2,-7.2713895E-3],"categories":[],"categories_nodes":[],"categories_segments":[],"categories_sizes":[],"default_left":[0,0,0,0,0,0,0,0,0,0,0,0,0,0,0,0,0,0,0,0,0,0,0,0,0,0,0,0,0,0,0,0,0,0,0,0,0,0,0,0,0,0,0,0,0,0,0,0,0,0,0,0,0,0,0,0,0,0,0,0,0,0,0,0,0,0,0,0,0,0,0,0,0,0,0,0,0,0,0,0,0,0,0,0,0,0,0],"id":7,"left_children":[1,3,5,7,9,11,13,15,17,-1,-1,19,21,23,25,27,29,31,33,35,37,-1,39,41,43,45,47,49,-1,51,-1,53,55,57,59,61,63,65,67,69,71,73,-1,75,77,79,81,83,85,-1,-1,-1,-1,-1,-1,-1,-1,-1,-1,-1,-1,-1,-1,-1,-1,-1,-1,-1,-1,-1,-1,-1,-1,-1,-1,-1,-1,-1,-1,-1,-1,-1,-1,-1,-1,-1,-1],"loss_changes":[1.6265472E2,4.9510223E1,4.2280647E1,3.313417E1,1.2498856E0,1.9912186E1,2.9316416E1,1.2049419E1,4.364818E1,0E0,0E0,1.3088303E1,4.1067963E0,3.452485E1,2.286036E1,6.218959E0,7.1390047E0,1.2501523E1,2.3031174E1,5.8998923E0,9.819542E0,0E0,3.5792468E0,1.4125251E1,3.109592E1,1.8645391E1,9.877085E0,2.9049792E0,0E0,1.8986442E0,0E0,6.5306454E0,4.2286005E0,1.5839172E1,3.5909748E0,2.9827037E0,2.6211925E0,3.4546432E0,1.1520222E1,3.5769062E0,1.0116887E0,8.576647E0,0E0,2.9652939E1,1.6514164E1,1.2360994E1,2.396546E1,1.4609879E0,3.1042633E0,0E0,0E0,0E0,0E0,0E0,0E0,0E0,0E0,0E0,0E0,0E0,0E0,0E0,0E0,0E0,0E0,0E0,0E0,0E0,0E0,0E0,0E0,0E0,0E0,0E0,0E0,0E0,0E0,0E0,0E0,0E0,0E0,0E0,0E0,0E0,0E0,0E0,0E0],"parents":[2147483647,0,0,1,1,2,2,3,3,4,4,5,5,6,6,7,7,8,8,11,11,12,12,13,13,14,14,15,15,16,16,17,17,18,18,19,19,20,20,22,22,23,23,24,24,25,25,26,26,27,27,29,29,31,31,32,32,33,33,34,34,35,35,36,36,37,37,38,38,39,39,40,40,41,41,43,43,44,44,45,45,46,46,47,47,48,48],"right_children":[2,4,6,8,10,12,14,16,18,-1,-1,20,22,24,26,28,30,32,34,36,38,-1,40,42,44,46,48,50,-1,52,-1,54,56,58,60,62,64,66,68,70,72,74,-1,76,78,80,82,84,86,-1,-1,-1,-1,-1,-1,-1,-1,-1,-1,-1,-1,-1,-1,-1,-1,-1,-1,-1,-1,-1,-1,-1,-1,-1,-1,-1,-1,-1,-1,-1,-1,-1,-1,-1,-1,-1,-1],"split_conditions":[-3.4265676E-1,3.9086074E-2,-6.344641E-2,2.6037905E-1,3.5733897E-2,7.195276E-2,-9.657854E-2,-5.930289E-1,-1.767334E-1,4.6882153E-2,8.985509E-2,2.2976682E-1,1.5316127E-1,-2.8440934E-1,7.685513E-2,-1.5671962E-1,5.255166E-1,1.3265724E-1,2.2669077E-1,1.2836877E-1,-1.3282788E-1,2.4970563E-2,2.82045E-1,1.0574456E-1,5.3675637E-2,-4.4850212E-1,-2.2267963E-1,-2.2748199E-1,2.0852963E-2,1.5977563E-1,4.817603E-2,2.2464661E-1,-1.9963872E-1,1.2463759E-1,1.8326578E-1,-1.8857482E-1,1.599105E-1,-7.03702E-2,9.2972614E-2,1.722417E-2,1.973207E-2,1.2595995E-1,2.1284673E-2,-3.8842715E-2,2.3277484E-1,2.5367332E-1,-3.615812E-1,-1.0354842E-1,-8.601412E-3,-1.316206E-5,-1.8969147E-2,-4.5156176E-3,1.5612004E-2,3.9463513E-2,7.0808753E-3,9.147795E-3,-1.1151584E-2,7.270425E-2,1.2278337E-2,4.606235E-2,1.7268358E-2,1.538831E-2,-5.415031E-4,-2.08508E-2,-1.5988969E-3,-2.6723737E-2,-3.9859163E-3,-1.540042E-2,5.7890796E-4,-1.6980024E-2,7.995206E-3,1.5015362E-2,3.2588737E-3,-3.2797813E-2,-8.385708E-3,-1.0476264E-2,1.1595197E-2,3.1444773E-2,-1.806439E-2,2.2877935E-2,-2.339581E-2,8.260998E-3,-3.3610205E-3,-1.0226716E-2,8.207485E-3,-3.4486637E-2,-7.2713895E-3],"split_indices":[198,327,90,31,319,357,208,216,120,0,0,190,322,366,327,382,351,372,345,42,211,0,242,120,357,17,228,235,0,137,0,192,158,192,261,338,174,139,99,124,42,88,0,345,166,183,142,13,215,0,0,0,0,0,0,0,0,0,0,0,0,0,0,0,0,0,0,0,0,0,0,0,0,0,0,0,0,0,0,0,0,0,0,0,0,0,0],"split_type":[0,0,0,0,0,0,0,0,0,0,0,0,0,0,0,0,0,0,0,0,0,0,0,0,0,0,0,0,0,0,0,0,0,0,0,0,0,0,0,0,0,0,0,0,0,0,0,0,0,0,0,0,0,0,0,0,0,0,0,0,0,0,0,0,0,0,0,0,0,0,0,0,0,0,0,0,0,0,0,0,0,0,0,0,0,0,0],"sum_hessian":[2.0955E3,1.96E2,1.8995E3,1.82E2,1.4E1,4.615E2,1.438E3,6E1,1.22E2,5E0,9E0,4.07E2,5.45E1,4.1E2,1.028E3,3.65E1,2.35E1,6.35E1,5.85E1,6.75E1,3.395E2,8E0,4.65E1,6.1E1,3.49E2,9.795E2,4.85E1,3.15E1,5E0,1.85E1,5E0,2.55E1,3.8E1,3.45E1,2.4E1,4.25E1,2.5E1,7.6E1,2.635E2,1.95E1,2.7E1,5.3E1,8E0,2.74E2,7.5E1,5.4E1,9.255E2,1.35E1,3.5E1,1.1E1,2.05E1,5.5E0,1.3E1,1.65E1,9E0,2.45E1,1.35E1,2.95E1,5E0,5E0,1.9E1,1.7E1,2.55E1,1.3E1,1.2E1,6.9E1,7E0,2.135E2,5E1,1.15E1,8E0,1.4E1,1.3E1,2.35E1,2.95E1,7.45E1,1.995E2,6.9E1,6E0,5E0,4.9E1,2.04E2,7.215E2,6.5E0,7E0,3E1,5E0],"tree_param":{"num_deleted":"0","num_feature":"404","num_nodes":"87","size_leaf_vector":"1"}},{"base_weights":[-2.445863E-3,8.481985E-1,-8.47222E-2,9.8014705E-2,1.1424804E0,7.372899E-2,-1.9839188E-1,-7.8541636E-1,3.3200175E-1,2.5479429E0,7.5381845E-1,-7.925297E-1,1.09494254E-1,-2.6819047E-1,3.4464246E-1,-3.4485057E-2,-9.855123E-3,-1.1575087E-1,8.290839E-1,8.279632E-2,4.2180877E-2,4.1888508E-1,1.62868E0,-6.581682E-3,-2.6716238E-2,-6.3177785E-3,3.6060444E-1,-5.633899E-1,-1.6677083E-1,9.899405E-1,2.3604196E-2,1.1164616E-2,-1.3327623E-2,5.071179E-4,3.3772692E-2,6.5107393E-1,-9.939824E-2,1.8948947E0,8.77124E-3,-1.3655369E-1,2.1452035E-1,6.8716955E-1,8.2890935E-2,-1.2363762E-1,-7.786586E-1,5.575706E-1,-2.0241864E-1,6.4901733E-3,1.2060883E0,3.5949406E-1,-3.245517E-1,2.3001129E-2,-5.0418554E-3,-1.7193241E-2,7.638466E-3,4.079943E-2,7.3593564E-2,-9.030579E-4,-1.809247E-2,1.341751E-2,-1.8445975E-3,2.494781E-2,-7.969157E-3,1.0650425E-2,-4.2668837E-3,-1.3701979E-2,2.6427426E-3,-2.4711994E-2,1.7720034E-2,1.8542126E-4,2.3336379E-2,-2.6358853E-3,-1.2678842E-2,8.998874E-3,4.1292172E-2,2.8648734E-2,6.084547E-3,-2.1532618E-3,-2.0663442E-2],"categories":[],"categories_nodes":[],"categories_segments":[],"categories_sizes":[],"default_left":[0,0,0,0,0,0,0,0,0,0,0,0,0,0,0,0,0,0,0,0,0,0,0,0,0,0,0,0,0,0,0,0,0,0,0,0,0,0,0,0,0,0,0,0,0,0,0,0,0,0,0,0,0,0,0,0,0,0,0,0,0,0,0,0,0,0,0,0,0,0,0,0,0,0,0,0,0,0,0],"id":8,"left_children":[1,3,5,7,9,11,13,15,17,19,21,23,25,27,29,-1,-1,31,33,-1,-1,35,37,-1,-1,39,41,43,45,47,49,-1,-1,-1,-1,51,53,55,-1,57,59,61,63,65,67,69,71,-1,73,75,77,-1,-1,-1,-1,-1,-1,-1,-1,-1,-1,-1,-1,-1,-1,-1,-1,-1,-1,-1,-1,-1,-1,-1,-1,-1,-1,-1,-1],"loss_changes":[1.4760635E2,4.0950394E1,3.4649963E1,1.131982E1,7.100366E1,2.4996283E1,4.2543823E1,1.5354686E0,9.6664715E0,3.016861E0,3.037793E1,1.6022034E0,2.2482342E1,2.9635498E1,2.6493801E1,0E0,0E0,3.9318707E0,4.920475E0,0E0,0E0,9.451204E0,9.762566E0,0E0,0E0,1.5272654E1,2.2071775E1,2.3901283E1,1.923345E1,6.8455963E0,1.023216E1,0E0,0E0,0E0,0E0,5.2435703E0,4.3384175E0,3.8302383E0,0E0,1.6569218E1,1.2681813E1,1.563306E1,8.198138E0,5.9996724E0,1.0979248E1,4.246852E0,1.7785221E1,0E0,4.679989E0,3.9579358E0,3.9095144E0,0E0,0E0,0E0,0E0,0E0,0E0,0E0,0E0,0E0,0E0,0E0,0E0,0E0,0E0,0E0,0E0,0E0,0E0,0E0,0E0,0E0,0E0,0E0,0E0,0E0,0E0,0E0,0E0],"parents":[2147483647,0,0,1,1,2,2,3,3,4,4,5,5,6,6,7,7,8,8,9,9,10,10,11,11,12,12,13,13,14,14,17,17,18,18,21,21,22,22,25,25,26,26,27,27,28,28,29,29,30,30,35,35,36,36,37,37,39,39,40,40,41,41,42,42,43,43,44,44,45,45,46,46,48,48,49,49,50,50],"right_children":[2,4,6,8,10,12,14,16,18,20,22,24,26,28,30,-1,-1,32,34,-1,-1,36,38,-1,-1,40,42,44,46,48,50,-1,-1,-1,-1,52,54,56,-1,58,60,62,64,66,68,70,72,-1,74,76,78,-1,-1,-1,-1,-1,-1,-1,-1,-1,-1,-1,-1,-1,-1,-1,-1,-1,-1,-1,-1,-1,-1,-1,-1,-1,-1,-1,-1],"split_conditions":[-3.4971386E-1,5.5276966E-1,-2.644175E-1,-7.637714E-1,3.1284075E-2,-3.9163807E-1,7.195276E-2,9.979381E-2,8.659412E-2,-4.4692653E-1,-7.651595E-1,-2.4774101E-1,-1.4835086E-1,-2.0392185E-1,-1.8427588E-1,-3.4485057E-2,-9.855123E-3,-2.998572E-1,-4.9456638E-1,8.279632E-2,4.2180877E-2,3.2581753E-1,2.1501423E-1,-6.581682E-3,-2.6716238E-2,3.459909E-1,-2.483353E-2,1.550681E-1,-4.051952E-1,9.3785375E-2,8.179224E-2,1.1164616E-2,-1.3327623E-2,5.071179E-4,3.3772692E-2,8.0383605E-1,3.5711337E-2,-9.7760075E-1,8.77124E-3,1.5997186E-1,-9.72061E-2,2.631059E-1,-2.0261666E-1,-3.404162E-1,3.3770075E-1,-9.257839E-2,-8.4985E-2,6.4901733E-3,-3.0476412E-1,2.7166553E-2,1.1468221E-1,2.3001129E-2,-5.0418554E-3,-1.7193241E-2,7.638466E-3,4.079943E-2,7.3593564E-2,-9.030579E-4,-1.809247E-2,1.341751E-2,-1.8445975E-3,2.494781E-2,-7.969157E-3,1.0650425E-2,-4.2668837E-3,-1.3701979E-2,2.6427426E-3,-2.4711994E-2,1.7720034E-2,1.8542126E-4,2.3336379E-2,-2.6358853E-3,-1.2678842E-2,8.998874E-3,4.1292172E-2,2.8648734E-2,6.084547E-3,-2.1532618E-3,-2.0663442E-2],"split_indices":[198,218,331,39,72,3,357,3,381,347,294,41,382,182,72,0,0,20,111,0,0,196,192,0,0,295,362,144,355,201,138,0,0,0,0,272,377,176,0,173,357,324,141,300,84,319,81,0,132,295,166,0,0,0,0,0,0,0,0,0,0,0,0,0,0,0,0,0,0,0,0,0,0,0,0,0,0,0,0],"split_type":[0,0,0,0,0,0,0,0,0,0,0,0,0,0,0,0,0,0,0,0,0,0,0,0,0,0,0,0,0,0,0,0,0,0,0,0,0,0,0,0,0,0,0,0,0,0,0,0,0,0,0,0,0,0,0,0,0,0,0,0,0,0,0,0,0,0,0,0,0,0,0,0,0,0,0,0,0,0,0],"sum_hessian":[2.107E3,1.85E2,1.922E3,5.25E1,1.325E2,8.03E2,1.119E3,1.05E1,4.2E1,2.75E1,1.05E2,3.1E1,7.72E2,9.92E2,1.27E2,5E0,5.5E0,2.25E1,1.95E1,2.2E1,5.5E0,7.7E1,2.8E1,5E0,2.6E1,5.29E2,2.43E2,2.525E2,7.395E2,4.15E1,8.55E1,9E0,1.35E1,5.5E0,1.4E1,5.3E1,2.4E1,2.3E1,5E0,3.33E2,1.96E2,1.11E2,1.32E2,8.35E1,1.69E2,3.4E1,7.055E2,9.5E0,3.2E1,4.35E1,4.2E1,4.65E1,6.5E0,1E1,1.4E1,1.35E1,9.5E0,2.72E2,6.1E1,1.06E2,9E1,9.65E1,1.45E1,5.95E1,7.25E1,3.2E1,5.15E1,1.64E2,5E0,1E1,2.4E1,4.65E2,2.405E2,5.5E0,2.65E1,8E0,3.55E1,2.55E1,1.65E1],"tree_param":{"num_deleted":"0","num_feature":"404","num_nodes":"79","size_leaf_vector":"1"}},{"base_weights":[8.832366E-3,-8.117057E-2,5.884388E-1,-3.0182976E-1,-1.2890829E-2,8.122849E-1,-2.8585196E-1,-4.003046E-1,1.1524775E-1,2.2212413E-1,-1.12070374E-1,1.63252E0,5.085432E-1,-4.1554606E-1,2.0910275E-1,-7.320751E-1,-3.146705E-1,2.5891232E-1,-3.188511E-2,-4.7489727E-1,3.334902E-1,1.1221658E-1,-1.910068E-1,2.0461892E-1,2.0722086E0,-1.4683891E-2,6.3279635E-1,-5.106844E-1,-3.797048E-5,2.2416035E-2,-7.477692E-3,-2.2057167E-1,-2.6851667E-2,-3.6065742E-1,2.243016E-1,-2.299178E-1,4.5416826E-1,-2.809415E-3,-9.143305E-1,4.95931E-2,6.3821536E-1,-1.9464071E-1,3.1536284E-1,-6.6365343E-1,-1.4936158E-1,-5.662526E-3,2.4783961E-2,6.6237706E-3,2.3244112E0,1.9306725E-1,9.562936E-1,-5.8663096E-3,-1.8373214E-2,-4.5750066E-4,-1.623124E-2,-1.208301E-2,6.7265946E-3,1.98788E-2,-5.885643E-3,-1.5346442E-2,3.41527E-3,-8.574749E-3,1.667394E-2,1.1571021E-2,-2.222093E-2,-3.3578027E-2,-8.651752E-3,-1.4791568E-3,3.4519546E-2,5.9106164E-3,2.9254947E-2,5.126097E-3,-1.2933869E-2,1.3732744E-2,-1.481715E-2,-2.6262702E-2,-3.700796E-4,-5.3847427E-3,9.660136E-3,7.62798E-2,2.4756001E-2,1.5856864E-2,-3.394174E-3,3.5056822E-2,5.393557E-3],"categories":[],"categories_nodes":[],"categories_segments":[],"categories_sizes":[],"default_left":[0,0,0,0,0,0,0,0,0,0,0,0,0,0,0,0,0,0,0,0,0,0,0,0,0,0,0,0,0,0,0,0,0,0,0,0,0,0,0,0,0,0,0,0,0,0,0,0,0,0,0,0,0,0,0,0,0,0,0,0,0,0,0,0,0,0,0,0,0,0,0,0,0,0,0,0,0,0,0,0,0,0,0,0,0],"id":9,"left_children":[1,3,5,7,9,11,13,15,17,19,21,23,25,27,29,31,33,35,-1,37,39,41,43,45,47,-1,49,51,-1,-1,-1,53,-1,55,57,59,61,63,65,67,69,71,73,75,77,-1,-1,-1,79,81,83,-1,-1,-1,-1,-1,-1,-1,-1,-1,-1,-1,-1,-1,-1,-1,-1,-1,-1,-1,-1,-1,-1,-1,-1,-1,-1,-1,-1,-1,-1,-1,-1,-1,-1],"loss_changes":[1.0711905E2,2.6776901E1,5.4247208E1,1.7296223E1,3.1689728E1,5.39805E1,3.7458763E0,9.429329E0,1.3984355E1,3.1479874E1,1.6946854E1,3.6618088E1,2.0398605E1,1.7926884E0,3.269274E0,5.554764E0,6.8225956E0,7.072051E0,0E0,1.1614692E1,3.0117294E1,1.5614443E1,1.3826933E1,3.8232007E0,2.0498718E1,0E0,2.0370663E1,1.0667381E0,0E0,0E0,0E0,1.1761377E0,0E0,6.272171E0,4.184845E0,2.139721E0,4.1071424E0,8.312645E0,3.3972778E0,1.9820784E1,2.4782822E1,8.717564E0,1.75691E1,7.851181E0,9.310527E0,0E0,0E0,0E0,1.0826233E1,6.4804688E0,1.3470573E1,0E0,0E0,0E0,0E0,0E0,0E0,0E0,0E0,0E0,0E0,0E0,0E0,0E0,0E0,0E0,0E0,0E0,0E0,0E0,0E0,0E0,0E0,0E0,0E0,0E0,0E0,0E0,0E0,0E0,0E0,0E0,0E0,0E0,0E0],"parents":[2147483647,0,0,1,1,2,2,3,3,4,4,5,5,6,6,7,7,8,8,9,9,10,10,11,11,12,12,13,13,14,14,15,15,16,16,17,17,19,19,20,20,21,21,22,22,23,23,24,24,26,26,27,27,31,31,33,33,34,34,35,35,36,36,37,37,38,38,39,39,40,40,41,41,42,42,43,43,44,44,48,48,49,49,50,50],"right_children":[2,4,6,8,10,12,14,16,18,20,22,24,26,28,30,32,34,36,-1,38,40,42,44,46,48,-1,50,52,-1,-1,-1,54,-1,56,58,60,62,64,66,68,70,72,74,76,78,-1,-1,-1,80,82,84,-1,-1,-1,-1,-1,-1,-1,-1,-1,-1,-1,-1,-1,-1,-1,-1,-1,-1,-1,-1,-1,-1,-1,-1,-1,-1,-1,-1,-1,-1,-1,-1,-1,-1],"split_conditions":[5.3240484E-1,-6.903479E-2,7.735682E-2,-6.6005856E-2,-9.657854E-2,3.947096E-1,2.2762445E-1,1.3539292E-1,-7.1720675E-2,-2.8440934E-1,-2.780288E-1,1.763536E-2,4.0958777E-2,-1.42922625E-2,2.9732388E-1,-3.262743E-1,-4.014738E-2,-9.516918E-1,-3.188511E-2,-2.5313947E-1,1.5239091E-1,-2.1683851E-1,-3.0427265E-1,1.8233505E-1,1.1535923E-1,-1.4683891E-2,-1.0389804E-1,-2.2332364E-1,-3.797048E-5,2.2416035E-2,-7.477692E-3,-2.3178947E-1,-2.6851667E-2,5.9043147E-2,2.1046716E-1,-2.5632584E-1,-9.327929E-2,5.7773006E-1,-1.7693532E-1,1.1741765E-1,-1.9555788E-1,2.5367332E-1,1.1114465E-1,-1.0651316E-1,9.4178855E-2,-5.662526E-3,2.4783961E-2,6.6237706E-3,7.3511213E-1,1.4491388E-1,5.4266083E-1,-5.8663096E-3,-1.8373214E-2,-4.5750066E-4,-1.623124E-2,-1.208301E-2,6.7265946E-3,1.98788E-2,-5.885643E-3,-1.5346442E-2,3.41527E-3,-8.574749E-3,1.667394E-2,1.1571021E-2,-2.222093E-2,-3.3578027E-2,-8.651752E-3,-1.4791568E-3,3.4519546E-2,5.9106164E-3,2.9254947E-2,5.126097E-3,-1.2933869E-2,1.3732744E-2,-1.481715E-2,-2.6262702E-2,-3.700796E-4,-5.3847427E-3,9.660136E-3,7.62798E-2,2.4756001E-2,1.5856864E-2,-3.394174E-3,3.5056822E-2,5.393557E-3],"split_indices":[218,90,303,332,208,168,152,272,2,366,186,191,170,8,15,195,63,390,0,20,377,35,209,83,342,0,226,215,0,0,0,121,0,258,250,31,303,137,208,131,276,183,220,143,301,0,0,0,49,244,138,0,0,0,0,0,0,0,0,0,0,0,0,0,0,0,0,0,0,0,0,0,0,0,0,0,0,0,0,0,0,0,0,0,0],"split_type":[0,0,0,0,0,0,0,0,0,0,0,0,0,0,0,0,0,0,0,0,0,0,0,0,0,0,0,0,0,0,0,0,0,0,0,0,0,0,0,0,0,0,0,0,0,0,0,0,0,0,0,0,0,0,0,0,0,0,0,0,0,0,0,0,0,0,0,0,0,0,0,0,0,0,0,0,0,0,0,0,0,0,0,0,0],"sum_hessian":[2.0515E3,1.7765E3,2.75E2,4.19E2,1.3575E3,2.19E2,5.6E1,3.39E2,8E1,4.025E2,9.55E2,5.8E1,1.61E2,4.45E1,1.15E1,6.8E1,2.71E2,7.2E1,8E0,5.5E1,3.475E2,2.485E2,7.065E2,1.4E1,4.4E1,1.75E1,1.435E2,3.6E1,8.5E0,5E0,6.5E0,1.7E1,5.1E1,2.5E2,2.1E1,2.05E1,5.15E1,2.7E1,2.8E1,1.805E2,1.67E2,9.9E1,1.495E2,5.6E1,6.505E2,9E0,5E0,5.5E0,3.85E1,6.15E1,8.2E1,9.5E0,2.65E1,1.1E1,6E0,2.335E2,1.65E1,1E1,1.1E1,1.1E1,9.5E0,6E0,4.55E1,1.8E1,9E0,2.05E1,7.5E0,1.665E2,1.4E1,7.3E1,9.4E1,3.9E1,6E1,1.275E2,2.2E1,4.2E1,1.4E1,6.12E2,3.85E1,3.3E1,5.5E0,2.9E1,3.25E1,6.4E1,1.8E1],"tree_param":{"num_deleted":"0","num_feature":"404","num_nodes":"85","size_leaf_vector":"1"}},{"base_weights":[-9.343843E-3,7.581801E-1,-9.4166175E-2,6.287378E-2,1.0234109E0,6.627783E-2,-2.0556906E-1,-6.2040675E-1,2.2526653E-1,2.1114402E0,7.7386075E-1,2.3018013E-1,-1.2047755E-1,8.4715873E-1,-2.3556814E-1,-2.4927994E-3,-3.0628234E-2,4.4397183E-2,3.1816613E-2,7.2075464E-2,2.4042768E-2,1.178914E0,3.6295342E-1,2.9119393E-1,-6.856666E-1,-7.8675E-1,-4.5509998E-2,3.593621E-2,1.4503915E-3,-5.094743E-1,-1.5426227E-1,4.9349478E-1,-2.6903367E-1,1.7139977E0,5.3131324E-1,3.7929133E-2,2.4589361E-1,5.0958496E-1,1.2183285E-1,8.745847E-3,-2.9802043E-2,-1.7488426E-2,-3.4628034E-2,4.7171777E-1,-9.7601995E-2,-1.2660156E-1,-7.205825E-1,-3.1481197E-1,-3.2810267E-2,2.5087694E-2,7.7054184E-3,-1.37146E-2,2.283563E-3,6.777415E-2,3.046261E-2,3.1606685E-3,2.51496E-2,1.3050939E-2,-1.498876E-2,9.830167E-3,2.5515316E-2,-1.8824635E-3,1.3492014E-2,2.8054003E-2,-1.0652787E-2,-1.1909503E-2,-2.8521632E-4,-1.53807085E-2,3.994062E-3,-2.3351781E-2,3.8397296E-3,-1.0888143E-2,2.0284133E-2,1.1310875E-2,-5.0628087E-3],"categories":[],"categories_nodes":[],"categories_segments":[],"categories_sizes":[],"default_left":[0,0,0,0,0,0,0,0,0,0,0,0,0,0,0,0,0,0,0,0,0,0,0,0,0,0,0,0,0,0,0,0,0,0,0,0,0,0,0,0,0,0,0,0,0,0,0,0,0,0,0,0,0,0,0,0,0,0,0,0,0,0,0,0,0,0,0,0,0,0,0,0,0,0,0],"id":10,"left_children":[1,3,5,7,9,11,13,15,17,19,21,23,25,27,29,-1,-1,31,-1,-1,-1,33,35,37,39,41,43,-1,-1,45,47,49,51,53,55,-1,57,59,61,-1,-1,-1,-1,63,65,67,69,71,73,-1,-1,-1,-1,-1,-1,-1,-1,-1,-1,-1,-1,-1,-1,-1,-1,-1,-1,-1,-1,-1,-1,-1,-1,-1,-1],"loss_changes":[1.360719E2,3.8294334E1,3.365235E1,6.6309056E0,3.9229477E1,2.365837E1,3.528589E1,2.390111E0,7.204653E0,8.560669E0,2.0210579E1,2.3193993E1,1.8020693E1,8.626905E0,2.3995472E1,0E0,0E0,5.8335886E0,0E0,0E0,0E0,2.0573616E1,6.3363714E0,1.4233368E1,8.108246E0,2.0610085E0,8.829597E0,0E0,0E0,1.9873184E1,1.6271408E1,1.1641426E0,1.625582E0,1.0463593E1,3.7694483E0,0E0,8.25468E0,1.0171463E1,1.3283085E1,0E0,0E0,0E0,0E0,1.1826771E1,7.8292866E0,8.993314E0,7.8995667E0,1.7390167E1,2.6613106E1,0E0,0E0,0E0,0E0,0E0,0E0,0E0,0E0,0E0,0E0,0E0,0E0,0E0,0E0,0E0,0E0,0E0,0E0,0E0,0E0,0E0,0E0,0E0,0E0,0E0,0E0],"parents":[2147483647,0,0,1,1,2,2,3,3,4,4,5,5,6,6,7,7,8,8,9,9,10,10,11,11,12,12,13,13,14,14,17,17,21,21,22,22,23,23,24,24,25,25,26,26,29,29,30,30,31,31,32,32,33,33,34,34,36,36,37,37,38,38,43,43,44,44,45,45,46,46,47,47,48,48],"right_children":[2,4,6,8,10,12,14,16,18,20,22,24,26,28,30,-1,-1,32,-1,-1,-1,34,36,38,40,42,44,-1,-1,46,48,50,52,54,56,-1,58,60,62,-1,-1,-1,-1,64,66,68,70,72,74,-1,-1,-1,-1,-1,-1,-1,-1,-1,-1,-1,-1,-1,-1,-1,-1,-1,-1,-1,-1,-1,-1,-1,-1,-1,-1],"split_conditions":[-3.372543E-1,3.1620002E-1,-2.656686E-1,-7.245434E-1,-4.81233E-5,1.5044421E-2,-1.9256142E-1,2.6198396E-1,8.492719E-2,-1.301223E-1,5.392021E-2,4.1881338E-1,-4.833217E-1,-3.6944464E-2,-2.2058477E-1,-2.4927994E-3,-3.0628234E-2,8.657245E-3,3.1816613E-2,7.2075464E-2,2.4042768E-2,2.93551E-2,-1.0177478E-1,-2.5158322E-1,1.6666307E-1,3.7450805E-1,-3.061825E-1,3.593621E-2,1.4503915E-3,6.318632E-2,5.2940413E-2,-6.553591E-2,5.4198563E-1,8.527271E-1,-7.062599E-2,3.7929133E-2,2.2755948E-1,-1.2483529E-1,8.058555E-2,8.745847E-3,-2.9802043E-2,-1.7488426E-2,-3.4628034E-2,1.3253921E0,-2.349637E-1,2.2626328E-1,9.974415E-2,8.829725E-2,-1.5355508E-1,2.5087694E-2,7.7054184E-3,-1.37146E-2,2.283563E-3,6.777415E-2,3.046261E-2,3.1606685E-3,2.51496E-2,1.3050939E-2,-1.498876E-2,9.830167E-3,2.5515316E-2,-1.8824635E-3,1.3492014E-2,2.8054003E-2,-1.0652787E-2,-1.1909503E-2,-2.8521632E-4,-1.53807085E-2,3.994062E-3,-2.3351781E-2,3.8397296E-3,-1.0888143E-2,2.0284133E-2,1.1310875E-2,-5.0628087E-3],"split_indices":[198,367,331,39,285,208,27,27,189,33,178,207,233,189,159,0,0,73,0,0,0,10,84,333,134,79,6,0,0,109,197,109,204,56,381,0,224,132,303,0,0,0,0,390,118,134,359,232,22,0,0,0,0,0,0,0,0,0,0,0,0,0,0,0,0,0,0,0,0,0,0,0,0,0,0],"split_type":[0,0,0,0,0,0,0,0,0,0,0,0,0,0,0,0,0,0,0,0,0,0,0,0,0,0,0,0,0,0,0,0,0,0,0,0,0,0,0,0,0,0,0,0,0,0,0,0,0,0,0,0,0,0,0,0,0,0,0,0,0,0,0,0,0,0,0,0,0,0,0,0,0,0,0],"sum_hessian":[2.088E3,2.07E2,1.881E3,5.75E1,1.495E2,7.71E2,1.11E3,1.05E1,4.7E1,2.65E1,1.23E2,4.105E2,3.605E2,3E1,1.08E3,5E0,5.5E0,3.95E1,7.5E0,2.1E1,5.5E0,6.1E1,6.2E1,3.855E2,2.5E1,3.55E1,3.25E2,2.05E1,9.5E0,2.46E2,8.34E2,1.6E1,2.35E1,3.25E1,2.85E1,6E0,5.6E1,1.675E2,2.18E2,6E0,1.9E1,2.45E1,1.1E1,2.9E1,2.96E2,8.8E1,1.58E2,3.585E2,4.755E2,5.5E0,1.05E1,1.5E1,8.5E0,1.7E1,1.55E1,1.25E1,1.6E1,4.5E1,1.1E1,1.105E2,5.7E1,1.4E2,7.8E1,1.85E1,1.05E1,6.65E1,2.295E2,3.5E1,5.3E1,1.48E2,1E1,3.425E2,1.6E1,1.18E2,3.575E2],"tree_param":{"num_deleted":"0","num_feature":"404","num_nodes":"75","size_leaf_vector":"1"}},{"base_weights":[5.0349804E-3,7.735986E-1,-7.498468E-2,2.2415333E0,6.2055534E-1,4.536579E-2,-2.4422546E-1,8.06481E-2,3.0096266E-2,3.5960067E-2,8.995445E-1,3.1410682E-1,-7.067312E-2,-4.1196314E-1,-7.482263E-2,3.0167427E-2,-1.5486677E-1,1.2059698E0,1.9169733E-1,1.7411213E-1,9.621802E-1,-4.396852E-2,-8.812683E-1,-8.543973E-1,-3.376712E-1,1.278823E-2,-5.460232E-1,2.540035E-1,-5.1350147E-1,9.1107E-2,1.5761782E0,6.360817E-1,-5.979593E-2,6.162351E-1,-8.944121E-3,5.01268E-1,1.3771862E0,1.970174E-1,-1.14088096E-1,-9.785412E-3,-3.011194E-2,-7.985047E-3,-2.7551452E-2,1.8258189E-1,-3.923618E-1,-7.4980944E-1,7.103522E-2,-6.6146874E-1,1.6510475E-2,1.762868E-2,-4.2745527E-3,2.2786806E-4,-2.0754227E-2,1.2709181E-2,-9.878297E-3,6.404164E-2,3.391473E-2,3.0114872E-2,7.0437733E-3,-1.2874083E-2,1.1744193E-2,-4.368116E-3,2.3879884E-2,6.2101944E-3,-1.2296025E-2,2.1946618E-2,-1.6254038E-2,4.668719E-2,1.6229048E-2,1.306859E-2,-1.6563375E-3,1.0877664E-2,-4.4675427E-3,1.6962696E-2,-8.91447E-4,-8.800752E-3,-2.0012408E-2,-2.82207E-2,-7.513859E-3,1.5837903E-4,1.8923907E-2,-2.5305543E-2,-9.276495E-3],"categories":[],"categories_nodes":[],"categories_segments":[],"categories_sizes":[],"default_left":[0,0,0,0,0,0,0,0,0,0,0,0,0,0,0,0,0,0,0,0,0,0,0,0,0,0,0,0,0,0,0,0,0,0,0,0,0,0,0,0,0,0,0,0,0,0,0,0,0,0,0,0,0,0,0,0,0,0,0,0,0,0,0,0,0,0,0,0,0,0,0,0,0,0,0,0,0,0,0,0,0,0,0],"id":11,"left_children":[1,3,5,7,9,11,13,-1,-1,15,17,19,21,23,25,-1,27,29,31,33,35,37,39,41,43,45,47,49,51,53,55,57,59,61,63,65,67,69,71,-1,-1,-1,-1,73,75,77,79,81,-1,-1,-1,-1,-1,-1,-1,-1,-1,-1,-1,-1,-1,-1,-1,-1,-1,-1,-1,-1,-1,-1,-1,-1,-1,-1,-1,-1,-1,-1,-1,-1,-1,-1,-1],"loss_changes":[1.3043843E2,4.3540504E1,3.913841E1,7.5373993E0,2.9732628E1,3.505789E1,2.2658741E1,0E0,0E0,1.1257511E1,2.6556244E1,3.0588863E1,1.6964672E1,1.2892075E1,1.6457973E1,0E0,7.60882E0,3.5351326E1,4.340782E0,2.2666855E1,1.0786541E1,1.2890175E1,1.3720474E0,1.900898E0,9.887901E0,1.5022473E1,8.274748E0,3.3244948E0,2.560411E0,3.2847955E0,1.3643051E1,1.8303313E0,4.4181256E0,1.1345715E1,1.7314196E1,7.6024814E0,3.7996826E0,1.0375414E1,9.857864E0,0E0,0E0,0E0,0E0,2.7395468E0,8.303703E0,2.0519705E0,1.155427E1,3.3944263E0,0E0,0E0,0E0,0E0,0E0,0E0,0E0,0E0,0E0,0E0,0E0,0E0,0E0,0E0,0E0,0E0,0E0,0E0,0E0,0E0,0E0,0E0,0E0,0E0,0E0,0E0,0E0,0E0,0E0,0E0,0E0,0E0,0E0,0E0,0E0],"parents":[2147483647,0,0,1,1,2,2,3,3,4,4,5,5,6,6,9,9,10,10,11,11,12,12,13,13,14,14,16,16,17,17,18,18,19,19,20,20,21,21,22,22,23,23,24,24,25,25,26,26,27,27,28,28,29,29,30,30,31,31,32,32,33,33,34,34,35,35,36,36,37,37,38,38,43,43,44,44,45,45,46,46,47,47],"right_children":[2,4,6,8,10,12,14,-1,-1,16,18,20,22,24,26,-1,28,30,32,34,36,38,40,42,44,46,48,50,52,54,56,58,60,62,64,66,68,70,72,-1,-1,-1,-1,74,76,78,80,82,-1,-1,-1,-1,-1,-1,-1,-1,-1,-1,-1,-1,-1,-1,-1,-1,-1,-1,-1,-1,-1,-1,-1,-1,-1,-1,-1,-1,-1,-1,-1,-1,-1,-1,-1],"split_conditions":[-3.4265676E-1,1.2562428E-1,-1.7175359E-1,-5.218999E-1,2.6037905E-1,-1.02307856E-1,1.0509118E-1,8.06481E-2,3.0096266E-2,-4.666715E-1,5.001443E-1,-5.6275874E-3,3.9679992E-1,-1.3363324E-1,2.515753E-1,3.0167427E-2,2.3489228E-1,2.8917594E-2,9.77035E-2,-7.356992E-2,9.8639786E-2,-3.07969E-2,1.7720437E-1,3.7637544E-1,1.04348466E-1,-3.4442447E-2,1.2780842E-1,1.3553311E-1,2.6472676E-1,-2.2246198E-1,4.0742576E-1,1.2242619E-1,-9.940219E-2,8.5322216E-2,-7.8733E-2,6.4428575E-2,1.5690437E-1,-1.5897089E-1,-2.9680437E-1,-9.785412E-3,-3.011194E-2,-7.985047E-3,-2.7551452E-2,6.906503E-2,3.7401177E-2,2.3204628E-1,3.5530865E-1,1.963866E-1,1.6510475E-2,1.762868E-2,-4.2745527E-3,2.2786806E-4,-2.0754227E-2,1.2709181E-2,-9.878297E-3,6.404164E-2,3.391473E-2,3.0114872E-2,7.0437733E-3,-1.2874083E-2,1.1744193E-2,-4.368116E-3,2.3879884E-2,6.2101944E-3,-1.2296025E-2,2.1946618E-2,-1.6254038E-2,4.668719E-2,1.6229048E-2,1.306859E-2,-1.6563375E-3,1.0877664E-2,-4.4675427E-3,1.6962696E-2,-8.91447E-4,-8.800752E-3,-2.0012408E-2,-2.82207E-2,-7.513859E-3,1.5837903E-4,1.8923907E-2,-2.5305543E-2,-9.276495E-3],"split_indices":[198,289,293,283,31,208,197,0,0,63,48,255,349,194,157,0,100,191,229,352,56,273,169,0,246,23,88,13,18,241,168,363,69,377,2,218,49,139,6,0,0,0,0,342,129,370,125,111,0,0,0,0,0,0,0,0,0,0,0,0,0,0,0,0,0,0,0,0,0,0,0,0,0,0,0,0,0,0,0,0,0,0,0],"split_type":[0,0,0,0,0,0,0,0,0,0,0,0,0,0,0,0,0,0,0,0,0,0,0,0,0,0,0,0,0,0,0,0,0,0,0,0,0,0,0,0,0,0,0,0,0,0,0,0,0,0,0,0,0,0,0,0,0,0,0,0,0,0,0,0,0,0,0,0,0,0,0,0,0,0,0,0,0,0,0,0,0,0,0],"sum_hessian":[2.119E3,1.99E2,1.92E3,1.75E1,1.815E2,1.1225E3,7.975E2,1.2E1,5.5E0,5.9E1,1.225E2,3.38E2,7.845E2,4E2,3.975E2,9E0,5E1,8.5E1,3.75E1,2.79E2,5.9E1,7.605E2,2.4E1,5.6E1,3.44E2,3.36E2,6.15E1,2.35E1,2.65E1,2.15E1,6.35E1,1.3E1,2.45E1,8.1E1,1.98E2,2.9E1,3E1,1.71E2,5.895E2,5E0,1.9E1,6E0,5E1,3.25E1,3.115E2,2.3E1,3.13E2,5.6E1,5.5E0,1.25E1,1.1E1,7E0,1.95E1,1.2E1,9.5E0,2.65E1,3.7E1,6E0,7E0,1.35E1,1.1E1,1.55E1,6.55E1,1.29E2,6.9E1,2.4E1,5E0,2.4E1,6E0,8.75E1,8.35E1,3.95E1,5.5E2,1.1E1,2.15E1,2.305E2,8.1E1,1.6E1,7E0,2.81E2,3.2E1,3.6E1,2E1],"tree_param":{"num_deleted":"0","num_feature":"404","num_nodes":"83","size_leaf_vector":"1"}},{"base_weights":[1.1529977E-2,7.7185553E-1,-7.5855955E-2,1.4670817E0,5.1038814E-1,6.9295615E-2,-1.7720996E-1,3.987502E-1,2.198711E0,-8.202686E-3,8.2214934E-1,3.2750627E-1,-6.1702773E-2,-2.461539E-1,3.066772E-1,7.781585E-2,2.6171101E-2,7.4567355E-2,1.7417273E-2,6.783873E-1,-2.0113522E-1,5.5667394E-1,1.6285653E0,2.4837725E-2,5.647029E-1,-7.346008E-1,-2.4346322E-2,-5.0004363E-1,-1.7909876E-1,8.8405925E-1,-1.9309169E-2,-1.5838087E-2,1.2034557E-2,-2.1537358E-3,4.1557122E-2,-1.868399E-2,6.1223056E-2,6.6848534E-1,-1.2296567E-2,1.8659345E0,1.8164061E-2,-2.756556E-2,1.7482974E-1,7.746942E-1,1.0589799E-1,-2.6223771E-2,-4.802392E-3,-4.784004E-3,-3.592462E-2,1.07840024E-1,-6.347602E-1,-3.5111833E-1,-4.106417E-2,1.015585E0,-4.571858E-3,-3.8974112E-1,2.5532427E-1,1.0166368E-2,-3.7400268E-3,-8.223088E-3,2.3151781E-2,3.8748886E-2,6.912835E-2,-1.7307289E-2,9.095041E-3,2.8715307E-2,8.847603E-3,1.1130337E-2,-1.2928413E-2,-9.378735E-4,3.0980615E-2,2.1022957E-2,-8.203387E-4,1.0132993E-2,-2.0884493E-2,1.5599377E-3,-1.2682859E-2,1.8350389E-2,-2.8092319E-3,4.2792387E-2,1.9606203E-2,6.419719E-3,-1.8713491E-2,1.3231699E-2,-2.3054387E-3],"categories":[],"categories_nodes":[],"categories_segments":[],"categories_sizes":[],"default_left":[0,0,0,0,0,0,0,0,0,0,0,0,0,0,0,0,0,0,0,0,0,0,0,0,0,0,0,0,0,0,0,0,0,0,0,0,0,0,0,0,0,0,0,0,0,0,0,0,0,0,0,0,0,0,0,0,0,0,0,0,0,0,0,0,0,0,0,0,0,0,0,0,0,0,0,0,0,0,0,0,0,0,0,0,0],"id":12,"left_children":[1,3,5,7,9,11,13,15,17,19,21,23,25,27,29,31,-1,-1,-1,33,35,37,39,41,43,45,47,49,51,53,55,-1,-1,-1,-1,-1,57,59,-1,61,-1,-1,63,65,67,-1,-1,69,-1,71,73,75,77,79,-1,81,83,-1,-1,-1,-1,-1,-1,-1,-1,-1,-1,-1,-1,-1,-1,-1,-1,-1,-1,-1,-1,-1,-1,-1,-1,-1,-1,-1,-1],"loss_changes":[1.3922083E2,3.8515472E1,2.7662909E1,4.4848175E1,2.5632477E1,2.6183983E1,3.7006214E1,3.7321377E0,1.4571518E1,8.150614E0,2.028769E1,1.8687782E1,1.29025755E1,1.6415802E1,2.6085358E1,3.3455663E0,0E0,0E0,0E0,7.258009E0,5.3482337E0,8.487501E0,4.698677E0,1.6509197E1,1.3984341E1,2.0243893E0,1.1193558E1,1.6610641E1,1.8233347E1,6.970791E0,9.204615E0,0E0,0E0,0E0,0E0,0E0,1.6164627E0,6.87751E0,0E0,1.8068466E0,0E0,0E0,9.870832E0,8.472755E0,6.849149E0,0E0,0E0,1.3245656E1,0E0,3.0249515E0,1.0115974E1,9.899189E0,1.4728754E1,5.686634E0,0E0,5.5734777E0,3.242042E0,0E0,0E0,0E0,0E0,0E0,0E0,0E0,0E0,0E0,0E0,0E0,0E0,0E0,0E0,0E0,0E0,0E0,0E0,0E0,0E0,0E0,0E0,0E0,0E0,0E0,0E0,0E0,0E0],"parents":[2147483647,0,0,1,1,2,2,3,3,4,4,5,5,6,6,7,7,8,8,9,9,10,10,11,11,12,12,13,13,14,14,15,15,19,19,20,20,21,21,22,22,23,23,24,24,25,25,26,26,27,27,28,28,29,29,30,30,36,36,37,37,39,39,42,42,43,43,44,44,47,47,49,49,50,50,51,51,52,52,53,53,55,55,56,56],"right_children":[2,4,6,8,10,12,14,16,18,20,22,24,26,28,30,32,-1,-1,-1,34,36,38,40,42,44,46,48,50,52,54,56,-1,-1,-1,-1,-1,58,60,-1,62,-1,-1,64,66,68,-1,-1,70,-1,72,74,76,78,80,-1,82,84,-1,-1,-1,-1,-1,-1,-1,-1,-1,-1,-1,-1,-1,-1,-1,-1,-1,-1,-1,-1,-1,-1,-1,-1,-1,-1,-1,-1],"split_conditions":[-3.372543E-1,6.060128E-2,-2.656686E-1,-3.938285E-1,2.6037905E-1,-9.0339124E-2,7.195276E-2,-3.4428233E-1,-1.985777E-1,-4.5352533E-1,1.0467775E-1,-2.2911048E-1,-3.9163807E-1,-1.2929633E-1,-3.6163712E-1,-7.79698E-1,2.6171101E-2,7.4567355E-2,1.7417273E-2,1.07662424E-1,-5.509358E-2,3.94687E-1,-2.128718E-1,-1.3863087E-1,5.817501E-2,-3.184235E-2,4.5380366E-1,3.6939755E-2,1.6968232E-4,-1.8182632E-1,-1.4424622E-1,-1.5838087E-2,1.2034557E-2,-2.1537358E-3,4.1557122E-2,-1.868399E-2,1.6106114E-1,-1.3240859E-2,-1.2296567E-2,3.2452422E-1,1.8164061E-2,-2.756556E-2,2.337214E-1,3.474827E-2,-1.4167306E-1,-2.6223771E-2,-4.802392E-3,7.9741396E-2,-3.592462E-2,1.6212484E-1,1.8973708E-1,1.8030822E-1,-3.4490648E-1,2.0422177E-1,-4.571858E-3,7.650648E-2,2.4326056E-2,1.0166368E-2,-3.7400268E-3,-8.223088E-3,2.3151781E-2,3.8748886E-2,6.912835E-2,-1.7307289E-2,9.095041E-3,2.8715307E-2,8.847603E-3,1.1130337E-2,-1.2928413E-2,-9.378735E-4,3.0980615E-2,2.1022957E-2,-8.203387E-4,1.0132993E-2,-2.0884493E-2,1.5599377E-3,-1.2682859E-2,1.8350389E-2,-2.8092319E-3,4.2792387E-2,1.9606203E-2,6.419719E-3,-1.8713491E-2,1.3231699E-2,-2.3054387E-3],"split_indices":[198,221,331,4,31,208,357,24,11,63,157,139,3,211,288,39,0,0,0,93,377,353,6,105,155,26,157,193,99,4,64,0,0,0,0,0,166,155,0,353,0,0,361,232,4,0,0,297,0,292,207,361,355,322,0,58,208,0,0,0,0,0,0,0,0,0,0,0,0,0,0,0,0,0,0,0,0,0,0,0,0,0,0,0,0],"split_type":[0,0,0,0,0,0,0,0,0,0,0,0,0,0,0,0,0,0,0,0,0,0,0,0,0,0,0,0,0,0,0,0,0,0,0,0,0,0,0,0,0,0,0,0,0,0,0,0,0,0,0,0,0,0,0,0,0,0,0,0,0,0,0,0,0,0,0,0,0,0,0,0,0,0,0,0,0,0,0,0,0,0,0,0,0],"sum_hessian":[2.0935E3,2.15E2,1.8785E3,5.75E1,1.575E2,7.725E2,1.106E3,2.4E1,3.35E1,5.95E1,9.8E1,2.595E2,5.13E2,9.685E2,1.375E2,1.5E1,9E0,2.8E1,5.5E0,1.25E1,4.7E1,7.5E1,2.3E1,1.145E2,1.45E2,2.6E1,4.87E2,2.01E2,7.675E2,4.9E1,8.85E1,5E0,1E1,6.5E0,6E0,1.75E1,2.95E1,6.75E1,7.5E0,1.8E1,5E0,1.5E1,9.95E1,9.9E1,4.6E1,2.05E1,5.5E0,4.8E2,7E0,3.65E1,1.645E2,3.41E2,4.265E2,4.35E1,5.5E0,3.75E1,5.1E1,1.15E1,1.8E1,6.5E0,6.1E1,9.5E0,8.5E0,1.4E1,8.55E1,7.1E1,2.8E1,3.1E1,1.5E1,4.69E2,1.1E1,6E0,3.05E1,9.5E0,1.55E2,5.15E1,2.895E2,3.1E1,3.955E2,1.9E1,2.45E1,1.05E1,2.7E1,3.25E1,1.85E1],"tree_param":{"num_deleted":"0","num_feature":"404","num_nodes":"85","size_leaf_vector":"1"}},{"base_weights":[2.1743972E-2,9.7018254E-1,-3.2998495E-2,1.8551812E0,5.546112E-1,1.12778634E-1,-1.4319248E-1,6.036659E-3,2.1154578E0,1.6635823E-1,1.0907712E0,1.7869937E-1,-2.7332667E-1,-2.1347544E-1,3.316581E-1,3.4708012E-2,2.2992263E0,-1.8239753E-2,3.407888E-1,5.556454E-4,1.4920931E0,1.2367018E-1,6.6299534E-1,2.562905E-1,-4.1572604E-1,-4.8553956E-1,-1.2974389E-1,8.318505E-1,4.45794E-2,7.554757E-2,4.128798E-2,4.8112926E-1,-1.5338158E-2,5.3442046E-2,2.0724023E-2,-3.217379E-1,1.6710855E-1,1.1448114E0,3.4482875E-1,1.0234527E-3,1.725867E-2,-6.886323E-1,-1.4269367E-1,-1.2529103E-1,-7.0106876E-1,7.858607E-2,-2.2945434E-1,9.9496263E-1,-8.710737E-3,-1.5203497E-1,4.983327E-1,2.1750005E-2,-5.2998303E-3,-2.1862265E-2,8.810853E-3,-5.857327E-3,7.291652E-3,4.2363662E-2,1.1816547E-2,3.3689586E-3,3.6792394E-2,-6.238E-3,1.0152347E-2,-2.3448616E-2,-2.0964378E-3,-9.370398E-3,9.001643E-3,4.627975E-3,-8.442197E-3,1.1802201E-2,-2.3050271E-2,2.5028972E-2,-2.294285E-4,-8.027859E-3,1.878434E-2,2.048409E-3,3.391689E-2,8.782561E-3,-1.1432458E-2,5.4417537E-3,2.0615624E-2],"categories":[],"categories_nodes":[],"categories_segments":[],"categories_sizes":[],"default_left":[0,0,0,0,0,0,0,0,0,0,0,0,0,0,0,0,0,0,0,0,0,0,0,0,0,0,0,0,0,0,0,0,0,0,0,0,0,0,0,0,0,0,0,0,0,0,0,0,0,0,0,0,0,0,0,0,0,0,0,0,0,0,0,0,0,0,0,0,0,0,0,0,0,0,0,0,0,0,0,0,0],"id":13,"left_children":[1,3,5,7,9,11,13,-1,15,17,19,21,23,25,27,-1,29,-1,31,-1,33,35,37,39,41,43,45,47,49,-1,-1,51,-1,-1,-1,53,55,57,59,61,-1,63,65,67,69,71,73,75,-1,77,79,-1,-1,-1,-1,-1,-1,-1,-1,-1,-1,-1,-1,-1,-1,-1,-1,-1,-1,-1,-1,-1,-1,-1,-1,-1,-1,-1,-1,-1,-1],"loss_changes":[1.0846665E2,4.0898033E1,3.1750114E1,1.5071838E1,1.6263634E1,2.170879E1,3.7633125E1,0E0,2.8005066E0,6.555502E0,1.41728325E1,1.9306183E1,9.495981E0,2.2284527E1,2.0855927E1,0E0,1.5880127E0,0E0,4.9095526E0,0E0,4.333103E0,1.2716899E1,1.0949265E1,2.1980157E0,7.241194E0,1.7809116E1,1.56286955E1,9.990322E0,8.417313E0,0E0,0E0,5.582221E0,0E0,0E0,0E0,1.4867334E1,1.6476557E1,5.2649803E0,9.292044E0,1.1983596E0,0E0,2.7646713E0,3.8869567E0,3.862189E0,1.09049E1,1.5907353E1,1.676163E1,5.7659225E0,0E0,6.8354526E0,1.5812397E0,0E0,0E0,0E0,0E0,0E0,0E0,0E0,0E0,0E0,0E0,0E0,0E0,0E0,0E0,0E0,0E0,0E0,0E0,0E0,0E0,0E0,0E0,0E0,0E0,0E0,0E0,0E0,0E0,0E0,0E0],"parents":[2147483647,0,0,1,1,2,2,3,3,4,4,5,5,6,6,8,8,9,9,10,10,11,11,12,12,13,13,14,14,16,16,18,18,20,20,21,21,22,22,23,23,24,24,25,25,26,26,27,27,28,28,31,31,35,35,36,36,37,37,38,38,39,39,41,41,42,42,43,43,44,44,45,45,46,46,47,47,49,49,50,50],"right_children":[2,4,6,8,10,12,14,-1,16,18,20,22,24,26,28,-1,30,-1,32,-1,34,36,38,40,42,44,46,48,50,-1,-1,52,-1,-1,-1,54,56,58,60,62,-1,64,66,68,70,72,74,76,-1,78,80,-1,-1,-1,-1,-1,-1,-1,-1,-1,-1,-1,-1,-1,-1,-1,-1,-1,-1,-1,-1,-1,-1,-1,-1,-1,-1,-1,-1,-1,-1],"split_conditions":[-4.060508E-1,6.082221E-1,-2.644175E-1,5.7735187E-1,3.3967167E-1,-5.258538E-2,6.892792E-2,6.036659E-3,1.1622962E-1,-2.9330575E-1,6.41654E-2,-1.6272701E-1,-2.8734267E-2,-2.1497977E-1,-3.5966778E-1,3.4708012E-2,-1.22499466E-1,-1.8239753E-2,2.42391E0,5.556454E-4,-3.268772E-1,-2.5147444E-1,4.2487882E-2,-2.5622898E-1,-2.1145552E-1,8.138232E-2,-2.716543E-1,-1.8182632E-1,-2.0074588E-1,7.554757E-2,4.128798E-2,-2.1378778E-1,-1.5338158E-2,5.3442046E-2,2.0724023E-2,5.850382E-3,2.0844842E-1,1.3901348E-1,9.684189E-2,2.4453378E-1,1.725867E-2,3.0642822E-1,5.442723E-1,8.499637E-3,-7.79517E-3,-1.0082871E-2,1.345182E-1,-2.7168745E-1,-8.710737E-3,-2.8301507E-1,7.116449E-2,2.1750005E-2,-5.2998303E-3,-2.1862265E-2,8.810853E-3,-5.857327E-3,7.291652E-3,4.2363662E-2,1.1816547E-2,3.3689586E-3,3.6792394E-2,-6.238E-3,1.0152347E-2,-2.3448616E-2,-2.0964378E-3,-9.370398E-3,9.001643E-3,4.627975E-3,-8.442197E-3,1.1802201E-2,-2.3050271E-2,2.5028972E-2,-2.294285E-4,-8.027859E-3,1.878434E-2,2.048409E-3,3.391689E-2,8.782561E-3,-1.1432458E-2,5.4417537E-3,2.0615624E-2],"split_indices":[198,16,331,218,342,198,357,0,46,279,358,332,90,182,288,0,139,0,393,0,9,340,295,77,288,224,181,4,333,0,0,220,0,0,0,50,350,193,213,57,0,329,281,50,218,175,232,4,0,200,27,0,0,0,0,0,0,0,0,0,0,0,0,0,0,0,0,0,0,0,0,0,0,0,0,0,0,0,0,0,0],"split_type":[0,0,0,0,0,0,0,0,0,0,0,0,0,0,0,0,0,0,0,0,0,0,0,0,0,0,0,0,0,0,0,0,0,0,0,0,0,0,0,0,0,0,0,0,0,0,0,0,0,0,0,0,0,0,0,0,0,0,0,0,0,0,0,0,0,0,0,0,0,0,0,0,0,0,0,0,0,0,0,0,0],"sum_hessian":[2.0875E3,1.13E2,1.9745E3,3.5E1,7.8E1,8.5E2,1.1245E3,5E0,3E1,4.6E1,3.2E1,7.265E2,1.235E2,9.8E2,1.445E2,6E0,2.4E1,8E0,3.8E1,9E0,2.3E1,6.535E2,7.3E1,2.6E1,9.75E1,2.295E2,7.505E2,5.2E1,9.25E1,1.8E1,6E0,3.3E1,5E0,1.6E1,7E0,5.75E1,5.96E2,2.8E1,4.5E1,1.5E1,1.1E1,4.8E1,4.95E1,8.65E1,1.43E2,2.43E2,5.075E2,4.55E1,6.5E0,6.5E1,2.75E1,2.4E1,9E0,3.45E1,2.3E1,1.03E2,4.93E2,2E1,8E0,3.65E1,8.5E0,9.5E0,5.5E0,4.15E1,6.5E0,3.6E1,1.35E1,3.1E1,5.55E1,8E0,1.35E2,2.4E1,2.19E2,4.865E2,2.1E1,6E0,3.95E1,2.2E1,4.3E1,1.1E1,1.65E1],"tree_param":{"num_deleted":"0","num_feature":"404","num_nodes":"81","size_leaf_vector":"1"}},{"base_weights":[-3.616677E-3,1.1720722E0,-3.982532E-2,2.0488877E0,5.005561E-1,1.3105142E-1,-1.751302E-1,1.5751878E-2,7.37779E-2,2.1499836E-1,4.095208E-2,5.601797E-1,6.374712E-2,3.5728317E-1,-2.2074378E-1,-2.2436164E-2,1.8167017E-2,1.0277056E0,1.8278348E-1,2.1161109E-1,-1.1283394E-1,6.048972E-1,-3.540181E-1,-4.993657E-1,-1.4309046E-1,-5.203811E-3,1.0010791E-2,1.7275257E0,3.2865816E-1,-2.330579E-1,4.3191025E-1,2.933327E-1,-2.3125833E-1,-7.245985E-1,-3.5648957E-2,4.042055E-2,4.2836905E-1,-1.182835E-1,-2.3099141E-2,-1.36375325E-2,-6.491696E-1,-1.622859E-1,1.0676311E0,6.0018744E-2,1.3147223E-2,1.9478105E-2,-4.010006E-3,1.0123874E-2,-1.3654975E-2,1.7626846E-2,-1.1806726E-2,3.6684435E-3,1.3702415E-2,-1.9215574E-2,9.321029E-3,-2.8740767E-2,-1.290214E-2,-1.0698173E-2,1.5138926E-3,1.7134458E-2,3.6079227E-3,-1.2982413E-2,2.3486686E-3,6.6485996E-3,-1.051764E-2,-2.3015575E-2,-4.6555474E-3,-4.0010293E-3,-2.244527E-2,1.7157016E-2,4.2325288E-2],"categories":[],"categories_nodes":[],"categories_segments":[],"categories_sizes":[],"default_left":[0,0,0,0,0,0,0,0,0,0,0,0,0,0,0,0,0,0,0,0,0,0,0,0,0,0,0,0,0,0,0,0,0,0,0,0,0,0,0,0,0,0,0,0,0,0,0,0,0,0,0,0,0,0,0,0,0,0,0,0,0,0,0,0,0,0,0,0,0,0,0],"id":14,"left_children":[1,3,5,7,9,11,13,-1,-1,15,-1,17,19,21,23,25,-1,27,29,31,33,35,37,39,41,-1,-1,43,45,47,49,51,53,55,57,-1,59,61,-1,63,65,67,69,-1,-1,-1,-1,-1,-1,-1,-1,-1,-1,-1,-1,-1,-1,-1,-1,-1,-1,-1,-1,-1,-1,-1,-1,-1,-1,-1,-1],"loss_changes":[8.976315E1,3.606855E1,4.731585E1,1.5592934E1,8.840645E0,2.6088219E1,2.7812653E1,0E0,0E0,2.7028885E0,0E0,2.142635E1,2.0467987E1,1.6153744E1,2.2700348E1,1.0797808E0,0E0,2.6094036E1,7.2488685E0,1.5503723E1,1.6854977E1,8.269667E0,2.2622344E0,1.6654095E1,1.9334908E1,0E0,0E0,8.63002E0,4.311254E0,3.5116053E0,5.820342E0,1.0020935E1,1.50597925E1,2.338005E0,8.820777E0,0E0,2.3948126E0,1.0538249E0,0E0,4.437555E0,1.008313E1,1.36663265E1,1.4049644E0,0E0,0E0,0E0,0E0,0E0,0E0,0E0,0E0,0E0,0E0,0E0,0E0,0E0,0E0,0E0,0E0,0E0,0E0,0E0,0E0,0E0,0E0,0E0,0E0,0E0,0E0,0E0,0E0],"parents":[2147483647,0,0,1,1,2,2,3,3,4,4,5,5,6,6,9,9,11,11,12,12,13,13,14,14,15,15,17,17,18,18,19,19,20,20,21,21,22,22,23,23,24,24,27,27,28,28,29,29,30,30,31,31,32,32,33,33,34,34,36,36,37,37,39,39,40,40,41,41,42,42],"right_children":[2,4,6,8,10,12,14,-1,-1,16,-1,18,20,22,24,26,-1,28,30,32,34,36,38,40,42,-1,-1,44,46,48,50,52,54,56,58,-1,60,62,-1,64,66,68,70,-1,-1,-1,-1,-1,-1,-1,-1,-1,-1,-1,-1,-1,-1,-1,-1,-1,-1,-1,-1,-1,-1,-1,-1,-1,-1,-1,-1],"split_conditions":[-5.3697175E-1,-1.5017645E-1,-2.656686E-1,2.752545E-1,2.4788539E-1,-7.2994196E-1,-1.4431426E-1,1.5751878E-2,7.37779E-2,1.7136176E-1,4.095208E-2,2.9181617E-1,2.0190462E-2,2.8971398E-1,-2.2058477E-1,1.7151237E-1,1.8167017E-2,1.5505336E-1,5.7489014E-1,3.7094203E-1,-4.252635E-1,-5.9054255E-2,3.6387625E-1,-3.016572E-2,2.4765791E-1,-5.203811E-3,1.0010791E-2,-2.4678461E-2,-9.0542644E-1,4.949572E-2,2.42391E0,1.0950253E-1,5.724082E-2,-3.3344507E-1,2.3344055E-2,4.042055E-2,2.7018985E-1,2.347986E-1,-2.3099141E-2,1.6326995E-1,-5.8759302E-2,1.4302671E-1,5.413121E-2,6.0018744E-2,1.3147223E-2,1.9478105E-2,-4.010006E-3,1.0123874E-2,-1.3654975E-2,1.7626846E-2,-1.1806726E-2,3.6684435E-3,1.3702415E-2,-1.9215574E-2,9.321029E-3,-2.8740767E-2,-1.290214E-2,-1.0698173E-2,1.5138926E-3,1.7134458E-2,3.6079227E-3,-1.2982413E-2,2.3486686E-3,6.6485996E-3,-1.051764E-2,-2.3015575E-2,-4.6555474E-3,-4.0010293E-3,-2.244527E-2,1.7157016E-2,4.2325288E-2],"split_indices":[147,145,331,36,148,223,135,0,0,256,0,144,208,65,159,87,0,192,18,48,233,241,322,37,372,0,0,304,176,154,393,377,67,62,342,0,257,351,0,57,62,129,213,0,0,0,0,0,0,0,0,0,0,0,0,0,0,0,0,0,0,0,0,0,0,0,0,0,0,0,0],"split_type":[0,0,0,0,0,0,0,0,0,0,0,0,0,0,0,0,0,0,0,0,0,0,0,0,0,0,0,0,0,0,0,0,0,0,0,0,0,0,0,0,0,0,0,0,0,0,0,0,0,0,0,0,0,0,0,0,0,0,0,0,0,0,0,0,0,0,0,0,0,0,0],"sum_hessian":[2.1065E3,6.2E1,2.0445E3,2.6E1,3.6E1,9.035E2,1.141E3,6E0,2E1,2.8E1,8E0,1.215E2,7.82E2,8.95E1,1.0515E3,1.8E1,1E1,5.35E1,6.8E1,4.255E2,3.565E2,6.65E1,2.3E1,2.28E2,8.235E2,1.3E1,5E0,2.6E1,2.75E1,2.55E1,4.25E1,3.595E2,6.6E1,3.9E1,3.175E2,1.15E1,5.5E1,1.55E1,7.5E0,5.4E1,1.74E2,8.115E2,1.2E1,2.1E1,5E0,1.6E1,1.15E1,7E0,1.85E1,3.6E1,6.5E0,1.765E2,1.83E2,3.75E1,2.85E1,2.05E1,1.85E1,6.65E1,2.51E2,3.7E1,1.8E1,5.5E0,1E1,3.2E1,2.2E1,1.4E2,3.4E1,7.745E2,3.7E1,6E0,6E0],"tree_param":{"num_deleted":"0","num_feature":"404","num_nodes":"71","size_leaf_vector":"1"}},{"base_weights":[1.155928E-2,-6.77575E-2,5.32742E-1,2.4397697E-1,-1.0603261E-1,1.7270427E0,3.8311082E-1,5.021956E-1,-2.5528908E-1,-1.6125673E-1,1.1821006E-1,4.5007822E-5,2.1943145E0,-1.9409053E-1,5.755204E-1,6.3586086E-1,-3.2270986E-1,9.60365E-2,-4.6586674E-1,-2.841059E-1,-7.157886E-2,1.6247757E-1,-3.1001203E-2,7.4320205E-2,3.459183E-2,2.0031567E-1,-3.5192218E-1,1.1752223E0,3.1376693E-1,9.341812E-2,9.1306925E-1,3.7241715E-3,-2.2118634E-2,-7.753421E-3,7.487005E-3,-2.1918672E-1,-2.107056E-2,-4.1248557E-1,-1.2187143E-1,-2.7976957E-1,7.4093435E-3,2.2957006E-1,-6.832429E-1,5.1085067E-1,-9.697472E-3,1.9023988E-3,-1.3725526E-2,1.4779395E0,-5.7902172E-2,5.0767034E-2,2.2193284E-1,2.4570566E-2,-4.4263997E-3,2.3132544E-2,6.5465726E-2,-1.2935314E-2,5.4210234E-3,-1.3287428E-2,2.8450647E-2,1.805971E-2,-5.8406047E-3,-3.7689323E-3,-1.448164E-2,-1.9938839E-3,1.00172805E-2,2.657185E-3,1.6291387E-2,-2.6719553E-2,-4.0753284E-3,2.6938664E-2,-7.774019E-4,2.2581855E-2,5.3940963E-2,1.5095395E-2,-2.1085424E-2,-4.97686E-3,1.1224042E-2],"categories":[],"categories_nodes":[],"categories_segments":[],"categories_sizes":[],"default_left":[0,0,0,0,0,0,0,0,0,0,0,0,0,0,0,0,0,0,0,0,0,0,0,0,0,0,0,0,0,0,0,0,0,0,0,0,0,0,0,0,0,0,0,0,0,0,0,0,0,0,0,0,0,0,0,0,0,0,0,0,0,0,0,0,0,0,0,0,0,0,0,0,0,0,0,0,0],"id":15,"left_children":[1,3,5,7,9,11,13,15,17,19,21,-1,23,25,27,29,31,33,35,37,39,41,-1,-1,-1,43,45,47,49,51,53,-1,-1,-1,-1,55,-1,57,59,61,63,65,67,69,-1,-1,-1,71,73,-1,75,-1,-1,-1,-1,-1,-1,-1,-1,-1,-1,-1,-1,-1,-1,-1,-1,-1,-1,-1,-1,-1,-1,-1,-1,-1,-1],"loss_changes":[8.653699E1,2.1705719E1,4.87502E1,2.5783241E1,2.0068117E1,2.4588776E1,2.754329E1,1.4704552E1,5.1124597E0,1.4296062E1,1.6506264E1,0E0,4.2163086E0,3.9611068E0,2.8749935E1,1.6981659E1,3.6113467E0,1.5067365E0,2.3545103E0,1.1363258E1,1.237664E1,1.7718346E1,0E0,0E0,0E0,3.1729574E0,2.0026007E0,2.0989708E1,1.614447E1,7.0271916E0,1.1832005E1,0E0,0E0,0E0,0E0,1.9852917E0,0E0,1.3070374E1,1.2951668E1,6.414871E0,1.3203366E1,1.265919E1,2.490324E0,2.5166762E0,0E0,0E0,0E0,9.092621E0,4.6960654E0,0E0,7.3520465E0,0E0,0E0,0E0,0E0,0E0,0E0,0E0,0E0,0E0,0E0,0E0,0E0,0E0,0E0,0E0,0E0,0E0,0E0,0E0,0E0,0E0,0E0,0E0,0E0,0E0,0E0],"parents":[2147483647,0,0,1,1,2,2,3,3,4,4,5,5,6,6,7,7,8,8,9,9,10,10,12,12,13,13,14,14,15,15,16,16,17,17,18,18,19,19,20,20,21,21,25,25,26,26,27,27,28,28,29,29,30,30,35,35,37,37,38,38,39,39,40,40,41,41,42,42,43,43,47,47,48,48,50,50],"right_children":[2,4,6,8,10,12,14,16,18,20,22,-1,24,26,28,30,32,34,36,38,40,42,-1,-1,-1,44,46,48,50,52,54,-1,-1,-1,-1,56,-1,58,60,62,64,66,68,70,-1,-1,-1,72,74,-1,76,-1,-1,-1,-1,-1,-1,-1,-1,-1,-1,-1,-1,-1,-1,-1,-1,-1,-1,-1,-1,-1,-1,-1,-1,-1,-1],"split_conditions":[5.3240484E-1,-1.4300314E-1,5.184541E-3,-2.2441246E-1,2.2271761E-1,-1.1036305E-1,-1.3312058E0,1.5307829E-1,6.94163E-2,1.455126E-2,4.7323292E-1,4.5007822E-5,-4.541205E-1,3.3090508E-1,-6.192436E-2,1.6682857E-1,-1.20518744E-1,-3.7882857E-2,-4.5067005E-2,4.331614E-2,1.2626623E-1,4.0842783E-1,-3.1001203E-2,7.4320205E-2,3.459183E-2,-6.4591944E-2,-4.5223418E-1,-5.338434E-2,2.229306E-1,-2.4586287E-1,-1.5100774E-1,3.7241715E-3,-2.2118634E-2,-7.753421E-3,7.487005E-3,1.8831672E-1,-2.107056E-2,4.7811426E-2,3.473504E-2,3.2204613E-1,2.558253E-2,-1.2389891E-2,2.0266828E-1,-5.42608E-1,-9.697472E-3,1.9023988E-3,-1.3725526E-2,-1.9266382E-1,-5.380485E-1,5.0767034E-2,2.0156327E-1,2.4570566E-2,-4.4263997E-3,2.3132544E-2,6.5465726E-2,-1.2935314E-2,5.4210234E-3,-1.3287428E-2,2.8450647E-2,1.805971E-2,-5.8406047E-3,-3.7689323E-3,-1.448164E-2,-1.9938839E-3,1.00172805E-2,2.657185E-3,1.6291387E-2,-2.6719553E-2,-4.0753284E-3,2.6938664E-2,-7.774019E-4,2.2581855E-2,5.3940963E-2,1.5095395E-2,-2.1085424E-2,-4.97686E-3,1.1224042E-2],"split_indices":[218,79,72,163,311,69,390,308,316,50,348,0,232,361,277,207,140,119,371,14,204,207,0,0,0,173,64,344,222,79,107,0,0,0,0,87,0,331,367,65,119,319,138,85,0,0,0,390,40,0,171,0,0,0,0,0,0,0,0,0,0,0,0,0,0,0,0,0,0,0,0,0,0,0,0,0,0],"split_type":[0,0,0,0,0,0,0,0,0,0,0,0,0,0,0,0,0,0,0,0,0,0,0,0,0,0,0,0,0,0,0,0,0,0,0,0,0,0,0,0,0,0,0,0,0,0,0,0,0,0,0,0,0,0,0,0,0,0,0,0,0,0,0,0,0,0,0,0,0,0,0,0,0,0,0,0,0],"sum_hessian":[2.0915E3,1.816E3,2.755E2,1.98E2,1.618E3,2.95E1,2.46E2,1.305E2,6.75E1,1.2985E3,3.195E2,6.5E0,2.3E1,6.15E1,1.845E2,1.125E2,1.8E1,2.55E1,4.2E1,5.47E2,7.515E2,3.085E2,1.1E1,1.7E1,6E0,1.75E1,4.4E1,5.5E1,1.295E2,3.85E1,7.4E1,9E0,9E0,7.5E0,1.8E1,2.15E1,2.05E1,3.045E2,2.425E2,2.06E2,5.455E2,2.865E2,2.2E1,1.1E1,6.5E0,9E0,3.5E1,4.4E1,1.1E1,7E0,1.225E2,9E0,2.95E1,6.8E1,6E0,1.4E1,7.5E0,2.985E2,6E0,2.15E1,2.21E2,1.18E2,8.8E1,4.455E2,1E2,1.985E2,8.8E1,1.55E1,6.5E0,6E0,5E0,1.45E1,2.95E1,6E0,5E0,3.45E1,8.8E1],"tree_param":{"num_deleted":"0","num_feature":"404","num_nodes":"77","size_leaf_vector":"1"}},{"base_weights":[-3.587241E-3,6.305506E-1,-6.5884344E-2,2.0055237E0,4.1967785E-1,-2.6349217E-1,-5.8720843E-3,6.8372734E-2,3.417918E-2,-1.538277E-1,6.1208194E-1,2.805122E-1,-3.382885E-1,-3.900601E-2,4.4838327E-1,-3.4316978E-1,5.636393E-2,1.2604856E0,2.2920582E-1,1.5643953E-1,3.8030975E-2,-7.049756E-1,-2.669054E-1,-7.2114244E-2,4.2691255E-1,-1.1717167E-1,7.245669E-1,-1.4803207E-2,4.569421E-3,-2.904396E-1,1.5202539E-2,6.645437E-2,9.684022E-1,-1.6840377E-1,4.2008448E-1,-2.9277336E-3,3.2904634E-1,-2.2814596E-2,-2.9075881E-3,-3.663229E-1,5.8007E-2,-2.9824514E-2,-3.825467E-1,-8.585666E-3,5.47881E-1,1.5434877E-2,-4.4164294E-1,5.797909E-2,5.9801155E-1,-1.6340606E-2,2.273282E-3,3.794145E-2,1.2641545E-2,1.4517434E-2,-1.02784E-2,8.227462E-3,4.330845E-2,4.0456257E-3,1.6240431E-2,7.780011E-3,-1.1785927E-2,6.779423E-3,-1.2052078E-2,-3.8356306E-5,-1.7157752E-2,-2.571991E-3,-1.8138224E-2,1.999054E-2,-5.0732326E-3,1.704603E-3,-2.3898665E-2,2.5476966E-2,1.0975983E-2],"categories":[],"categories_nodes":[],"categories_segments":[],"categories_sizes":[],"default_left":[0,0,0,0,0,0,0,0,0,0,0,0,0,0,0,0,0,0,0,0,0,0,0,0,0,0,0,0,0,0,0,0,0,0,0,0,0,0,0,0,0,0,0,0,0,0,0,0,0,0,0,0,0,0,0,0,0,0,0,0,0,0,0,0,0,0,0,0,0,0,0,0,0],"id":16,"left_children":[1,3,5,7,9,11,13,-1,-1,15,17,19,21,23,25,27,29,31,33,35,-1,37,39,41,43,45,47,-1,-1,49,-1,-1,51,53,55,-1,57,-1,-1,59,61,63,65,-1,67,-1,69,-1,71,-1,-1,-1,-1,-1,-1,-1,-1,-1,-1,-1,-1,-1,-1,-1,-1,-1,-1,-1,-1,-1,-1,-1,-1],"loss_changes":[8.391055E1,5.424775E1,2.2933552E1,3.3276443E0,1.8411396E1,1.8425528E1,2.2361088E1,0E0,0E0,1.7107624E0,3.0619247E1,6.5382414E0,1.01903305E1,2.1387724E1,1.5860794E1,1.7504311E0,3.4272954E0,1.0681503E1,6.1044106E0,2.224483E0,0E0,2.0865345E0,1.0793961E1,1.6969793E1,8.092972E0,7.195794E0,9.24062E0,0E0,0E0,1.2051408E0,0E0,0E0,5.4643326E0,3.1772578E0,7.664528E0,0E0,1.1638148E0,0E0,0E0,4.3446503E0,6.1915402E0,1.763279E1,1.0164318E1,0E0,6.8230953E0,0E0,4.1149764E0,0E0,3.3634377E0,0E0,0E0,0E0,0E0,0E0,0E0,0E0,0E0,0E0,0E0,0E0,0E0,0E0,0E0,0E0,0E0,0E0,0E0,0E0,0E0,0E0,0E0,0E0,0E0],"parents":[2147483647,0,0,1,1,2,2,3,3,4,4,5,5,6,6,9,9,10,10,11,11,12,12,13,13,14,14,15,15,16,16,17,17,18,18,19,19,21,21,22,22,23,23,24,24,25,25,26,26,29,29,32,32,33,33,34,34,36,36,39,39,40,40,41,41,42,42,44,44,46,46,48,48],"right_children":[2,4,6,8,10,12,14,-1,-1,16,18,20,22,24,26,28,30,32,34,36,-1,38,40,42,44,46,48,-1,-1,50,-1,-1,52,54,56,-1,58,-1,-1,60,62,64,66,-1,68,-1,70,-1,72,-1,-1,-1,-1,-1,-1,-1,-1,-1,-1,-1,-1,-1,-1,-1,-1,-1,-1,-1,-1,-1,-1,-1,-1],"split_conditions":[-7.1426237E-1,5.5737686E-1,-7.052583E-2,-3.9805856E-1,-1.3312058E0,-2.2380419E-1,2.1730155E-2,6.8372734E-2,3.417918E-2,7.42095E-2,-6.192436E-2,-1.6167787E-1,-1.348887E-1,5.971464E-1,-1.9621372E-2,2.7300155E-1,5.168184E-1,-3.6051065E-1,-2.1723498E-1,2.82045E-1,3.8030975E-2,1.828768E-1,9.439142E-2,-1.0715702E-1,-3.1715763E-1,1.8415011E-1,-1.1414487E0,-1.4803207E-2,4.569421E-3,5.1681566E-1,1.5202539E-2,6.645437E-2,5.333321E-1,2.3280405E-2,8.0267406E-1,-2.9277336E-3,-2.8408253E-1,-2.2814596E-2,-2.9075881E-3,-1.09417886E-1,5.6636417E-1,3.4723318E-1,1.6586465E-1,-8.585666E-3,-6.8121433E-1,1.5434877E-2,1.5268232E-1,5.797909E-2,-4.7975734E-2,-1.6340606E-2,2.273282E-3,3.794145E-2,1.2641545E-2,1.4517434E-2,-1.02784E-2,8.227462E-3,4.330845E-2,4.0456257E-3,1.6240431E-2,7.780011E-3,-1.1785927E-2,6.779423E-3,-1.2052078E-2,-3.8356306E-5,-1.7157752E-2,-2.571991E-3,-1.8138224E-2,1.999054E-2,-5.0732326E-3,1.704603E-3,-2.3898665E-2,2.5476966E-2,1.0975983E-2],"split_indices":[223,246,90,200,390,274,1,0,0,248,277,35,194,167,194,152,37,282,133,242,0,48,267,114,11,339,390,0,0,353,0,0,79,277,356,0,382,0,0,131,390,157,57,0,300,0,281,0,73,0,0,0,0,0,0,0,0,0,0,0,0,0,0,0,0,0,0,0,0,0,0,0,0],"split_type":[0,0,0,0,0,0,0,0,0,0,0,0,0,0,0,0,0,0,0,0,0,0,0,0,0,0,0,0,0,0,0,0,0,0,0,0,0,0,0,0,0,0,0,0,0,0,0,0,0,0,0,0,0,0,0,0,0,0,0,0,0,0,0,0,0,0,0,0,0,0,0,0,0],"sum_hessian":[2.122E3,1.89E2,1.933E3,2.4E1,1.65E2,4.495E2,1.4835E3,1.7E1,7E0,4.15E1,1.235E2,5.4E1,3.955E2,1.3835E3,1E2,2.15E1,2E1,4.5E1,7.85E1,4.9E1,5E0,6.3E1,3.325E2,1.2925E3,9.1E1,3.3E1,6.7E1,1.65E1,5E0,1.15E1,8.5E0,9E0,3.6E1,2.55E1,5.3E1,2E1,2.9E1,5.75E1,5.5E0,2.545E2,7.8E1,1.1385E3,1.54E2,1.3E1,7.8E1,1.1E1,2.2E1,5E0,6.2E1,6.5E0,5E0,2.25E1,1.35E1,5E0,2.05E1,4.75E1,5.5E0,1.6E1,1.3E1,1E1,2.445E2,5.75E1,2.05E1,1.0825E3,5.6E1,6.65E1,8.75E1,6.7E1,1.1E1,9.5E0,1.25E1,2.85E1,3.35E1],"tree_param":{"num_deleted":"0","num_feature":"404","num_nodes":"73","size_leaf_vector":"1"}},{"base_weights":[-1.2325704E-2,-7.952368E-2,4.4035032E-1,1.1093105E-2,-2.0026422E-1,6.2335783E-1,-2.783012E-1,4.079303E-1,-5.0440855E-2,-2.2937725E-1,6.962763E-1,4.595637E-1,1.509285E0,9.746274E-2,-3.7232044E-1,-1.7323209E-2,5.04069E-1,2.75821E-2,-2.6697996E-1,-6.1837543E-2,-3.4864104E-1,-2.268026E-4,3.0838143E-2,3.5071257E-1,1.5873845E0,1.7962754E0,4.986315E-3,-6.8529104E-3,1.2250846E-2,5.8220443E-3,-4.729852E-1,8.426731E-1,2.6067823E-1,-2.8832296E-1,1.1203008E-1,-1.9144394E-1,-7.372846E-1,3.3433132E-2,-5.865086E-1,4.0685438E-2,-4.5008016E-1,7.6378334E-1,1.1845773E-1,1.0034243E-2,6.917048E-2,6.905342E-2,3.8672462E-2,1.4583122E-3,-1.6568592E-2,2.8890513E-2,9.582458E-3,4.523642E-3,2.1035261E-2,-1.9814707E-3,-1.2385574E-2,-8.003082E-3,5.418436E-3,-7.037862E-3,1.6095277E-2,-2.9209187E-2,8.390902E-3,3.2140803E-2,-6.840907E-5,6.475214E-4,-2.0400563E-2,-5.0439867E-3,1.3912372E-2,-8.608337E-3,-2.1082573E-2,-1.1800579E-3,2.8838046E-2,1.2160738E-2,-3.689369E-3],"categories":[],"categories_nodes":[],"categories_segments":[],"categories_sizes":[],"default_left":[0,0,0,0,0,0,0,0,0,0,0,0,0,0,0,0,0,0,0,0,0,0,0,0,0,0,0,0,0,0,0,0,0,0,0,0,0,0,0,0,0,0,0,0,0,0,0,0,0,0,0,0,0,0,0,0,0,0,0,0,0,0,0,0,0,0,0,0,0,0,0,0,0],"id":17,"left_children":[1,3,5,7,9,11,13,15,17,19,21,23,25,27,29,-1,31,33,35,37,39,-1,-1,41,43,45,-1,-1,-1,-1,47,49,51,53,55,57,59,61,63,65,67,69,71,-1,-1,-1,-1,-1,-1,-1,-1,-1,-1,-1,-1,-1,-1,-1,-1,-1,-1,-1,-1,-1,-1,-1,-1,-1,-1,-1,-1,-1,-1],"loss_changes":[6.412768E1,2.0084648E1,3.601231E1,2.5648281E1,2.0701212E1,3.0867737E1,2.0147138E0,1.36483135E1,1.5373386E1,1.5224266E1,5.843663E0,2.2154732E1,1.2613998E1,1.3091196E0,2.6574845E0,0E0,1.0411625E1,1.7892918E1,8.420364E0,1.5940074E1,1.7612415E1,0E0,0E0,1.6218931E1,1.3628216E1,4.083519E0,0E0,0E0,0E0,0E0,1.6193275E0,3.0613441E0,3.597354E0,3.8894043E0,1.3791473E1,6.691024E0,8.204487E0,1.002932E1,2.8009605E0,8.293847E0,1.4369568E1,9.712643E0,7.6693573E0,0E0,0E0,0E0,0E0,0E0,0E0,0E0,0E0,0E0,0E0,0E0,0E0,0E0,0E0,0E0,0E0,0E0,0E0,0E0,0E0,0E0,0E0,0E0,0E0,0E0,0E0,0E0,0E0,0E0,0E0],"parents":[2147483647,0,0,1,1,2,2,3,3,4,4,5,5,6,6,7,7,8,8,9,9,10,10,11,11,12,12,13,13,14,14,16,16,17,17,18,18,19,19,20,20,23,23,24,24,25,25,30,30,31,31,32,32,33,33,34,34,35,35,36,36,37,37,38,38,39,39,40,40,41,41,42,42],"right_children":[2,4,6,8,10,12,14,16,18,20,22,24,26,28,30,-1,32,34,36,38,40,-1,-1,42,44,46,-1,-1,-1,-1,48,50,52,54,56,58,60,62,64,66,68,70,72,-1,-1,-1,-1,-1,-1,-1,-1,-1,-1,-1,-1,-1,-1,-1,-1,-1,-1,-1,-1,-1,-1,-1,-1,-1,-1,-1,-1,-1,-1],"split_conditions":[5.3240484E-1,-1.7175359E-1,7.735682E-2,-7.865645E-2,1.0584383E0,-4.4741076E-1,-5.1449686E-1,-6.1391234E-2,6.7065105E-2,1.5264793E-1,-3.8569307E-1,3.1799814E-1,-3.9318275E-1,-3.4128827E-1,-2.9229355E-1,-1.7323209E-2,1.4030845E-1,1.605734E-1,3.5566103E-1,4.2485106E-1,1.7877987E-1,-2.268026E-4,3.0838143E-2,-3.2217002E-1,2.4872042E-2,-8.443103E-1,4.986315E-3,-6.8529104E-3,1.2250846E-2,5.8220443E-3,-1.8685433E-1,2.1842077E-1,4.505571E-2,-1.9167358E-1,-8.6382344E-2,-1.5709841E-1,1.5640953E-1,-6.038317E-1,-3.0792934E-1,2.795734E-1,2.2347862E-1,6.925305E-1,3.3441713E-1,1.0034243E-2,6.917048E-2,6.905342E-2,3.8672462E-2,1.4583122E-3,-1.6568592E-2,2.8890513E-2,9.582458E-3,4.523642E-3,2.1035261E-2,-1.9814707E-3,-1.2385574E-2,-8.003082E-3,5.418436E-3,-7.037862E-3,1.6095277E-2,-2.9209187E-2,8.390902E-3,3.2140803E-2,-6.840907E-5,6.475214E-4,-2.0400563E-2,-5.0439867E-3,1.3912372E-2,-8.608337E-3,-2.1082573E-2,-1.1800579E-3,2.8838046E-2,1.2160738E-2,-3.689369E-3],"split_indices":[218,293,303,367,65,164,112,91,227,144,247,26,214,80,133,0,70,350,349,212,207,0,0,194,90,223,0,0,0,0,273,87,14,113,99,223,185,163,184,277,305,356,222,0,0,0,0,0,0,0,0,0,0,0,0,0,0,0,0,0,0,0,0,0,0,0,0,0,0,0,0,0,0],"split_type":[0,0,0,0,0,0,0,0,0,0,0,0,0,0,0,0,0,0,0,0,0,0,0,0,0,0,0,0,0,0,0,0,0,0,0,0,0,0,0,0,0,0,0,0,0,0,0,0,0,0,0,0,0,0,0,0,0,0,0,0,0,0,0,0,0,0,0,0,0,0,0,0,0],"sum_hessian":[2.106E3,1.8345E3,2.715E2,1.0485E3,7.86E2,2.165E2,5.5E1,1.4E2,9.085E2,7.62E2,2.4E1,1.84E2,3.25E1,1.1E1,4.4E1,1.2E1,1.28E2,6.685E2,2.4E2,3.175E2,4.445E2,8E0,1.6E1,1.69E2,1.5E1,2.65E1,6E0,5.5E0,5.5E0,6.5E0,3.75E1,5.25E1,7.55E1,1.405E2,5.28E2,2.08E2,3.2E1,2.695E2,4.8E1,9.2E1,3.525E2,6E1,1.09E2,6E0,9E0,1.15E1,1.5E1,5E0,3.25E1,4.2E1,1.05E1,6.15E1,1.4E1,5.1E1,8.95E1,8.05E1,4.475E2,1.97E2,1.1E1,2.6E1,6E0,8E0,2.615E2,6.5E0,4.15E1,6.2E1,3E1,2.155E2,1.37E2,1.2E1,4.8E1,4.95E1,5.95E1],"tree_param":{"num_deleted":"0","num_feature":"404","num_nodes":"73","size_leaf_vector":"1"}},{"base_weights":[-5.9276423E-3,5.828835E-1,-6.4185835E-2,7.8717536E-1,1.17191724E-1,2.3468103E-2,-2.0423655E-1,2.4016349E-1,1.1350677E0,5.803048E-1,-1.5762638E-1,-2.0648133E-2,5.226633E-1,-2.9224312E-2,-3.4102023E-1,-2.0164177E-1,5.3408885E-1,-1.17748305E-2,1.4130026E0,9.042365E-1,-1.3026576E-2,-3.59617E-2,-2.1970222E-2,1.7154666E-2,-6.496333E-1,-1.572441E-1,7.4832857E-1,9.895417E-2,-3.9652398E-1,-5.964099E-1,-2.1231566E-1,-2.1488791E-2,-2.2751535E-3,4.88371E-2,9.194996E-1,-9.409393E-3,1.1768717E-2,1.6390588E0,1.465749E-2,3.3923354E-2,1.2571959E-2,1.6512223E-1,-2.7486497E-1,-5.954629E-2,2.5540066E-1,2.2960605E-2,-7.896384E-1,-3.1944203E-1,1.1883196E-2,5.4851156E-1,1.1331246E0,8.986049E-1,1.798726E-2,-2.2388186E-2,-2.8549895E-1,2.0993568E-1,-6.972715E-1,2.1891154E-2,-2.4699698E-1,1.301086E-2,-1.1075061E-2,1.0660252E-2,-1.0566509E-2,1.2570036E-2,3.3419337E-2,3.0969428E-2,6.1388068E-2,1.5796386E-2,-4.3171633E-4,-1.4638429E-2,2.365515E-3,6.4501085E-4,-7.297203E-3,5.5296184E-3,3.92225E-2,-2.7098935E-2,4.050609E-3,1.6642186E-3,-1.5335019E-2,4.310455E-2,1.0600562E-2,1.6054202E-2,3.7974466E-2,3.4904655E-2,-4.997581E-5,2.2949402E-3,-2.5264554E-2,-1.0973806E-2,7.6426654E-3,1.4275816E-2,-9.377477E-3,2.7756477E-3,-2.1954425E-2,2.4936829E-2,-8.253907E-3],"categories":[],"categories_nodes":[],"categories_segments":[],"categories_sizes":[],"default_left":[0,0,0,0,0,0,0,0,0,0,0,0,0,0,0,0,0,0,0,0,0,0,0,0,0,0,0,0,0,0,0,0,0,0,0,0,0,0,0,0,0,0,0,0,0,0,0,0,0,0,0,0,0,0,0,0,0,0,0,0,0,0,0,0,0,0,0,0,0,0,0,0,0,0,0,0,0,0,0,0,0,0,0,0,0,0,0,0,0,0,0,0,0,0,0],"id":18,"left_children":[1,3,5,7,9,11,13,15,17,19,21,23,25,27,29,31,33,35,37,39,-1,41,-1,43,45,47,49,51,53,55,57,-1,59,61,63,-1,-1,65,-1,-1,-1,67,69,71,73,-1,75,77,-1,79,81,83,85,-1,87,89,91,-1,93,-1,-1,-1,-1,-1,-1,-1,-1,-1,-1,-1,-1,-1,-1,-1,-1,-1,-1,-1,-1,-1,-1,-1,-1,-1,-1,-1,-1,-1,-1,-1,-1,-1,-1,-1,-1],"loss_changes":[7.162792E1,1.779351E1,2.3329187E1,2.4561714E1,7.5368743E0,2.576624E1,1.7501278E1,6.860299E0,2.535707E1,7.6226397E0,2.5957553E0,2.5583735E1,1.4693665E1,1.5198971E1,1.3366432E1,2.2043622E0,5.846264E0,2.1356428E0,1.25733185E1,1.3946276E0,0E0,1.5826538E0,0E0,1.8572145E1,1.268878E1,2.3254654E0,4.8760147E0,1.5490326E1,3.0293217E0,1.1288502E1,9.148297E0,0E0,2.7993603E0,1.9690316E0,1.2366228E0,0E0,0E0,1.04882965E1,0E0,0E0,0E0,1.1754212E0,1.1690345E0,1.1453923E1,1.826641E1,0E0,6.007351E0,1.4300331E0,0E0,7.987014E0,1.1872692E0,5.248209E0,1.1060956E1,0E0,2.9128556E0,2.3719556E0,3.3960571E0,0E0,8.282358E0,0E0,0E0,0E0,0E0,0E0,0E0,0E0,0E0,0E0,0E0,0E0,0E0,0E0,0E0,0E0,0E0,0E0,0E0,0E0,0E0,0E0,0E0,0E0,0E0,0E0,0E0,0E0,0E0,0E0,0E0,0E0,0E0,0E0,0E0,0E0,0E0],"parents":[2147483647,0,0,1,1,2,2,3,3,4,4,5,5,6,6,7,7,8,8,9,9,10,10,11,11,12,12,13,13,14,14,15,15,16,16,17,17,18,18,19,19,21,21,23,23,24,24,25,25,26,26,27,27,28,28,29,29,30,30,32,32,33,33,34,34,37,37,41,41,42,42,43,43,44,44,46,46,47,47,49,49,50,50,51,51,52,52,54,54,55,55,56,56,58,58],"right_children":[2,4,6,8,10,12,14,16,18,20,22,24,26,28,30,32,34,36,38,40,-1,42,-1,44,46,48,50,52,54,56,58,-1,60,62,64,-1,-1,66,-1,-1,-1,68,70,72,74,-1,76,78,-1,80,82,84,86,-1,88,90,92,-1,94,-1,-1,-1,-1,-1,-1,-1,-1,-1,-1,-1,-1,-1,-1,-1,-1,-1,-1,-1,-1,-1,-1,-1,-1,-1,-1,-1,-1,-1,-1,-1,-1,-1,-1,-1,-1],"split_conditions":[-3.4265676E-1,5.001443E-1,-1.6324905E-1,5.5276966E-1,-4.3801266E-1,-1.8914714E-1,1.7432825E-1,3.386521E-1,2.8917594E-2,4.842965E0,-2.9218587E-1,4.0469736E-1,-3.149201E-1,-1.015839E-2,4.4952314E-2,-1.4973044E-1,-2.7878332E-1,1.5256703E-3,4.007501E-1,4.350831E-1,-1.3026576E-2,3.8998014E-1,-2.1970222E-2,3.3171767E-1,-2.4809894E-1,5.761355E-3,5.6636417E-1,-3.0533415E-1,-4.4850212E-1,-1.8943503E-1,-7.5571366E-2,-2.1488791E-2,-7.667425E-2,2.0511739E-1,6.8990275E-2,-9.409393E-3,1.1768717E-2,-7.9215705E-2,1.465749E-2,3.3923354E-2,1.2571959E-2,-1.6776407E-1,7.6701775E-2,-1.5761006E-1,-1.3607723E-1,2.2960605E-2,-4.520937E-1,1.1986619E-1,1.1883196E-2,1.7106698E-1,2.1197805E-1,3.497345E-1,3.4386566E-1,-2.2388186E-2,2.1259736E-1,7.91809E-2,-1.9984373E-1,2.1891154E-2,-2.9859716E-1,1.301086E-2,-1.1075061E-2,1.0660252E-2,-1.0566509E-2,1.2570036E-2,3.3419337E-2,3.0969428E-2,6.1388068E-2,1.5796386E-2,-4.3171633E-4,-1.4638429E-2,2.365515E-3,6.4501085E-4,-7.297203E-3,5.5296184E-3,3.92225E-2,-2.7098935E-2,4.050609E-3,1.6642186E-3,-1.5335019E-2,4.310455E-2,1.0600562E-2,1.6054202E-2,3.7974466E-2,3.4904655E-2,-4.997581E-5,2.2949402E-3,-2.5264554E-2,-1.0973806E-2,7.6426654E-3,1.4275816E-2,-9.377477E-3,2.7756477E-3,-2.1954425E-2,2.4936829E-2,-8.253907E-3],"split_indices":[198,48,293,218,78,313,144,94,191,389,132,349,179,198,295,213,228,134,191,245,0,68,0,350,198,130,390,107,17,310,271,0,17,26,91,0,0,55,0,0,0,357,248,359,331,0,216,296,0,225,106,299,338,0,285,104,231,0,235,0,0,0,0,0,0,0,0,0,0,0,0,0,0,0,0,0,0,0,0,0,0,0,0,0,0,0,0,0,0,0,0,0,0,0,0],"split_type":[0,0,0,0,0,0,0,0,0,0,0,0,0,0,0,0,0,0,0,0,0,0,0,0,0,0,0,0,0,0,0,0,0,0,0,0,0,0,0,0,0,0,0,0,0,0,0,0,0,0,0,0,0,0,0,0,0,0,0,0,0,0,0,0,0,0,0,0,0,0,0,0,0,0,0,0,0,0,0,0,0,0,0,0,0,0,0,0,0,0,0,0,0,0,0],"sum_hessian":[2.086E3,1.87E2,1.899E3,1.295E2,5.75E1,1.1685E3,7.305E2,5.1E1,7.85E1,2.1E1,3.65E1,1.0745E3,9.4E1,3.21E2,4.095E2,2.05E1,3.05E1,1.55E1,6.3E1,1.6E1,5E0,3.1E1,5.5E0,1.0145E3,6E1,2.35E1,7.05E1,2.385E2,8.25E1,1.36E2,2.735E2,5E0,1.55E1,1.4E1,1.65E1,9E0,6.5E0,5E1,1.3E1,1E1,6E0,1.7E1,1.4E1,7.68E2,2.465E2,5E0,5.5E1,1.85E1,5E0,4.8E1,2.25E1,2.1E1,2.175E2,1.85E1,6.4E1,1.5E1,1.21E2,9E0,2.645E2,7E0,8.5E0,8E0,6E0,5.5E0,1.1E1,2.15E1,2.85E1,5E0,1.2E1,8.5E0,5.5E0,5.335E2,2.345E2,2.32E2,1.45E1,4.9E1,6E0,6.5E0,1.2E1,7.5E0,4.05E1,5E0,1.75E1,1.6E1,5E0,2.045E2,1.3E1,5.6E1,8E0,1E1,5E0,5E0,1.16E2,6E0,2.585E2],"tree_param":{"num_deleted":"0","num_feature":"404","num_nodes":"95","size_leaf_vector":"1"}},{"base_weights":[-4.0900535E-3,5.574609E-1,-6.6482425E-2,-3.1072162E-3,7.86633E-1,2.5440779E-2,-1.932149E-1,-3.4414113E-1,2.2433159E-1,1.3034893E0,4.0925694E-1,-6.0377784E-2,2.4913839E-1,-3.2698408E-1,-5.827628E-2,-3.9665617E-2,-1.7416159E-2,-1.0419945E-2,4.1704383E-1,5.8671916E-1,1.8048589E0,1.5375203E-2,7.144025E-1,-4.9237874E-1,-7.751239E-3,3.7633753E-1,-3.9947212E-1,6.241062E-1,-3.6218363E-1,-3.063893E-2,-2.7951129E-2,-1.0178607E-2,6.6845743E-3,2.7028622E-2,2.1758685E-1,2.5332272E-1,2.9470632E-2,1.2473551E-2,2.0154905E0,-2.3564639E-2,1.5625179E-1,5.0020423E-2,1.2320095E0,2.5671062E-1,-7.325794E-1,-5.304517E-2,3.4814575E-1,1.8091142E-1,6.994577E-1,-5.994159E-1,2.7431542E-2,4.5506903E-3,3.804244E-2,5.834033E-3,-4.194608E-1,-6.4213717E-1,1.3072249E-2,1.4069767E-2,-9.427065E-3,1.3906293E-2,-2.4954318E-3,6.708601E-2,3.504531E-2,-6.7606983E-3,1.4644775E-2,1.1609233E-2,-9.178001E-3,4.3509137E-2,1.3695456E-2,2.6360385E-2,-7.842041E-3,-2.695918E-2,-8.497281E-3,-4.574079E-3,3.0944434E-3,1.7906005E-2,-4.7275433E-3,3.2565497E-2,3.5819502E-3,5.2883428E-2,1.6608667E-2,-2.1476306E-2,5.4782834E-3,-2.9523317E-3,1.2242064E-2,-1.8280141E-2,-8.233909E-3,-2.3601979E-2,-2.3168575E-3,-1.8321304E-2,1.7534985E-3],"categories":[],"categories_nodes":[],"categories_segments":[],"categories_sizes":[],"default_left":[0,0,0,0,0,0,0,0,0,0,0,0,0,0,0,0,0,0,0,0,0,0,0,0,0,0,0,0,0,0,0,0,0,0,0,0,0,0,0,0,0,0,0,0,0,0,0,0,0,0,0,0,0,0,0,0,0,0,0,0,0,0,0,0,0,0,0,0,0,0,0,0,0,0,0,0,0,0,0,0,0,0,0,0,0,0,0,0,0,0,0],"id":19,"left_children":[1,3,5,7,9,11,13,15,17,19,21,23,25,27,29,31,-1,-1,33,35,37,39,41,43,45,47,49,51,53,-1,55,-1,-1,-1,57,59,-1,-1,61,-1,63,65,67,69,71,73,75,77,79,81,-1,-1,-1,83,85,87,89,-1,-1,-1,-1,-1,-1,-1,-1,-1,-1,-1,-1,-1,-1,-1,-1,-1,-1,-1,-1,-1,-1,-1,-1,-1,-1,-1,-1,-1,-1,-1,-1,-1,-1],"loss_changes":[7.305312E1,2.6787727E1,2.1865494E1,4.847409E0,2.8333824E1,2.091142E1,1.4222891E1,1.7764034E0,4.276096E0,2.1221794E1,1.0445655E1,1.7899775E1,2.506615E1,1.3483311E1,1.1477741E1,1.0193518E0,0E0,0E0,2.5547638E0,3.3125381E0,9.694977E0,4.5228252E0,1.6788927E1,1.5572226E1,1.1350809E1,1.5849426E1,1.3682972E1,4.2189007E0,8.06517E0,0E0,9.658456E0,0E0,0E0,0E0,3.0219889E0,1.1703972E0,0E0,0E0,3.1850357E0,0E0,4.416404E0,2.8170402E0,3.9932976E0,7.1580524E0,4.595562E0,9.713827E0,1.0094033E1,8.717956E0,1.375576E1,4.138047E0,0E0,0E0,0E0,2.2415361E0,8.945736E0,1.8996401E0,1.0225788E1,0E0,0E0,0E0,0E0,0E0,0E0,0E0,0E0,0E0,0E0,0E0,0E0,0E0,0E0,0E0,0E0,0E0,0E0,0E0,0E0,0E0,0E0,0E0,0E0,0E0,0E0,0E0,0E0,0E0,0E0,0E0,0E0,0E0,0E0],"parents":[2147483647,0,0,1,1,2,2,3,3,4,4,5,5,6,6,7,7,8,8,9,9,10,10,11,11,12,12,13,13,14,14,15,15,18,18,19,19,20,20,21,21,22,22,23,23,24,24,25,25,26,26,27,27,28,28,30,30,34,34,35,35,38,38,40,40,41,41,42,42,43,43,44,44,45,45,46,46,47,47,48,48,49,49,53,53,54,54,55,55,56,56],"right_children":[2,4,6,8,10,12,14,16,18,20,22,24,26,28,30,32,-1,-1,34,36,38,40,42,44,46,48,50,52,54,-1,56,-1,-1,-1,58,60,-1,-1,62,-1,64,66,68,70,72,74,76,78,80,82,-1,-1,-1,84,86,88,90,-1,-1,-1,-1,-1,-1,-1,-1,-1,-1,-1,-1,-1,-1,-1,-1,-1,-1,-1,-1,-1,-1,-1,-1,-1,-1,-1,-1,-1,-1,-1,-1,-1,-1],"split_conditions":[-3.372543E-1,3.1620002E-1,-1.7175359E-1,3.5605285E-1,2.90208E-1,-8.819994E-2,1.1709042E-1,-1.8112005E-1,-2.1683851E-1,6.791586E-2,2.0388481E-1,-5.109047E-2,1.7988876E-1,-2.2380419E-1,-1.4710715E-1,7.384319E-2,-1.7416159E-2,-1.0419945E-2,-4.3781257E-1,-1.1409184E-1,2.6183432E-1,-4.9397945E-1,-3.1942388E-1,-2.635719E-1,2.311708E-1,-6.744218E-2,3.556444E-1,-4.4258997E-2,7.6966E-2,-3.063893E-2,-4.3258496E-2,-1.0178607E-2,6.6845743E-3,2.7028622E-2,4.2231387E-1,1.6631979E-1,2.9470632E-2,1.2473551E-2,-1.7489126E-1,-2.3564639E-2,-2.8833985E-1,-2.073557E-1,-7.679708E-2,1.5753132E-1,-3.9247666E-2,1.7314169E-1,-2.4539977E-1,3.58235E-2,-9.516918E-1,1.6116664E-1,2.7431542E-2,4.5506903E-3,3.804244E-2,-1.006723E-1,-2.5773263E-1,2.3204628E-1,-9.170376E-2,1.4069767E-2,-9.427065E-3,1.3906293E-2,-2.4954318E-3,6.708601E-2,3.504531E-2,-6.7606983E-3,1.4644775E-2,1.1609233E-2,-9.178001E-3,4.3509137E-2,1.3695456E-2,2.6360385E-2,-7.842041E-3,-2.695918E-2,-8.497281E-3,-4.574079E-3,3.0944434E-3,1.7906005E-2,-4.7275433E-3,3.2565497E-2,3.5819502E-3,5.2883428E-2,1.6608667E-2,-2.1476306E-2,5.4782834E-3,-2.9523317E-3,1.2242064E-2,-1.8280141E-2,-8.233909E-3,-2.3601979E-2,-2.3168575E-3,-1.8321304E-2,1.7534985E-3],"split_indices":[198,367,293,167,296,232,197,47,35,5,324,328,318,274,375,92,0,0,62,260,48,123,4,244,36,186,7,88,165,0,23,0,0,0,393,82,0,0,357,0,132,140,227,82,72,234,379,191,390,170,0,0,0,9,35,370,323,0,0,0,0,0,0,0,0,0,0,0,0,0,0,0,0,0,0,0,0,0,0,0,0,0,0,0,0,0,0,0,0,0,0],"split_type":[0,0,0,0,0,0,0,0,0,0,0,0,0,0,0,0,0,0,0,0,0,0,0,0,0,0,0,0,0,0,0,0,0,0,0,0,0,0,0,0,0,0,0,0,0,0,0,0,0,0,0,0,0,0,0,0,0,0,0,0,0,0,0,0,