{"learner":{"attributes":{"scikit_learn":"{\"_estimator_type\": \"regressor\"}"},"feature_names":[],"feature_types":[],"gradient_booster":{"model":{"cats":{"enc":[],"feature_segments":[],"sorted_idx":[]},"gbtree_model_param":{"num_parallel_tree":"1","num_trees":"1000"},"iteration_indptr":[0,1,2,3,4,5,6,7,8,9,10,11,12,13,14,15,16,17,18,19,20,21,22,23,24,25,26,27,28,29,30,31,32,33,34,35,36,37,38,39,40,41,42,43,44,45,46,47,48,49,50,51,52,53,54,55,56,57,58,59,60,61,62,63,64,65,66,67,68,69,70,71,72,73,74,75,76,77,78,79,80,81,82,83,84,85,86,87,88,89,90,91,92,93,94,95,96,97,98,99,100,101,102,103,104,105,106,107,108,109,110,111,112,113,114,115,116,117,118,119,120,121,122,123,124,125,126,127,128,129,130,131,132,133,134,135,136,137,138,139,140,141,142,143,144,145,146,147,148,149,150,151,152,153,154,155,156,157,158,159,160,161,162,163,164,165,166,167,168,169,170,171,172,173,174,175,176,177,178,179,180,181,182,183,184,185,186,187,188,189,190,191,192,193,194,195,196,197,198,199,200,201,202,203,204,205,206,207,208,209,210,211,212,213,214,215,216,217,218,219,220,221,222,223,224,225,226,227,228,229,230,231,232,233,234,235,236,237,238,239,240,241,242,243,244,245,246,247,248,249,250,251,252,253,254,255,256,257,258,259,260,261,262,263,264,265,266,267,268,269,270,271,272,273,274,275,276,277,278,279,280,281,282,283,284,285,286,287,288,289,290,291,292,293,294,295,296,297,298,299,300,301,302,303,304,305,306,307,308,309,310,311,312,313,314,315,316,317,318,319,320,321,322,323,324,325,326,327,328,329,330,331,332,333,334,335,336,337,338,339,340,341,342,343,344,345,346,347,348,349,350,351,352,353,354,355,356,357,358,359,360,361,362,363,364,365,366,367,368,369,370,371,372,373,374,375,376,377,378,379,380,381,382,383,384,385,386,387,388,389,390,391,392,393,394,395,396,397,398,399,400,401,402,403,404,405,406,407,408,409,410,411,412,413,414,415,416,417,418,419,420,421,422,423,424,425,426,427,428,429,430,431,432,433,434,435,436,437,438,439,440,441,442,443,444,445,446,447,448,449,450,451,452,453,454,455,456,457,458,459,460,461,462,463,464,465,466,467,468,469,470,471,472,473,474,475,476,477,478,479,480,481,482,483,484,485,486,487,488,489,490,491,492,493,494,495,496,497,498,499,500,501,502,503,504,505,506,507,508,509,510,511,512,513,514,515,516,517,518,519,520,521,522,523,524,525,526,527,528,529,530,531,532,533,534,535,536,537,538,539,540,541,542,543,544,545,546,547,548,549,550,551,552,553,554,555,556,557,558,559,560,561,562,563,564,565,566,567,568,569,570,571,572,573,574,575,576,577,578,579,580,581,582,583,584,585,586,587,588,589,590,591,592,593,594,595,596,597,598,599,600,601,602,603,604,605,606,607,608,609,610,611,612,613,614,615,616,617,618,619,620,621,622,623,624,625,626,627,628,629,630,631,632,633,634,635,636,637,638,639,640,641,642,643,644,645,646,647,648,649,650,651,652,653,654,655,656,657,658,659,660,661,662,663,664,665,666,667,668,669,670,671,672,673,674,675,676,677,678,679,680,681,682,683,684,685,686,687,688,689,690,691,692,693,694,695,696,697,698,699,700,701,702,703,704,705,706,707,708,709,710,711,712,713,714,715,716,717,718,719,720,721,722,723,724,725,726,727,728,729,730,731,732,733,734,735,736,737,738,739,740,741,742,743,744,745,746,747,748,749,750,751,752,753,754,755,756,757,758,759,760,761,762,763,764,765,766,767,768,769,770,771,772,773,774,775,776,777,778,779,780,781,782,783,784,785,786,787,788,789,790,791,792,793,794,795,796,797,798,799,800,801,802,803,804,805,806,807,808,809,810,811,812,813,814,815,816,817,818,819,820,821,822,823,824,825,826,827,828,829,830,831,832,833,834,835,836,837,838,839,840,841,842,843,844,845,846,847,848,849,850,851,852,853,854,855,856,857,858,859,860,861,862,863,864,865,866,867,868,869,870,871,872,873,874,875,876,877,878,879,880,881,882,883,884,885,886,887,888,889,890,891,892,893,894,895,896,897,898,899,900,901,902,903,904,905,906,907,908,909,910,911,912,913,914,915,916,917,918,919,920,921,922,923,924,925,926,927,928,929,930,931,932,933,934,935,936,937,938,939,940,941,942,943,944,945,946,947,948,949,950,951,952,953,954,955,956,957,958,959,960,961,962,963,964,965,966,967,968,969,970,971,972,973,974,975,976,977,978,979,980,981,982,983,984,985,986,987,988,989,990,991,992,993,994,995,996,997,998,999,1000],"tree_info":[0,0,0,0,0,0,0,0,0,0,0,0,0,0,0,0,0,0,0,0,0,0,0,0,0,0,0,0,0,0,0,0,0,0,0,0,0,0,0,0,0,0,0,0,0,0,0,0,0,0,0,0,0,0,0,0,0,0,0,0,0,0,0,0,0,0,0,0,0,0,0,0,0,0,0,0,0,0,0,0,0,0,0,0,0,0,0,0,0,0,0,0,0,0,0,0,0,0,0,0,0,0,0,0,0,0,0,0,0,0,0,0,0,0,0,0,0,0,0,0,0,0,0,0,0,0,0,0,0,0,0,0,0,0,0,0,0,0,0,0,0,0,0,0,0,0,0,0,0,0,0,0,0,0,0,0,0,0,0,0,0,0,0,0,0,0,0,0,0,0,0,0,0,0,0,0,0,0,0,0,0,0,0,0,0,0,0,0,0,0,0,0,0,0,0,0,0,0,0,0,0,0,0,0,0,0,0,0,0,0,0,0,0,0,0,0,0,0,0,0,0,0,0,0,0,0,0,0,0,0,0,0,0,0,0,0,0,0,0,0,0,0,0,0,0,0,0,0,0,0,0,0,0,0,0,0,0,0,0,0,0,0,0,0,0,0,0,0,0,0,0,0,0,0,0,0,0,0,0,0,0,0,0,0,0,0,0,0,0,0,0,0,0,0,0,0,0,0,0,0,0,0,0,0,0,0,0,0,0,0,0,0,0,0,0,0,0,0,0,0,0,0,0,0,0,0,0,0,0,0,0,0,0,0,0,0,0,0,0,0,0,0,0,0,0,0,0,0,0,0,0,0,0,0,0,0,0,0,0,0,0,0,0,0,0,0,0,0,0,0,0,0,0,0,0,0,0,0,0,0,0,0,0,0,0,0,0,0,0,0,0,0,0,0,0,0,0,0,0,0,0,0,0,0,0,0,0,0,0,0,0,0,0,0,0,0,0,0,0,0,0,0,0,0,0,0,0,0,0,0,0,0,0,0,0,0,0,0,0,0,0,0,0,0,0,0,0,0,0,0,0,0,0,0,0,0,0,0,0,0,0,0,0,0,0,0,0,0,0,0,0,0,0,0,0,0,0,0,0,0,0,0,0,0,0,0,0,0,0,0,0,0,0,0,0,0,0,0,0,0,0,0,0,0,0,0,0,0,0,0,0,0,0,0,0,0,0,0,0,0,0,0,0,0,0,0,0,0,0,0,0,0,0,0,0,0,0,0,0,0,0,0,0,0,0,0,0,0,0,0,0,0,0,0,0,0,0,0,0,0,0,0,0,0,0,0,0,0,0,0,0,0,0,0,0,0,0,0,0,0,0,0,0,0,0,0,0,0,0,0,0,0,0,0,0,0,0,0,0,0,0,0,0,0,0,0,0,0,0,0,0,0,0,0,0,0,0,0,0,0,0,0,0,0,0,0,0,0,0,0,0,0,0,0,0,0,0,0,0,0,0,0,0,0,0,0,0,0,0,0,0,0,0,0,0,0,0,0,0,0,0,0,0,0,0,0,0,0,0,0,0,0,0,0,0,0,0,0,0,0,0,0,0,0,0,0,0,0,0,0,0,0,0,0,0,0,0,0,0,0,0,0,0,0,0,0,0,0,0,0,0,0,0,0,0,0,0,0,0,0,0,0,0,0,0,0,0,0,0,0,0,0,0,0,0,0,0,0,0,0,0,0,0,0,0,0,0,0,0,0,0,0,0,0,0,0,0,0,0,0,0,0,0,0,0,0,0,0,0,0,0,0,0,0,0,0,0,0,0,0,0,0,0,0,0,0,0,0,0,0,0,0,0,0,0,0,0,0,0,0,0,0,0,0,0,0,0,0,0,0,0,0,0,0,0,0,0,0,0,0,0,0,0,0,0,0,0,0,0,0,0,0,0,0,0,0,0,0,0,0,0,0,0,0,0,0,0,0,0,0,0,0,0,0,0,0,0,0,0,0,0,0,0,0,0,0,0,0,0,0,0,0,0,0,0,0,0,0,0,0,0,0,0,0,0,0,0,0,0,0,0,0,0,0,0,0,0,0,0,0,0,0,0,0,0,0,0,0,0,0,0,0,0,0,0,0,0,0,0,0,0,0,0,0,0,0,0,0,0,0,0,0,0,0,0,0,0,0,0,0,0,0,0,0,0,0,0,0,0,0,0,0,0,0,0,0,0,0,0,0,0,0,0,0,0,0,0,0,0,0,0,0,0,0,0,0,0,0,0,0,0,0,0,0,0,0,0,0,0,0,0,0,0,0,0,0,0,0,0,0],"trees":[{"base_weights":[2.8509907E-2,-1.1649258E-1,1.587996E-1,-1.6875237E-1,1.2715627E-1,2.06099E-1,-5.9476547E-2,-8.690749E-2,-2.8650028E-1,8.456628E-3,7.3351376E-2,2.2079578E-1,6.570703E-2,-1.708394E-1,7.896929E-2,7.875651E-3,-1.14737496E-1,-3.00103E-3,-1.7874405E-2,1.9230532E-3,4.4177244E-3,2.2876857E-1,1.402284E-1,-4.5673994E-5,5.1434506E-3,-4.144364E-3,-9.780857E-3,5.047968E-3,2.0731827E-3,-6.808939E-2,-2.1061632E-1,1.0599355E-2,1.27231125E-2,2.9783065E-3,8.43002E-3,1.7808477E-3,-4.9821716E-3,-5.3343214E-3,-1.3994822E-2],"categories":[],"categories_nodes":[],"categories_segments":[],"categories_sizes":[],"default_left":[0,0,0,0,0,0,0,0,0,0,0,0,0,0,0,0,0,0,0,0,0,0,0,0,0,0,0,0,0,0,0,0,0,0,0,0,0,0,0],"id":0,"left_children":[1,3,5,7,9,11,13,15,17,-1,19,21,23,25,27,-1,29,-1,-1,-1,-1,31,33,-1,-1,-1,-1,-1,-1,35,37,-1,-1,-1,-1,-1,-1,-1,-1],"loss_changes":[7.8874745E0,2.5388446E0,2.2816677E0,1.5480485E0,6.7741334E-2,3.587184E-1,6.2904143E-1,6.828179E-1,1.0475855E0,0E0,5.667053E-3,7.28302E-2,4.6056755E-2,3.269434E-2,1.1056982E-2,0E0,3.8064766E-1,0E0,0E0,0E0,0E0,9.453297E-3,2.9527187E-2,0E0,0E0,0E0,0E0,0E0,0E0,2.0279247E-1,1.7481911E-1,0E0,0E0,0E0,0E0,0E0,0E0,0E0,0E0],"parents":[2147483647,0,0,1,1,2,2,3,3,4,4,5,5,6,6,7,7,8,8,10,10,11,11,12,12,13,13,14,14,16,16,21,21,22,22,29,29,30,30],"right_children":[2,4,6,8,10,12,14,16,18,-1,20,22,24,26,28,-1,30,-1,-1,-1,-1,32,34,-1,-1,-1,-1,-1,-1,36,38,-1,-1,-1,-1,-1,-1,-1,-1],"split_conditions":[-1.2683704E0,-1.2321718E-1,1.3011471E0,-1.4987744E-1,2.823593E-1,3.1872758E-1,9.9767424E-2,-9.7941376E-2,-1.469402E-1,8.456628E-3,-5.211242E-1,9.452486E-1,4.709259E-1,-4.796494E-1,1.8636897E-1,7.875651E-3,2.976542E-2,-3.00103E-3,-1.7874405E-2,1.9230532E-3,4.4177244E-3,2.1311268E-1,1.3116135E-1,-4.5673994E-5,5.1434506E-3,-4.144364E-3,-9.780857E-3,5.047968E-3,2.0731827E-3,-2.6982516E-1,1.6788049E0,1.0599355E-2,1.27231125E-2,2.9783065E-3,8.43002E-3,1.7808477E-3,-4.9821716E-3,-5.3343214E-3,-1.3994822E-2],"split_indices":[385,81,389,81,42,345,337,73,4,0,3,389,94,293,197,0,50,0,0,0,0,0,19,0,0,0,0,0,0,21,389,0,0,0,0,0,0,0,0],"split_type":[0,0,0,0,0,0,0,0,0,0,0,0,0,0,0,0,0,0,0,0,0,0,0,0,0,0,0,0,0,0,0,0,0,0,0,0,0,0,0],"sum_hessian":[4.1551694E2,1.967051E2,2.1881184E2,1.6221854E2,3.448656E1,1.79887E2,3.892486E1,9.672468E1,6.549386E1,1.8168688E1,1.6317871E1,1.6232181E2,1.756519E1,2.1442774E1,1.7482084E1,9.411058E0,8.731362E1,1.6069908E1,4.942395E1,5.978402E0,1.033947E1,1.4603134E2,1.6290455E1,6.6389403E0,1.0926249E1,5.668139E0,1.5774634E1,9.954046E0,7.528039E0,5.9886894E1,2.7426725E1,9.393171E1,5.2099636E1,5.0454836E0,1.1244972E1,1.39405985E1,4.5946297E1,1.1985989E1,1.5440737E1],"tree_param":{"num_deleted":"0","num_feature":"403","num_nodes":"39","size_leaf_vector":"1"}},{"base_weights":[-1.3139975E-2,-1.4431968E-1,1.632608E-1,-1.8500967E-1,1.1067193E-1,2.0234805E-1,-1.6012803E-2,-2.4430239E-1,-7.03184E-2,1.4546973E-1,6.8313316E-2,1.1355088E-1,2.1928129E-1,1.00120254E-1,-1.12595335E-1,7.6874375E-2,-2.6981547E-1,-8.691095E-2,6.8590404E-3,8.148168E-3,4.38723E-3,3.97353E-3,1.8406803E-3,3.3678215E-3,1.2239911E-1,1.2437335E-2,1.0300133E-2,2.3303423E-3,7.2224005E-3,-7.269449E-3,-3.4931914E-3,-8.8469323E-4,7.6270956E-3,-3.548656E-1,-1.995882E-1,-9.978627E-2,2.1988568E-4,4.989336E-3,8.187004E-3,-1.265116E-2,-1.8454725E-2,-1.125319E-2,-3.4483175E-3,-6.942256E-3,-3.1301621E-3],"categories":[],"categories_nodes":[],"categories_segments":[],"categories_sizes":[],"default_left":[0,0,0,0,0,0,0,0,0,0,0,0,0,0,0,0,0,0,0,0,0,0,0,0,0,0,0,0,0,0,0,0,0,0,0,0,0,0,0,0,0,0,0,0,0],"id":1,"left_children":[1,3,5,7,9,11,13,15,17,19,21,23,25,27,29,31,33,35,-1,-1,-1,-1,-1,-1,37,-1,-1,-1,-1,-1,-1,-1,-1,39,41,43,-1,-1,-1,-1,-1,-1,-1,-1,-1],"loss_changes":[1.1307296E1,2.9276052E0,1.4638152E0,1.6285429E0,4.781869E-2,2.3251867E-1,4.4015902E-1,1.3246632E0,3.0070984E-1,6.5297782E-3,3.9478466E-3,3.8102865E-3,4.5924187E-3,3.570704E-2,1.975593E-2,9.20636E-2,8.109951E-1,9.246665E-2,0E0,0E0,0E0,0E0,0E0,0E0,5.6549013E-3,0E0,0E0,0E0,0E0,0E0,0E0,0E0,0E0,1.5068054E-3,2.6117873E-1,9.1006875E-2,0E0,0E0,0E0,0E0,0E0,0E0,0E0,0E0,0E0],"parents":[2147483647,0,0,1,1,2,2,3,3,4,4,5,5,6,6,7,7,8,8,9,9,10,10,11,11,12,12,13,13,14,14,15,15,16,16,17,17,24,24,33,33,34,34,35,35],"right_children":[2,4,6,8,10,12,14,16,18,20,22,24,26,28,30,32,34,36,-1,-1,-1,-1,-1,-1,38,-1,-1,-1,-1,-1,-1,-1,-1,40,42,44,-1,-1,-1,-1,-1,-1,-1,-1,-1],"split_conditions":[-1.2147588E0,-5.3514957E-2,4.11647E-1,-4.4222973E-2,9.1441244E-2,-9.873816E-2,5.5496365E-2,-2.6382603E-2,1.3173011E-1,1.0438076E0,-4.2912453E-1,1.610175E-1,1.0457553E-1,-1.7635688E-2,-3.335948E-1,-3.855878E-1,1.3587825E-1,3.032386E0,6.8590404E-3,8.148168E-3,4.38723E-3,3.97353E-3,1.8406803E-3,3.3678215E-3,-1.9413888E-2,1.2437335E-2,1.0300133E-2,2.3303423E-3,7.2224005E-3,-7.269449E-3,-3.4931914E-3,-8.8469323E-4,7.6270956E-3,3.6590385E-1,9.961647E-2,-1.6214603E-1,2.1988568E-4,4.989336E-3,8.187004E-3,-1.265116E-2,-1.8454725E-2,-1.125319E-2,-3.4483175E-3,-6.942256E-3,-3.1301621E-3],"split_indices":[385,175,106,31,89,175,54,95,256,16,1,257,7,40,8,9,42,388,0,0,0,0,0,0,189,0,0,0,0,0,0,0,0,87,89,28,0,0,0,0,0,0,0,0,0],"split_type":[0,0,0,0,0,0,0,0,0,0,0,0,0,0,0,0,0,0,0,0,0,0,0,0,0,0,0,0,0,0,0,0,0,0,0,0,0,0,0,0,0,0,0,0,0],"sum_hessian":[4.8662473E2,2.791889E2,2.0743582E2,2.4100523E2,3.818368E1,1.701985E2,3.7237316E1,1.581271E2,8.287813E1,1.9626326E1,1.8557354E1,2.8492214E1,1.4170628E2,1.68908E1,2.0346516E1,1.14885025E1,1.466386E2,7.727966E1,5.5984697E0,1.3662731E1,5.9635944E0,1.2578953E1,5.978402E0,5.96465E0,2.2527563E1,3.851285E1,1.03193436E2,8.581928E0,8.308871E0,1.0152641E1,1.0193873E1,5.4470353E0,6.041467E0,6.448709E1,8.2151505E1,6.764787E1,9.6317835E0,1.676908E1,5.7584844E0,1.0207777E1,5.4279316E1,6.81391E1,1.401241E1,3.1658329E1,3.5989548E1],"tree_param":{"num_deleted":"0","num_feature":"403","num_nodes":"45","size_leaf_vector":"1"}},{"base_weights":[-1.0488149E-2,-1.3830702E-1,1.4672753E-1,-1.7953293E-1,1.0616787E-1,1.8699543E-1,-3.9573442E-2,-2.3195708E-1,-5.773031E-2,1.4044459E-1,6.5194935E-2,2.0076737E-1,6.0075678E-2,5.379892E-2,-1.5462962E-1,-2.973103E-1,-1.1686707E-1,6.556397E-3,-8.034531E-2,8.913469E-3,5.0685345E-3,3.7894843E-3,1.761836E-3,2.0487353E-1,5.0266697E-3,-2.2900027E-4,4.7907243E-3,1.0357746E-3,7.697306E-2,-9.306869E-3,-5.270935E-3,-3.1736827E-1,-4.1098273E-3,7.440763E-2,-1.6478974E-1,-9.574078E-2,2.0992565E-4,1.1611627E-2,1.893187E-1,4.6233675E-3,2.6132725E-3,-1.2558624E-2,-1.7005716E-2,-8.4731897E-4,7.363873E-3,-5.116654E-3,-9.1691315E-3,-2.7124307E-3,-5.612647E-3,7.6273554E-3,1.0028107E-2],"categories":[],"categories_nodes":[],"categories_segments":[],"categories_sizes":[],"default_left":[0,0,0,0,0,0,0,0,0,0,0,0,0,0,0,0,0,0,0,0,0,0,0,0,0,0,0,0,0,0,0,0,0,0,0,0,0,0,0,0,0,0,0,0,0,0,0,0,0,0,0],"id":2,"left_children":[1,3,5,7,9,11,13,15,17,19,21,23,25,27,29,31,33,-1,35,-1,-1,-1,-1,37,-1,-1,-1,-1,39,-1,-1,41,-1,43,45,47,-1,-1,49,-1,-1,-1,-1,-1,-1,-1,-1,-1,-1,-1,-1],"loss_changes":[9.648852E0,2.6878753E0,1.6229544E0,1.4358354E0,4.538852E-2,2.9776287E-1,4.2836803E-1,1.1561852E0,3.0789548E-1,1.190272E-2,3.5369173E-3,4.5039177E-2,4.3828808E-2,1.5521996E-2,7.936716E-3,4.0686607E-1,5.530274E-1,0E0,8.21383E-2,0E0,0E0,0E0,0E0,2.082014E-2,0E0,0E0,0E0,0E0,5.2310526E-5,0E0,0E0,5.224514E-2,0E0,8.5763104E-2,3.6377072E-2,3.0335337E-2,0E0,0E0,1.1768341E-2,0E0,0E0,0E0,0E0,0E0,0E0,0E0,0E0,0E0,0E0,0E0,0E0],"parents":[2147483647,0,0,1,1,2,2,3,3,4,4,5,5,6,6,7,7,8,8,9,9,10,10,11,11,12,12,13,13,14,14,15,15,16,16,18,18,23,23,28,28,31,31,33,33,34,34,35,35,38,38],"right_children":[2,4,6,8,10,12,14,16,18,20,22,24,26,28,30,32,34,-1,36,-1,-1,-1,-1,38,-1,-1,-1,-1,40,-1,-1,42,-1,44,46,48,-1,-1,50,-1,-1,-1,-1,-1,-1,-1,-1,-1,-1,-1,-1],"split_conditions":[-1.2147588E0,-5.3514957E-2,1.3011471E0,-4.4222973E-2,9.1441244E-2,3.1872758E-1,-1.9410242E-1,2.983518E-3,-9.7941376E-2,5.3807855E-1,-4.2912453E-1,5.1619923E-1,4.709259E-1,9.378195E-3,3.4744576E-2,-2.3129725E-1,-6.246455E-1,6.556397E-3,3.0322528E0,8.913469E-3,5.0685345E-3,3.7894843E-3,1.761836E-3,1.4076412E-1,5.0266697E-3,-2.2900027E-4,4.7907243E-3,1.0357746E-3,9.5898256E-2,-9.306869E-3,-5.270935E-3,-6.6463225E-2,-4.1098273E-3,-3.855878E-1,-1.9997534E-1,-3.181616E-1,2.0992565E-4,1.1611627E-2,2.0950034E-1,4.6233675E-3,2.6132725E-3,-1.2558624E-2,-1.7005716E-2,-8.4731897E-4,7.363873E-3,-5.116654E-3,-9.1691315E-3,-2.7124307E-3,-5.612647E-3,7.6273554E-3,1.0028107E-2],"split_indices":[385,175,389,31,89,345,270,100,73,86,1,354,94,156,13,3,389,0,388,0,0,0,0,7,0,0,0,0,9,0,0,319,0,9,4,5,0,0,101,0,0,0,0,0,0,0,0,0,0,0,0],"split_type":[0,0,0,0,0,0,0,0,0,0,0,0,0,0,0,0,0,0,0,0,0,0,0,0,0,0,0,0,0,0,0,0,0,0,0,0,0,0,0,0,0,0,0,0,0,0,0,0,0,0,0],"sum_hessian":[4.781488E2,2.637975E2,2.1435132E2,2.2595947E2,3.7838E1,1.7625177E2,3.8099552E1,1.5733691E2,6.862257E1,1.9280647E1,1.8557354E1,1.5847406E2,1.7777714E1,2.1325516E1,1.6774036E1,9.934253E1,5.799439E1,6.825385E0,6.179718E1,7.986804E0,1.1293844E1,1.2578953E1,5.978402E0,1.5123465E2,7.2394004E0,6.6389403E0,1.1138774E1,9.564759E0,1.17607565E1,8.530112E0,8.243925E0,9.043472E1,8.907805E0,1.1508324E1,4.6486065E1,5.2165398E1,9.6317835E0,4.976841E1,1.0146625E2,5.5425363E0,6.2182198E0,2.6207575E1,6.422714E1,5.4470353E0,6.061289E0,1.2155977E1,3.4330086E1,1.6069908E1,3.609549E1,2.717109E1,7.429516E1],"tree_param":{"num_deleted":"0","num_feature":"403","num_nodes":"51","size_leaf_vector":"1"}},{"base_weights":[-1.4741853E-3,-1.23119496E-1,1.4668271E-1,-1.4864606E-1,1.18635654E-1,1.8065532E-1,-1.2939232E-2,-1.9222295E-1,-5.4048687E-2,3.8178836E-3,7.165803E-3,1.9674614E-1,1.0145427E-1,-7.968753E-2,1.17469646E-1,-6.454556E-4,-2.1749365E-1,8.4276736E-2,-8.989783E-2,8.2091885E-3,2.0490082E-1,8.054941E-2,8.336087E-3,8.6078966E-5,-1.1685498E-1,7.753829E-3,3.2718617E-3,-2.5598055E-1,-9.142857E-2,1.7384262E-4,6.0666227E-3,-1.0808597E-1,2.0041654E-4,1.5757914E-1,1.06327925E-2,2.3359836E-3,8.9891486E-2,-3.3296698E-3,-6.6961036E-3,-9.751924E-3,-1.6573861E-2,-1.5777899E-3,-7.14136E-3,-4.531018E-4,-6.033754E-3,5.0907843E-3,8.948046E-3,2.7325924E-3,5.0776745E-3],"categories":[],"categories_nodes":[],"categories_segments":[],"categories_sizes":[],"default_left":[0,0,0,0,0,0,0,0,0,0,0,0,0,0,0,0,0,0,0,0,0,0,0,0,0,0,0,0,0,0,0,0,0,0,0,0,0,0,0,0,0,0,0,0,0,0,0,0,0],"id":3,"left_children":[1,3,5,7,9,11,13,15,17,-1,-1,19,21,23,25,-1,27,29,31,-1,33,35,-1,-1,37,-1,-1,39,41,-1,-1,43,-1,45,-1,-1,47,-1,-1,-1,-1,-1,-1,-1,-1,-1,-1,-1,-1],"loss_changes":[8.385707E0,1.5943587E0,1.1399736E0,9.440818E-1,1.5098095E-2,2.0056438E-1,3.37937E-1,7.1372795E-1,3.765822E-1,0E0,0E0,4.265785E-3,2.9254854E-2,7.755129E-2,1.5649915E-2,0E0,6.487322E-1,4.6981238E-2,1.0219714E-1,0E0,6.9069862E-3,3.9002448E-3,0E0,0E0,6.149605E-3,0E0,0E0,4.210925E-1,9.999058E-2,0E0,0E0,6.117493E-2,0E0,4.872322E-3,0E0,0E0,2.2587627E-3,0E0,0E0,0E0,0E0,0E0,0E0,0E0,0E0,0E0,0E0,0E0,0E0],"parents":[2147483647,0,0,1,1,2,2,3,3,4,4,5,5,6,6,7,7,8,8,11,11,12,12,13,13,14,14,16,16,17,17,18,18,20,20,21,21,24,24,27,27,28,28,31,31,33,33,36,36],"right_children":[2,4,6,8,10,12,14,16,18,-1,-1,20,22,24,26,-1,28,30,32,-1,34,36,-1,-1,38,-1,-1,40,42,-1,-1,44,-1,46,-1,-1,48,-1,-1,-1,-1,-1,-1,-1,-1,-1,-1,-1,-1],"split_conditions":[-1.2147588E0,-5.3514957E-2,3.98452E-1,-2.9738107E-1,-7.763845E-2,1.2069198E-1,-2.877307E-2,-3.1767628E-1,-9.323359E-2,3.8178836E-3,7.165803E-3,-1.0557419E-1,2.3510672E-1,-2.5862944E-1,-4.1735187E-2,-6.454556E-4,-4.7212723E-1,-3.0324236E-2,3.4566293E0,8.2091885E-3,-4.5858926E-1,-2.8147435E-1,8.336087E-3,8.6078966E-5,1.6960329E-1,7.753829E-3,3.2718617E-3,-2.734269E-1,-1.8555295E-1,1.7384262E-4,6.0666227E-3,4.9729772E-2,2.0041654E-4,-1.4768437E-2,1.06327925E-2,2.3359836E-3,1.7491403E-1,-3.3296698E-3,-6.6961036E-3,-9.751924E-3,-1.6573861E-2,-1.5777899E-3,-7.14136E-3,-4.531018E-4,-6.033754E-3,5.0907843E-3,8.948046E-3,2.7325924E-3,5.0776745E-3],"split_indices":[385,175,106,293,273,120,334,130,73,0,0,88,212,51,4,0,216,13,390,0,199,39,0,0,0,0,0,6,5,0,0,0,0,258,0,0,257,0,0,0,0,0,0,0,0,0,0,0,0],"split_type":[0,0,0,0,0,0,0,0,0,0,0,0,0,0,0,0,0,0,0,0,0,0,0,0,0,0,0,0,0,0,0,0,0,0,0,0,0,0,0,0,0,0,0,0,0,0,0,0,0],"sum_hessian":[4.632866E2,2.5449808E2,2.0878853E2,2.3054077E2,2.3957314E1,1.7204099E2,3.674754E1,1.5712712E2,7.341365E1,1.033947E1,1.3617844E1,1.4175691E2,3.0284077E1,2.4563787E1,1.2183753E1,1.9595284E1,1.3753183E2,1.483218E1,5.858147E1,3.2623154E1,1.0913375E2,2.4629505E1,5.6545715E0,7.99837E0,1.6565416E1,5.9226875E0,6.261065E0,1.0457514E2,3.295669E1,5.0073957E0,9.824784E0,4.8949688E1,9.6317835E0,1.8368385E1,9.0765366E1,6.628225E0,1.800128E1,5.441722E0,1.1123695E1,5.984818E1,4.4726963E1,1.5968912E1,1.6987778E1,5.7151403E0,4.3234547E1,6.6879873E0,1.1680399E1,5.8898735E0,1.2111407E1],"tree_param":{"num_deleted":"0","num_feature":"403","num_nodes":"49","size_leaf_vector":"1"}},{"base_weights":[8.572848E-3,-1.02006584E-1,1.2397576E-1,-1.6992351E-1,-2.8594856E-3,1.6847958E-1,-7.171334E-2,-2.796218E-1,-6.314115E-2,7.544938E-2,-6.27321E-2,5.4487776E-2,1.7984681E-1,1.6642056E-2,-1.5430667E-1,-4.637893E-3,-1.5959015E-2,3.249451E-2,-9.441428E-3,1.1004393E-1,2.1313712E-2,-4.340038E-2,-1.0177946E-2,6.6408934E-4,4.624581E-3,1.8694605E-1,1.0979525E-1,-3.8673773E-3,5.3485975E-2,-9.145523E-3,-4.799023E-3,1.0988632E-1,-3.1097533E-2,7.433116E-3,1.8768081E-3,-2.9026252E-5,2.3597956E-3,-3.8379026E-3,1.6950129E-2,6.700601E-3,1.9211227E-1,7.377741E-3,3.4839269E-3,1.3558319E-3,4.2778607E-3,1.37942E-3,7.309695E-3,1.0009165E-3,-2.5543717E-3,-2.8772125E-4,2.7728516E-3,9.852952E-3,6.43359E-3],"categories":[],"categories_nodes":[],"categories_segments":[],"categories_sizes":[],"default_left":[0,0,0,0,0,0,0,0,0,0,0,0,0,0,0,0,0,0,0,0,0,0,0,0,0,0,0,0,0,0,0,0,0,0,0,0,0,0,0,0,0,0,0,0,0,0,0,0,0,0,0,0,0],"id":4,"left_children":[1,3,5,7,9,11,13,15,17,19,21,23,25,27,29,-1,-1,31,-1,33,35,37,-1,-1,-1,39,41,-1,43,-1,-1,45,47,-1,-1,-1,-1,-1,49,-1,51,-1,-1,-1,-1,-1,-1,-1,-1,-1,-1,-1,-1],"loss_changes":[5.7847166E0,1.5586038E0,1.943557E0,1.5917125E0,4.5081544E-1,2.2471905E-1,3.0756178E-1,4.6919632E-1,8.585136E-1,7.5709775E-2,1.3944075E-1,2.6718322E-2,6.110382E-2,7.718867E-2,1.8645167E-2,0E0,0E0,2.0580682E-1,0E0,6.4950675E-2,9.938458E-3,1.0027032E-1,0E0,0E0,0E0,1.4622688E-2,1.6268402E-2,0E0,1.0996174E-2,0E0,0E0,5.205138E-2,2.4885641E-2,0E0,0E0,0E0,0E0,0E0,1.6335335E-2,0E0,1.6126156E-2,0E0,0E0,0E0,0E0,0E0,0E0,0E0,0E0,0E0,0E0,0E0,0E0],"parents":[2147483647,0,0,1,1,2,2,3,3,4,4,5,5,6,6,7,7,8,8,9,9,10,10,11,11,12,12,13,13,14,14,17,17,19,19,20,20,21,21,25,25,26,26,28,28,31,31,32,32,38,38,40,40],"right_children":[2,4,6,8,10,12,14,16,18,20,22,24,26,28,30,-1,-1,32,-1,34,36,38,-1,-1,-1,40,42,-1,44,-1,-1,46,48,-1,-1,-1,-1,-1,50,-1,52,-1,-1,-1,-1,-1,-1,-1,-1,-1,-1,-1,-1],"split_conditions":[-1.2683704E0,-4.657804E-1,1.3011471E0,1.8373682E-1,-1.06431425E-1,-6.47746E-1,3.6445838E-1,-1.2823194E-2,4.6968454E-1,1.9178162E0,2.295561E0,-6.0247236E-1,9.452486E-1,-1.2086795E-1,-1.0472968E-1,-4.637893E-3,-1.5959015E-2,-1.8647857E-1,-9.441428E-3,-5.855298E-2,-4.2485455E-1,-8.253364E-2,-1.0177946E-2,6.6408934E-4,4.624581E-3,-2.8674573E-2,-9.207645E-2,-3.8673773E-3,-5.143726E-2,-9.145523E-3,-4.799023E-3,2.5071055E-3,-3.066933E-1,7.433116E-3,1.8768081E-3,-2.9026252E-5,2.3597956E-3,-3.8379026E-3,-7.350892E-2,6.700601E-3,3.0868688E-1,7.377741E-3,3.4839269E-3,1.3558319E-3,4.2778607E-3,1.37942E-3,7.309695E-3,1.0009165E-3,-2.5543717E-3,-2.8772125E-4,2.7728516E-3,9.852952E-3,6.43359E-3],"split_indices":[385,226,389,153,17,60,106,91,227,392,389,62,389,10,51,0,0,159,0,255,3,92,0,0,0,290,249,0,178,0,0,18,3,0,0,0,0,0,1,0,266,0,0,0,0,0,0,0,0,0,0,0,0],"split_type":[0,0,0,0,0,0,0,0,0,0,0,0,0,0,0,0,0,0,0,0,0,0,0,0,0,0,0,0,0,0,0,0,0,0,0,0,0,0,0,0,0,0,0,0,0,0,0,0,0,0,0,0,0],"sum_hessian":[4.5131448E2,2.3053307E2,2.2078142E2,1.3639027E2,9.41428E1,1.7998752E2,4.0793903E1,6.6478165E1,6.99121E1,4.067838E1,5.3464417E1,1.6846119E1,1.6314139E2,2.009524E1,2.0698666E1,1.2198848E1,5.4279316E1,4.0123535E1,2.9788568E1,2.418841E1,1.648997E1,4.8161346E1,5.30307E0,8.730014E0,8.116105E0,1.4661433E2,1.6527063E1,5.349422E0,1.4745817E1,1.2454741E1,8.243925E0,1.7769718E1,2.2353819E1,1.5097194E1,9.091217E0,9.46279E0,7.0271797E0,3.0842072E1,1.7319275E1,1.5432268E1,1.3118207E2,7.1340513E0,9.393012E0,9.105052E0,5.640765E0,5.978402E0,1.1791316E1,6.2839103E0,1.6069908E1,1.1430281E1,5.8889947E0,1.19739174E2,1.1442889E1],"tree_param":{"num_deleted":"0","num_feature":"403","num_nodes":"53","size_leaf_vector":"1"}},{"base_weights":[-1.9059464E-3,-8.9182496E-2,1.4831595E-1,8.179261E-2,-1.2696807E-1,1.6361743E-1,-7.403761E-2,7.53865E-3,1.5737932E-2,-1.8583521E-1,-4.1310605E-2,8.950173E-2,1.7823713E-1,-1.9203228E-3,-4.962059E-3,4.6818655E-2,-2.5183063E-3,-8.860333E-2,-2.594182E-1,8.406867E-2,-6.512183E-2,1.18766986E-1,4.573333E-2,6.367898E-3,1.8302062E-1,7.297571E-4,3.2635627E-3,4.546184E-2,-1.305989E-1,-1.4570707E-2,-1.9088599E-1,6.13334E-3,-2.2840181E-4,2.2320438E-2,-7.988412E-2,3.8035538E-3,6.912117E-3,2.8797898E-3,1.3203322E-3,1.9097704E-1,7.001401E-3,6.8334276E-3,-4.75293E-4,-4.120715E-3,-8.233305E-3,-6.0475557E-3,-1.0419551E-2,-4.2157652E-4,2.2996224E-3,-4.900151E-3,-1.8862756E-3,6.2615387E-3,9.766711E-3],"categories":[],"categories_nodes":[],"categories_segments":[],"categories_sizes":[],"default_left":[0,0,0,0,0,0,0,0,0,0,0,0,0,0,0,0,0,0,0,0,0,0,0,0,0,0,0,0,0,0,0,0,0,0,0,0,0,0,0,0,0,0,0,0,0,0,0,0,0,0,0,0,0],"id":5,"left_children":[1,3,5,7,9,11,13,-1,15,17,19,21,23,-1,-1,25,-1,27,29,31,33,35,37,-1,39,-1,-1,41,43,-1,45,-1,-1,47,49,-1,-1,-1,-1,51,-1,-1,-1,-1,-1,-1,-1,-1,-1,-1,-1,-1,-1],"loss_changes":[6.377036E0,1.9978533E0,6.202686E-1,2.5411442E-1,1.2647667E0,1.6559505E-1,7.1418583E-3,0E0,6.373133E-2,1.045033E0,3.161726E-1,3.2499894E-2,1.0504723E-2,0E0,0E0,1.1436995E-2,0E0,3.765341E-1,1.2955856E-1,5.888024E-2,1.1540949E-1,3.7200153E-3,1.5724134E-3,0E0,1.5916348E-2,0E0,0E0,8.373302E-2,6.913036E-2,0E0,1.1250138E-2,0E0,0E0,1.0212187E-2,5.399689E-2,0E0,0E0,0E0,0E0,4.896879E-3,0E0,0E0,0E0,0E0,0E0,0E0,0E0,0E0,0E0,0E0,0E0,0E0,0E0],"parents":[2147483647,0,0,1,1,2,2,3,3,4,4,5,5,6,6,8,8,9,9,10,10,11,11,12,12,15,15,17,17,18,18,19,19,20,20,21,21,22,22,24,24,27,27,28,28,30,30,33,33,34,34,39,39],"right_children":[2,4,6,8,10,12,14,-1,16,18,20,22,24,-1,-1,26,-1,28,30,32,34,36,38,-1,40,-1,-1,42,44,-1,46,-1,-1,48,50,-1,-1,-1,-1,52,-1,-1,-1,-1,-1,-1,-1,-1,-1,-1,-1,-1,-1],"split_conditions":[-5.3514957E-2,6.0171083E-2,8.808334E-1,2.0079727E0,-4.6252236E-2,-3.7186006E-1,7.9318327E-1,7.53865E-3,-1.4936209E-1,-3.3699673E-1,-2.4627174E-1,-3.9892924E-1,-3.414406E-2,-1.9203228E-3,-4.962059E-3,-1.4116387E-1,-2.5183063E-3,-4.8401803E-1,-5.6154337E-2,5.174408E-1,4.169701E-2,1.7716773E0,-6.904177E-2,6.367898E-3,2.0864516E-1,7.297571E-4,3.2635627E-3,1.7630568E-1,-9.392779E-2,-1.4570707E-2,-7.3508434E-2,6.13334E-3,-2.2840181E-4,-1.294648E-1,7.011476E-2,3.8035538E-3,6.912117E-3,2.8797898E-3,1.3203322E-3,-4.3921718E-1,7.001401E-3,6.8334276E-3,-4.75293E-4,-4.120715E-3,-8.233305E-3,-6.0475557E-3,-1.0419551E-2,-4.2157652E-4,2.2996224E-3,-4.900151E-3,-1.8862756E-3,6.2615387E-3,9.766711E-3],"split_indices":[175,260,318,389,31,20,16,0,4,195,380,214,290,0,0,323,0,76,12,345,292,392,2,0,240,0,0,66,4,0,4,0,0,2,185,0,0,0,0,264,0,0,0,0,0,0,0,0,0,0,0,0,0],"split_type":[0,0,0,0,0,0,0,0,0,0,0,0,0,0,0,0,0,0,0,0,0,0,0,0,0,0,0,0,0,0,0,0,0,0,0,0,0,0,0,0,0,0,0,0,0,0,0,0,0,0,0,0,0],"sum_hessian":[4.8438498E2,3.0663895E2,1.7774603E2,5.5290688E1,2.5134827E2,1.6654897E2,1.1197074E1,2.6418987E1,2.8871698E1,1.48277E2,1.0307126E2,2.8613338E1,1.3793562E2,5.684521E0,5.5125527E0,1.9836664E1,9.035035E0,6.4823685E1,8.3453316E1,1.6046568E1,8.702469E1,1.612081E1,1.249253E1,1.4227758E1,1.2370787E2,7.875223E0,1.1961441E1,1.5442633E1,4.9381054E1,5.4674793E1,2.8778519E1,1.09112015E1,5.1353664E0,1.2495779E1,7.4528915E1,6.5867233E0,9.534086E0,6.5141273E0,5.978402E0,1.01484566E2,2.2223307E1,5.24815E0,1.0194483E1,2.1868887E1,2.7512169E1,7.344757E0,2.1433762E1,5.7151403E0,6.7806387E0,5.119971E1,2.33292E1,8.156162E0,9.33284E1],"tree_param":{"num_deleted":"0","num_feature":"403","num_nodes":"53","size_leaf_vector":"1"}},{"base_weights":[-9.988623E-3,1.2573726E-1,-1.137621E-1,-1.0558984E-2,1.441662E-1,-1.6937894E-1,9.773071E-3,1.6367655E-1,2.1410415E-2,-8.885565E-2,-2.3336454E-1,6.1876286E-2,-9.4402246E-2,1.7015237E-1,1.1080147E-1,4.193894E-3,2.7697864E-3,-1.4277378E-2,-5.929935E-2,-1.8695968E-1,-1.4232862E-2,8.532973E-2,1.4761775E-2,-1.24751754E-1,-1.5963841E-3,1.7535268E-1,5.962587E-3,6.6005224E-3,2.7618872E-3,-5.3152273E-4,1.6238695E-3,6.703958E-3,-7.668058E-2,-6.0645654E-3,-2.1047196E-1,1.0258306E-1,2.4274054E-3,-1.533058E-4,1.6150838E-3,-8.078783E-3,-4.9497583E-3,9.19009E-3,6.5923096E-3,-4.4537582E-3,2.018033E-3,-1.108496E-2,-6.8070847E-3,6.1592255E-3,3.4154244E-3],"categories":[],"categories_nodes":[],"categories_segments":[],"categories_sizes":[],"default_left":[0,0,0,0,0,0,0,0,0,0,0,0,0,0,0,0,0,0,0,0,0,0,0,0,0,0,0,0,0,0,0,0,0,0,0,0,0,0,0,0,0,0,0,0,0,0,0,0,0],"id":6,"left_children":[1,3,5,-1,7,9,11,13,15,17,19,21,23,25,27,-1,29,-1,31,33,-1,35,37,39,-1,41,-1,-1,-1,-1,-1,-1,43,-1,45,47,-1,-1,-1,-1,-1,-1,-1,-1,-1,-1,-1,-1,-1],"loss_changes":[6.6064982E0,1.2925696E0,1.8276312E0,0E0,4.5950985E-1,9.2375946E-1,4.5880175E-1,3.8213253E-2,3.197939E-2,4.6432316E-1,1.8844938E-1,6.08771E-2,4.9521178E-2,1.7896652E-2,1.7516166E-2,0E0,9.238367E-3,0E0,2.5641993E-1,6.1274886E-2,0E0,1.8712282E-2,6.3211923E-3,1.691848E-3,0E0,2.3881912E-2,0E0,0E0,0E0,0E0,0E0,0E0,1.0199055E-1,0E0,3.2294989E-3,8.895636E-3,0E0,0E0,0E0,0E0,0E0,0E0,0E0,0E0,0E0,0E0,0E0,0E0,0E0],"parents":[2147483647,0,0,1,1,2,2,4,4,5,5,6,6,7,7,8,8,9,9,10,10,11,11,12,12,13,13,14,14,16,16,18,18,19,19,21,21,22,22,23,23,25,25,32,32,34,34,35,35],"right_children":[2,4,6,-1,8,10,12,14,16,18,20,22,24,26,28,-1,30,-1,32,34,-1,36,38,40,-1,42,-1,-1,-1,-1,-1,-1,44,-1,46,48,-1,-1,-1,-1,-1,-1,-1,-1,-1,-1,-1,-1,-1],"split_conditions":[1.1784703E0,-1.6856737E0,3.012249E-1,-1.0558984E-2,1.7630568E-1,9.487222E-2,6.289727E-1,8.7948954E-1,-1.08688414E-1,-1.3176216E-1,-8.873472E-2,-2.1527767E-2,2.1466038E0,3.8978836E-1,-2.2295153E-1,4.193894E-3,-7.7173814E-2,-1.4277378E-2,-1.1688724E-1,2.126019E0,-1.4232862E-2,2.2420175E0,-2.064141E-1,1.6960329E-1,-1.5963841E-3,-1.1107345E-1,5.962587E-3,6.6005224E-3,2.7618872E-3,-5.3152273E-4,1.6238695E-3,6.703958E-3,1.3868159E-1,-6.0645654E-3,-1.47452615E-2,-4.7830334E-1,2.4274054E-3,-1.533058E-4,1.6150838E-3,-8.078783E-3,-4.9497583E-3,9.19009E-3,6.5923096E-3,-4.4537582E-3,2.018033E-3,-1.108496E-2,-6.8070847E-3,6.1592255E-3,3.4154244E-3],"split_indices":[389,388,230,0,66,33,339,389,11,92,233,38,389,210,270,0,39,0,363,389,0,389,3,0,0,313,0,0,0,0,0,0,44,0,2,330,0,0,0,0,0,0,0,0,0,0,0,0,0],"split_type":[0,0,0,0,0,0,0,0,0,0,0,0,0,0,0,0,0,0,0,0,0,0,0,0,0,0,0,0,0,0,0,0,0,0,0,0,0,0,0,0,0,0,0,0,0,0,0,0,0],"sum_hessian":[4.6703778E2,2.0227266E2,2.6476514E2,9.947829E0,1.9232483E2,1.8231424E2,8.245089E1,1.6566182E2,2.6663008E1,8.178269E1,1.0053155E2,5.5232452E1,2.7218435E1,1.456103E2,2.0051516E1,5.3234887E0,2.133952E1,9.552352E0,7.223034E1,5.521927E1,4.531228E1,3.6334263E1,1.8898188E1,1.7648252E1,9.570183E0,1.2989452E2,1.571579E1,1.35163965E1,6.5351195E0,1.5148592E1,6.1909275E0,5.403093E0,6.682725E1,1.6182142E1,3.903713E1,2.3514997E1,1.2819268E1,9.781388E0,9.116799E0,5.093279E0,1.2554974E1,1.0607054E2,2.382398E1,6.064403E1,6.183216E0,3.2192043E1,6.8450837E0,1.3066844E1,1.0448153E1],"tree_param":{"num_deleted":"0","num_feature":"403","num_nodes":"49","size_leaf_vector":"1"}},{"base_weights":[-7.605179E-3,-1.1173545E-1,1.193989E-1,-1.9668326E-1,-4.641265E-2,1.4905341E-1,-2.9885497E-2,-2.5616348E-1,-5.0684154E-2,6.258854E-2,-1.00662895E-1,1.7105989E-3,1.5855615E-1,-9.7628176E-2,4.8924502E-2,-1.3625373E-2,-7.6425537E-3,2.558575E-3,-8.0404975E-2,1.13278955E-1,2.6729524E-2,-2.4483154E-2,-1.6417296E-1,1.6325484E-1,1.0616645E-1,-7.5932974E-3,-2.6620962E-3,1.3681448E-3,3.6030083E-3,-2.9910554E-3,-5.1424964E-3,7.3381574E-3,8.463825E-2,4.522196E-2,-4.2945068E-4,-6.409304E-2,7.330229E-3,-1.1256693E-1,-9.474008E-3,1.6734186E-1,5.829124E-3,6.4997817E-3,2.6770614E-3,2.783799E-3,5.0419597E-3,2.6325413E-3,1.1942184E-3,-4.5407275E-3,6.4106233E-4,-3.778562E-3,-9.046711E-3,8.585392E-3,5.6743347E-3],"categories":[],"categories_nodes":[],"categories_segments":[],"categories_sizes":[],"default_left":[0,0,0,0,0,0,0,0,0,0,0,0,0,0,0,0,0,0,0,0,0,0,0,0,0,0,0,0,0,0,0,0,0,0,0,0,0,0,0,0,0,0,0,0,0,0,0,0,0,0,0,0,0],"id":7,"left_children":[1,3,5,7,9,11,13,15,17,19,21,-1,23,25,27,-1,-1,-1,29,31,33,35,37,39,41,-1,-1,-1,-1,-1,-1,-1,43,45,-1,47,-1,49,-1,51,-1,-1,-1,-1,-1,-1,-1,-1,-1,-1,-1,-1,-1],"loss_changes":[6.170789E0,1.4133711E0,9.35184E-1,9.520526E-1,8.7097216E-1,1.8617272E-1,1.9523858E-1,9.1255665E-2,1.0526871E-1,8.641863E-2,4.7019714E-1,0E0,2.2515297E-2,3.890325E-2,6.5866895E-3,0E0,0E0,0E0,5.977705E-3,6.8342984E-3,2.0066632E-2,3.193525E-1,4.825127E-2,8.471966E-3,1.333335E-2,0E0,0E0,0E0,0E0,0E0,0E0,0E0,5.72145E-4,1.9024163E-3,0E0,7.8926146E-2,0E0,3.6896586E-2,0E0,1.1687994E-2,0E0,0E0,0E0,0E0,0E0,0E0,0E0,0E0,0E0,0E0,0E0,0E0,0E0],"parents":[2147483647,0,0,1,1,2,2,3,3,4,4,5,5,6,6,7,7,8,8,9,9,10,10,12,12,13,13,14,14,18,18,19,19,20,20,21,21,22,22,23,23,24,24,32,32,33,33,35,35,37,37,39,39],"right_children":[2,4,6,8,10,12,14,16,18,20,22,-1,24,26,28,-1,-1,-1,30,32,34,36,38,40,42,-1,-1,-1,-1,-1,-1,-1,44,46,-1,48,-1,50,-1,52,-1,-1,-1,-1,-1,-1,-1,-1,-1,-1,-1,-1,-1],"split_conditions":[-1.2147588E0,1.4261702E-1,1.1503068E0,-4.6252236E-2,-1.0553085E-1,-2.9717666E-1,-1.8065028E-1,4.6967804E-2,2.9952355E-2,-8.596808E-3,-1.1556447E-3,1.7105989E-3,8.7948954E-1,4.022817E-1,-3.8388747E-1,-1.3625373E-2,-7.6425537E-3,2.558575E-3,-7.2139144E-2,8.872642E-2,5.9121374E-2,5.2277243E-1,-7.3508434E-2,8.5659504E-2,5.7452127E-2,-7.5932974E-3,-2.6620962E-3,1.3681448E-3,3.6030083E-3,-2.9910554E-3,-5.1424964E-3,7.3381574E-3,1.7716773E0,-1.07091025E-1,-4.2945068E-4,2.1466038E0,7.330229E-3,2.1326013E0,-9.474008E-3,4.851402E-1,5.829124E-3,6.4997817E-3,2.6770614E-3,2.783799E-3,5.0419597E-3,2.6325413E-3,1.1942184E-3,-4.5407275E-3,6.4106233E-4,-3.778562E-3,-9.046711E-3,8.585392E-3,5.6743347E-3],"split_indices":[385,42,389,31,304,5,315,11,95,211,1,0,389,32,199,0,0,0,2,310,45,25,4,55,38,0,0,0,0,0,0,0,392,1,0,389,0,389,0,210,0,0,0,0,0,0,0,0,0,0,0,0,0],"split_type":[0,0,0,0,0,0,0,0,0,0,0,0,0,0,0,0,0,0,0,0,0,0,0,0,0,0,0,0,0,0,0,0,0,0,0,0,0,0,0,0,0,0,0,0,0,0,0,0,0,0,0,0,0],"sum_hessian":[4.645926E2,2.5535115E2,2.0924144E2,1.1012727E2,1.4522388E2,1.7456636E2,3.4675083E1,7.771253E1,3.241474E1,4.8208412E1,9.701547E1,1.3692436E1,1.6087392E2,1.8518427E1,1.6156656E1,6.56837E1,1.2028834E1,7.1588955E0,2.5255848E1,1.9079115E1,2.9129297E1,4.473807E1,5.22774E1,1.4569112E2,1.5182802E1,7.2445226E0,1.1273904E1,9.492604E0,6.6640515E0,1.5085989E1,1.0169859E1,6.894448E0,1.2184668E1,1.8934814E1,1.0194483E1,3.6835396E1,7.902676E0,1.8993717E1,3.3283684E1,1.3158318E2,1.4107949E1,9.438673E0,5.7441297E0,5.9623737E0,6.222294E0,1.2956411E1,5.978402E0,2.720361E1,9.6317835E0,1.3690647E1,5.30307E0,1.19691605E2,1.1891571E1],"tree_param":{"num_deleted":"0","num_feature":"403","num_nodes":"53","size_leaf_vector":"1"}},{"base_weights":[5.8097285E-3,1.1117361E-1,-8.050382E-2,-1.2925327E-2,1.3043183E-1,2.3722239E-2,-1.2057003E-1,3.3576727E-2,1.4801641E-1,5.3187713E-2,-3.151831E-3,5.7426346E-3,-1.3492244E-1,8.470512E-3,4.7554476E-3,1.5427369E-1,9.873967E-2,6.944809E-2,-1.7278735E-3,-1.9358543E-1,-6.2362578E-2,-5.192772E-4,2.1162215E-3,1.566583E-1,3.992392E-3,1.7917006E-3,5.8013857E-3,6.8394304E-3,5.1264353E-2,-1.524984E-1,-1.4051678E-2,3.0159096E-3,-7.9733044E-2,8.0087995E-3,5.1250546E-3,2.999425E-3,1.3740355E-3,-3.3145882E-3,-8.6663775E-3,-5.8111236E-3,-2.2619544E-3],"categories":[],"categories_nodes":[],"categories_segments":[],"categories_sizes":[],"default_left":[0,0,0,0,0,0,0,0,0,0,0,0,0,0,0,0,0,0,0,0,0,0,0,0,0,0,0,0,0,0,0,0,0,0,0,0,0,0,0,0,0],"id":8,"left_children":[1,3,5,-1,7,9,11,13,15,17,-1,-1,19,21,-1,23,25,27,-1,29,31,-1,-1,33,-1,-1,-1,-1,35,37,-1,-1,39,-1,-1,-1,-1,-1,-1,-1,-1],"loss_changes":[4.245743E0,1.5302474E0,1.0746866E0,0E0,3.36447E-1,1.876821E-1,6.424868E-1,4.877745E-2,3.698945E-2,7.9969674E-2,0E0,0E0,7.343559E-1,1.5691612E-2,0E0,1.3847113E-2,1.9616663E-2,4.955934E-2,0E0,3.0382824E-1,1.7501223E-1,0E0,0E0,1.0796547E-2,0E0,0E0,0E0,0E0,6.2312707E-3,1.1031079E-1,0E0,0E0,8.334422E-2,0E0,0E0,0E0,0E0,0E0,0E0,0E0,0E0],"parents":[2147483647,0,0,1,1,2,2,4,4,5,5,6,6,7,7,8,8,9,9,12,12,13,13,15,15,16,16,17,17,19,19,20,20,23,23,28,28,29,29,32,32],"right_children":[2,4,6,-1,8,10,12,14,16,18,-1,-1,20,22,-1,24,26,28,-1,30,32,-1,-1,34,-1,-1,-1,-1,36,38,-1,-1,40,-1,-1,-1,-1,-1,-1,-1,-1],"split_conditions":[1.1784703E0,-1.4009421E0,-3.7975147E-2,-1.2925327E-2,-5.5038625E-1,3.0906644E-1,-2.2467604E-1,2.2666564E0,8.7948954E-1,-1.1225447E-2,-3.151831E-3,5.7426346E-3,-4.4222973E-2,-2.2974184E-1,4.7554476E-3,8.7533677E-1,-2.1755086E-1,-1.5620008E-1,-1.7278735E-3,4.540799E-1,1.1297582E-1,-5.192772E-4,2.1162215E-3,3.1182665E-1,3.992392E-3,1.7917006E-3,5.8013857E-3,6.8394304E-3,-2.9396832E-1,4.1866034E-2,-1.4051678E-2,3.0159096E-3,5.374819E-3,8.0087995E-3,5.1250546E-3,2.999425E-3,1.3740355E-3,-3.3145882E-3,-8.6663775E-3,-5.8111236E-3,-2.2619544E-3],"split_indices":[389,389,78,0,115,364,131,392,389,136,0,0,31,41,0,318,241,188,0,109,374,0,0,266,0,0,0,0,121,362,0,0,199,0,0,0,0,0,0,0,0],"split_type":[0,0,0,0,0,0,0,0,0,0,0,0,0,0,0,0,0,0,0,0,0,0,0,0,0,0,0,0,0,0,0,0,0,0,0,0,0,0,0,0,0],"sum_hessian":[4.648719E2,2.0920503E2,2.5566685E2,9.743625E0,1.9946141E2,7.11053E1,1.8456155E2,3.1095907E1,1.6836551E2,5.3367363E1,1.773794E1,1.020279E1,1.7435876E2,2.2892876E1,8.203031E0,1.4750427E2,2.0861223E1,4.5199757E1,8.167605E0,9.548964E1,7.8869125E1,1.5148592E1,7.7442837E0,1.4185435E2,5.6499233E0,5.1596537E0,1.57015705E1,8.223348E0,3.697641E1,6.683259E1,2.8657055E1,9.475429E0,6.939369E1,1.3136424E2,1.0490111E1,2.5939285E1,1.1037123E1,1.3819551E1,5.301303E1,3.257008E1,3.6823616E1],"tree_param":{"num_deleted":"0","num_feature":"403","num_nodes":"41","size_leaf_vector":"1"}},{"base_weights":[-1.216226E-2,1.3223426E-1,-8.541686E-2,1.4265808E-1,-4.340732E-3,-1.5157989E-1,3.0975541E-2,1.4948626E-1,8.465299E-2,-3.7148222E-2,-1.8226182E-1,7.016915E-2,-4.7297213E-2,1.1780017E-1,1.578587E-1,2.7561588E-3,5.5876435E-3,5.415349E-2,-1.3086155E-1,-7.71817E-4,-2.0546804E-1,4.8001796E-2,6.3548232E-3,3.552724E-2,-1.2698919E-1,6.2384703E-3,3.7299674E-3,1.6138196E-1,4.2234305E-3,4.747807E-3,7.1453955E-3,-7.823071E-3,-4.643848E-3,-2.1895087E-1,1.3701514E-3,1.6821763E-2,7.3459074E-2,2.5746224E-3,5.159874E-4,-2.0524745E-3,-8.194539E-3,8.529483E-3,6.767159E-3,-3.592335E-4,1.0513708E-3,-8.40808E-3,-1.26690585E-2,-1.3101421E-4,1.4778553E-3,1.995336E-3,4.8423503E-3],"categories":[],"categories_nodes":[],"categories_segments":[],"categories_sizes":[],"default_left":[0,0,0,0,0,0,0,0,0,0,0,0,0,0,0,0,0,0,0,0,0,0,0,0,0,0,0,0,0,0,0,0,0,0,0,0,0,0,0,0,0,0,0,0,0,0,0,0,0,0,0],"id":9,"left_children":[1,3,5,7,-1,9,11,13,15,17,19,21,23,25,27,-1,-1,29,31,-1,33,35,-1,37,39,-1,-1,41,-1,-1,43,-1,-1,45,-1,47,49,-1,-1,-1,-1,-1,-1,-1,-1,-1,-1,-1,-1,-1,-1],"loss_changes":[4.9631906E0,3.730483E-1,2.401123E0,4.7214985E-2,0E0,6.904254E-1,3.518619E-1,1.693511E-2,8.424923E-3,3.7706974E-1,6.020565E-1,8.994219E-2,2.5866482E-1,3.066957E-4,1.3001204E-2,0E0,0E0,4.2688556E-2,6.5030456E-3,0E0,4.3665314E-1,4.3520138E-2,0E0,7.3818583E-3,5.6198984E-2,0E0,0E0,2.1219254E-4,0E0,0E0,2.4561647E-3,0E0,0E0,1.8431187E-1,0E0,6.6737277E-3,2.0260572E-2,0E0,0E0,0E0,0E0,0E0,0E0,0E0,0E0,0E0,0E0,0E0,0E0,0E0,0E0],"parents":[2147483647,0,0,1,1,2,2,3,3,5,5,6,6,7,7,8,8,9,9,10,10,11,11,12,12,13,13,14,14,17,17,18,18,20,20,21,21,23,23,24,24,27,27,30,30,33,33,35,35,36,36],"right_children":[2,4,6,8,-1,10,12,14,16,18,20,22,24,26,28,-1,-1,30,32,-1,34,36,-1,38,40,-1,-1,42,-1,-1,44,-1,-1,46,-1,48,50,-1,-1,-1,-1,-1,-1,-1,-1,-1,-1,-1,-1,-1,-1],"split_conditions":[4.4859946E-3,7.2987163E-1,1.9381502E-1,1.24871574E-1,-4.340732E-3,2.1598598E-1,2.84668E0,-1.0973519E-1,-1.4508031E-2,1.4876591E0,-3.1767628E-1,-3.312601E-1,-4.6312958E-2,1.8847953E-1,8.5960746E-1,2.7561588E-3,5.5876435E-3,2.3081377E-2,1.7920728E-1,-7.71817E-4,-1.7517492E-2,2.6244795E-1,6.3548232E-3,-3.829919E-2,-2.1867096E-1,6.2384703E-3,3.7299674E-3,2.2718813E-1,4.2234305E-3,4.747807E-3,-4.659142E-1,-7.823071E-3,-4.643848E-3,-4.9665314E-1,1.3701514E-3,-9.628734E-2,2.1418956E-1,2.5746224E-3,5.159874E-4,-2.0524745E-3,-8.194539E-3,8.529483E-3,6.767159E-3,-3.592335E-4,1.0513708E-3,-8.40808E-3,-1.26690585E-2,-1.3101421E-4,1.4778553E-3,1.995336E-3,4.8423503E-3],"split_indices":[120,75,42,213,0,375,389,88,308,389,130,336,211,204,284,0,0,328,0,0,342,126,0,285,4,0,0,166,0,0,5,0,0,5,0,12,82,0,0,0,0,0,0,0,0,0,0,0,0,0,0],"split_type":[0,0,0,0,0,0,0,0,0,0,0,0,0,0,0,0,0,0,0,0,0,0,0,0,0,0,0,0,0,0,0,0,0,0,0,0,0,0,0,0,0,0,0,0,0,0,0,0,0,0,0],"sum_hessian":[4.6714438E2,1.5695529E2,3.101891E2,1.5015848E2,6.796817E0,1.9757542E2,1.1261366E2,1.329329E2,1.722557E1,4.224159E1,1.5533383E2,7.510818E1,3.750548E1,3.0933378E1,1.01999535E2,9.695161E0,7.5304103E0,2.1609917E1,2.0631672E1,1.9172344E1,1.361615E2,5.538472E1,1.9723461E1,1.8663038E1,1.8842442E1,2.501051E1,5.922868E0,9.61831E1,5.816437E0,1.102249E1,1.0587427E1,1.0461812E1,1.0169859E1,1.2876596E2,7.3955407E0,2.5640749E1,2.974397E1,1.0787816E1,7.875223E0,6.2948494E0,1.2547592E1,6.695529E1,2.9227808E1,5.4470353E0,5.140392E0,5.4401142E1,7.4364815E1,1.0462588E1,1.5178161E1,1.3328782E1,1.6415188E1],"tree_param":{"num_deleted":"0","num_feature":"403","num_nodes":"51","size_leaf_vector":"1"}},{"base_weights":[-5.022693E-3,9.114243E-2,-1.0747794E-1,1.3622282E-1,-1.0579987E-2,-1.7779005E-1,-2.4569679E-2,1.4072666E-1,4.3584146E-3,-1.2577264E-1,2.9330455E-2,-2.2880346E-1,-3.2402545E-2,-7.814866E-2,5.6249067E-2,1.4994055E-1,1.1570122E-1,-2.9156732E-3,-7.501907E-3,-1.5312505E-3,4.422632E-2,-1.2164748E-2,-6.164918E-3,-1.1797104E-4,-4.432443E-3,-4.6259303E-2,-7.547793E-3,2.8400103E-2,6.246069E-3,5.990884E-3,1.5762138E-1,1.2563027E-1,3.635774E-3,3.373954E-2,4.5853816E-3,-9.032232E-2,5.462014E-3,2.0235933E-3,2.9250847E-3,8.113214E-3,4.9470514E-3,3.3732343E-3,6.828909E-3,2.343734E-3,4.9500325E-4,-2.9132762E-3,-6.0545364E-3,-5.484197E-4,1.0955036E-3,-4.4821893E-4,9.891122E-4],"categories":[],"categories_nodes":[],"categories_segments":[],"categories_sizes":[],"default_left":[0,0,0,0,0,0,0,0,0,0,0,0,0,0,0,0,0,0,0,0,0,0,0,0,0,0,0,0,0,0,0,0,0,0,0,0,0,0,0,0,0,0,0,0,0,0,0,0,0,0,0],"id":10,"left_children":[1,3,5,7,9,11,13,15,-1,17,19,21,23,25,27,29,31,-1,-1,-1,33,-1,-1,-1,-1,35,-1,37,-1,-1,39,41,-1,43,-1,45,47,49,-1,-1,-1,-1,-1,-1,-1,-1,-1,-1,-1,-1,-1],"loss_changes":[4.494293E0,1.0805779E0,1.282953E0,2.3774862E-2,3.4018338E-1,8.7763834E-1,4.482332E-1,1.6729116E-2,0E0,2.238959E-2,5.0625972E-2,1.0481024E-1,5.4136034E-2,1.370945E-1,7.571097E-2,5.3243637E-3,9.708047E-3,0E0,0E0,0E0,1.911325E-2,0E0,0E0,0E0,0E0,1.02126546E-1,0E0,2.4320306E-2,0E0,0E0,5.7982206E-3,1.2749374E-2,0E0,1.1470601E-2,0E0,1.6752392E-2,6.0393E-3,3.5806233E-3,0E0,0E0,0E0,0E0,0E0,0E0,0E0,0E0,0E0,0E0,0E0,0E0,0E0],"parents":[2147483647,0,0,1,1,2,2,3,3,4,4,5,5,6,6,7,7,9,9,10,10,11,11,12,12,13,13,14,14,15,15,16,16,20,20,25,25,27,27,30,30,31,31,33,33,35,35,36,36,37,37],"right_children":[2,4,6,8,10,12,14,16,-1,18,20,22,24,26,28,30,32,-1,-1,-1,34,-1,-1,-1,-1,36,-1,38,-1,-1,40,42,-1,44,-1,46,48,50,-1,-1,-1,-1,-1,-1,-1,-1,-1,-1,-1,-1,-1],"split_conditions":[2.9354945E-1,1.1503068E0,1.4261702E-1,8.872628E-2,-1.2775412E-1,-4.4222973E-2,-7.0306286E-2,4.4638285E-1,4.3584146E-3,-1.4086968E-1,-3.0161247E-2,-2.6380977E-1,-2.2635588E-1,-4.6552783E-1,6.35878E-2,-1.1149007E-1,2.6430372E-2,-2.9156732E-3,-7.501907E-3,-1.5312505E-3,-2.2988184E-1,-1.2164748E-2,-6.164918E-3,-1.1797104E-4,-4.432443E-3,1.809024E0,-7.547793E-3,-3.6805356E-1,6.246069E-3,5.990884E-3,3.0502367E-1,-5.699702E-2,3.635774E-3,-2.0902897E-1,4.5853816E-3,3.587296E-1,-3.919918E-1,-2.7428642E-2,2.9250847E-3,8.113214E-3,4.9470514E-3,3.3732343E-3,6.828909E-3,2.343734E-3,4.9500325E-4,-2.9132762E-3,-6.0545364E-3,-5.484197E-4,1.0955036E-3,-4.4821893E-4,9.891122E-4],"split_indices":[345,389,42,55,308,31,33,374,0,17,156,20,3,161,33,88,389,0,0,0,77,0,0,0,0,392,0,6,0,0,83,72,0,8,0,7,17,1,0,0,0,0,0,0,0,0,0,0,0,0,0],"split_type":[0,0,0,0,0,0,0,0,0,0,0,0,0,0,0,0,0,0,0,0,0,0,0,0,0,0,0,0,0,0,0,0,0,0,0,0,0,0,0,0,0,0,0,0,0,0,0,0,0,0,0],"sum_hessian":[4.5415775E2,2.3432721E2,2.1983055E2,1.621347E2,7.2192505E1,1.1833209E2,1.0149846E2,1.4678882E2,1.5345887E1,1.8022675E1,5.416983E1,8.7171646E1,3.1160442E1,6.1054962E1,4.0443497E1,1.03639275E2,4.3149544E1,5.668139E0,1.2354535E1,1.0569983E1,4.3599846E1,7.5495995E1,1.1675652E1,2.0990583E1,1.0169859E1,4.359558E1,1.7459381E1,2.9780176E1,1.0663319E1,2.442973E1,7.920955E1,3.3491024E1,9.65852E0,3.7113503E1,6.4863453E0,2.3137602E1,2.045798E1,1.644099E1,1.3339187E1,7.1766075E1,7.4434705E0,6.4396844E0,2.705134E1,2.330602E1,1.380748E1,1.274872E1,1.0388882E1,1.0401144E1,1.0056834E1,1.0462588E1,5.978402E0],"tree_param":{"num_deleted":"0","num_feature":"403","num_nodes":"51","size_leaf_vector":"1"}},{"base_weights":[-2.8358102E-3,-8.8802345E-2,8.969944E-2,-1.11055516E-1,6.882547E-2,1.1955025E-1,-3.295111E-2,-2.1546738E-1,-6.8818174E-2,3.213542E-2,5.6076827E-3,3.0470554E-2,1.273279E-1,-6.4751203E-3,1.9129643E-2,-7.5360625E-3,-1.1785868E-2,-1.0001581E-2,-4.6596E-2,9.467425E-4,1.8485803E-3,4.378089E-4,2.8886886E-3,1.3170236E-1,4.130279E-3,-2.2989113E-3,4.075521E-2,-6.556487E-2,8.7508574E-2,1.3894188E-1,1.0034984E-1,5.989329E-4,5.4715954E-2,-1.0191996E-3,-4.8425063E-3,-3.2088987E-4,6.5785707E-3,7.4818353E-3,5.8874786E-3,6.0866107E-3,2.5850628E-3,3.5206804E-3,1.9746323E-3],"categories":[],"categories_nodes":[],"categories_segments":[],"categories_sizes":[],"default_left":[0,0,0,0,0,0,0,0,0,0,0,0,0,0,0,0,0,0,0,0,0,0,0,0,0,0,0,0,0,0,0,0,0,0,0,0,0,0,0,0,0,0,0],"id":11,"left_children":[1,3,5,7,9,11,13,15,17,19,-1,21,23,-1,25,-1,-1,-1,27,-1,-1,-1,-1,29,-1,-1,31,33,35,37,39,-1,41,-1,-1,-1,-1,-1,-1,-1,-1,-1,-1],"loss_changes":[3.8133886E0,8.7927914E-1,8.492485E-1,9.4715285E-1,4.624659E-2,1.24920845E-1,2.3367122E-1,4.622817E-2,4.478141E-1,4.7342852E-4,0E0,9.124018E-3,2.2508144E-2,0E0,4.515273E-2,0E0,0E0,0E0,3.5010275E-1,0E0,0E0,0E0,0E0,2.096057E-2,0E0,0E0,8.827321E-3,1.6647184E-1,7.204528E-2,1.010561E-2,2.745828E-2,0E0,9.5026195E-4,0E0,0E0,0E0,0E0,0E0,0E0,0E0,0E0,0E0,0E0],"parents":[2147483647,0,0,1,1,2,2,3,3,4,4,5,5,6,6,7,7,8,8,9,9,11,11,12,12,14,14,18,18,23,23,26,26,27,27,28,28,29,29,30,30,32,32],"right_children":[2,4,6,8,10,12,14,16,18,20,-1,22,24,-1,26,-1,-1,-1,28,-1,-1,-1,-1,30,-1,-1,32,34,36,38,40,-1,42,-1,-1,-1,-1,-1,-1,-1,-1,-1,-1],"split_conditions":[-1.2147588E0,-5.3514957E-2,1.3011471E0,-9.81223E-2,2.4461393E-1,-2.9717666E-1,6.515319E-2,-2.7695298E-1,1.1571802E-1,-5.211242E-1,5.6076827E-3,-6.796451E-1,8.5659504E-2,-6.4751203E-3,-8.349207E-2,-7.5360625E-3,-1.1785868E-2,-1.0001581E-2,1.3235992E-1,9.467425E-4,1.8485803E-3,4.378089E-4,2.8886886E-3,3.0212477E-1,4.130279E-3,-2.2989113E-3,-3.9417177E-1,1.8851925E0,-3.855878E-1,2.2017555E-1,8.6405545E-2,5.989329E-4,4.1618216E-1,-1.0191996E-3,-4.8425063E-3,-3.2088987E-4,6.5785707E-3,7.4818353E-3,5.8874786E-3,6.0866107E-3,2.5850628E-3,3.5206804E-3,1.9746323E-3],"split_indices":[385,175,389,38,26,5,242,3,238,3,0,3,55,0,5,0,0,0,138,0,0,0,0,389,0,0,163,389,9,73,135,0,0,0,0,0,0,0,0,0,0,0,0],"split_type":[0,0,0,0,0,0,0,0,0,0,0,0,0,0,0,0,0,0,0,0,0,0,0,0,0,0,0,0,0,0,0,0,0,0,0,0,0,0,0,0,0,0,0],"sum_hessian":[4.773726E2,2.4749068E2,2.2988193E2,2.1713237E2,3.0358297E1,1.8490488E2,4.4977047E1,6.1356388E1,1.5577599E2,1.7381458E1,1.297684E1,1.5242781E1,1.696621E2,1.5239089E1,2.9737959E1,1.6629423E1,4.4726963E1,2.1402275E1,1.3437372E2,5.978402E0,1.1403055E1,9.226001E0,6.0167804E0,1.5277386E2,1.6888239E1,7.1338987E0,2.260406E1,1.18169876E2,1.6203836E1,1.2132697E2,3.1446884E1,7.990887E0,1.4613173E1,4.902359E1,6.9146286E1,5.4470353E0,1.0756802E1,7.660627E1,4.4720707E1,2.0801699E1,1.0645184E1,5.409616E0,9.203556E0],"tree_param":{"num_deleted":"0","num_feature":"403","num_nodes":"43","size_leaf_vector":"1"}},{"base_weights":[-1.2078657E-2,-9.762375E-2,8.477299E-2,-1.4924109E-1,-3.494574E-2,1.13574326E-1,-3.9398663E-2,-1.9014867E-1,-2.9402846E-2,6.0094073E-2,-7.662113E-2,3.6455784E-2,1.22370996E-1,-1.19115986E-1,4.404893E-2,-1.0874268E-1,-1.0997462E-2,5.98352E-3,-6.307444E-2,5.4912423E-3,1.2335938E-2,3.7309244E-2,-1.22248925E-1,-3.9761356E-4,5.548502E-2,1.4867081E-1,1.1194187E-1,-2.5879177E-3,-6.939529E-3,3.0207753E-2,3.5707199E-3,-2.6850929E-3,-9.425843E-3,-2.4398097E-3,-4.184265E-3,-6.0611113E-4,1.5258353E-3,3.160655E-3,5.3102323E-3,-7.891366E-3,-8.4733665E-2,3.4620545E-3,1.7312085E-3,5.243479E-3,8.00213E-3,9.010578E-2,1.2128992E-1,2.134153E-3,4.932053E-4,1.8947851E-4,-2.455766E-4,-3.2246826E-4,9.06188E-4,-1.8126412E-3,-8.065368E-3,2.2496218E-3,4.867337E-3,6.483992E-3,4.7291773E-3],"categories":[],"categories_nodes":[],"categories_segments":[],"categories_sizes":[],"default_left":[0,0,0,0,0,0,0,0,0,0,0,0,0,0,0,0,0,0,0,0,0,0,0,0,0,0,0,0,0,0,0,0,0,0,0,0,0,0,0,0,0,0,0,0,0,0,0,0,0,0,0,0,0,0,0,0,0,0,0],"id":12,"left_children":[1,3,5,7,9,11,13,15,17,19,21,23,25,27,29,31,-1,-1,33,-1,35,37,39,-1,41,43,45,-1,-1,47,-1,-1,-1,-1,-1,49,-1,51,-1,-1,53,-1,-1,-1,-1,55,57,-1,-1,-1,-1,-1,-1,-1,-1,-1,-1,-1,-1],"loss_changes":[3.9969614E0,8.233321E-1,8.138858E-1,6.813915E-1,4.6787483E-1,1.2034249E-1,2.936502E-1,2.2908306E-1,1.9249444E-1,8.465703E-2,4.2952147E-1,1.75626E-2,2.853489E-2,2.2558331E-2,6.1422214E-3,1.2127149E-1,0E0,0E0,4.95439E-3,0E0,4.6303775E-3,5.646565E-2,6.484902E-2,0E0,1.708597E-3,4.9940944E-3,1.3972044E-2,0E0,0E0,3.7119128E-3,0E0,0E0,0E0,0E0,0E0,2.5385886E-4,0E0,2.5862742E-3,0E0,0E0,1.08067244E-1,0E0,0E0,0E0,0E0,8.836329E-3,6.226659E-3,0E0,0E0,0E0,0E0,0E0,0E0,0E0,0E0,0E0,0E0,0E0,0E0],"parents":[2147483647,0,0,1,1,2,2,3,3,4,4,5,5,6,6,7,7,8,8,9,9,10,10,11,11,12,12,13,13,14,14,15,15,18,18,20,20,21,21,22,22,24,24,25,25,26,26,29,29,35,35,37,37,40,40,45,45,46,46],"right_children":[2,4,6,8,10,12,14,16,18,20,22,24,26,28,30,32,-1,-1,34,-1,36,38,40,-1,42,44,46,-1,-1,48,-1,-1,-1,-1,-1,50,-1,52,-1,-1,54,-1,-1,-1,-1,56,58,-1,-1,-1,-1,-1,-1,-1,-1,-1,-1,-1,-1],"split_conditions":[-1.2147588E0,1.4261702E-1,1.3011471E0,-2.2461322E-1,-5.6814805E-2,-6.47746E-1,9.9767424E-2,-2.129182E-1,-1.277149E-1,-1.8343538E-1,-4.9773973E-1,-1.1988929E-1,1.0457553E-1,6.1248243E-3,-2.2774298E-1,2.9530926E0,-1.0997462E-2,5.98352E-3,-3.9593756E-2,5.4912423E-3,1.7512292E-1,-6.378657E-1,-4.9665314E-1,-3.9761356E-4,4.3758082E-1,-2.6601183E-1,2.0950034E-1,-2.5879177E-3,-6.939529E-3,6.6150874E-3,3.5707199E-3,-2.6850929E-3,-9.425843E-3,-2.4398097E-3,-4.184265E-3,-2.5455907E-1,1.5258353E-3,1.9712663E-1,5.3102323E-3,-7.891366E-3,2.2211397E0,3.4620545E-3,1.7312085E-3,5.243479E-3,8.00213E-3,-3.5055645E-2,4.9791133E-1,2.134153E-3,4.932053E-4,1.8947851E-4,-2.455766E-4,-3.2246826E-4,9.06188E-4,-1.8126412E-3,-8.065368E-3,2.2496218E-3,4.867337E-3,6.483992E-3,4.7291773E-3],"split_indices":[385,42,389,5,303,60,337,131,24,274,279,273,7,275,6,388,0,0,1,0,9,199,5,0,169,4,101,0,0,5,0,0,0,0,0,1,0,4,0,0,389,0,0,0,0,166,100,0,0,0,0,0,0,0,0,0,0,0,0],"split_type":[0,0,0,0,0,0,0,0,0,0,0,0,0,0,0,0,0,0,0,0,0,0,0,0,0,0,0,0,0,0,0,0,0,0,0,0,0,0,0,0,0,0,0,0,0,0,0,0,0,0,0,0,0,0,0,0,0,0,0],"sum_hessian":[4.8042395E2,2.550982E2,2.2532576E2,1.39135E2,1.159632E2,1.8297131E2,4.2354446E1,1.0328968E2,3.5845314E1,3.5214756E1,8.074845E1,1.926074E1,1.6371057E2,2.1442774E1,2.0911674E1,2.8924868E1,7.4364815E1,6.134073E0,2.971124E1,1.6614449E1,1.8600307E1,2.3143236E1,5.7605213E1,5.952242E0,1.3308497E1,4.2721527E1,1.2098905E2,5.668139E0,1.5774634E1,1.5284693E1,5.6269817E0,1.81058E1,1.0819066E1,1.9541382E1,1.0169859E1,1.1430281E1,7.1700277E0,1.6172886E1,6.9703507E0,2.791983E1,2.9685383E1,6.622378E0,6.6861196E0,1.0912241E1,3.1809286E1,3.9458054E1,8.1531E1,8.793913E0,6.49078E0,5.7151403E0,5.7151403E0,1.0194483E1,5.978402E0,1.9079243E1,1.060614E1,6.455011E0,3.3003044E1,5.9106636E1,2.242436E1],"tree_param":{"num_deleted":"0","num_feature":"403","num_nodes":"59","size_leaf_vector":"1"}},{"base_weights":[-3.5504745E-3,-7.397631E-2,7.981247E-2,-9.350242E-2,6.8658926E-2,1.0761225E-1,-4.089401E-2,-1.04685046E-1,7.36255E-2,1.0180814E-1,3.394961E-2,1.1291033E-1,3.9153072E-4,3.3980843E-2,-1.1264463E-1,-1.3630725E-1,-4.6259515E-2,6.249849E-4,5.7820505E-3,5.944436E-3,2.8404552E-3,2.9871687E-3,8.3403377E-4,1.17881134E-1,6.520864E-2,4.5411758E-2,2.2233478E-4,-6.7827376E-3,-3.4008236E-3,1.5801451E-3,-1.46854E-1,1.4328014E-2,-6.916427E-2,1.06824376E-1,1.3413233E-1,9.724522E-4,4.883845E-3,1.0459091E-3,2.9499957E-3,-8.355766E-3,-4.0050135E-3,6.4917407E-3,-1.426627E-3,-2.3237588E-3,-3.989204E-3,5.052381E-3,7.094045E-3,4.1280417E-3,6.9564576E-3],"categories":[],"categories_nodes":[],"categories_segments":[],"categories_sizes":[],"default_left":[0,0,0,0,0,0,0,0,0,0,0,0,0,0,0,0,0,0,0,0,0,0,0,0,0,0,0,0,0,0,0,0,0,0,0,0,0,0,0,0,0,0,0,0,0,0,0,0,0],"id":13,"left_children":[1,3,5,7,9,11,13,15,17,19,21,23,-1,25,27,29,31,-1,-1,-1,-1,-1,-1,33,35,37,-1,-1,-1,-1,39,41,43,45,47,-1,-1,-1,-1,-1,-1,-1,-1,-1,-1,-1,-1,-1,-1],"loss_changes":[2.858278E0,7.413521E-1,7.5260234E-1,4.4228673E-1,3.3765912E-2,9.506917E-2,2.3195651E-1,3.9712095E-1,3.7514485E-2,5.579859E-3,6.711075E-3,3.3163786E-2,0E0,7.0726313E-3,1.3278782E-2,2.546277E-1,1.0950543E-1,0E0,0E0,0E0,0E0,0E0,0E0,1.3484001E-2,2.5581047E-2,3.900107E-3,0E0,0E0,0E0,0E0,1.6649604E-1,1.1400536E-1,1.0005951E-2,5.312085E-3,3.6551952E-3,0E0,0E0,0E0,0E0,0E0,0E0,0E0,0E0,0E0,0E0,0E0,0E0,0E0,0E0],"parents":[2147483647,0,0,1,1,2,2,3,3,4,4,5,5,6,6,7,7,8,8,9,9,10,10,11,11,13,13,14,14,15,15,16,16,23,23,24,24,25,25,30,30,31,31,32,32,33,33,34,34],"right_children":[2,4,6,8,10,12,14,16,18,20,22,24,-1,26,28,30,32,-1,-1,-1,-1,-1,-1,34,36,38,-1,-1,-1,-1,40,42,44,46,48,-1,-1,-1,-1,-1,-1,-1,-1,-1,-1,-1,-1,-1,-1],"split_conditions":[-1.2147588E0,-5.3514957E-2,1.3011471E0,2.6324517E-1,1.1704421E-1,1.5309691E-1,-2.2049536E-1,-4.6252236E-2,-3.1448013E-1,5.297859E-1,2.2729282E0,9.452486E-1,3.9153072E-4,-5.222796E-2,2.5653815E-1,-2.6382603E-2,-1.5695919E-1,6.249849E-4,5.7820505E-3,5.944436E-3,2.8404552E-3,2.9871687E-3,8.3403377E-4,1.9723345E-1,9.217901E-2,-4.7608313E-1,2.2233478E-4,-6.7827376E-3,-3.4008236E-3,1.5801451E-3,-4.0390193E-2,3.593824E-1,1.6073014E-1,2.2580883E-1,-1.5175107E-1,9.724522E-4,4.883845E-3,1.0459091E-3,2.9499957E-3,-8.355766E-3,-4.0050135E-3,6.4917407E-3,-1.426627E-3,-2.3237588E-3,-3.989204E-3,5.052381E-3,7.094045E-3,4.1280417E-3,6.9564576E-3],"split_indices":[385,175,389,120,89,116,270,31,6,272,390,389,0,92,57,95,323,0,0,0,0,0,0,0,337,321,0,0,0,0,130,0,0,305,307,0,0,0,0,0,0,0,0,0,0,0,0,0,0],"split_type":[0,0,0,0,0,0,0,0,0,0,0,0,0,0,0,0,0,0,0,0,0,0,0,0,0,0,0,0,0,0,0,0,0,0,0,0,0,0,0,0,0,0,0,0,0,0,0,0,0],"sum_hessian":[4.848491E2,2.6287897E2,2.2197014E2,2.3152827E2,3.1350695E1,1.8050638E2,4.1463757E1,2.1735832E2,1.4169957E1,1.5046926E1,1.630377E1,1.7128038E2,9.226001E0,2.0547726E1,2.091603E1,1.4016336E2,7.719496E1,6.300804E0,7.869153E0,9.716677E0,5.33025E0,5.551772E0,1.0751997E1,1.5378395E2,1.7496422E1,1.4426486E1,6.1212397E0,1.2454741E1,8.46129E0,8.165617E0,1.3199774E2,2.1279913E1,5.5915054E1,9.602509E1,5.775886E1,7.925508E0,9.570913E0,6.0537076E0,8.372779E0,1.001089E2,3.188884E1,5.2100043E0,1.6069908E1,1.9541382E1,3.637367E1,8.5773415E1,1.025168E1,6.649809E0,5.110905E1],"tree_param":{"num_deleted":"0","num_feature":"403","num_nodes":"49","size_leaf_vector":"1"}},{"base_weights":[-1.6503993E-3,-9.3786605E-2,6.8175904E-2,5.191935E-2,-1.3400273E-1,9.8161645E-2,-9.798873E-4,9.830946E-2,-1.359474E-3,-1.7215545E-1,-1.1308286E-2,1.1248946E-1,2.4739075E-2,3.442144E-2,-7.5480305E-2,5.4175332E-2,6.27132E-3,-2.0173106E-1,-1.1944602E-1,9.1071576E-2,-1.1669099E-1,1.3845584E-1,1.02913655E-1,3.6180804E-3,3.604246E-3,5.297338E-3,2.3003886E-2,-5.6291455E-3,-2.6304016E-3,1.2195626E-3,3.8069766E-3,-6.955445E-3,-1.045637E-2,-2.6703589E-3,-7.967995E-3,2.5374584E-3,5.632085E-3,-7.5138495E-3,-2.9388696E-3,7.275333E-3,4.35819E-3,1.0535764E-1,2.9543764E-3,-4.972421E-4,1.5950626E-3,3.7744775E-2,1.06814895E-2,3.759791E-3,5.5243224E-3,2.4882823E-3,9.901116E-4,8.4566076E-5,1.3072271E-3],"categories":[],"categories_nodes":[],"categories_segments":[],"categories_sizes":[],"default_left":[0,0,0,0,0,0,0,0,0,0,0,0,0,0,0,0,0,0,0,0,0,0,0,0,0,0,0,0,0,0,0,0,0,0,0,0,0,0,0,0,0,0,0,0,0,0,0,0,0,0,0,0,0],"id":14,"left_children":[1,3,5,7,9,11,13,15,-1,17,19,21,23,25,27,29,-1,31,33,35,37,39,41,43,-1,-1,45,-1,-1,-1,-1,-1,-1,-1,-1,-1,-1,-1,-1,-1,-1,47,-1,-1,-1,49,51,-1,-1,-1,-1,-1,-1],"loss_changes":[2.990011E0,1.1810145E0,5.4837966E-1,1.6436712E-1,7.34396E-1,1.9124639E-1,2.1612047E-1,2.670297E-2,0E0,1.628468E-1,4.2473024E-1,2.4053931E-2,3.1136252E-2,4.2941645E-2,1.6473666E-2,6.263163E-3,0E0,5.815506E-3,1.1156273E-1,1.1704728E-2,2.8808117E-2,1.2794733E-3,6.246209E-3,9.049797E-3,0E0,0E0,8.532874E-3,0E0,0E0,0E0,0E0,0E0,0E0,0E0,0E0,0E0,0E0,0E0,0E0,0E0,0E0,8.554935E-3,0E0,0E0,0E0,3.7606657E-3,3.874718E-3,0E0,0E0,0E0,0E0,0E0,0E0],"parents":[2147483647,0,0,1,1,2,2,3,3,4,4,5,5,6,6,7,7,9,9,10,10,11,11,12,12,13,13,14,14,15,15,17,17,18,18,19,19,20,20,21,21,22,22,23,23,26,26,41,41,45,45,46,46],"right_children":[2,4,6,8,10,12,14,16,-1,18,20,22,24,26,28,30,-1,32,34,36,38,40,42,44,-1,-1,46,-1,-1,-1,-1,-1,-1,-1,-1,-1,-1,-1,-1,-1,-1,48,-1,-1,-1,50,52,-1,-1,-1,-1,-1,-1],"split_conditions":[-2.5360328E-1,-2.1952307E-1,1.1503068E0,7.130503E-2,-2.2461322E-1,4.7864193E-1,-2.6867604E-1,-7.729553E-1,-1.359474E-3,1.3587825E-1,2.050618E0,-6.903424E-1,8.746566E-1,1.282981E-1,-7.918279E-2,3.0130658E0,6.27132E-3,1.2206119E-1,2.9530926E0,1.7976774E-1,1.4055303E-1,5.175133E-1,8.413509E-2,-2.2974184E-1,3.604246E-3,5.297338E-3,-2.1535687E-1,-5.6291455E-3,-2.6304016E-3,1.2195626E-3,3.8069766E-3,-6.955445E-3,-1.045637E-2,-2.6703589E-3,-7.967995E-3,2.5374584E-3,5.632085E-3,-7.5138495E-3,-2.9388696E-3,7.275333E-3,4.35819E-3,-5.1542085E-1,2.9543764E-3,-4.972421E-4,1.5950626E-3,3.0997808E0,-9.298952E-2,3.759791E-3,5.5243224E-3,2.4882823E-3,9.901116E-4,8.4566076E-5,1.3072271E-3],"split_indices":[124,131,389,9,5,57,121,147,0,42,389,389,370,74,34,388,0,0,388,101,0,234,343,41,0,0,241,0,0,0,0,0,0,0,0,0,0,0,0,0,0,199,0,0,0,388,303,0,0,0,0,0,0],"split_type":[0,0,0,0,0,0,0,0,0,0,0,0,0,0,0,0,0,0,0,0,0,0,0,0,0,0,0,0,0,0,0,0,0,0,0,0,0,0,0,0,0,0,0,0,0,0,0,0,0,0,0,0,0],"sum_hessian":[4.6276047E2,1.9936029E2,2.6340018E2,4.3059948E1,1.5630034E2,1.834412E2,7.995899E1,2.6990042E1,1.6069908E1,1.189186E2,3.738173E1,1.5304385E2,3.0397335E1,5.456744E1,2.5391548E1,1.1412877E1,1.5577165E1,7.4364815E1,4.4553795E1,1.902989E1,1.835184E1,3.7607098E1,1.1543675E2,2.176457E1,8.632764E0,6.371826E0,4.8195614E1,8.187624E0,1.7203924E1,5.7399044E0,5.6729727E0,9.947829E0,6.4416985E1,1.766482E1,2.6888973E1,7.8005576E0,1.1229332E1,1.060614E1,7.745698E0,3.1447374E1,6.159724E0,1.0800956E2,7.4271955E0,1.5148592E1,6.6159787E0,2.1004955E1,2.719066E1,1.7973173E1,9.0036385E1,1.1516019E1,9.488935E0,1.7895596E1,9.295064E0],"tree_param":{"num_deleted":"0","num_feature":"403","num_nodes":"53","size_leaf_vector":"1"}},{"base_weights":[-2.340767E-3,-6.9986016E-2,7.257724E-2,-1.03034705E-1,-7.025418E-3,1.0005211E-1,-4.1887958E-2,-3.0054983E-2,-1.5413159E-1,-1.12280555E-1,3.5942294E-2,1.0717777E-1,2.6586894E-2,-1.08613E-1,1.0307054E-2,5.8609936E-2,-7.4227065E-2,-9.823951E-3,-1.11282505E-1,-4.010002E-3,-6.7961724E-3,9.677389E-2,8.049889E-3,1.0941087E-1,2.069646E-3,2.520982E-3,-4.632674E-4,-6.5521435E-3,-3.243137E-3,-2.4759274E-3,3.443892E-2,2.5960917E-4,5.1616007E-3,-4.8786964E-2,-7.170529E-3,-9.164748E-2,-8.247296E-3,2.8188068E-3,5.416948E-3,-1.0849819E-2,3.393973E-3,8.0409385E-2,1.1385265E-1,2.3442898E-3,8.2439755E-4,-3.4134274E-3,-1.5038545E-3,-3.6151707E-3,-6.639439E-3,-9.493899E-4,1.0757068E-3,4.3982393E-3,2.5090652E-3,5.802506E-3,2.986224E-3],"categories":[],"categories_nodes":[],"categories_segments":[],"categories_sizes":[],"default_left":[0,0,0,0,0,0,0,0,0,0,0,0,0,0,0,0,0,0,0,0,0,0,0,0,0,0,0,0,0,0,0,0,0,0,0,0,0,0,0,0,0,0,0,0,0,0,0,0,0,0,0,0,0,0,0],"id":15,"left_children":[1,3,5,7,9,11,13,15,17,19,21,23,25,27,29,31,33,-1,35,-1,-1,37,39,41,-1,-1,-1,-1,-1,-1,43,-1,-1,45,-1,47,-1,-1,-1,49,-1,51,53,-1,-1,-1,-1,-1,-1,-1,-1,-1,-1,-1,-1],"loss_changes":[2.3453925E0,5.052898E-1,6.9484603E-1,5.897858E-1,3.8747612E-1,9.0015054E-2,1.5162174E-1,2.6631424E-1,1.4782405E-1,7.924378E-3,1.02660365E-1,1.9178748E-2,1.5005615E-2,1.0197818E-2,3.8029492E-2,5.381178E-2,7.235706E-2,0E0,3.6290884E-2,0E0,0E0,2.8039813E-3,4.9233764E-2,1.08731985E-2,0E0,0E0,0E0,0E0,0E0,0E0,3.3645667E-3,0E0,0E0,1.0514654E-2,0E0,2.061665E-2,0E0,0E0,0E0,9.219874E-3,0E0,1.0793358E-3,8.81958E-3,0E0,0E0,0E0,0E0,0E0,0E0,0E0,0E0,0E0,0E0,0E0,0E0],"parents":[2147483647,0,0,1,1,2,2,3,3,4,4,5,5,6,6,7,7,8,8,9,9,10,10,11,11,12,12,13,13,14,14,15,15,16,16,18,18,21,21,22,22,23,23,30,30,33,33,35,35,39,39,41,41,42,42],"right_children":[2,4,6,8,10,12,14,16,18,20,22,24,26,28,30,32,34,-1,36,-1,-1,38,40,42,-1,-1,-1,-1,-1,-1,44,-1,-1,46,-1,48,-1,-1,-1,50,-1,52,54,-1,-1,-1,-1,-1,-1,-1,-1,-1,-1,-1,-1],"split_conditions":[-1.2147588E0,-1.282306E-1,1.3599865E0,6.471989E-2,-6.7237705E-1,3.1872758E-1,9.217901E-2,-3.134092E-1,-9.81223E-2,-8.402232E-3,-6.8661325E-2,5.7193506E-1,1.5901197E-1,-3.945133E-2,-1.5798983E-1,-2.1525204E-2,2.2211397E0,-9.823951E-3,3.0322528E0,-4.010002E-3,-6.7961724E-3,-3.1326354E-1,-2.268878E-1,-3.8557106E-1,2.069646E-3,2.520982E-3,-4.632674E-4,-6.5521435E-3,-3.243137E-3,-2.4759274E-3,4.186363E-1,2.5960917E-4,5.1616007E-3,-8.470836E-2,-7.170529E-3,4.439625E-2,-8.247296E-3,2.8188068E-3,5.416948E-3,-1.00860685E-1,3.393973E-3,2.6905087E-1,3.898421E-2,2.3442898E-3,8.2439755E-4,-3.4134274E-3,-1.5038545E-3,-3.6151707E-3,-6.639439E-3,-9.493899E-4,1.0757068E-3,4.3982393E-3,2.5090652E-3,5.802506E-3,2.986224E-3],"split_indices":[385,81,389,191,3,345,337,226,38,2,328,326,13,1,64,7,389,0,388,0,0,40,143,287,0,0,0,0,0,0,167,0,0,1,0,1,0,0,0,12,0,367,80,0,0,0,0,0,0,0,0,0,0,0,0],"split_type":[0,0,0,0,0,0,0,0,0,0,0,0,0,0,0,0,0,0,0,0,0,0,0,0,0,0,0,0,0,0,0,0,0,0,0,0,0,0,0,0,0,0,0,0,0,0,0,0,0,0,0,0,0,0,0],"sum_hessian":[4.607963E2,2.4218634E2,2.1860997E2,1.5840262E2,8.3783714E1,1.763959E2,4.221407E1,6.588698E1,9.251564E1,2.3820091E1,5.9963623E1,1.6038106E2,1.6014845E1,1.8053692E1,2.416038E1,2.1800608E1,4.4086372E1,4.4726963E1,4.7788677E1,1.1970168E1,1.1849922E1,1.8074572E1,4.1889053E1,1.544742E2,5.9068537E0,9.375904E0,6.6389403E0,1.0615892E1,7.4377985E0,6.6420336E0,1.7518345E1,1.0430481E1,1.1370126E1,3.3480232E1,1.060614E1,3.6969612E1,1.0819066E1,5.33025E0,1.2744321E1,3.245532E1,9.433735E0,2.305371E1,1.3142049E2,9.3933115E0,8.125034E0,1.5104223E1,1.837601E1,2.7021782E1,9.947829E0,2.626439E1,6.1909275E0,1.6915667E1,6.138044E0,1.2519394E2,6.2265534E0],"tree_param":{"num_deleted":"0","num_feature":"403","num_nodes":"55","size_leaf_vector":"1"}},{"base_weights":[6.9307135E-3,7.9614945E-2,-6.1513595E-2,-6.337791E-3,9.035546E-2,-1.989186E-2,-1.3151793E-1,9.733846E-2,2.6306959E-2,2.5600094E-2,-5.554135E-2,-1.5634781E-1,4.3310537E-3,1.0477754E-1,7.0271865E-2,3.111332E-4,2.3025635E-3,5.0572925E-3,5.8579794E-3,-8.150604E-2,8.451616E-3,-2.8557756E-3,-1.6512977E-1,1.0710328E-1,2.3474437E-3,8.299442E-4,8.310841E-2,-2.4902217E-2,2.0289663E-3,-9.4727E-2,1.2016346E-3,-2.6162097E-3,2.962516E-2,-8.813719E-3,-6.720277E-3,5.823893E-3,4.5017875E-3,5.409081E-3,3.195375E-3,-1.7373139E-3,4.8393948E-4,-4.169123E-3,-5.8533447E-3,1.8218497E-3,9.340875E-4],"categories":[],"categories_nodes":[],"categories_segments":[],"categories_sizes":[],"default_left":[0,0,0,0,0,0,0,0,0,0,0,0,0,0,0,0,0,0,0,0,0,0,0,0,0,0,0,0,0,0,0,0,0,0,0,0,0,0,0,0,0,0,0,0,0],"id":16,"left_children":[1,3,5,-1,7,9,11,13,15,17,19,21,-1,23,25,-1,-1,-1,27,29,31,-1,33,35,-1,-1,37,39,-1,41,-1,-1,43,-1,-1,-1,-1,-1,-1,-1,-1,-1,-1,-1,-1],"loss_changes":[2.184207E0,4.8332846E-1,6.564008E-1,0E0,8.820498E-2,2.333701E-1,4.6936464E-1,2.9407859E-2,8.168385E-3,9.414517E-2,1.3444562E-1,5.672264E-2,0E0,1.3963938E-2,2.7838334E-2,0E0,0E0,0E0,5.593119E-2,8.231178E-2,3.261595E-2,0E0,6.67572E-6,1.1108398E-2,0E0,0E0,9.442076E-3,9.829223E-3,0E0,3.2086372E-3,0E0,0E0,7.015206E-4,0E0,0E0,0E0,0E0,0E0,0E0,0E0,0E0,0E0,0E0,0E0,0E0],"parents":[2147483647,0,0,1,1,2,2,4,4,5,5,6,6,7,7,8,8,9,9,10,10,11,11,13,13,14,14,18,18,19,19,20,20,22,22,23,23,26,26,27,27,29,29,32,32],"right_children":[2,4,6,-1,8,10,12,14,16,18,20,22,-1,24,26,-1,-1,-1,28,30,32,-1,34,36,-1,-1,38,40,-1,42,-1,-1,44,-1,-1,-1,-1,-1,-1,-1,-1,-1,-1,-1,-1],"split_conditions":[1.3011471E0,-1.6856737E0,8.771555E-2,-6.337791E-3,1.7630568E-1,-1.7867261E-1,5.132815E-1,2.645131E-1,-4.0468168E-1,1.4362398E-1,2.1466038E0,-2.4649704E-1,4.3310537E-3,4.538738E-2,-2.7873108E-1,3.111332E-4,2.3025635E-3,5.0572925E-3,2.039268E-1,-1.0251735E-1,1.2859276E-1,-2.8557756E-3,6.29351E-2,-6.760085E-2,2.3474437E-3,8.299442E-4,-3.9134133E-1,-8.349207E-2,2.0289663E-3,4.483439E-3,1.2016346E-3,-2.6162097E-3,1.24531284E-1,-8.813719E-3,-6.720277E-3,5.823893E-3,4.5017875E-3,5.409081E-3,3.195375E-3,-1.7373139E-3,4.8393948E-4,-4.169123E-3,-5.8533447E-3,1.8218497E-3,9.340875E-4],"split_indices":[389,388,33,0,66,334,10,389,5,74,389,28,0,28,28,0,0,0,197,24,18,0,89,241,0,0,288,5,0,47,0,0,9,0,0,0,0,0,0,0,0,0,0,0,0],"split_type":[0,0,0,0,0,0,0,0,0,0,0,0,0,0,0,0,0,0,0,0,0,0,0,0,0,0,0,0,0,0,0,0,0,0,0,0,0,0,0,0,0,0,0,0,0],"sum_hessian":[4.3706787E2,2.1188937E2,2.251785E2,9.947829E0,2.0194154E2,1.4202208E2,8.315641E1,1.8162032E2,2.032123E1,6.252125E1,7.950083E1,7.4912674E1,8.243739E0,1.4021268E2,4.1407635E1,1.072585E1,9.59538E0,1.2099105E1,5.0422146E1,5.6359642E1,2.3141193E1,6.7007556E0,6.821192E1,1.3397252E2,6.240161E0,8.434375E0,3.297326E1,2.688611E1,2.3536036E1,5.0176426E1,6.183216E0,5.5989513E0,1.7542242E1,4.6578995E1,2.1632925E1,8.271541E1,5.125711E1,1.2290156E1,2.0683104E1,2.0924751E1,5.96136E0,3.6416172E1,1.3760252E1,9.376293E0,8.165948E0],"tree_param":{"num_deleted":"0","num_feature":"403","num_nodes":"45","size_leaf_vector":"1"}},{"base_weights":[-1.5329715E-2,-7.206595E-2,6.2055282E-2,-1.0295784E-1,-1.2344824E-2,7.710592E-2,-9.030993E-2,2.6292905E-2,-1.263719E-1,4.7376905E-2,-5.212504E-2,3.494811E-2,1.00706585E-1,-5.989761E-3,-3.5929724E-3,8.0739826E-2,-1.1690187E-3,-1.4995927E-1,-3.5798497E-2,1.0115489E-1,1.4181614E-2,-7.348513E-2,3.230713E-2,4.665175E-2,-3.031071E-3,1.0671007E-1,7.165671E-2,4.6481607E-3,2.6550486E-3,-7.9699464E-2,-1.691765E-1,3.783583E-3,-5.726E-2,5.967517E-3,2.966025E-3,4.524756E-2,-4.819884E-4,-4.3450138E-3,-9.380509E-4,2.5127241E-3,3.565908E-4,3.5874166E-2,4.249129E-3,1.0972411E-1,2.4142123E-3,2.9462334E-3,4.622864E-3,-2.1876378E-3,-6.2511885E-3,-9.371415E-3,-6.7052427E-3,-2.2607602E-3,-3.7142055E-3,1.3825343E-3,2.87511E-3,7.4252085E-4,2.2408876E-3,3.4522053E-3,5.6743408E-3],"categories":[],"categories_nodes":[],"categories_segments":[],"categories_sizes":[],"default_left":[0,0,0,0,0,0,0,0,0,0,0,0,0,0,0,0,0,0,0,0,0,0,0,0,0,0,0,0,0,0,0,0,0,0,0,0,0,0,0,0,0,0,0,0,0,0,0,0,0,0,0,0,0,0,0,0,0,0,0],"id":17,"left_children":[1,3,5,7,9,11,13,15,17,19,21,23,25,-1,-1,27,-1,29,31,33,35,37,39,41,-1,43,45,-1,-1,47,49,-1,51,-1,-1,53,-1,-1,-1,-1,-1,55,-1,57,-1,-1,-1,-1,-1,-1,-1,-1,-1,-1,-1,-1,-1,-1,-1],"loss_changes":[2.285973E0,5.5272245E-1,5.122844E-1,6.0184526E-1,2.4838126E-1,1.9655192E-1,2.419144E-3,8.616254E-2,3.5272098E-1,7.3375456E-2,1.1527759E-1,8.526373E-2,1.4743924E-2,0E0,0E0,1.617074E-4,0E0,1.6564655E-1,9.032544E-2,4.9708486E-3,2.047247E-2,3.5273463E-2,5.666557E-3,2.4309948E-2,0E0,1.3078213E-2,1.1814088E-3,0E0,0E0,4.403402E-2,4.0979624E-2,0E0,2.9386282E-3,0E0,0E0,9.818412E-4,0E0,0E0,0E0,0E0,0E0,9.379208E-3,0E0,7.2333813E-3,0E0,0E0,0E0,0E0,0E0,0E0,0E0,0E0,0E0,0E0,0E0,0E0,0E0,0E0,0E0],"parents":[2147483647,0,0,1,1,2,2,3,3,4,4,5,5,6,6,7,7,8,8,9,9,10,10,11,11,12,12,15,15,17,17,18,18,19,19,20,20,21,21,22,22,23,23,25,25,26,26,29,29,30,30,32,32,35,35,41,41,43,43],"right_children":[2,4,6,8,10,12,14,16,18,20,22,24,26,-1,-1,28,-1,30,32,34,36,38,40,42,-1,44,46,-1,-1,48,50,-1,52,-1,-1,54,-1,-1,-1,-1,-1,56,-1,58,-1,-1,-1,-1,-1,-1,-1,-1,-1,-1,-1,-1,-1,-1,-1],"split_conditions":[-2.4656259E-1,-1.7517492E-2,9.595129E-2,-2.1952307E-1,3.360971E-1,-2.8011292E-1,1.1093338E-1,1.24531284E-1,-2.2461322E-1,3.8847502E-2,1.809024E0,-3.8677618E-2,-1.1107345E-1,-5.989761E-3,-3.5929724E-3,5.204989E-1,-1.1690187E-3,-5.3576136E-1,-2.5933862E-2,3.4591657E-1,-1.0556639E-1,-7.0306286E-2,9.8481315E-1,-7.094622E-2,-3.031071E-3,6.0887563E-1,2.9943317E-1,4.6481607E-3,2.6550486E-3,1.6845218E0,3.188272E-1,3.783583E-3,1.6073014E-1,5.967517E-3,2.966025E-3,-3.4698766E-1,-4.819884E-4,-4.3450138E-3,-9.380509E-4,2.5127241E-3,3.565908E-4,2.5465178E-1,4.249129E-3,-4.831245E-1,2.4142123E-3,2.9462334E-3,4.622864E-3,-2.1876378E-3,-6.2511885E-3,-9.371415E-3,-6.7052427E-3,-2.2607602E-3,-3.7142055E-3,1.3825343E-3,2.87511E-3,7.4252085E-4,2.2408876E-3,3.4522053E-3,5.6743408E-3],"split_indices":[340,342,55,131,281,287,0,9,5,379,392,3,313,0,0,272,0,330,64,42,29,33,0,81,0,208,153,0,0,392,74,0,0,0,0,5,0,0,0,0,0,32,0,108,0,0,0,0,0,0,0,0,0,0,0,0,0,0,0],"split_type":[0,0,0,0,0,0,0,0,0,0,0,0,0,0,0,0,0,0,0,0,0,0,0,0,0,0,0,0,0,0,0,0,0,0,0,0,0,0,0,0,0,0,0,0,0,0,0,0,0,0,0,0,0,0,0,0,0,0,0],"sum_hessian":[5.186409E2,2.9928406E2,2.193569E2,1.9677466E2,1.025094E2,2.0008632E2,1.9270582E1,3.01603E1,1.6661436E2,4.090623E1,6.160317E1,7.27012E1,1.2738511E2,5.30307E0,1.3967513E1,1.4090391E1,1.6069908E1,1.316691E2,3.4945267E1,1.4831388E1,2.607484E1,4.9268597E1,1.2334572E1,6.5225426E1,7.475783E0,1.0335276E2,2.4032347E1,8.130952E0,5.9594398E0,2.9384449E1,1.02284645E2,5.2340264E0,2.971124E1,9.044606E0,5.7867823E0,1.0926249E1,1.5148592E1,3.9096466E1,1.0172131E1,6.6194315E0,5.7151403E0,5.2421757E1,1.2803663E1,9.744768E1,5.905086E0,1.7285013E1,6.747333E0,1.7483562E1,1.19008875E1,6.4416985E1,3.786766E1,1.9541382E1,1.0169859E1,5.822236E0,5.1040125E0,1.6438982E1,3.5982777E1,9.888536E0,8.755914E1],"tree_param":{"num_deleted":"0","num_feature":"403","num_nodes":"59","size_leaf_vector":"1"}},{"base_weights":[6.9798226E-4,5.6493368E-2,-7.5769894E-2,8.2770035E-2,-8.961976E-3,-1.288987E-1,-1.995028E-2,7.6544825E-3,9.07199E-2,-9.54726E-2,2.6161656E-2,-1.5692392E-1,-2.849629E-4,-5.9564542E-2,4.692102E-2,-2.8583407E-4,1.1951275E-3,1.1095021E-1,8.267123E-2,-2.5895385E-3,-5.3260024E-3,1.1778657E-2,5.7210405E-3,-8.722611E-3,-5.497121E-3,-7.558779E-2,1.0627623E-3,4.9202763E-3,2.4416236E-2,8.200694E-2,6.313181E-3,1.0076982E-1,7.4250884E-2,2.3168998E-2,-1.7189765E-3,-4.3907645E-3,-3.1335168E-3,4.381885E-2,-1.6504606E-4,4.757019E-3,2.5758701E-3,5.7816408E-3,3.736819E-3,3.971356E-3,1.9403318E-3,1.7745147E-3,3.0600678E-4,1.2714519E-3,3.2045066E-3],"categories":[],"categories_nodes":[],"categories_segments":[],"categories_sizes":[],"default_left":[0,0,0,0,0,0,0,0,0,0,0,0,0,0,0,0,0,0,0,0,0,0,0,0,0,0,0,0,0,0,0,0,0,0,0,0,0,0,0,0,0,0,0,0,0,0,0,0,0],"id":18,"left_children":[1,3,5,7,9,11,13,15,17,19,21,23,-1,25,27,-1,-1,29,31,-1,-1,33,-1,-1,-1,35,-1,-1,37,39,-1,41,43,45,-1,-1,-1,47,-1,-1,-1,-1,-1,-1,-1,-1,-1,-1,-1],"loss_changes":[1.9272618E0,4.499076E-1,5.625582E-1,1.10640764E-1,2.325447E-1,3.3557034E-1,2.5209704E-1,4.250542E-3,1.826489E-2,5.1371157E-3,6.80037E-2,4.616785E-2,0E0,7.8710854E-2,3.8810007E-2,0E0,0E0,9.606421E-3,1.148653E-2,0E0,0E0,2.6080847E-2,0E0,0E0,0E0,2.3795366E-3,0E0,0E0,1.4170453E-2,2.4810508E-3,0E0,5.567044E-3,1.3200015E-2,8.01103E-3,0E0,0E0,0E0,4.1154046E-3,0E0,0E0,0E0,0E0,0E0,0E0,0E0,0E0,0E0,0E0,0E0],"parents":[2147483647,0,0,1,1,2,2,3,3,4,4,5,5,6,6,7,7,8,8,9,9,10,10,11,11,13,13,14,14,17,17,18,18,21,21,25,25,28,28,29,29,31,31,32,32,33,33,37,37],"right_children":[2,4,6,8,10,12,14,16,18,20,22,24,-1,26,28,-1,-1,30,32,-1,-1,34,-1,-1,-1,36,-1,-1,38,40,-1,42,44,46,-1,-1,-1,48,-1,-1,-1,-1,-1,-1,-1,-1,-1,-1,-1],"split_conditions":[4.2782232E-1,1.1503068E0,7.516204E-2,-3.6853117E-1,6.515319E-2,-4.4222973E-2,-6.749046E-2,-4.6563208E-2,1.0457553E-1,-2.3655598E-1,2.0772097E-1,-1.5748814E-2,-2.849629E-4,3.032386E0,-4.2270285E-1,-2.8583407E-4,1.1951275E-3,-2.404935E-1,-1.8168025E-1,-2.5895385E-3,-5.3260024E-3,2.424018E-2,5.7210405E-3,-8.722611E-3,-5.497121E-3,-4.2485455E-1,1.0627623E-3,4.9202763E-3,-5.191285E-1,1.4480485E-1,6.313181E-3,-4.97586E-2,3.544607E-1,1.1030512E-2,-1.7189765E-3,-4.3907645E-3,-3.1335168E-3,3.0130658E0,-1.6504606E-4,4.757019E-3,2.5758701E-3,5.7816408E-3,3.736819E-3,3.971356E-3,1.9403318E-3,1.7745147E-3,3.0600678E-4,1.2714519E-3,3.2045066E-3],"split_indices":[345,389,248,5,242,31,55,50,7,2,353,4,0,388,77,0,0,4,30,0,0,145,0,0,0,3,0,0,34,218,0,279,70,240,0,0,0,388,0,0,0,0,0,0,0,0,0,0,0],"split_type":[0,0,0,0,0,0,0,0,0,0,0,0,0,0,0,0,0,0,0,0,0,0,0,0,0,0,0,0,0,0,0,0,0,0,0,0,0,0,0,0,0,0,0,0,0,0,0,0,0],"sum_hessian":[4.4971057E2,2.6015076E2,1.8955981E2,1.8544173E2,7.470903E1,9.645002E1,9.3109795E1,1.7935755E1,1.6750598E2,2.1077152E1,5.363188E1,7.835273E1,1.8097298E1,5.8540142E1,3.4569653E1,1.0194483E1,7.741272E0,4.4036175E1,1.234698E2,5.402722E0,1.567443E1,4.70912E1,6.54068E0,5.50871E1,2.3265627E1,4.890836E1,9.6317835E0,9.488966E0,2.5080687E1,1.7436117E1,2.660006E1,3.5721992E1,8.77478E1,3.8170113E1,8.92109E0,2.2146524E1,2.6761835E1,1.4411438E1,1.066925E1,1.0704641E1,6.7314754E0,2.0548656E1,1.5173338E1,7.5483406E1,1.22644E1,2.1529184E1,1.6640926E1,8.738465E0,5.6729727E0],"tree_param":{"num_deleted":"0","num_feature":"403","num_nodes":"49","size_leaf_vector":"1"}},{"base_weights":[-8.19288E-3,5.5766676E-2,-7.0922084E-2,8.659329E-2,-2.0259244E-2,-1.09507225E-1,-2.987576E-3,1.0169229E-1,7.691034E-2,-5.2939756E-3,1.9253878E-2,3.973376E-3,-1.22338854E-1,1.6926844E-2,-5.934518E-3,1.0801926E-1,2.8156075E-3,5.4613654E-2,8.2251504E-2,-1.8241968E-3,3.0090922E-2,-1.6259526E-1,-8.653955E-2,4.9106706E-2,-1.6309237E-2,3.0879106E-3,1.1241394E-1,1.3794916E-3,7.0739694E-2,8.8143796E-2,5.3198677E-2,4.136235E-3,1.9773837E-2,-5.035712E-3,-1.7220017E-1,-2.876193E-2,-1.0359939E-1,1.5750557E-2,8.8969775E-2,1.7064122E-2,-2.1720098E-3,3.4139163E-3,5.816768E-3,5.4858048E-3,1.8091908E-3,3.2799651E-3,4.754867E-3,3.118119E-3,1.5388082E-3,1.6601966E-4,1.4399582E-3,-9.557496E-3,-7.231101E-3,1.3065464E-3,-3.4668662E-3,-4.5019607E-3,-7.6959343E-3,-5.247979E-4,2.0050001E-3,3.1693836E-3,6.139302E-3,1.7414198E-3,2.630518E-4],"categories":[],"categories_nodes":[],"categories_segments":[],"categories_sizes":[],"default_left":[0,0,0,0,0,0,0,0,0,0,0,0,0,0,0,0,0,0,0,0,0,0,0,0,0,0,0,0,0,0,0,0,0,0,0,0,0,0,0,0,0,0,0,0,0,0,0,0,0,0,0,0,0,0,0,0,0,0,0,0,0,0,0],"id":19,"left_children":[1,3,5,7,9,11,13,15,17,-1,19,-1,21,23,-1,25,-1,27,29,-1,31,33,35,37,39,-1,41,-1,43,45,47,-1,49,-1,51,53,55,57,59,61,-1,-1,-1,-1,-1,-1,-1,-1,-1,-1,-1,-1,-1,-1,-1,-1,-1,-1,-1,-1,-1,-1,-1],"loss_changes":[1.8790954E0,5.454139E-1,6.1932194E-1,1.6337276E-2,2.3119175E-1,3.7523305E-1,2.0168239E-1,1.15635395E-2,7.986248E-3,0E0,2.9603392E-2,0E0,1.8991685E-1,8.081056E-2,0E0,3.8021803E-3,0E0,8.169606E-3,9.4432235E-3,0E0,2.0116873E-2,2.157998E-2,7.2974265E-2,4.9468562E-2,3.4741674E-2,0E0,1.9931793E-4,0E0,1.47597045E-2,4.2824745E-3,1.4591813E-3,0E0,5.073148E-3,0E0,1.2444258E-3,4.401983E-2,2.6472628E-2,1.4508755E-2,7.1081966E-3,3.4978432E-3,0E0,0E0,0E0,0E0,0E0,0E0,0E0,0E0,0E0,0E0,0E0,0E0,0E0,0E0,0E0,0E0,0E0,0E0,0E0,0E0,0E0,0E0,0E0],"parents":[2147483647,0,0,1,1,2,2,3,3,4,4,5,5,6,6,7,7,8,8,10,10,12,12,13,13,15,15,17,17,18,18,20,20,21,21,22,22,23,23,24,24,26,26,28,28,29,29,30,30,32,32,34,34,35,35,36,36,37,37,38,38,39,39],"right_children":[2,4,6,8,10,12,14,16,18,-1,20,-1,22,24,-1,26,-1,28,30,-1,32,34,36,38,40,-1,42,-1,44,46,48,-1,50,-1,52,54,56,58,60,62,-1,-1,-1,-1,-1,-1,-1,-1,-1,-1,-1,-1,-1,-1,-1,-1,-1,-1,-1,-1,-1,-1,-1],"split_conditions":[2.9354945E-1,1.3011471E0,-1.282306E-1,1.8070123E-1,6.515319E-2,2.3185879E-2,8.750978E-1,2.843483E-1,-4.270302E-1,-5.2939756E-3,-5.0962046E-2,3.973376E-3,-4.7730067E-1,-2.888104E-1,-5.934518E-3,-2.0842314E-1,2.8156075E-3,1.5568289E-1,8.5659504E-2,-1.8241968E-3,-2.2709787E-2,-2.3000538E-3,1.2333043E-1,-2.1213876E-1,2.6430372E-2,3.0879106E-3,-2.8368676E-1,1.3794916E-3,2.1635883E-1,-3.901355E-1,6.25806E-2,4.136235E-3,2.0422302E-1,-5.035712E-3,3.6888742E-1,-4.660219E-3,-1.2831053E-1,-3.919918E-1,-2.8722054E-1,-6.9887303E-3,-2.1720098E-3,3.4139163E-3,5.816768E-3,5.4858048E-3,1.8091908E-3,3.2799651E-3,4.754867E-3,3.118119E-3,1.5388082E-3,1.6601966E-4,1.4399582E-3,-9.557496E-3,-7.231101E-3,1.3065464E-3,-3.4668662E-3,-4.5019607E-3,-7.6959343E-3,-5.247979E-4,2.0050001E-3,3.1693836E-3,6.139302E-3,1.7414198E-3,2.630518E-4],"split_indices":[345,389,81,167,242,307,103,115,199,0,22,0,226,139,0,135,0,257,55,0,261,119,197,285,389,0,102,0,389,105,37,0,224,0,0,1,2,17,143,2,0,0,0,0,0,0,0,0,0,0,0,0,0,0,0,0,0,0,0,0,0,0,0],"split_type":[0,0,0,0,0,0,0,0,0,0,0,0,0,0,0,0,0,0,0,0,0,0,0,0,0,0,0,0,0,0,0,0,0,0,0,0,0,0,0,0,0,0,0,0,0,0,0,0,0,0,0,0,0,0,0,0,0,0,0,0,0,0,0],"sum_hessian":[4.6636752E2,2.3097414E2,2.3539339E2,1.6423994E2,6.673419E1,1.497354E2,8.565799E1,6.046005E1,1.037799E2,2.054216E1,4.6192036E1,9.190559E0,1.4054485E2,7.380807E1,1.1849922E1,5.1850624E1,8.609423E0,2.2225327E1,8.155457E1,7.1338987E0,3.9058136E1,6.448709E1,7.605775E1,3.7257282E1,3.655079E1,5.8042727E0,4.6046352E1,9.319206E0,1.2906121E1,6.6112236E1,1.5442335E1,5.251057E0,3.380708E1,1.0207777E1,5.4279316E1,1.7950296E1,5.810745E1,2.10437E1,1.6213583E1,1.6556252E1,1.9994535E1,5.2597213E0,4.0786633E1,5.042985E0,7.8631363E0,1.8044153E1,4.806808E1,9.697779E0,5.7445564E0,1.2460009E1,2.134707E1,2.8657055E1,2.5622261E1,7.7804375E0,1.0169859E1,4.7969784E1,1.0137667E1,1.0401144E1,1.0642555E1,1.0867078E1,5.3465056E0,5.830401E0,1.072585E1],"tree_param":{"num_deleted":"0","num_feature":"403","num_nodes":"63","size_leaf_vector":"1"}},{"base_weights":[-8.104208E-3,-6.267217E-2,6.0341954E-2,-9.1734454E-2,1.0551048E-3,7.6772235E-2,-1.0846417E-2,-5.182233E-3,-1.1740162E-1,-6.302059E-2,3.5342444E-2,1.8648287E-2,8.218123E-2,-4.689288E-3,1.3054454E-2,-3.559218E-2,7.993411E-2,-3.2707747E-2,-1.4946875E-1,-1.4023419E-3,-5.831655E-3,5.5923597E-3,2.0235939E-2,1.9708977E-3,1.3190463E-4,8.6180404E-2,4.961195E-2,2.8836159E-2,-1.8894718E-3,-9.983402E-4,-2.4731874E-3,4.796253E-3,2.588507E-3,-3.270821E-3,2.397912E-2,-8.834502E-3,-6.5208212E-3,2.4173644E-3,1.2243646E-2,6.168338E-2,9.433995E-2,9.6563855E-4,3.2944772E-3,1.7512506E-2,2.8488375E-3,1.628359E-4,1.7829089E-3,1.4911987E-3,2.088787E-4,2.503974E-3,3.938608E-3,4.8650946E-3,2.0724467E-3,2.6440088E-4,1.6348101E-3],"categories":[],"categories_nodes":[],"categories_segments":[],"categories_sizes":[],"default_left":[0,0,0,0,0,0,0,0,0,0,0,0,0,0,0,0,0,0,0,0,0,0,0,0,0,0,0,0,0,0,0,0,0,0,0,0,0,0,0,0,0,0,0,0,0,0,0,0,0,0,0,0,0,0,0],"id":20,"left_children":[1,3,5,7,9,11,13,15,17,19,21,23,25,-1,27,29,31,33,35,-1,-1,-1,37,-1,-1,39,41,43,-1,-1,-1,-1,-1,-1,45,-1,-1,-1,47,49,51,-1,-1,53,-1,-1,-1,-1,-1,-1,-1,-1,-1,-1,-1],"loss_changes":[1.8139901E0,5.004542E-1,2.5289422E-1,4.1161644E-1,1.9030078E-1,5.35537E-2,8.306912E-2,1.15407154E-1,3.8367307E-1,5.3353906E-2,6.292584E-2,5.2865306E-3,1.6565084E-2,0E0,2.751195E-2,6.1070137E-3,3.2814592E-4,7.679656E-2,3.0633211E-2,0E0,0E0,0E0,1.0265524E-2,0E0,0E0,2.2394419E-2,8.51991E-3,7.1903877E-3,0E0,0E0,0E0,0E0,0E0,0E0,3.653735E-3,0E0,0E0,0E0,5.401051E-3,3.6214143E-3,1.225841E-2,0E0,0E0,3.496076E-3,0E0,0E0,0E0,0E0,0E0,0E0,0E0,0E0,0E0,0E0,0E0],"parents":[2147483647,0,0,1,1,2,2,3,3,4,4,5,5,6,6,7,7,8,8,9,9,10,10,11,11,12,12,14,14,15,15,16,16,17,17,18,18,22,22,25,25,26,26,27,27,34,34,38,38,39,39,40,40,43,43],"right_children":[2,4,6,8,10,12,14,16,18,20,22,24,26,-1,28,30,32,34,36,-1,-1,-1,38,-1,-1,40,42,44,-1,-1,-1,-1,-1,-1,46,-1,-1,-1,48,50,52,-1,-1,54,-1,-1,-1,-1,-1,-1,-1,-1,-1,-1,-1],"split_conditions":[-1.2147588E0,-1.7517492E-2,1.1503068E0,-2.129182E-1,-2.7839452E-1,-6.9008213E-1,2.1368738E-2,1.5441385E-1,1.03738636E-1,2.2211397E0,1.9676203E-1,-7.7077255E-2,8.7948954E-1,-4.689288E-3,4.1925362E-1,4.0409356E-1,2.2148194E0,1.18864074E-1,1.1872476E-1,-1.4023419E-3,-5.831655E-3,5.5923597E-3,2.8647788E0,1.9708977E-3,1.3190463E-4,-2.977792E-1,1.03990704E-1,-4.937221E-2,-1.8894718E-3,-9.983402E-4,-2.4731874E-3,4.796253E-3,2.588507E-3,-3.270821E-3,4.9729772E-2,-8.834502E-3,-6.5208212E-3,2.4173644E-3,-6.47746E-1,6.509916E-2,8.5960746E-1,9.6563855E-4,3.2944772E-3,-1.3660826E-1,2.8488375E-3,1.628359E-4,1.7829089E-3,1.4911987E-3,2.088787E-4,2.503974E-3,3.938608E-3,4.8650946E-3,2.0724467E-3,2.6440088E-4,1.6348101E-3],"split_indices":[385,342,389,131,75,60,310,150,19,389,236,2,389,0,29,0,389,193,42,0,0,0,390,0,0,367,337,211,0,0,0,0,0,0,0,0,0,0,60,29,284,0,0,323,0,0,0,0,0,0,0,0,0,0,0],"split_type":[0,0,0,0,0,0,0,0,0,0,0,0,0,0,0,0,0,0,0,0,0,0,0,0,0,0,0,0,0,0,0,0,0,0,0,0,0,0,0,0,0,0,0,0,0,0,0,0,0,0,0,0,0,0,0],"sum_hessian":[4.836651E2,2.6916254E2,2.1450256E2,1.8455727E2,8.460526E1,1.7421524E2,4.0287327E1,4.248742E1,1.4206985E2,2.9199549E1,5.5405716E1,1.5210802E1,1.5900444E2,8.3584385E0,3.1928888E1,3.1732155E1,1.0755265E1,3.9572685E1,1.0249717E2,1.8593409E1,1.060614E1,8.080296E0,4.732542E1,5.9848013E0,9.226001E0,1.4014948E2,1.8854961E1,2.4696163E1,7.2327247E0,1.6069908E1,1.5662247E1,5.325566E0,5.4297E0,2.49959E1,1.4576784E1,3.8794724E1,6.3702446E1,9.358713E0,3.796671E1,3.715636E1,1.0299311E2,7.353533E0,1.1501429E1,1.8766804E1,5.929359E0,5.7151403E0,8.861644E0,1.1092562E1,2.6874146E1,2.4470528E1,1.2685832E1,9.673616E1,6.2569566E0,1.114343E1,7.623375E0],"tree_param":{"num_deleted":"0","num_feature":"403","num_nodes":"55","size_leaf_vector":"1"}},{"base_weights":[-6.1288453E-3,-5.9269067E-2,5.340622E-2,-9.458538E-2,-1.1285334E-2,7.93703E-2,-8.273893E-3,-1.389847E-1,-4.112012E-2,-9.024367E-2,1.3369071E-2,5.499986E-3,7.458608E-2,-4.777946E-3,2.845673E-2,-7.5642727E-3,-2.7529912E-3,-6.5977655E-2,5.6592345E-2,-3.3645995E-3,-5.3602154E-3,2.5960535E-2,-3.3505794E-3,8.5986E-2,6.4704925E-2,1.3117658E-2,4.759745E-2,1.1940608E-3,-7.669157E-2,2.839527E-4,4.575854E-3,-1.2601317E-2,4.260614E-2,9.1150545E-2,1.6744396E-3,4.1390978E-2,7.048895E-2,2.624073E-2,2.874562E-4,5.8349047E-2,1.1695232E-3,-4.8540644E-3,-2.8933787E-3,-9.5134845E-4,3.6555374E-4,4.8344253E-4,3.5928066E-3,4.756271E-3,2.6439175E-3,2.425975E-3,1.2790826E-3,4.047266E-3,2.398354E-3,7.510741E-4,1.5616223E-3,-1.892466E-4,1.909378E-4,4.2909817E-3,1.5350034E-3],"categories":[],"categories_nodes":[],"categories_segments":[],"categories_sizes":[],"default_left":[0,0,0,0,0,0,0,0,0,0,0,0,0,0,0,0,0,0,0,0,0,0,0,0,0,0,0,0,0,0,0,0,0,0,0,0,0,0,0,0,0,0,0,0,0,0,0,0,0,0,0,0,0,0,0,0,0,0,0],"id":21,"left_children":[1,3,5,7,9,11,13,15,17,19,21,-1,23,-1,25,-1,-1,27,29,-1,-1,31,-1,33,35,37,39,-1,41,-1,-1,43,45,47,-1,49,51,53,55,57,-1,-1,-1,-1,-1,-1,-1,-1,-1,-1,-1,-1,-1,-1,-1,-1,-1,-1,-1],"loss_changes":[1.476924E0,4.1683918E-1,3.5333717E-1,3.3117807E-1,2.0694874E-1,1.45202875E-2,2.147839E-1,7.127762E-2,1.6357112E-1,2.6259422E-3,8.413732E-2,0E0,9.8949075E-3,0E0,1.3270363E-2,0E0,0E0,5.2782208E-2,2.4167985E-2,0E0,0E0,4.6179257E-2,0E0,1.3399124E-2,7.5404346E-3,4.648275E-3,4.015669E-3,0E0,1.2621939E-2,0E0,0E0,2.981025E-3,4.7375396E-2,3.2857656E-3,0E0,7.6914206E-4,1.0415673E-2,2.9578712E-4,2.30067E-4,7.72994E-3,0E0,0E0,0E0,0E0,0E0,0E0,0E0,0E0,0E0,0E0,0E0,0E0,0E0,0E0,0E0,0E0,0E0,0E0,0E0],"parents":[2147483647,0,0,1,1,2,2,3,3,4,4,5,5,6,6,7,7,8,8,9,9,10,10,12,12,14,14,17,17,18,18,21,21,23,23,24,24,25,25,26,26,28,28,31,31,32,32,33,33,35,35,36,36,37,37,38,38,39,39],"right_children":[2,4,6,8,10,12,14,16,18,20,22,-1,24,-1,26,-1,-1,28,30,-1,-1,32,-1,34,36,38,40,-1,42,-1,-1,44,46,48,-1,50,52,54,56,58,-1,-1,-1,-1,-1,-1,-1,-1,-1,-1,-1,-1,-1,-1,-1,-1,-1,-1,-1],"split_conditions":[-2.4656259E-1,-1.282306E-1,1.3011471E0,-2.7817866E-1,-3.614077E-1,-7.883811E-2,6.515319E-2,-2.2461322E-1,2.962535E-1,-8.402232E-3,2.84668E0,5.499986E-3,1.6606003E-3,-4.777946E-3,-4.835683E-2,-7.5642727E-3,-2.7529912E-3,1.2657055E-1,-4.5279175E-1,-3.3645995E-3,-5.3602154E-3,-1.1324215E-1,-3.3505794E-3,3.5481903E-1,2.2631055E-1,4.186363E-1,2.2729282E0,1.1940608E-3,-4.2485455E-1,2.839527E-4,4.575854E-3,-9.8489776E-2,-2.1213876E-1,5.6942594E-1,1.6744396E-3,1.6337574E-1,2.1635883E-1,1.3718453E-1,-2.4875386E-1,2.0106581E-1,1.1695232E-3,-4.8540644E-3,-2.8933787E-3,-9.5134845E-4,3.6555374E-4,4.8344253E-4,3.5928066E-3,4.756271E-3,2.6439175E-3,2.425975E-3,1.2790826E-3,4.047266E-3,2.398354E-3,7.510741E-4,1.5616223E-3,-1.892466E-4,1.909378E-4,4.2909817E-3,1.5350034E-3],"split_indices":[340,81,389,20,241,178,242,5,338,2,389,0,354,0,211,0,0,357,5,0,0,81,0,371,71,167,390,0,3,0,0,2,285,5,0,171,389,18,6,345,0,0,0,0,0,0,0,0,0,0,0,0,0,0,0,0,0,0,0],"split_type":[0,0,0,0,0,0,0,0,0,0,0,0,0,0,0,0,0,0,0,0,0,0,0,0,0,0,0,0,0,0,0,0,0,0,0,0,0,0,0,0,0,0,0,0,0,0,0,0,0,0,0,0,0,0,0,0,0,0,0],"sum_hessian":[4.6483286E2,2.456095E2,2.1922336E2,1.409202E2,1.0468931E2,1.540779E2,6.514547E1,7.61135E1,6.4806694E1,2.427755E1,8.041176E1,1.7844175E1,1.3623372E2,1.882025E1,4.6325222E1,6.56837E1,1.0429807E1,5.1922626E1,1.2884065E1,1.2427628E1,1.1849922E1,7.010671E1,1.0305042E1,5.967935E1,7.655436E1,2.665203E1,1.9673191E1,5.4003396E0,4.652229E1,5.7151403E0,7.1689243E0,2.121114E1,4.8895576E1,5.366375E1,6.0156016E0,1.6838535E1,5.9715828E1,1.2658919E1,1.3993112E1,1.2646011E1,7.0271797E0,2.0336712E1,2.6185577E1,1.6069908E1,5.1412306E0,2.3624027E1,2.527155E1,4.7268997E1,6.394752E0,1.0179496E1,6.659039E0,3.901023E1,2.0705597E1,5.1325083E0,7.526411E0,6.4653153E0,7.527796E0,5.288115E0,7.3578963E0],"tree_param":{"num_deleted":"0","num_feature":"403","num_nodes":"59","size_leaf_vector":"1"}},{"base_weights":[-7.76699E-3,-6.0658026E-2,4.9035527E-2,-7.806117E-2,4.6350986E-2,6.974983E-2,-3.7895437E-2,-1.0038328E-1,-6.056817E-3,8.9620136E-2,9.723653E-3,2.7416987E-4,7.391965E-2,-8.1030175E-2,1.0117072E-2,-6.1086155E-2,-1.4295565E-1,2.6970129E-3,-2.2515163E-2,5.5576656E-3,2.5701306E-3,1.4130617E-3,-2.9465152E-4,9.063545E-2,6.7310855E-2,-1.5102929E-3,-4.82015E-3,2.906057E-2,-2.054468E-3,2.1340016E-3,-7.4762605E-2,-7.685171E-3,-5.068466E-3,-2.7004227E-2,1.4778224E-4,9.746207E-2,2.4498445E-3,7.277412E-2,5.0438304E-2,1.8692802E-3,5.432117E-4,-2.880885E-3,-4.630435E-3,-1.7159105E-3,-9.065677E-4,2.8186839E-3,5.110837E-3,2.8960174E-3,4.1281143E-3,2.7723054E-3,1.1544358E-3],"categories":[],"categories_nodes":[],"categories_segments":[],"categories_sizes":[],"default_left":[0,0,0,0,0,0,0,0,0,0,0,0,0,0,0,0,0,0,0,0,0,0,0,0,0,0,0,0,0,0,0,0,0,0,0,0,0,0,0,0,0,0,0,0,0,0,0,0,0,0,0],"id":22,"left_children":[1,3,5,7,9,11,13,15,17,19,21,-1,23,25,27,29,31,-1,33,-1,-1,-1,-1,35,37,-1,-1,39,-1,-1,41,-1,-1,43,-1,45,-1,47,49,-1,-1,-1,-1,-1,-1,-1,-1,-1,-1,-1,-1],"loss_changes":[1.3512802E0,4.3723667E-1,3.932976E-1,3.2188356E-1,5.1741794E-2,4.663837E-2,8.8619664E-2,2.4739492E-1,4.915126E-2,6.7107603E-3,5.6960704E-3,0E0,1.2102008E-2,1.4622897E-2,2.1518137E-2,1.18649155E-1,1.6931176E-2,0E0,4.5163333E-3,0E0,0E0,0E0,0E0,7.675141E-3,7.5727105E-3,0E0,0E0,1.9993875E-3,0E0,0E0,1.676932E-2,0E0,0E0,1.5249103E-3,0E0,1.3918579E-3,0E0,8.285701E-3,3.252171E-3,0E0,0E0,0E0,0E0,0E0,0E0,0E0,0E0,0E0,0E0,0E0,0E0],"parents":[2147483647,0,0,1,1,2,2,3,3,4,4,5,5,6,6,7,7,8,8,9,9,10,10,12,12,13,13,14,14,15,15,16,16,18,18,23,23,24,24,27,27,30,30,33,33,35,35,37,37,38,38],"right_children":[2,4,6,8,10,12,14,16,18,20,22,-1,24,26,28,30,32,-1,34,-1,-1,-1,-1,36,38,-1,-1,40,-1,-1,42,-1,-1,44,-1,46,-1,48,50,-1,-1,-1,-1,-1,-1,-1,-1,-1,-1,-1,-1],"split_conditions":[-1.2147588E0,1.0687932E-1,1.3011471E0,1.6734678E-1,5.516563E-1,-2.9717666E-1,9.9767424E-2,3.422668E-1,6.0169213E-2,3.0997808E0,4.3911737E-1,2.7416987E-4,1.0457553E-1,-4.796494E-1,-1.3953288E-1,-1.7867261E-1,1.536035E-1,2.6970129E-3,-2.6153234E-1,5.5576656E-3,2.5701306E-3,1.4130617E-3,-2.9465152E-4,2.3404872E-1,-1.8196508E-2,-1.5102929E-3,-4.82015E-3,-1.3658407E-1,-2.054468E-3,2.1340016E-3,1.623603E0,-7.685171E-3,-5.068466E-3,-2.1684314E-1,1.4778224E-4,-2.5226128E-1,2.4498445E-3,-9.572308E-2,1.1233353E-1,1.8692802E-3,5.432117E-4,-2.880885E-3,-4.630435E-3,-1.7159105E-3,-9.065677E-4,2.8186839E-3,5.110837E-3,2.8960174E-3,4.1281143E-3,2.7723054E-3,1.1544358E-3],"split_indices":[385,91,389,203,82,5,337,299,9,388,67,0,7,293,105,334,197,0,3,0,0,0,0,83,176,0,0,35,0,0,389,0,0,2,0,354,0,200,338,0,0,0,0,0,0,0,0,0,0,0,0],"split_type":[0,0,0,0,0,0,0,0,0,0,0,0,0,0,0,0,0,0,0,0,0,0,0,0,0,0,0,0,0,0,0,0,0,0,0,0,0,0,0,0,0,0,0,0,0,0,0,0,0,0,0],"sum_hessian":[4.477854E2,2.3184119E2,2.1594423E2,1.9964323E2,3.2197952E1,1.7454945E2,4.1394783E1,1.5209732E2,4.754591E1,1.4097396E1,1.8100555E1,1.0776345E1,1.637731E2,2.1442774E1,1.995201E1,8.035717E1,7.174014E1,9.744831E0,3.780108E1,7.7962565E0,6.3011394E0,7.906073E0,1.0194483E1,4.2801E1,1.2097211E2,5.668139E0,1.5774634E1,1.4879801E1,5.072208E0,9.110807E0,7.124636E1,5.486463E1,1.6875515E1,3.2085938E1,5.7151403E0,3.5620384E1,7.1806145E0,8.8879944E1,3.209216E1,9.485505E0,5.3942957E0,3.84937E1,3.2752663E1,1.6016031E1,1.6069908E1,5.0278344E0,3.059255E1,3.8052193E1,5.082775E1,2.6257088E1,5.8350706E0],"tree_param":{"num_deleted":"0","num_feature":"403","num_nodes":"51","size_leaf_vector":"1"}},{"base_weights":[-7.541318E-3,-5.563532E-2,4.7678806E-2,-7.1504705E-2,4.2940058E-2,6.90892E-2,-2.6395729E-2,-9.500315E-2,-2.8354358E-2,4.3005846E-3,2.7447825E-2,3.9125208E-2,7.3151134E-2,1.4817853E-2,-7.774419E-2,-1.0869079E-1,-1.0175407E-4,3.666235E-2,-5.6179218E-2,1.5519933E-2,3.288325E-3,2.5726114E-3,1.1372765E-3,7.704182E-2,4.7831733E-2,2.9369336E-2,-2.1191856E-3,-5.462173E-3,-2.807346E-3,-8.542553E-4,-1.20702766E-1,5.464083E-3,7.815787E-3,-6.971842E-2,-2.5070023E-2,2.177643E-3,7.673968E-4,9.123163E-2,6.719582E-2,5.7870768E-2,5.894384E-4,2.401105E-3,1.7756622E-2,-4.427708E-3,-6.8436745E-3,1.9082485E-4,6.789875E-4,-1.7663807E-3,-4.7205645E-3,-2.721342E-3,1.3234706E-3,1.5890658E-4,-4.918307E-5,2.0288674E-3,4.8076375E-3,3.4884866E-3,1.3779014E-3,3.3933285E-3,1.5609753E-3,1.3639634E-3,3.6749043E-4],"categories":[],"categories_nodes":[],"categories_segments":[],"categories_sizes":[],"default_left":[0,0,0,0,0,0,0,0,0,0,0,0,0,0,0,0,0,0,0,0,0,0,0,0,0,0,0,0,0,0,0,0,0,0,0,0,0,0,0,0,0,0,0,0,0,0,0,0,0,0,0,0,0,0,0,0,0,0,0,0,0],"id":23,"left_children":[1,3,5,7,9,11,13,15,17,-1,19,21,23,25,27,29,-1,31,33,35,-1,-1,-1,37,39,41,-1,-1,-1,-1,43,-1,45,47,49,-1,51,53,55,57,-1,-1,59,-1,-1,-1,-1,-1,-1,-1,-1,-1,-1,-1,-1,-1,-1,-1,-1,-1,-1],"loss_changes":[1.2860337E0,4.0784103E-1,3.594507E-1,2.2366989E-1,2.1997496E-2,1.8463075E-2,1.0968591E-1,1.8316114E-1,1.4703119E-1,0E0,1.1921529E-2,3.486991E-3,1.1401057E-2,2.5625292E-2,9.509966E-3,1.3614011E-1,0E0,5.0724305E-2,2.2055328E-2,9.438332E-3,0E0,0E0,0E0,1.2187004E-2,7.6529346E-3,4.3331627E-3,0E0,0E0,0E0,0E0,4.551804E-2,0E0,3.792172E-4,2.9626533E-2,2.973241E-2,0E0,7.076901E-5,8.789271E-3,6.3613057E-3,2.6129186E-3,0E0,0E0,1.4189752E-3,0E0,0E0,0E0,0E0,0E0,0E0,0E0,0E0,0E0,0E0,0E0,0E0,0E0,0E0,0E0,0E0,0E0,0E0],"parents":[2147483647,0,0,1,1,2,2,3,3,4,4,5,5,6,6,7,7,8,8,10,10,11,11,12,12,13,13,14,14,15,15,17,17,18,18,19,19,23,23,24,24,25,25,30,30,32,32,33,33,34,34,36,36,37,37,38,38,39,39,42,42],"right_children":[2,4,6,8,10,12,14,16,18,-1,20,22,24,26,28,30,-1,32,34,36,-1,-1,-1,38,40,42,-1,-1,-1,-1,44,-1,46,48,50,-1,52,54,56,58,-1,-1,60,-1,-1,-1,-1,-1,-1,-1,-1,-1,-1,-1,-1,-1,-1,-1,-1,-1,-1],"split_conditions":[-1.2147588E0,-5.3514957E-2,1.1784703E0,-2.6380977E-1,2.26954E-1,-2.8438747E-1,-2.2049536E-1,2.2404134E-1,-3.134092E-1,4.3005846E-3,3.4566293E0,1.8823999E-1,9.1585815E-2,3.153736E-1,-3.335948E-1,3.5497218E-1,-1.0175407E-4,-6.678015E-2,2.652464E-1,2.2729282E0,3.288325E-3,2.5726114E-3,1.1372765E-3,-6.3455135E-1,1.4313051E-1,5.109421E-2,-2.1191856E-3,-5.462173E-3,-2.807346E-3,-8.542553E-4,-4.494378E-2,5.464083E-3,-1.294648E-1,1.2057906E0,2.1465695E0,2.177643E-3,4.4816852E-1,-2.1561655E-1,2.9297653E-1,-9.5771745E-2,5.894384E-4,2.401105E-3,-3.3970964E-1,-4.427708E-3,-6.8436745E-3,1.9082485E-4,6.789875E-4,-1.7663807E-3,-4.7205645E-3,-2.721342E-3,1.3234706E-3,1.5890658E-4,-4.918307E-5,2.0288674E-3,4.8076375E-3,3.4884866E-3,1.3779014E-3,3.3933285E-3,1.5609753E-3,1.3639634E-3,3.6749043E-4],"split_indices":[385,175,389,20,42,235,270,222,226,0,390,378,301,256,8,272,0,273,0,390,0,0,0,385,149,14,0,0,0,0,44,0,2,389,389,0,0,135,231,313,0,0,97,0,0,0,0,0,0,0,0,0,0,0,0,0,0,0,0,0,0],"split_type":[0,0,0,0,0,0,0,0,0,0,0,0,0,0,0,0,0,0,0,0,0,0,0,0,0,0,0,0,0,0,0,0,0,0,0,0,0,0,0,0,0,0,0,0,0,0,0,0,0,0,0,0,0,0,0,0,0,0,0,0,0],"sum_hessian":[4.8224503E2,2.5775E2,2.2449503E2,2.2224583E2,3.550415E1,1.7420918E2,5.028585E1,1.4311037E2,7.913547E1,8.187969E0,2.7316183E1,2.2065924E1,1.5214325E2,2.8290558E1,2.1995295E1,1.2459691E2,1.8513462E1,2.3621916E1,5.5513554E1,2.1903158E1,5.413025E0,1.1368781E1,1.0697144E1,1.3010756E2,2.20357E1,2.2941135E1,5.349422E0,7.295998E0,1.4699296E1,1.4724826E1,1.09872086E2,5.922938E0,1.7698978E1,3.781485E1,1.7698702E1,6.8791313E0,1.5024027E1,4.991109E1,8.0196465E1,1.6761515E1,5.2741857E0,7.599401E0,1.5341735E1,3.8937542E1,7.093454E1,1.1430281E1,6.2686973E0,1.681983E1,2.0995022E1,1.1240245E1,6.458456E0,5.978402E0,9.045624E0,5.2382364E0,4.4672855E1,7.459255E1,5.603911E0,1.1065012E1,5.6965027E0,7.1645756E0,8.177159E0],"tree_param":{"num_deleted":"0","num_feature":"403","num_nodes":"61","size_leaf_vector":"1"}},{"base_weights":[-1.0126423E-2,-4.7423795E-2,5.5918872E-2,-8.11864E-2,9.365477E-3,1.7392673E-2,7.331769E-2,-9.614601E-2,-1.7425682E-2,4.6718683E-2,-3.6367882E-2,3.91069E-2,-4.928865E-2,5.842687E-2,8.485452E-2,8.100576E-3,-1.04212634E-1,9.635511E-4,-2.4967562E-2,8.718504E-2,3.1053705E-2,1.9042706E-2,-6.744285E-2,3.8308282E-3,2.6787454E-2,-5.84481E-4,-4.5194165E-3,1.4555181E-3,6.285444E-2,8.9309126E-2,1.9142509E-3,7.9314766E-4,-8.764292E-5,-1.9894835E-2,-1.1715171E-1,-1.5655194E-3,-8.5910456E-4,5.125172E-3,2.2370114E-3,-3.6321074E-4,4.878338E-2,2.8784046E-4,1.5896404E-3,-1.9187641E-3,-4.369584E-3,5.6057565E-6,3.555943E-2,4.9993765E-2,4.1101347E-3,4.6492405E-3,2.4901084E-3,9.784118E-4,-2.8647797E-3,-4.1551744E-3,-6.490685E-3,-5.6813256E-4,6.259629E-4,3.2283135E-3,1.5279858E-3,1.3033929E-3,2.5802476E-3,2.7731622E-3,1.3713213E-3],"categories":[],"categories_nodes":[],"categories_segments":[],"categories_sizes":[],"default_left":[0,0,0,0,0,0,0,0,0,0,0,0,0,0,0,0,0,0,0,0,0,0,0,0,0,0,0,0,0,0,0,0,0,0,0,0,0,0,0,0,0,0,0,0,0,0,0,0,0,0,0,0,0,0,0,0,0,0,0,0,0,0,0],"id":24,"left_children":[1,3,5,7,9,11,13,15,17,19,21,23,25,27,29,31,33,-1,35,37,39,41,43,-1,45,-1,-1,-1,47,49,-1,-1,-1,51,53,-1,-1,-1,-1,55,57,-1,-1,-1,-1,-1,59,61,-1,-1,-1,-1,-1,-1,-1,-1,-1,-1,-1,-1,-1,-1,-1],"loss_changes":[1.2333982E0,6.1402535E-1,1.1990368E-1,1.8975544E-1,2.0695616E-1,8.5261144E-2,1.638347E-2,1.3735521E-1,1.1374672E-2,3.9494127E-2,9.526423E-2,1.8267564E-2,2.1474496E-2,5.6262165E-3,1.0642827E-2,9.905531E-4,1.6213453E-1,0E0,1.0958668E-3,7.1342587E-3,2.761649E-2,3.271101E-3,1.7051145E-2,0E0,8.101402E-3,0E0,0E0,0E0,8.093476E-3,4.244268E-3,0E0,0E0,0E0,3.2500025E-2,4.5467854E-2,0E0,0E0,0E0,0E0,2.8157139E-3,7.1389824E-3,0E0,0E0,0E0,0E0,0E0,2.624236E-3,2.4301335E-3,0E0,0E0,0E0,0E0,0E0,0E0,0E0,0E0,0E0,0E0,0E0,0E0,0E0,0E0,0E0],"parents":[2147483647,0,0,1,1,2,2,3,3,4,4,5,5,6,6,7,7,8,8,9,9,10,10,11,11,12,12,13,13,14,14,15,15,16,16,18,18,19,19,20,20,21,21,22,22,24,24,28,28,29,29,33,33,34,34,39,39,40,40,46,46,47,47],"right_children":[2,4,6,8,10,12,14,16,18,20,22,24,26,28,30,32,34,-1,36,38,40,42,44,-1,46,-1,-1,-1,48,50,-1,-1,-1,52,54,-1,-1,-1,-1,56,58,-1,-1,-1,-1,-1,60,62,-1,-1,-1,-1,-1,-1,-1,-1,-1,-1,-1,-1,-1,-1,-1],"split_conditions":[-5.3514957E-2,-8.755082E-2,-2.736234E-1,1.5784582E-1,2.050618E0,-1.5285821E-1,4.9332455E-2,-4.8401803E-1,3.593824E-1,8.712046E-3,-1.7860653E-1,-3.0057333E-2,1.3174918E0,-2.5522017E-1,2.1363837E-1,8.617927E-2,-1.2823194E-2,9.635511E-4,3.745693E-1,2.2702782E-1,5.2309215E-2,1.4266595E-1,-4.2485455E-1,3.8308282E-3,-2.2338971E-2,-5.84481E-4,-4.5194165E-3,1.4555181E-3,1.0902426E-1,2.5979686E-1,1.9142509E-3,7.9314766E-4,-8.764292E-5,-2.2635588E-1,1.1829811E-1,-1.5655194E-3,-8.5910456E-4,5.125172E-3,2.2370114E-3,-4.2877156E-1,1.2683281E-1,2.8784046E-4,1.5896404E-3,-1.9187641E-3,-4.369584E-3,5.6057565E-6,3.4566293E0,-9.5771745E-2,4.1101347E-3,4.6492405E-3,2.4901084E-3,9.784118E-4,-2.8647797E-3,-4.1551744E-3,-6.490685E-3,-5.6813256E-4,6.259629E-4,3.2283135E-3,1.5279858E-3,1.3033929E-3,2.5802476E-3,2.7731622E-3,1.3713213E-3],"split_indices":[175,93,8,308,389,51,358,76,0,307,6,160,389,63,140,4,91,0,0,179,307,18,3,0,160,0,0,0,169,166,0,0,0,3,165,0,0,0,0,8,267,0,0,0,0,0,390,313,0,0,0,0,0,0,0,0,0,0,0,0,0,0,0],"split_type":[0,0,0,0,0,0,0,0,0,0,0,0,0,0,0,0,0,0,0,0,0,0,0,0,0,0,0,0,0,0,0,0,0,0,0,0,0,0,0,0,0,0,0,0,0,0,0,0,0,0,0,0,0,0,0,0,0,0,0,0,0,0,0],"sum_hessian":[4.9862988E2,3.188497E2,1.7978018E2,1.9969598E2,1.1915373E2,5.6553482E1,1.2322669E2,1.6133539E2,3.836059E1,6.557396E1,5.3579777E1,4.2973152E1,1.3580332E1,5.6441208E1,6.6785484E1,1.1587227E1,1.4974815E2,6.2746544E0,3.2085938E1,1.7026047E1,4.8547913E1,1.9390776E1,3.4189E1,9.334071E0,3.363908E1,7.7629805E0,5.8173513E0,8.399562E0,4.8041645E1,6.011721E1,6.6682734E0,6.140191E0,5.4470353E0,2.0260126E1,1.2948804E2,1.6016031E1,1.6069908E1,1.1471118E1,5.5549283E0,1.7867064E1,3.0680851E1,1.0206687E1,9.18409E0,1.5104223E1,1.9084776E1,8.57513E0,2.506395E1,3.1012022E1,1.7029623E1,5.3761654E1,6.3555584E0,1.0090268E1,1.0169859E1,3.715122E1,9.2336815E1,9.701557E0,8.165506E0,1.5078711E1,1.560214E1,1.7397339E1,7.66661E0,2.3788824E1,7.223199E0],"tree_param":{"num_deleted":"0","num_feature":"403","num_nodes":"63","size_leaf_vector":"1"}},{"base_weights":[-4.319208E-3,-5.037565E-2,5.450567E-2,-8.677416E-2,8.608546E-3,6.7418456E-2,7.644141E-3,-1.10807344E-1,-3.7189707E-2,-5.1278256E-2,4.0459808E-2,5.524374E-2,7.9009436E-2,3.4466617E-2,-4.8287664E-2,-2.1688067E-3,-1.21838145E-1,-6.884873E-2,1.3302912E-2,2.3922445E-3,-3.872497E-3,2.4012016E-2,7.769648E-2,1.2540038E-3,5.9896007E-2,8.5043386E-2,5.2078426E-2,2.1534483E-4,5.3710554E-2,-3.9917235E-3,1.2075647E-4,-7.0988424E-3,-5.4016425E-3,-4.7298297E-2,-4.6747793E-3,1.3007001E-4,1.5585248E-3,1.974334E-3,3.3613436E-2,4.6320725E-3,1.8225498E-3,6.456929E-2,1.6298414E-3,4.4172024E-3,2.1954325E-3,3.2018204E-3,1.8823867E-3,7.55858E-2,4.5446437E-4,-2.6423016E-3,-1.5225015E-3,9.2368966E-5,-8.394151E-5,5.696212E-4,-3.713057E-4,5.418954E-4,2.0375724E-3,1.4755639E-3,3.4236931E-3,2.2291E-3,4.6950392E-3],"categories":[],"categories_nodes":[],"categories_segments":[],"categories_sizes":[],"default_left":[0,0,0,0,0,0,0,0,0,0,0,0,0,0,0,0,0,0,0,0,0,0,0,0,0,0,0,0,0,0,0,0,0,0,0,0,0,0,0,0,0,0,0,0,0,0,0,0,0,0,0,0,0,0,0,0,0,0,0,0,0],"id":25,"left_children":[1,3,5,7,9,11,13,15,17,19,21,23,25,27,29,-1,31,33,35,-1,-1,37,39,-1,41,43,45,-1,47,-1,-1,-1,-1,49,-1,51,-1,53,55,-1,-1,57,-1,-1,-1,-1,-1,59,-1,-1,-1,-1,-1,-1,-1,-1,-1,-1,-1,-1,-1],"loss_changes":[1.1150181E0,4.96221E-1,1.08866155E-1,1.6605556E-1,1.7179616E-1,1.5615225E-2,6.1939273E-2,6.58834E-2,7.784614E-2,8.499222E-2,3.4051195E-2,8.6545795E-3,6.979704E-3,1.5867796E-2,2.1688309E-2,0E0,7.3691607E-3,1.1374727E-2,4.55834E-3,0E0,0E0,8.846702E-3,7.4225888E-3,0E0,5.8032423E-3,3.6937892E-3,2.5190786E-4,0E0,1.5756778E-2,0E0,0E0,0E0,0E0,6.310642E-5,0E0,4.0882518E-5,0E0,1.3104053E-3,4.3181367E-3,0E0,0E0,5.084574E-3,0E0,0E0,0E0,0E0,0E0,2.1551698E-3,0E0,0E0,0E0,0E0,0E0,0E0,0E0,0E0,0E0,0E0,0E0,0E0,0E0],"parents":[2147483647,0,0,1,1,2,2,3,3,4,4,5,5,6,6,7,7,8,8,9,9,10,10,11,11,12,12,13,13,14,14,16,16,17,17,18,18,21,21,22,22,24,24,25,25,26,26,28,28,33,33,35,35,37,37,38,38,41,41,47,47],"right_children":[2,4,6,8,10,12,14,16,18,20,22,24,26,28,30,-1,32,34,36,-1,-1,38,40,-1,42,44,46,-1,48,-1,-1,-1,-1,50,-1,52,-1,54,56,-1,-1,58,-1,-1,-1,-1,-1,60,-1,-1,-1,-1,-1,-1,-1,-1,-1,-1,-1,-1,-1],"split_conditions":[-6.506738E-2,-8.755082E-2,7.888785E-2,-2.5493035E-1,-1.6182914E-1,4.9332455E-2,1.3011471E0,-1.5326306E-2,3.1156175E-2,1.016589E0,-2.350333E-1,-5.971576E-1,4.090269E-1,-1.947326E-1,2.3049021E-1,-2.1688067E-3,1.1872476E-1,-5.8949307E-2,3.747855E-1,2.3922445E-3,-3.872497E-3,-1.9007605E-1,1.9494878E-1,1.2540038E-3,8.5659504E-2,2.9943451E-2,-9.652509E-2,2.1534483E-4,2.6430372E-2,-3.9917235E-3,1.2075647E-4,-7.0988424E-3,-5.4016425E-3,3.745693E-1,-4.6747793E-3,4.9729772E-2,1.5585248E-3,-3.9593756E-2,1.438731E-1,4.6320725E-3,1.8225498E-3,-2.5522017E-1,1.6298414E-3,4.4172024E-3,2.1954325E-3,3.2018204E-3,1.8823867E-3,4.85389E-1,4.5446437E-4,-2.6423016E-3,-1.5225015E-3,9.2368966E-5,-8.394151E-5,5.696212E-4,-3.713057E-4,5.418954E-4,2.0375724E-3,1.4755639E-3,3.4236931E-3,2.2291E-3,4.6950392E-3],"split_indices":[175,93,213,124,250,358,389,91,267,389,20,62,244,168,68,0,42,1,7,0,0,108,316,0,55,151,349,0,389,0,0,0,0,0,0,0,0,1,53,0,0,63,0,0,0,0,0,361,0,0,0,0,0,0,0,0,0,0,0,0,0],"split_type":[0,0,0,0,0,0,0,0,0,0,0,0,0,0,0,0,0,0,0,0,0,0,0,0,0,0,0,0,0,0,0,0,0,0,0,0,0,0,0,0,0,0,0,0,0,0,0,0,0,0,0,0,0,0,0,0,0,0,0,0,0],"sum_hessian":[4.09544E2,2.2978188E2,1.7976215E2,1.4180463E2,8.797724E1,1.4058499E2,3.917716E1,9.4679504E1,4.712512E1,3.0333748E1,5.7643494E1,7.137819E1,6.92068E1,2.6738367E1,1.2438791E1,1.4004197E1,8.067531E1,2.8740929E1,1.838419E1,6.16316E0,2.4170588E1,4.112364E1,1.6519855E1,1.0391865E1,6.0986324E1,5.4776234E1,1.4430568E1,1.0891953E1,1.5846415E1,7.31371E0,5.125081E0,2.9035313E1,5.164E1,1.6891006E1,1.1849922E1,1.1162176E1,7.222013E0,1.2845532E1,2.8278109E1,1.1211397E1,5.3084583E0,5.0906513E1,1.0079813E1,4.9645035E1,5.131198E0,6.01157E0,8.418998E0,1.016779E1,5.6786246E0,1.1099588E1,5.7914186E0,5.7151403E0,5.4470353E0,6.310893E0,6.5346394E0,7.34869E0,2.0929419E1,5.9591575E0,4.4947353E1,5.0512176E0,5.1165724E0],"tree_param":{"num_deleted":"0","num_feature":"403","num_nodes":"61","size_leaf_vector":"1"}},{"base_weights":[-4.8392145E-3,-4.4038862E-2,5.457264E-2,-8.7294325E-2,-5.8187875E-3,5.996669E-2,-2.9047765E-2,-2.6600294E-2,-1.0926536E-1,4.02363E-2,-4.4896275E-2,6.331069E-2,5.1404623E-4,1.0133784E-3,-3.7538146E-3,-2.2883406E-3,1.8595413E-3,-1.2158905E-1,-2.3071207E-3,5.727592E-2,4.8140646E-3,1.4292557E-2,-7.153223E-2,4.3626208E-2,6.941073E-2,-4.21565E-3,-6.298434E-3,3.7914357E-5,6.825742E-2,-8.346501E-3,1.6772904E-3,2.4321054E-3,1.3575605E-3,-3.900279E-3,-2.6741026E-3,3.0780436E-2,6.333383E-2,4.04663E-2,7.431421E-2,1.7405807E-3,3.7640778E-3,-8.039621E-5,-5.813075E-4,4.2148997E-4,-1.2107998E-4,1.7339131E-3,6.8366964E-4,3.8765632E-3,1.8356988E-3,9.6811616E-4,3.162964E-3,3.8450137E-3,1.4765096E-3],"categories":[],"categories_nodes":[],"categories_segments":[],"categories_sizes":[],"default_left":[0,0,0,0,0,0,0,0,0,0,0,0,0,0,0,0,0,0,0,0,0,0,0,0,0,0,0,0,0,0,0,0,0,0,0,0,0,0,0,0,0,0,0,0,0,0,0,0,0,0,0,0,0],"id":26,"left_children":[1,3,5,7,9,11,13,15,17,19,21,23,-1,-1,-1,-1,-1,25,-1,27,29,31,33,35,37,-1,-1,-1,39,41,-1,43,-1,-1,-1,45,47,49,51,-1,-1,-1,-1,-1,-1,-1,-1,-1,-1,-1,-1,-1,-1],"loss_changes":[1.0236485E0,4.3717694E-1,8.056754E-2,1.6260952E-1,2.5669193E-1,2.6679993E-2,2.7089104E-2,4.3652587E-2,6.503081E-2,3.9280653E-2,1.2255742E-1,1.5455067E-2,0E0,0E0,0E0,0E0,0E0,1.6828775E-3,0E0,