{"learner":{"attributes":{"scikit_learn":"{\"_estimator_type\": \"regressor\"}"},"feature_names":[],"feature_types":[],"gradient_booster":{"model":{"cats":{"enc":[],"feature_segments":[],"sorted_idx":[]},"gbtree_model_param":{"num_parallel_tree":"1","num_trees":"1000"},"iteration_indptr":[0,1,2,3,4,5,6,7,8,9,10,11,12,13,14,15,16,17,18,19,20,21,22,23,24,25,26,27,28,29,30,31,32,33,34,35,36,37,38,39,40,41,42,43,44,45,46,47,48,49,50,51,52,53,54,55,56,57,58,59,60,61,62,63,64,65,66,67,68,69,70,71,72,73,74,75,76,77,78,79,80,81,82,83,84,85,86,87,88,89,90,91,92,93,94,95,96,97,98,99,100,101,102,103,104,105,106,107,108,109,110,111,112,113,114,115,116,117,118,119,120,121,122,123,124,125,126,127,128,129,130,131,132,133,134,135,136,137,138,139,140,141,142,143,144,145,146,147,148,149,150,151,152,153,154,155,156,157,158,159,160,161,162,163,164,165,166,167,168,169,170,171,172,173,174,175,176,177,178,179,180,181,182,183,184,185,186,187,188,189,190,191,192,193,194,195,196,197,198,199,200,201,202,203,204,205,206,207,208,209,210,211,212,213,214,215,216,217,218,219,220,221,222,223,224,225,226,227,228,229,230,231,232,233,234,235,236,237,238,239,240,241,242,243,244,245,246,247,248,249,250,251,252,253,254,255,256,257,258,259,260,261,262,263,264,265,266,267,268,269,270,271,272,273,274,275,276,277,278,279,280,281,282,283,284,285,286,287,288,289,290,291,292,293,294,295,296,297,298,299,300,301,302,303,304,305,306,307,308,309,310,311,312,313,314,315,316,317,318,319,320,321,322,323,324,325,326,327,328,329,330,331,332,333,334,335,336,337,338,339,340,341,342,343,344,345,346,347,348,349,350,351,352,353,354,355,356,357,358,359,360,361,362,363,364,365,366,367,368,369,370,371,372,373,374,375,376,377,378,379,380,381,382,383,384,385,386,387,388,389,390,391,392,393,394,395,396,397,398,399,400,401,402,403,404,405,406,407,408,409,410,411,412,413,414,415,416,417,418,419,420,421,422,423,424,425,426,427,428,429,430,431,432,433,434,435,436,437,438,439,440,441,442,443,444,445,446,447,448,449,450,451,452,453,454,455,456,457,458,459,460,461,462,463,464,465,466,467,468,469,470,471,472,473,474,475,476,477,478,479,480,481,482,483,484,485,486,487,488,489,490,491,492,493,494,495,496,497,498,499,500,501,502,503,504,505,506,507,508,509,510,511,512,513,514,515,516,517,518,519,520,521,522,523,524,525,526,527,528,529,530,531,532,533,534,535,536,537,538,539,540,541,542,543,544,545,546,547,548,549,550,551,552,553,554,555,556,557,558,559,560,561,562,563,564,565,566,567,568,569,570,571,572,573,574,575,576,577,578,579,580,581,582,583,584,585,586,587,588,589,590,591,592,593,594,595,596,597,598,599,600,601,602,603,604,605,606,607,608,609,610,611,612,613,614,615,616,617,618,619,620,621,622,623,624,625,626,627,628,629,630,631,632,633,634,635,636,637,638,639,640,641,642,643,644,645,646,647,648,649,650,651,652,653,654,655,656,657,658,659,660,661,662,663,664,665,666,667,668,669,670,671,672,673,674,675,676,677,678,679,680,681,682,683,684,685,686,687,688,689,690,691,692,693,694,695,696,697,698,699,700,701,702,703,704,705,706,707,708,709,710,711,712,713,714,715,716,717,718,719,720,721,722,723,724,725,726,727,728,729,730,731,732,733,734,735,736,737,738,739,740,741,742,743,744,745,746,747,748,749,750,751,752,753,754,755,756,757,758,759,760,761,762,763,764,765,766,767,768,769,770,771,772,773,774,775,776,777,778,779,780,781,782,783,784,785,786,787,788,789,790,791,792,793,794,795,796,797,798,799,800,801,802,803,804,805,806,807,808,809,810,811,812,813,814,815,816,817,818,819,820,821,822,823,824,825,826,827,828,829,830,831,832,833,834,835,836,837,838,839,840,841,842,843,844,845,846,847,848,849,850,851,852,853,854,855,856,857,858,859,860,861,862,863,864,865,866,867,868,869,870,871,872,873,874,875,876,877,878,879,880,881,882,883,884,885,886,887,888,889,890,891,892,893,894,895,896,897,898,899,900,901,902,903,904,905,906,907,908,909,910,911,912,913,914,915,916,917,918,919,920,921,922,923,924,925,926,927,928,929,930,931,932,933,934,935,936,937,938,939,940,941,942,943,944,945,946,947,948,949,950,951,952,953,954,955,956,957,958,959,960,961,962,963,964,965,966,967,968,969,970,971,972,973,974,975,976,977,978,979,980,981,982,983,984,985,986,987,988,989,990,991,992,993,994,995,996,997,998,999,1000],"tree_info":[0,0,0,0,0,0,0,0,0,0,0,0,0,0,0,0,0,0,0,0,0,0,0,0,0,0,0,0,0,0,0,0,0,0,0,0,0,0,0,0,0,0,0,0,0,0,0,0,0,0,0,0,0,0,0,0,0,0,0,0,0,0,0,0,0,0,0,0,0,0,0,0,0,0,0,0,0,0,0,0,0,0,0,0,0,0,0,0,0,0,0,0,0,0,0,0,0,0,0,0,0,0,0,0,0,0,0,0,0,0,0,0,0,0,0,0,0,0,0,0,0,0,0,0,0,0,0,0,0,0,0,0,0,0,0,0,0,0,0,0,0,0,0,0,0,0,0,0,0,0,0,0,0,0,0,0,0,0,0,0,0,0,0,0,0,0,0,0,0,0,0,0,0,0,0,0,0,0,0,0,0,0,0,0,0,0,0,0,0,0,0,0,0,0,0,0,0,0,0,0,0,0,0,0,0,0,0,0,0,0,0,0,0,0,0,0,0,0,0,0,0,0,0,0,0,0,0,0,0,0,0,0,0,0,0,0,0,0,0,0,0,0,0,0,0,0,0,0,0,0,0,0,0,0,0,0,0,0,0,0,0,0,0,0,0,0,0,0,0,0,0,0,0,0,0,0,0,0,0,0,0,0,0,0,0,0,0,0,0,0,0,0,0,0,0,0,0,0,0,0,0,0,0,0,0,0,0,0,0,0,0,0,0,0,0,0,0,0,0,0,0,0,0,0,0,0,0,0,0,0,0,0,0,0,0,0,0,0,0,0,0,0,0,0,0,0,0,0,0,0,0,0,0,0,0,0,0,0,0,0,0,0,0,0,0,0,0,0,0,0,0,0,0,0,0,0,0,0,0,0,0,0,0,0,0,0,0,0,0,0,0,0,0,0,0,0,0,0,0,0,0,0,0,0,0,0,0,0,0,0,0,0,0,0,0,0,0,0,0,0,0,0,0,0,0,0,0,0,0,0,0,0,0,0,0,0,0,0,0,0,0,0,0,0,0,0,0,0,0,0,0,0,0,0,0,0,0,0,0,0,0,0,0,0,0,0,0,0,0,0,0,0,0,0,0,0,0,0,0,0,0,0,0,0,0,0,0,0,0,0,0,0,0,0,0,0,0,0,0,0,0,0,0,0,0,0,0,0,0,0,0,0,0,0,0,0,0,0,0,0,0,0,0,0,0,0,0,0,0,0,0,0,0,0,0,0,0,0,0,0,0,0,0,0,0,0,0,0,0,0,0,0,0,0,0,0,0,0,0,0,0,0,0,0,0,0,0,0,0,0,0,0,0,0,0,0,0,0,0,0,0,0,0,0,0,0,0,0,0,0,0,0,0,0,0,0,0,0,0,0,0,0,0,0,0,0,0,0,0,0,0,0,0,0,0,0,0,0,0,0,0,0,0,0,0,0,0,0,0,0,0,0,0,0,0,0,0,0,0,0,0,0,0,0,0,0,0,0,0,0,0,0,0,0,0,0,0,0,0,0,0,0,0,0,0,0,0,0,0,0,0,0,0,0,0,0,0,0,0,0,0,0,0,0,0,0,0,0,0,0,0,0,0,0,0,0,0,0,0,0,0,0,0,0,0,0,0,0,0,0,0,0,0,0,0,0,0,0,0,0,0,0,0,0,0,0,0,0,0,0,0,0,0,0,0,0,0,0,0,0,0,0,0,0,0,0,0,0,0,0,0,0,0,0,0,0,0,0,0,0,0,0,0,0,0,0,0,0,0,0,0,0,0,0,0,0,0,0,0,0,0,0,0,0,0,0,0,0,0,0,0,0,0,0,0,0,0,0,0,0,0,0,0,0,0,0,0,0,0,0,0,0,0,0,0,0,0,0,0,0,0,0,0,0,0,0,0,0,0,0,0,0,0,0,0,0,0,0,0,0,0,0,0,0,0,0,0,0,0,0,0,0,0,0,0,0,0,0,0,0,0,0,0,0,0,0,0,0,0,0,0,0,0,0,0,0,0,0,0,0,0,0,0,0,0,0,0,0,0,0,0,0,0,0,0,0,0,0,0,0,0,0,0,0,0,0,0,0,0,0,0,0,0,0,0,0,0,0,0,0,0,0,0,0,0,0,0,0,0,0,0,0,0,0,0,0,0,0,0,0,0,0,0,0,0,0,0,0,0,0,0,0,0,0,0,0,0,0,0,0,0,0,0,0,0,0,0,0,0,0,0,0,0,0,0,0,0,0,0,0,0,0,0,0,0,0,0,0,0,0,0,0,0,0,0,0,0,0,0,0],"trees":[{"base_weights":[-3.8689978E-3,1.8880281E-1,-1.2876546E-1,-1.0750879E-2,2.267108E-1,6.561431E-2,-1.7153606E-1,6.0068637E-2,-9.799772E-3,2.3497477E-1,1.326088E-1,-9.979443E-2,1.1942277E-1,-2.4893475E-1,-4.595997E-2,9.404709E-3,-2.3283584E-3,2.3864359E-1,7.2433488E-3,8.516379E-3,3.4030073E-3,-5.985126E-3,-2.7266976E-3,1.4671235E-1,6.593211E-2,-2.8130463E-1,-1.7331624E-2,8.664022E-3,-8.574307E-2,1.2159467E-3,-1.2140092E-3,1.2280023E-2,8.676642E-3,8.22707E-3,5.261999E-3,1.6163532E-3,4.0878616E-3,-1.7988125E-2,-2.4355066E-1,-5.827281E-3,7.360217E-3,-8.950272E-3,-5.424533E-2,-6.0874824E-3,-1.3782317E-2,1.0034391E-3,-3.3571508E-3],"categories":[],"categories_nodes":[],"categories_segments":[],"categories_sizes":[],"default_left":[0,0,0,0,0,0,0,0,0,0,0,0,0,0,0,0,0,0,0,0,0,0,0,0,0,0,0,0,0,0,0,0,0,0,0,0,0,0,0,0,0,0,0,0,0,0,0],"id":0,"left_children":[1,3,5,7,9,11,13,15,-1,17,19,21,23,25,27,-1,29,31,-1,-1,-1,-1,-1,33,35,37,39,-1,41,-1,-1,-1,-1,-1,-1,-1,-1,-1,43,-1,-1,-1,45,-1,-1,-1,-1],"loss_changes":[1.1709859E1,1.4502258E0,2.4655895E0,4.2511907E-1,9.395027E-2,4.9223506E-1,2.3430748E0,1.8863663E-1,0E0,1.3892174E-2,2.561757E-2,5.898595E-3,5.043137E-2,1.1170254E0,8.312515E-1,0E0,1.0433548E-2,2.0485878E-2,0E0,0E0,0E0,0E0,0E0,2.240181E-3,5.7202056E-3,3.0109787E-1,3.341127E-1,0E0,2.2498238E-1,0E0,0E0,0E0,0E0,0E0,0E0,0E0,0E0,0E0,3.2489634E-1,0E0,0E0,0E0,5.9966385E-2,0E0,0E0,0E0,0E0],"parents":[2147483647,0,0,1,1,2,2,3,3,4,4,5,5,6,6,7,7,9,9,10,10,11,11,12,12,13,13,14,14,16,16,17,17,23,23,24,24,25,25,26,26,28,28,38,38,42,42],"right_children":[2,4,6,8,10,12,14,16,-1,18,20,22,24,26,28,-1,30,32,-1,-1,-1,-1,-1,34,36,38,40,-1,42,-1,-1,-1,-1,-1,-1,-1,-1,-1,44,-1,-1,-1,46,-1,-1,-1,-1],"split_conditions":[1.2712319E0,-5.521773E-1,-1.13420285E-1,-4.792422E-1,1.0357972E0,-1.8045934E-1,-4.4222973E-2,-1.5344626E-1,-9.799772E-3,8.0923545E-1,-1.122984E-1,3.8171178E-1,-1.866582E-2,-1.04681835E-1,-8.3707675E-2,9.404709E-3,-2.3351048E-1,8.872628E-2,7.2433488E-3,8.516379E-3,3.4030073E-3,-5.985126E-3,-2.7266976E-3,5.122591E-1,-2.2703916E-2,1.7071313E-1,-2.0689934E-1,8.664022E-3,-3.288213E-1,1.2159467E-3,-1.2140092E-3,1.2280023E-2,8.676642E-3,8.22707E-3,5.261999E-3,1.6163532E-3,4.0878616E-3,-1.7988125E-2,2.2344165E0,-5.827281E-3,7.360217E-3,-8.950272E-3,1.7662703E-1,-6.0874824E-3,-1.3782317E-2,1.0034391E-3,-3.3571508E-3],"split_indices":[389,331,304,76,389,315,31,362,0,103,131,0,157,241,73,0,389,55,0,0,0,0,0,74,189,7,132,0,8,0,0,0,0,0,0,0,0,0,389,0,0,0,329,0,0,0,0],"split_type":[0,0,0,0,0,0,0,0,0,0,0,0,0,0,0,0,0,0,0,0,0,0,0,0,0,0,0,0,0,0,0,0,0,0,0,0,0,0,0,0,0,0,0,0,0,0,0],"sum_hessian":[4.8460233E2,1.9038806E2,2.9421426E2,3.0507595E1,1.5988048E2,5.2965874E1,2.412484E2,2.2558971E1,7.9486246E0,1.455972E2,1.4283275E1,1.2791085E1,4.017479E1,1.4864738E2,9.2601006E1,6.7319493E0,1.5827022E1,1.3831708E2,7.280112E0,7.980913E0,6.302362E0,7.7412887E0,5.0497966E0,2.5448729E1,1.4726059E1,1.3023111E2,1.8416283E1,1.3707087E1,7.889391E1,7.1002293E0,8.726791E0,1.2246054E2,1.5856544E1,1.5722223E1,9.726505E0,5.6887107E0,9.037349E0,3.9537575E1,9.0693535E1,1.1670641E1,6.7456417E0,1.8735737E1,6.015818E1,1.9914108E1,7.077943E1,8.814521E0,5.134366E1],"tree_param":{"num_deleted":"0","num_feature":"403","num_nodes":"47","size_leaf_vector":"1"}},{"base_weights":[-1.1353176E-2,1.6186324E-1,-1.4288881E-1,2.0861375E-1,-2.1977937E-2,-1.824226E-1,4.6595056E-2,1.1959659E-1,2.2508003E-1,-4.1225716E-3,3.1560116E-2,7.5304755E-3,-2.0374995E-1,-5.280624E-2,1.4126268E-1,1.3179892E-1,3.060263E-3,1.1643362E-2,7.80733E-3,1.5870247E-3,4.428414E-3,-2.4796398E-1,-8.08984E-2,-6.981914E-2,2.5857586E-4,8.6239055E-3,4.7209836E-3,7.144719E-3,4.1063237E-3,-3.494456E-4,3.8183518E-4,-3.613203E-3,-2.6647642E-1,6.763617E-3,-1.0701264E-1,-1.2870374E-3,-5.4515796E-3,-1.1679127E-2,-1.7296812E-2,-8.058192E-3,-3.1772517E-3],"categories":[],"categories_nodes":[],"categories_segments":[],"categories_sizes":[],"default_left":[0,0,0,0,0,0,0,0,0,0,0,0,0,0,0,0,0,0,0,0,0,0,0,0,0,0,0,0,0,0,0,0,0,0,0,0,0,0,0,0,0],"id":1,"left_children":[1,3,5,7,9,11,13,15,17,-1,19,-1,21,23,25,27,-1,-1,-1,29,-1,31,33,35,-1,-1,-1,-1,-1,-1,-1,-1,37,-1,39,-1,-1,-1,-1,-1,-1],"loss_changes":[1.12524185E1,1.8369083E0,2.110949E0,2.2235966E-1,1.4547168E-1,1.6814766E0,4.708637E-1,1.2369096E-2,4.006958E-2,0E0,4.1089326E-2,0E0,1.1687031E0,2.477377E-2,2.0994723E-2,8.6185336E-4,0E0,0E0,0E0,9.2668197E-4,0E0,5.026293E-1,3.498203E-1,3.0386135E-2,0E0,0E0,0E0,0E0,0E0,0E0,0E0,0E0,2.9762268E-1,0E0,1.1582887E-1,0E0,0E0,0E0,0E0,0E0,0E0],"parents":[2147483647,0,0,1,1,2,2,3,3,4,4,5,5,6,6,7,7,8,8,10,10,12,12,13,13,14,14,15,15,19,19,21,21,22,22,23,23,32,32,34,34],"right_children":[2,4,6,8,10,12,14,16,18,-1,20,-1,22,24,26,28,-1,-1,-1,30,-1,32,34,36,-1,-1,-1,-1,-1,-1,-1,-1,38,-1,40,-1,-1,-1,-1,-1,-1],"split_conditions":[3.742851E-1,1.6000518E-1,-2.2365691E-1,-3.3621216E-1,-1.3828973E-1,-3.5711098E-1,-2.3630135E-1,-1.3930619E-1,8.872628E-2,-4.1225716E-3,-2.1450475E-2,7.5304755E-3,-4.4222973E-2,3.1458282E0,2.6234663E-1,-6.039962E-3,3.060263E-3,1.1643362E-2,7.80733E-3,4.9729772E-2,4.428414E-3,-4.5030376E-1,-4.7913378E-1,2.0436051E-1,2.5857586E-4,8.6239055E-3,4.7209836E-3,7.144719E-3,4.1063237E-3,-3.494456E-4,3.8183518E-4,-3.613203E-3,2.593694E-1,6.763617E-3,-4.1203249E-1,-1.2870374E-3,-5.4515796E-3,-1.1679127E-2,-1.7296812E-2,-8.058192E-3,-3.1772517E-3],"split_indices":[106,9,279,163,10,133,47,35,55,0,5,0,31,388,169,5,0,0,0,0,0,124,279,0,0,0,0,0,0,0,0,0,368,0,41,0,0,0,0,0,0],"split_type":[0,0,0,0,0,0,0,0,0,0,0,0,0,0,0,0,0,0,0,0,0,0,0,0,0,0,0,0,0,0,0,0,0,0,0,0,0,0,0,0,0],"sum_hessian":[4.9185577E2,2.1219295E2,2.796628E2,1.6906519E2,4.312776E1,2.3141734E2,4.8245483E1,2.768148E1,1.413837E2,1.9998528E1,2.3129234E1,1.3563178E1,2.1785416E2,2.3750051E1,2.4495434E1,2.1856792E1,5.824688E0,1.2489639E2,1.648731E1,1.5832726E1,7.2965083E0,1.5945003E2,5.840414E1,1.8204046E1,5.5460057E0,1.3090255E1,1.1405179E1,1.6331953E1,5.5248394E0,6.484765E0,9.347961E0,1.5666287E1,1.4378374E2,5.844447E0,5.2559692E1,9.350108E0,8.853937E0,1.0447426E2,3.9309475E1,2.2198055E1,3.0361635E1],"tree_param":{"num_deleted":"0","num_feature":"403","num_nodes":"41","size_leaf_vector":"1"}},{"base_weights":[-1.1445794E-2,1.6941088E-1,-1.3340567E-1,4.3243608E-3,2.0527706E-1,7.362282E-2,-1.6340531E-1,6.0148932E-2,-8.845839E-3,2.1190201E-1,1.2295773E-1,1.3876733E-1,-2.3041293E-3,-2.4971007E-1,-3.94892E-2,7.4677216E-3,7.247921E-4,2.1444297E-1,5.7942476E-3,7.7572824E-3,3.17767E-3,7.763731E-3,3.8524382E-3,-1.554462E-2,-2.0461617E-1,3.745386E-2,-1.0586124E-1,1.5217864E-3,-1.8485798E-2,2.2081865E-1,8.005273E-3,-1.4298439E-1,-2.4337791E-1,7.819883E-3,3.85301E-3,-7.383198E-2,-1.3420979E-2,-1.5692061E-3,-1.8509776E-4,1.1212418E-2,7.196769E-3,-3.550548E-3,-8.269051E-3,-1.4116736E-2,-9.507026E-3,2.4340076E-3,-1.2102921E-3,-5.201934E-3,1.412871E-3],"categories":[],"categories_nodes":[],"categories_segments":[],"categories_sizes":[],"default_left":[0,0,0,0,0,0,0,0,0,0,0,0,0,0,0,0,0,0,0,0,0,0,0,0,0,0,0,0,0,0,0,0,0,0,0,0,0,0,0,0,0,0,0,0,0,0,0,0,0],"id":2,"left_children":[1,3,5,7,9,11,13,15,-1,17,19,21,-1,23,25,-1,27,29,-1,-1,-1,-1,-1,-1,31,33,35,-1,37,39,-1,41,43,-1,45,47,-1,-1,-1,-1,-1,-1,-1,-1,-1,-1,-1,-1,-1],"loss_changes":[1.1015047E1,1.1901603E0,1.8641095E0,3.84227E-1,6.405592E-2,3.060917E-1,2.7789803E0,1.5348871E-1,0E0,1.2122154E-2,1.8227965E-2,1.3646096E-2,0E0,3.5995674E-1,5.567633E-1,0E0,1.1062112E-2,1.5384674E-2,0E0,0E0,0E0,0E0,0E0,0E0,1.833334E-1,2.0270327E-1,2.8412664E-1,0E0,2.1327846E-3,1.5907288E-3,0E0,4.8992336E-2,5.9618235E-2,0E0,5.2357927E-2,1.5758273E-1,0E0,0E0,0E0,0E0,0E0,0E0,0E0,0E0,0E0,0E0,0E0,0E0,0E0],"parents":[2147483647,0,0,1,1,2,2,3,3,4,4,5,5,6,6,7,7,9,9,10,10,11,11,13,13,14,14,16,16,17,17,24,24,25,25,26,26,28,28,29,29,31,31,32,32,34,34,35,35],"right_children":[2,4,6,8,10,12,14,16,-1,18,20,22,-1,24,26,-1,28,30,-1,-1,-1,-1,-1,-1,32,34,36,-1,38,40,-1,42,44,-1,46,48,-1,-1,-1,-1,-1,-1,-1,-1,-1,-1,-1,-1,-1],"split_conditions":[1.2712319E0,-5.4582906E-1,-2.223825E-1,-4.792422E-1,1.0357972E0,1.24531284E-1,-2.2461322E-1,3.9604244E-1,-8.845839E-3,4.3389434E-1,-1.3423955E-1,-8.521177E-2,-2.3041293E-3,1.977173E-1,-1.6786584E-1,7.4677216E-3,-2.3351048E-1,1.0526335E-1,5.7942476E-3,7.7572824E-3,3.17767E-3,7.763731E-3,3.8524382E-3,-1.554462E-2,3.0913305E0,-3.4482765E-1,4.8772633E-1,1.5217864E-3,-5.4568076E-1,2.3610257E-1,8.005273E-3,5.995922E-1,8.505394E-2,7.819883E-3,3.503273E-1,3.175014E0,-1.3420979E-2,-1.5692061E-3,-1.8509776E-4,1.1212418E-2,7.196769E-3,-3.550548E-3,-8.269051E-3,-1.4116736E-2,-9.507026E-3,2.4340076E-3,-1.2102921E-3,-5.201934E-3,1.412871E-3],"split_indices":[389,331,131,76,389,9,5,90,0,197,35,47,0,341,231,0,389,247,0,0,0,0,0,0,388,226,70,0,1,99,0,174,1,0,154,388,0,0,0,0,0,0,0,0,0,0,0,0,0],"split_type":[0,0,0,0,0,0,0,0,0,0,0,0,0,0,0,0,0,0,0,0,0,0,0,0,0,0,0,0,0,0,0,0,0,0,0,0,0,0,0,0,0,0,0,0,0,0,0,0,0],"sum_hessian":[4.9735965E2,2.0015573E2,2.9720392E2,3.592394E1,1.642318E2,3.743181E1,2.5977213E2,2.7975315E1,7.9486246E0,1.505422E2,1.3689586E1,2.4137032E1,1.3294777E1,1.5252605E2,1.0724607E2,1.0579846E1,1.739547E1,1.4545944E2,5.0827656E0,7.833407E0,5.856179E0,1.784764E1,6.2893925E0,6.221707E1,9.030897E1,4.9869545E1,5.7376526E1,6.601431E0,1.0794038E1,1.2744219E2,1.8017252E1,3.6678444E1,5.3630524E1,1.0179725E1,3.968982E1,4.9147133E1,8.22939E0,5.1649523E0,5.6290855E0,1.20165E2,7.2771897E0,9.69461E0,2.6983835E1,2.8483913E1,2.5146614E1,1.4996427E1,2.4693394E1,3.7910812E1,1.1236322E1],"tree_param":{"num_deleted":"0","num_feature":"403","num_nodes":"49","size_leaf_vector":"1"}},{"base_weights":[5.7852035E-3,1.5087461E-1,-1.0673774E-1,1.8881962E-1,-2.2485744E-2,-2.870023E-1,-7.676772E-2,8.724701E-2,2.0311308E-1,-3.7679342E-3,4.144734E-2,-1.6440371E-2,-9.351116E-3,3.5612393E-2,-1.15981415E-1,4.885775E-3,2.1781677E-3,2.08129E-1,7.854199E-3,4.198508E-3,1.5243814E-4,-5.413045E-2,1.22988306E-1,-1.1672289E-2,-7.184272E-2,1.0830545E-2,1.6613954E-1,-9.541898E-5,-1.190152E-1,8.293464E-3,6.1429463E-2,1.3376041E-1,-9.711836E-2,9.106047E-3,4.719568E-3,-7.301166E-3,-3.2455474E-3,4.308925E-3,1.6534312E-3,7.875158E-3,4.2217267E-3,-6.391611E-3,2.6309805E-4],"categories":[],"categories_nodes":[],"categories_segments":[],"categories_sizes":[],"default_left":[0,0,0,0,0,0,0,0,0,0,0,0,0,0,0,0,0,0,0,0,0,0,0,0,0,0,0,0,0,0,0,0,0,0,0,0,0,0,0,0,0,0,0],"id":3,"left_children":[1,3,5,7,9,11,13,15,17,-1,19,-1,-1,21,23,-1,-1,25,-1,-1,-1,27,29,-1,31,-1,33,-1,35,-1,37,39,41,-1,-1,-1,-1,-1,-1,-1,-1,-1,-1],"loss_changes":[7.6649055E0,1.353127E0,1.4066832E0,2.2667694E-1,1.3061629E-1,9.454942E-2,1.0094143E0,6.0414374E-3,1.203537E-3,0E0,2.8673526E-2,0E0,0E0,4.753672E-1,8.6123586E-1,0E0,0E0,1.006794E-2,0E0,0E0,0E0,1.0204203E-1,7.056463E-2,0E0,6.601746E-1,0E0,1.2648821E-2,0E0,1.0165021E-2,0E0,7.0811994E-3,3.1608343E-3,3.5122693E-1,0E0,0E0,0E0,0E0,0E0,0E0,0E0,0E0,0E0,0E0],"parents":[2147483647,0,0,1,1,2,2,3,3,4,4,5,5,6,6,7,7,8,8,10,10,13,13,14,14,17,17,21,21,22,22,24,24,26,26,28,28,30,30,31,31,32,32],"right_children":[2,4,6,8,10,12,14,16,18,-1,20,-1,-1,22,24,-1,-1,26,-1,-1,-1,28,30,-1,32,-1,34,-1,36,-1,38,40,42,-1,-1,-1,-1,-1,-1,-1,-1,-1,-1],"split_conditions":[3.589967E-1,1.6000518E-1,-2.8867847E-1,-4.7529745E-1,-1.3828973E-1,-2.3849455E-1,2.3325598E-2,4.0495494E-1,8.5659504E-2,-3.7679342E-3,-1.7078224E-1,-1.6440371E-2,-9.351116E-3,-1.2683976E-1,3.2760933E-2,4.885775E-3,2.1781677E-3,5.1449484E-1,7.854199E-3,4.198508E-3,1.5243814E-4,-1.2605026E-1,2.3764484E-1,-1.1672289E-2,3.45514E-1,1.0830545E-2,-1.5236342E-1,-9.541898E-5,1.1093338E-1,8.293464E-3,-2.0669098E-1,7.593456E-2,1.3610868E-1,9.106047E-3,4.719568E-3,-7.301166E-3,-3.2455474E-3,4.308925E-3,1.6534312E-3,7.875158E-3,4.2217267E-3,-6.391611E-3,2.6309805E-4],"split_indices":[106,9,369,287,10,5,297,49,55,0,4,0,0,352,189,0,0,100,0,0,0,5,94,0,32,0,109,0,0,0,6,1,213,0,0,0,0,0,0,0,0,0,0],"split_type":[0,0,0,0,0,0,0,0,0,0,0,0,0,0,0,0,0,0,0,0,0,0,0,0,0,0,0,0,0,0,0,0,0,0,0,0,0,0,0,0,0,0,0],"sum_hessian":[4.6750754E2,2.0405455E2,2.63453E2,1.6733846E2,3.6716106E1,3.633398E1,2.2711902E2,2.1519556E1,1.458189E2,1.9998528E1,1.6717579E1,2.4007063E1,1.2326917E1,5.8774017E1,1.68345E2,1.6361698E1,5.1578574E0,1.2831444E2,1.7504456E1,7.369618E0,9.347961E0,2.9181997E1,2.959202E1,4.4808697E1,1.235363E2,1.0329092E2,2.5023521E1,1.6739073E1,1.2442924E1,1.6443346E1,1.3148674E1,1.305436E1,1.1048194E2,1.920697E1,5.816551E0,7.1665516E0,5.276372E0,5.9327917E0,7.2158823E0,7.3320155E0,5.722345E0,8.479504E1,2.5686907E1],"tree_param":{"num_deleted":"0","num_feature":"403","num_nodes":"43","size_leaf_vector":"1"}},{"base_weights":[5.9040473E-3,1.6915078E-1,-1.1327075E-1,1.8491003E-1,2.7147904E-2,3.4552198E-2,-1.5948811E-1,1.9329008E-1,1.0499185E-1,-9.5835293E-4,4.4715577E-3,-9.030097E-3,8.4510244E-2,8.026796E-3,-1.7591342E-1,1.9841155E-1,7.2158086E-3,6.39326E-3,2.8496392E-3,8.638487E-4,-1.2686456E-3,1.2969846E-1,3.113007E-2,-5.6183025E-2,-2.1539356E-1,1.0291544E-2,1.5830915E-1,7.406372E-3,4.2303647E-3,2.8291002E-5,5.153867E-2,6.106954E-3,-8.236792E-2,-1.1131732E-1,-2.4536169E-1,4.759334E-3,8.625649E-3,1.5264691E-3,3.1696365E-3,-1.7374654E-3,-6.4078295E-3,-6.3466327E-3,-1.3078285E-3,-1.4021063E-2,-9.599342E-3],"categories":[],"categories_nodes":[],"categories_segments":[],"categories_sizes":[],"default_left":[0,0,0,0,0,0,0,0,0,0,0,0,0,0,0,0,0,0,0,0,0,0,0,0,0,0,0,0,0,0,0,0,0,0,0,0,0,0,0,0,0,0,0,0,0],"id":4,"left_children":[1,3,5,7,9,11,13,15,17,19,-1,-1,21,-1,23,25,-1,-1,-1,-1,-1,27,29,31,33,-1,35,-1,-1,-1,37,-1,39,41,43,-1,-1,-1,-1,-1,-1,-1,-1,-1,-1],"loss_changes":[8.9125595E0,4.2755365E-1,1.8148324E0,9.6114635E-2,3.5938874E-2,7.0210916E-1,1.0896864E0,1.0526657E-2,1.3227299E-2,7.161882E-3,0E0,0E0,1.2269774E-1,0E0,8.980751E-1,8.677006E-3,0E0,0E0,0E0,0E0,0E0,1.0849237E-2,1.5816346E-2,2.3932634E-1,4.232192E-1,0E0,6.874919E-3,0E0,0E0,0E0,1.855325E-3,0E0,9.019905E-2,4.205948E-2,1.5448427E-1,0E0,0E0,0E0,0E0,0E0,0E0,0E0,0E0,0E0,0E0],"parents":[2147483647,0,0,1,1,2,2,3,3,4,4,5,5,6,6,7,7,8,8,9,9,12,12,14,14,15,15,21,21,22,22,23,23,24,24,26,26,30,30,32,32,33,33,34,34],"right_children":[2,4,6,8,10,12,14,16,18,20,-1,-1,22,-1,24,26,-1,-1,-1,-1,-1,28,30,32,34,-1,36,-1,-1,-1,38,-1,40,42,44,-1,-1,-1,-1,-1,-1,-1,-1,-1,-1],"split_conditions":[1.2988116E0,7.6557565E-1,2.1840437E-1,9.834802E-1,-7.1516436E-1,1.2813091E-1,2.0533398E-1,8.5659504E-2,-1.3188091E-1,2.9168522E-1,4.4715577E-3,-9.030097E-3,-3.1187403E-1,8.026796E-3,-2.9387107E-1,5.1449484E-1,7.2158086E-3,6.39326E-3,2.8496392E-3,8.638487E-4,-1.2686456E-3,2.823593E-1,2.9210325E-2,-1.8619242E-1,3.261549E-1,1.0291544E-2,2.5902125E-1,7.406372E-3,4.2303647E-3,2.8291002E-5,-8.5483015E-2,6.106954E-3,-1.4692965E-1,-3.51559E-1,3.055618E-1,4.759334E-3,8.625649E-3,1.5264691E-3,3.1696365E-3,-1.7374654E-3,-6.4078295E-3,-6.3466327E-3,-1.3078285E-3,-1.4021063E-2,-9.599342E-3],"split_indices":[389,302,101,389,161,25,324,55,17,389,0,0,77,0,271,100,0,0,0,0,0,42,89,23,299,0,284,0,0,0,2,0,4,3,348,0,0,0,0,0,0,0,0,0,0],"split_type":[0,0,0,0,0,0,0,0,0,0,0,0,0,0,0,0,0,0,0,0,0,0,0,0,0,0,0,0,0,0,0,0,0,0,0,0,0,0,0,0,0,0,0,0,0],"sum_hessian":[4.5612912E2,1.922981E2,2.6383102E2,1.7281699E2,1.94811E1,6.2900536E1,2.009305E2,1.5513159E2,1.7685402E1,1.4101981E1,5.379119E0,1.1360263E1,5.154027E1,9.381008E0,1.915495E2,1.3768205E2,1.7449532E1,1.0850722E1,6.8346796E0,8.23991E0,5.862071E0,2.713761E1,2.4402662E1,4.8100235E1,1.4344925E2,1.1269906E2,2.4982998E1,1.7642124E1,9.495485E0,1.0181863E1,1.42207985E1,5.689514E0,4.241072E1,3.312478E1,1.1032448E2,6.0037117E0,1.8979286E1,6.419238E0,7.8015604E0,2.165215E1,2.0758572E1,2.7577566E1,5.5472126E0,6.401925E1,4.630523E1],"tree_param":{"num_deleted":"0","num_feature":"403","num_nodes":"45","size_leaf_vector":"1"}},{"base_weights":[3.0400301E-3,1.4599198E-1,-9.594118E-2,-9.873303E-2,1.6485141E-1,2.984771E-2,-1.3873136E-1,4.8254555E-4,-8.626178E-3,1.0191917E-1,1.8580903E-1,1.1577127E-1,-5.362886E-2,-2.1453586E-1,-6.459825E-2,1.2905532E-1,8.288451E-3,7.202127E-3,1.9436316E-1,1.3953036E-1,1.6202452E-3,-2.008198E-2,-7.980712E-3,-1.6907682E-1,-1.3873597E-2,-1.061246E-2,-1.6874182E-1,3.639742E-3,1.4959769E-1,-5.496678E-4,1.2763878E-3,1.0196913E-2,7.2745695E-3,3.8619866E-3,7.5918124E-3,-3.3088535E-2,8.232323E-4,-1.8571621E-1,-4.3547186E-3,-3.425476E-2,6.077012E-3,-1.07289605E-1,-1.1108978E-2,4.7463723E-3,8.047546E-3,-7.789961E-4,-2.111748E-3,-6.000192E-3,-9.991182E-3,-3.1515982E-3,1.4064008E-3,-6.8723448E-3,-3.2976777E-3],"categories":[],"categories_nodes":[],"categories_segments":[],"categories_sizes":[],"default_left":[0,0,0,0,0,0,0,0,0,0,0,0,0,0,0,0,0,0,0,0,0,0,0,0,0,0,0,0,0,0,0,0,0,0,0,0,0,0,0,0,0,0,0,0,0,0,0,0,0,0,0,0,0],"id":5,"left_children":[1,3,5,7,9,11,13,-1,-1,15,17,19,21,23,25,27,29,-1,31,33,-1,35,-1,37,-1,39,41,-1,43,-1,-1,-1,-1,-1,-1,45,-1,47,-1,49,-1,51,-1,-1,-1,-1,-1,-1,-1,-1,-1,-1,-1],"loss_changes":[6.9253E0,9.4042444E-1,1.5608399E0,1.2124695E-1,2.267499E-1,5.386565E-1,1.1998658E0,0E0,0E0,1.2279862E-1,2.1496296E-2,6.856111E-2,1.3309868E-1,2.5737E-1,6.201703E-1,3.2714307E-2,4.2771962E-3,0E0,2.279377E-2,1.0050714E-2,0E0,1.4930321E-2,0E0,7.155502E-2,0E0,2.3513137E-1,9.996545E-2,0E0,1.2872219E-3,0E0,0E0,0E0,0E0,0E0,0E0,2.969524E-3,0E0,2.4761796E-2,0E0,1.1574329E-1,0E0,1.5204743E-2,0E0,0E0,0E0,0E0,0E0,0E0,0E0,0E0,0E0,0E0,0E0],"parents":[2147483647,0,0,1,1,2,2,3,3,4,4,5,5,6,6,9,9,10,10,11,11,12,12,13,13,14,14,15,15,16,16,18,18,19,19,21,21,23,23,25,25,26,26,28,28,35,35,37,37,39,39,41,41],"right_children":[2,4,6,8,10,12,14,-1,-1,16,18,20,22,24,26,28,30,-1,32,34,-1,36,-1,38,-1,40,42,-1,44,-1,-1,-1,-1,-1,-1,46,-1,48,-1,50,-1,52,-1,-1,-1,-1,-1,-1,-1,-1,-1,-1,-1],"split_conditions":[1.2712319E0,-6.866252E-1,-3.800383E-2,-6.9887303E-3,-2.8629425E-1,8.967644E-2,-3.416695E-1,4.8254555E-4,-8.626178E-3,3.6913637E-2,-5.534745E-1,-6.397407E-2,-2.6652232E-2,-4.138382E-1,-1.7979264E-2,-1.3236283E-1,-1.3248748E-1,7.202127E-3,3.450523E-1,-1.501496E-1,1.6202452E-3,-3.011307E-1,-7.980712E-3,1.1456011E-1,-1.3873597E-2,1.6872784E-1,2.2344165E0,3.639742E-3,-4.0098938E-1,-5.496678E-4,1.2763878E-3,1.0196913E-2,7.2745695E-3,3.8619866E-3,7.5918124E-3,-2.0569794E-1,8.232323E-4,1.6322471E0,-4.3547186E-3,1.1108488E-2,6.077012E-3,-1.1251356E-1,-1.1108978E-2,4.7463723E-3,8.047546E-3,-7.789961E-4,-2.111748E-3,-6.000192E-3,-9.991182E-3,-3.1515982E-3,1.4064008E-3,-6.8723448E-3,-3.2976777E-3],"split_indices":[389,3,363,2,287,179,214,0,0,35,388,255,4,41,40,91,4,0,371,12,0,40,0,4,0,253,389,0,20,0,0,0,0,0,0,2,0,392,0,160,0,2,0,0,0,0,0,0,0,0,0,0,0],"split_type":[0,0,0,0,0,0,0,0,0,0,0,0,0,0,0,0,0,0,0,0,0,0,0,0,0,0,0,0,0,0,0,0,0,0,0,0,0,0,0,0,0,0,0,0,0,0,0,0,0,0,0,0,0],"sum_hessian":[4.874459E2,1.9923259E2,2.882133E2,1.395203E1,1.8528056E2,7.323354E1,2.1497975E2,6.0034056E0,7.9486246E0,4.77521E1,1.3752846E2,3.5897198E1,3.7336346E1,1.0535526E2,1.096245E2,3.6728935E1,1.1023167E1,2.6411304E1,1.1111716E2,2.7411367E1,8.485832E0,2.9263298E1,8.073047E0,6.331151E1,4.204375E1,7.292411E1,3.6700386E1,1.1039126E1,2.568981E1,5.3743625E0,5.648804E0,9.0260216E1,2.0856945E1,5.722345E0,2.1689022E1,2.165215E1,7.6111474E0,5.1577805E1,1.17337055E1,6.248606E1,1.0438048E1,1.846909E1,1.8231297E1,6.027292E0,1.9662518E1,8.357373E0,1.3294777E1,1.0796078E1,4.0781727E1,4.275346E1,1.97326E1,9.334133E0,9.134956E0],"tree_param":{"num_deleted":"0","num_feature":"403","num_nodes":"53","size_leaf_vector":"1"}},{"base_weights":[1.4368282E-2,1.4391644E-1,-8.906017E-2,1.58555E-1,-8.243068E-3,7.686691E-2,-1.3388596E-1,6.2683016E-2,1.7243902E-1,7.3341127E-3,-3.2881438E-4,-3.5173252E-2,-2.1025088E-1,6.342958E-3,3.5404528E-3,1.8909326E-1,1.510269E-1,-8.398155E-4,1.2748752E-3,2.69673E-2,-9.182542E-2,-1.7807552E-1,-1.2794084E-2,1.2741954E-3,-1.3573681E-3,5.4508965E-3,9.657452E-3,4.700914E-3,7.954516E-3,9.4621345E-2,-5.8620494E-2,-1.0600173E-1,-1.2970164E-3,-1.2207771E-1,-1.1050458E-2,6.1286404E-3,2.3613374E-3,-4.6639014E-3,8.6089177E-4,-3.6860348E-3,-6.3615837E-3,-8.09673E-3,-2.7134866E-3],"categories":[],"categories_nodes":[],"categories_segments":[],"categories_sizes":[],"default_left":[0,0,0,0,0,0,0,0,0,0,0,0,0,0,0,0,0,0,0,0,0,0,0,0,0,0,0,0,0,0,0,0,0,0,0,0,0,0,0,0,0,0,0],"id":6,"left_children":[1,3,5,7,-1,9,11,13,15,-1,17,19,21,-1,23,25,27,-1,-1,29,31,33,-1,-1,-1,-1,-1,-1,-1,35,37,39,-1,41,-1,-1,-1,-1,-1,-1,-1,-1,-1],"loss_changes":[5.64148E0,8.708246E-1,1.752279E0,2.2735834E-1,0E0,2.7194363E-1,1.3853405E0,9.142237E-2,2.6972294E-2,0E0,1.1042009E-2,2.904021E-1,1.0707998E-1,0E0,9.867028E-3,6.1023235E-3,1.8643737E-2,0E0,0E0,2.3587325E-1,3.742224E-2,1.2752104E-1,0E0,0E0,0E0,0E0,0E0,0E0,0E0,2.414915E-2,4.938635E-2,1.4655113E-2,0E0,7.2621614E-2,0E0,0E0,0E0,0E0,0E0,0E0,0E0,0E0,0E0],"parents":[2147483647,0,0,1,1,2,2,3,3,5,5,6,6,7,7,8,8,10,10,11,11,12,12,14,14,15,15,16,16,19,19,20,20,21,21,29,29,30,30,31,31,33,33],"right_children":[2,4,6,8,-1,10,12,14,16,-1,18,20,22,-1,24,26,28,-1,-1,30,32,34,-1,-1,-1,-1,-1,-1,-1,36,38,40,-1,42,-1,-1,-1,-1,-1,-1,-1,-1,-1],"split_conditions":[1.2712319E0,8.34467E-1,-3.800383E-2,-5.4582906E-1,-8.243068E-3,-1.1451772E-1,1.9784868E-2,8.23313E-2,-5.730367E-1,7.3341127E-3,1.2597859E-1,3.4424827E-2,1.0261908E-2,6.342958E-3,-2.3351048E-1,-2.8484198E-1,9.486833E-1,-8.398155E-4,1.2748752E-3,4.847381E-1,2.2602754E0,1.6576219E0,-1.2794084E-2,1.2741954E-3,-1.3573681E-3,5.4508965E-3,9.657452E-3,4.700914E-3,7.954516E-3,-9.968911E-2,3.1458282E0,1.3498425E-1,-1.2970164E-3,2.8763336E-1,-1.1050458E-2,6.1286404E-3,2.3613374E-3,-4.6639014E-3,8.6089177E-4,-3.6860348E-3,-6.3615837E-3,-8.09673E-3,-2.7134866E-3],"split_indices":[389,87,363,331,0,17,78,189,389,0,0,38,381,0,389,346,401,0,0,236,389,392,0,0,0,0,0,0,0,2,388,0,0,15,0,0,0,0,0,0,0,0,0],"split_type":[0,0,0,0,0,0,0,0,0,0,0,0,0,0,0,0,0,0,0,0,0,0,0,0,0,0,0,0,0,0,0,0,0,0,0,0,0,0,0,0,0,0,0],"sum_hessian":[4.1908185E2,1.8587488E2,2.3320697E2,1.7792625E2,7.9486246E0,4.9449604E1,1.8375737E2,2.320511E1,1.5472113E2,2.5493399E1,2.3956207E1,8.078789E1,1.02969475E2,1.0579846E1,1.2625263E1,8.262483E1,7.2096306E1,1.4842138E1,9.114068E0,3.877758E1,4.201031E1,6.326344E1,3.9706036E1,7.460311E0,5.1649523E0,5.3271685E0,7.729766E1,1.0502579E1,6.1593727E1,2.1598892E1,1.7178688E1,3.4070557E1,7.939753E0,2.9122604E1,3.414084E1,1.2588484E1,9.010408E0,1.1632683E1,5.5460057E0,1.5291566E1,1.8778992E1,1.7467335E1,1.165527E1],"tree_param":{"num_deleted":"0","num_feature":"403","num_nodes":"43","size_leaf_vector":"1"}},{"base_weights":[-2.9914086E-3,1.2835102E-1,-9.784643E-2,-9.6932575E-2,1.4492926E-1,2.0509465E-2,-1.3310465E-1,-1.5723995E-4,-7.876972E-3,2.4185281E-2,1.5326355E-1,7.904201E-2,-4.7672994E-2,6.205922E-3,-1.483848E-1,-4.98271E-4,2.4465153E-3,1.6341579E-1,9.914922E-2,3.5665292E-2,1.0729469E-1,-6.2096395E-2,8.244239E-4,-1.8341468E-1,-5.5918112E-2,9.226753E-3,7.5936615E-3,1.3503356E-1,4.955623E-2,9.6455327E-4,2.2058585E-3,3.7631504E-3,6.652061E-3,-4.7757397E-3,-4.02246E-4,-6.020951E-2,-2.115799E-1,6.325368E-3,-7.6949224E-2,3.9186184E-3,7.864143E-3,1.4957663E-3,3.2088761E-3,-5.1779384E-3,4.5219767E-3,-1.5225552E-2,-9.290883E-3,-2.8044812E-3,-8.5862605E-3],"categories":[],"categories_nodes":[],"categories_segments":[],"categories_sizes":[],"default_left":[0,0,0,0,0,0,0,0,0,0,0,0,0,0,0,0,0,0,0,0,0,0,0,0,0,0,0,0,0,0,0,0,0,0,0,0,0,0,0,0,0,0,0,0,0,0,0,0,0],"id":7,"left_children":[1,3,5,7,9,11,13,-1,-1,15,17,19,21,-1,23,-1,-1,25,27,29,31,33,-1,35,37,-1,-1,39,41,-1,-1,-1,-1,-1,-1,43,45,-1,47,-1,-1,-1,-1,-1,-1,-1,-1,-1,-1],"loss_changes":[6.139561E0,7.858994E-1,1.1967518E0,8.343078E-2,1.9041061E-1,2.6932278E-1,8.85422E-1,0E0,0E0,1.2016296E-2,8.282757E-2,4.051216E-2,3.0045427E-2,0E0,6.6566324E-1,0E0,0E0,8.597851E-3,4.8508376E-2,1.3311598E-3,7.6452047E-3,4.5860127E-2,0E0,5.109086E-1,2.3522165E-1,0E0,0E0,9.629965E-3,2.2732988E-3,0E0,0E0,0E0,0E0,0E0,0E0,2.018594E-1,2.3652077E-1,0E0,9.577903E-2,0E0,0E0,0E0,0E0,0E0,0E0,0E0,0E0,0E0,0E0],"parents":[2147483647,0,0,1,1,2,2,3,3,4,4,5,5,6,6,9,9,10,10,11,11,12,12,14,14,17,17,18,18,19,19,20,20,21,21,23,23,24,24,27,27,28,28,35,35,36,36,38,38],"right_children":[2,4,6,8,10,12,14,-1,-1,16,18,20,22,-1,24,-1,-1,26,28,30,32,34,-1,36,38,-1,-1,40,42,-1,-1,-1,-1,-1,-1,44,46,-1,48,-1,-1,-1,-1,-1,-1,-1,-1,-1,-1],"split_conditions":[1.2712319E0,-6.866252E-1,-3.209211E-2,2.818716E-1,-3.863415E-1,-4.8440054E-2,-5.543588E-2,-1.5723995E-4,-7.876972E-3,-5.4568076E-1,3.5749105E-1,8.8920794E-2,1.7310517E0,6.205922E-3,-3.583638E-1,-4.98271E-4,2.4465153E-3,1.18796706E-1,4.501049E-1,-1.72143E-1,-3.0871892E-1,-7.109619E-2,8.244239E-4,-2.1987982E-1,-4.921055E-2,9.226753E-3,7.5936615E-3,-3.6654273E-1,3.2190263E-2,9.6455327E-4,2.2058585E-3,3.7631504E-3,6.652061E-3,-4.7757397E-3,-4.02246E-4,2.3053896E0,9.6833564E-2,6.325368E-3,-2.346104E-2,3.9186184E-3,7.864143E-3,1.4957663E-3,3.2088761E-3,-5.1779384E-3,4.5219767E-3,-1.5225552E-2,-9.290883E-3,-2.8044812E-3,-8.5862605E-3],"split_indices":[389,3,78,0,6,255,89,0,0,1,106,46,392,0,77,0,0,7,389,315,20,34,0,131,162,0,0,17,337,0,0,0,0,0,0,389,46,0,2,0,0,0,0,0,0,0,0,0,0],"split_type":[0,0,0,0,0,0,0,0,0,0,0,0,0,0,0,0,0,0,0,0,0,0,0,0,0,0,0,0,0,0,0,0,0,0,0,0,0,0,0,0,0,0,0,0,0,0,0,0,0],"sum_hessian":[4.9079333E2,2.0566422E2,2.8512915E2,1.3764871E1,1.9189934E2,6.554015E1,2.1958899E2,5.8162456E0,7.9486246E0,1.2642445E1,1.792569E2,3.5179966E1,3.0360191E1,1.1913671E1,2.0767531E2,5.5626655E0,7.0797796E0,1.4923882E2,3.0018084E1,1.4768329E1,2.0411638E1,2.4814186E1,5.5460057E0,1.4990285E2,5.7772457E1,4.7443886E1,1.0179492E2,1.6416586E1,1.3601498E1,6.145266E0,8.623063E0,1.0843848E1,9.567789E0,1.4859745E1,9.95444E0,2.8475983E1,1.2142687E2,5.4534616E0,5.2318996E1,5.903894E0,1.0512692E1,7.1042757E0,6.4972215E0,2.2355711E1,6.1202726E0,2.4007063E1,9.741981E1,4.4185795E1,8.133201E0],"tree_param":{"num_deleted":"0","num_feature":"403","num_nodes":"49","size_leaf_vector":"1"}},{"base_weights":[-1.331462E-3,1.2409418E-1,-9.3079574E-2,1.3611966E-1,-7.127897E-3,1.8016532E-2,-1.2930253E-1,5.7548992E-2,1.5562315E-1,-7.5803297E-3,5.456413E-2,-3.7527453E-2,-1.8415608E-1,1.0309106E-1,7.276746E-3,1.4140815E-1,1.7356801E-1,1.07488E-1,5.4830294E-3,-6.399487E-2,5.443581E-3,2.4818226E-3,-2.0530109E-1,1.2607154E-1,1.9131007E-3,2.0351687E-3,-1.944022E-2,7.3952153E-3,4.6949703E-3,5.697229E-3,9.053088E-3,6.525052E-3,7.896413E-2,2.2195594E-2,-3.2949683E-3,-9.453724E-2,4.6091948E-2,-1.5069687E-1,-1.3150576E-2,7.387263E-3,3.7157082E-3,-1.3130675E-3,-5.0820527E-4,2.7342075E-3,4.967591E-3,-7.485057E-5,2.3069505E-3,-6.4805783E-3,-5.2086695E-4,7.894986E-4,3.088107E-3,-5.4346444E-3,-8.48561E-3],"categories":[],"categories_nodes":[],"categories_segments":[],"categories_sizes":[],"default_left":[0,0,0,0,0,0,0,0,0,0,0,0,0,0,0,0,0,0,0,0,0,0,0,0,0,0,0,0,0,0,0,0,0,0,0,0,0,0,0,0,0,0,0,0,0,0,0,0,0,0,0,0,0],"id":8,"left_children":[1,3,5,7,-1,9,11,13,15,-1,17,19,21,23,25,27,29,31,33,35,-1,-1,37,39,-1,-1,41,-1,-1,-1,-1,-1,43,45,-1,47,49,51,-1,-1,-1,-1,-1,-1,-1,-1,-1,-1,-1,-1,-1,-1,-1],"loss_changes":[5.4584055E0,6.619885E-1,1.1047084E0,2.856586E-1,0E0,4.3127164E-1,1.0336673E0,9.041762E-2,1.4595985E-2,0E0,1.4714164E-1,3.114608E-1,6.4849806E-1,2.6189357E-2,1.8655112E-2,1.4200807E-2,7.7068806E-3,7.6228976E-3,3.7922017E-2,2.3024079E-1,0E0,0E0,3.3411503E-1,5.7721585E-3,0E0,0E0,4.7932798E-4,0E0,0E0,0E0,0E0,0E0,1.8574223E-3,1.4541397E-2,0E0,1.5478197E-1,6.2721632E-3,3.2099605E-2,0E0,0E0,0E0,0E0,0E0,0E0,0E0,0E0,0E0,0E0,0E0,0E0,0E0,0E0,0E0],"parents":[2147483647,0,0,1,1,2,2,3,3,5,5,6,6,7,7,8,8,10,10,11,11,12,12,13,13,14,14,15,15,16,16,17,17,18,18,19,19,22,22,23,23,26,26,32,32,33,33,35,35,36,36,37,37],"right_children":[2,4,6,8,-1,10,12,14,16,-1,18,20,22,24,26,28,30,32,34,36,-1,-1,38,40,-1,-1,42,-1,-1,-1,-1,-1,44,46,-1,48,50,52,-1,-1,-1,-1,-1,-1,-1,-1,-1,-1,-1,-1,-1,-1,-1],"split_conditions":[1.3950728E0,4.6392193E-1,2.1840437E-1,-6.423255E-1,-7.127897E-3,1.2813091E-1,-6.370613E-2,4.950537E-1,1.7736092E-2,-7.5803297E-3,-1.6078122E-1,-3.6548114E-1,1.1348206E-1,2.9168522E-1,-2.3351048E-1,4.810749E-1,-3.170887E-1,-4.569412E-2,5.9051573E-1,3.3713257E0,5.443581E-3,2.4818226E-3,-4.138382E-1,8.090797E-2,1.9131007E-3,2.0351687E-3,-5.4568076E-1,7.3952153E-3,4.6949703E-3,5.697229E-3,9.053088E-3,6.525052E-3,3.1221724E0,-2.2703916E-2,-3.2949683E-3,-7.9789746E-1,-6.10588E-1,1.6322471E0,-1.3150576E-2,7.387263E-3,3.7157082E-3,-1.3130675E-3,-5.0820527E-4,2.7342075E-3,4.967591E-3,-7.485057E-5,2.3069505E-3,-6.4805783E-3,-5.2086695E-4,7.894986E-4,3.088107E-3,-5.4346444E-3,-8.48561E-3],"split_indices":[389,253,101,199,0,25,155,70,323,0,93,35,185,389,389,374,153,23,0,388,0,0,41,1,0,0,1,0,0,0,0,0,388,189,0,60,1,392,0,0,0,0,0,0,0,0,0,0,0,0,0,0,0],"split_type":[0,0,0,0,0,0,0,0,0,0,0,0,0,0,0,0,0,0,0,0,0,0,0,0,0,0,0,0,0,0,0,0,0,0,0,0,0,0,0,0,0,0,0,0,0,0,0,0,0,0,0,0,0],"sum_hessian":[4.7232816E2,1.9939275E2,2.7293542E2,1.9125696E2,8.135785E0,6.7233215E1,2.0570221E2,3.881992E1,1.5243704E2,1.1360263E1,5.587295E1,7.7582924E1,1.2811928E2,1.981693E1,1.9002989E1,9.001325E1,6.242379E1,2.6311455E1,2.9561497E1,6.618097E1,1.1401952E1,1.0514706E1,1.17604576E2,1.393323E1,5.883701E0,8.208951E0,1.0794038E1,7.732669E1,1.26865635E1,8.779072E0,5.364472E1,1.2583745E1,1.372771E1,2.4511702E1,5.0497966E0,5.1918114E1,1.4262857E1,6.22841E1,5.5320477E1,8.513555E0,5.419676E0,5.1649523E0,5.6290855E0,7.946421E0,5.781289E0,1.2791586E1,1.1720115E1,3.625893E1,1.5659183E1,5.5460057E0,8.716851E0,2.1502375E1,4.0781727E1],"tree_param":{"num_deleted":"0","num_feature":"403","num_nodes":"53","size_leaf_vector":"1"}},{"base_weights":[-1.5965983E-2,1.1917806E-1,-1.0021427E-1,-2.1502934E-2,1.4397503E-1,1.5378757E-2,-1.3457797E-1,2.887276E-2,-7.210567E-3,1.5053825E-1,7.994506E-2,-4.1692633E-2,1.130194E-1,-1.7192331E-1,-4.0011175E-2,6.2437276E-3,-9.342069E-3,1.5360238E-1,4.9687764E-3,1.0068213E-1,1.5961499E-3,5.622504E-4,-4.3324265E-3,6.1593847E-3,2.8473309E-3,-1.3023848E-2,-1.4354031E-1,-4.6861293E-3,-6.914058E-3,6.560634E-4,-1.3544264E-3,8.104533E-3,1.2678388E-1,3.1772691E-3,6.0001854E-3,1.982187E-2,-3.1574534E-3,-2.2842071E-3,-1.579023E-1,-3.3090603E-2,6.0974923E-3,3.6085837E-3,6.6953446E-3,2.1935105E-3,-1.0245035E-4,-5.3010597E-3,-8.867773E-3,-2.0263344E-3,7.56053E-4],"categories":[],"categories_nodes":[],"categories_segments":[],"categories_sizes":[],"default_left":[0,0,0,0,0,0,0,0,0,0,0,0,0,0,0,0,0,0,0,0,0,0,0,0,0,0,0,0,0,0,0,0,0,0,0,0,0,0,0,0,0,0,0,0,0,0,0,0,0],"id":9,"left_children":[1,3,5,7,9,11,13,15,-1,17,19,21,23,25,27,-1,29,31,-1,33,-1,35,-1,-1,-1,-1,37,39,-1,-1,-1,-1,41,-1,-1,43,-1,-1,45,47,-1,-1,-1,-1,-1,-1,-1,-1,-1],"loss_changes":[5.7963276E0,6.852598E-1,1.2473278E0,1.9067955E-1,5.7883024E-2,4.1003633E-1,8.4691477E-1,8.270142E-2,0E0,8.215666E-3,1.4313459E-2,8.863782E-2,8.436978E-3,3.9745712E-1,2.4146895E-1,0E0,7.0634387E-3,1.1201143E-2,0E0,8.6160004E-4,0E0,3.1969212E-2,0E0,0E0,0E0,0E0,1.8004942E-1,1.9230092E-1,0E0,0E0,0E0,0E0,5.165994E-3,0E0,0E0,1.0600478E-2,0E0,0E0,9.8052025E-2,1.6221035E-2,0E0,0E0,0E0,0E0,0E0,0E0,0E0,0E0,0E0],"parents":[2147483647,0,0,1,1,2,2,3,3,4,4,5,5,6,6,7,7,9,9,10,10,11,11,12,12,13,13,14,14,16,16,17,17,19,19,21,21,26,26,27,27,32,32,35,35,38,38,39,39],"right_children":[2,4,6,8,10,12,14,16,-1,18,20,22,24,26,28,-1,30,32,-1,34,-1,36,-1,-1,-1,-1,38,40,-1,-1,-1,-1,42,-1,-1,44,-1,-1,46,48,-1,-1,-1,-1,-1,-1,-1,-1,-1],"split_conditions":[1.2712319E0,-5.521773E-1,2.1840437E-1,8.34467E-1,9.834802E-1,1.4332823E-1,1.1746081E-1,-1.5344626E-1,-7.210567E-3,1.0664478E-1,-1.297847E-1,-1.6289234E-1,-1.866582E-2,1.2962975E-1,7.6206404E-1,6.2437276E-3,-2.3351048E-1,4.666337E-1,4.9687764E-3,-3.5561335E-1,1.5961499E-3,5.9051573E-1,-4.3324265E-3,6.1593847E-3,2.8473309E-3,-1.3023848E-2,3.8807458E-1,1.7914489E-1,-6.914058E-3,6.560634E-4,-1.3544264E-3,8.104533E-3,1.3177745E-1,3.1772691E-3,6.0001854E-3,-5.1778406E-2,-3.1574534E-3,-2.2842071E-3,1.6576219E0,3.1458282E0,6.0974923E-3,3.6085837E-3,6.6953446E-3,2.1935105E-3,-1.0245035E-4,-5.3010597E-3,-8.867773E-3,-2.0263344E-3,7.56053E-4],"split_indices":[389,331,101,87,389,54,308,362,0,376,4,41,157,42,19,0,389,281,0,62,0,0,0,0,0,0,15,49,0,0,0,0,122,0,0,78,0,0,392,388,0,0,0,0,0,0,0,0,0],"split_type":[0,0,0,0,0,0,0,0,0,0,0,0,0,0,0,0,0,0,0,0,0,0,0,0,0,0,0,0,0,0,0,0,0,0,0,0,0,0,0,0,0,0,0,0,0,0,0,0,0],"sum_hessian":[5.0704144E2,1.945485E2,3.1249295E2,2.917312E1,1.6537537E2,7.173669E1,2.4075627E2,2.1224495E1,7.9486246E0,1.4877458E2,1.6600794E1,4.5635517E1,2.6101166E1,1.720099E2,6.874637E1,5.397474E0,1.5827022E1,1.3847888E2,1.0295694E1,1.0828295E1,5.772499E0,2.4033485E1,2.1602032E1,2.1081333E1,5.019833E0,3.976567E1,1.3224425E2,5.1339188E1,1.740718E1,7.1002293E0,8.726791E0,1.0135512E2,3.7123764E1,5.173491E0,5.6548038E0,1.898369E1,5.0497966E0,1.746008E1,1.14784164E2,4.2536858E1,8.80233E0,5.567773E0,3.1555992E1,8.562658E0,1.0421031E1,3.3061092E1,8.172307E1,3.6990852E1,5.5460057E0],"tree_param":{"num_deleted":"0","num_feature":"403","num_nodes":"49","size_leaf_vector":"1"}},{"base_weights":[-9.450575E-3,1.1240743E-1,-9.38295E-2,-2.6005786E-3,1.3699855E-1,2.968102E-2,-1.1983353E-1,3.8842946E-2,-6.8903277E-3,1.4472893E-1,7.566016E-2,4.705099E-2,-4.483297E-3,-1.5665646E-1,-6.097101E-2,5.299097E-3,-3.7635195E-3,3.985315E-3,1.4737396E-1,4.902892E-2,5.8261696E-3,2.1724606E-2,1.04489274E-1,-1.8462475E-1,-1.4281621E-2,-1.576876E-1,-2.353824E-2,1.0681896E-3,-1.111022E-3,1.54129E-1,5.644083E-3,1.244817E-3,2.963472E-3,2.1585233E-3,1.0931401E-3,6.0876794E-3,3.0985023E-3,-1.6307537E-1,-1.323833E-2,-7.2101313E-3,6.869149E-2,-6.5118955E-3,-1.0976545E-2,5.727123E-3,-4.8544057E-2,8.389461E-3,6.870878E-3,6.543268E-4,-5.749922E-4,-5.605062E-3,-9.133419E-3,2.35217E-4,4.8907283E-3,-1.1270453E-3,-3.3090734E-3],"categories":[],"categories_nodes":[],"categories_segments":[],"categories_sizes":[],"default_left":[0,0,0,0,0,0,0,0,0,0,0,0,0,0,0,0,0,0,0,0,0,0,0,0,0,0,0,0,0,0,0,0,0,0,0,0,0,0,0,0,0,0,0,0,0,0,0,0,0,0,0,0,0,0,0],"id":10,"left_children":[1,3,5,7,9,11,13,15,-1,17,19,21,-1,23,25,-1,27,-1,29,31,-1,33,35,37,39,41,43,-1,-1,45,-1,-1,-1,-1,47,-1,-1,49,-1,-1,51,-1,-1,-1,53,-1,-1,-1,-1,-1,-1,-1,-1,-1,-1],"loss_changes":[5.1671157E0,5.8193517E-1,9.570184E-1,2.1383056E-1,6.938887E-2,1.1291547E-1,5.22419E-1,8.408976E-2,0E0,1.3943672E-2,1.7203927E-2,6.526799E-2,0E0,5.960307E-1,3.4416023E-1,0E0,9.223409E-3,0E0,1.5770197E-2,2.101872E-3,0E0,1.4767593E-2,2.69109E-3,1.736927E-1,2.8768903E-1,1.6626477E-2,2.4881442E-1,0E0,0E0,3.4935474E-3,0E0,0E0,0E0,0E0,2.8828857E-3,0E0,0E0,8.0963135E-2,0E0,0E0,3.0106656E-2,0E0,0E0,0E0,2.6186898E-2,0E0,0E0,0E0,0E0,0E0,0E0,0E0,0E0,0E0,0E0],"parents":[2147483647,0,0,1,1,2,2,3,3,4,4,5,5,6,6,7,7,9,9,10,10,11,11,13,13,14,14,16,16,18,18,19,19,21,21,22,22,23,23,24,24,25,25,26,26,29,29,34,34,37,37,40,40,44,44],"right_children":[2,4,6,8,10,12,14,16,-1,18,20,22,-1,24,26,-1,28,-1,30,32,-1,34,36,38,40,42,44,-1,-1,46,-1,-1,-1,-1,48,-1,-1,50,-1,-1,52,-1,-1,-1,54,-1,-1,-1,-1,-1,-1,-1,-1,-1,-1],"split_conditions":[1.2712319E0,-5.4582906E-1,-3.209211E-2,-4.792422E-1,9.834802E-1,3.2143846E-2,-4.4222973E-2,-2.984857E-1,-6.8903277E-3,-5.979106E-1,1.0374332E-1,-6.894891E-2,-4.483297E-3,1.4607489E-2,-3.8962287E-1,5.299097E-3,-2.3351048E-1,3.985315E-3,-1.1107342E-1,3.2190263E-2,5.8261696E-3,3.4263206E-1,-1.4591914E-1,4.540799E-1,2.3053896E0,9.486833E-1,-3.3911765E-1,1.0681896E-3,-1.111022E-3,2.6110852E-1,5.644083E-3,1.244817E-3,2.963472E-3,2.1585233E-3,-1.7202407E-2,6.0876794E-3,3.0985023E-3,2.2344165E0,-1.323833E-2,-7.2101313E-3,-2.3607536E-1,-6.5118955E-3,-1.0976545E-2,5.727123E-3,-9.49638E-2,8.389461E-3,6.870878E-3,6.543268E-4,-5.749922E-4,-5.605062E-3,-9.133419E-3,2.35217E-4,4.8907283E-3,-1.1270453E-3,-3.3090734E-3],"split_indices":[389,331,78,76,389,192,31,47,0,38,337,12,0,354,176,0,389,0,313,337,0,322,97,109,389,401,111,0,0,177,0,0,0,0,5,0,0,389,0,0,47,0,0,0,159,0,0,0,0,0,0,0,0,0,0],"split_type":[0,0,0,0,0,0,0,0,0,0,0,0,0,0,0,0,0,0,0,0,0,0,0,0,0,0,0,0,0,0,0,0,0,0,0,0,0,0,0,0,0,0,0,0,0,0,0,0,0,0,0,0,0,0,0],"sum_hessian":[5.005021E2,2.0463745E2,2.9586465E2,3.62055E1,1.6843196E2,5.1433098E1,2.4443155E2,2.8256876E1,7.9486246E0,1.4837323E2,2.0058735E1,4.542729E1,6.0058074E0,1.4934416E2,9.508739E1,1.0392687E1,1.786419E1,7.0166984E0,1.4135652E2,1.3476019E1,6.582716E0,3.2482803E1,1.2944488E1,1.2457563E2,2.4768538E1,2.563657E1,6.945082E1,7.498377E0,1.0365811E1,1.1530621E2,2.6050312E1,5.0370297E0,8.438989E0,1.5391398E1,1.7091406E1,7.881019E0,5.0634685E0,1.00568565E2,2.4007063E1,9.365657E0,1.5402882E1,1.9906725E1,5.7298446E0,1.009978E1,5.935104E1,5.8470818E1,5.6835396E1,8.734033E0,8.357373E0,2.9789139E1,7.077943E1,5.1810274E0,1.0221853E1,2.490749E1,3.444355E1],"tree_param":{"num_deleted":"0","num_feature":"403","num_nodes":"55","size_leaf_vector":"1"}},{"base_weights":[1.0867173E-2,1.2294618E-1,-7.0249744E-2,6.0356636E-2,1.3512594E-1,-7.3794846E-4,-1.19767234E-1,-1.1487236E-3,9.788902E-2,1.4145193E-1,1.0126424E-1,5.5806004E-2,-8.166867E-2,-1.5325959E-1,-1.9036481E-2,1.2367222E-3,-1.5920534E-3,6.1889957E-3,3.353823E-3,5.985578E-3,1.5309007E-1,1.11204326E-1,2.3723054E-3,9.011938E-2,-8.859287E-3,-9.746052E-3,-5.5979125E-2,-2.1117856E-3,-1.6741574E-1,5.4514906E-3,-4.869209E-2,1.5796341E-1,5.2055535E-3,3.2216508E-3,1.2672715E-1,5.8313883E-3,5.11902E-2,-1.9429539E-3,1.7339692E-3,-2.736054E-3,-7.9700954E-2,-9.792502E-3,-1.2582321E-1,-5.493143E-4,-3.06938E-3,5.2750856E-3,8.190951E-3,4.2924187E-3,7.3922514E-3,1.1701927E-3,3.0897406E-3,-6.601757E-4,5.0252076E-4,-4.8632505E-3,-3.2441956E-3,-6.7241727E-3,-4.3649864E-3],"categories":[],"categories_nodes":[],"categories_segments":[],"categories_sizes":[],"default_left":[0,0,0,0,0,0,0,0,0,0,0,0,0,0,0,0,0,0,0,0,0,0,0,0,0,0,0,0,0,0,0,0,0,0,0,0,0,0,0,0,0,0,0,0,0,0,0,0,0,0,0,0,0,0,0,0,0],"id":11,"left_children":[1,3,5,7,9,11,13,15,17,19,21,23,25,27,29,-1,-1,-1,-1,-1,31,33,-1,35,37,-1,39,-1,41,-1,43,45,-1,-1,47,-1,49,-1,-1,51,53,-1,55,-1,-1,-1,-1,-1,-1,-1,-1,-1,-1,-1,-1,-1,-1],"loss_changes":[4.064313E0,1.3490629E-1,8.928833E-1,7.485398E-2,1.9153833E-2,5.03046E-1,5.081935E-1,1.132033E-2,7.7474713E-3,1.4354706E-2,9.767413E-3,1.4440869E-1,1.2062305E-1,1.7139769E-1,1.5321673E-1,0E0,0E0,0E0,0E0,0E0,2.7792454E-3,8.527905E-3,0E0,3.7757546E-2,3.1843487E-2,0E0,4.809758E-2,0E0,9.406614E-2,0E0,1.4793858E-2,4.626274E-3,0E0,0E0,1.3178289E-3,0E0,4.136961E-3,0E0,0E0,1.849362E-3,5.6687E-4,0E0,2.790153E-3,0E0,0E0,0E0,0E0,0E0,0E0,0E0,0E0,0E0,0E0,0E0,0E0,0E0,0E0],"parents":[2147483647,0,0,1,1,2,2,3,3,4,4,5,5,6,6,7,7,8,8,9,9,10,10,11,11,12,12,13,13,14,14,20,20,21,21,23,23,24,24,26,26,28,28,30,30,31,31,34,34,36,36,39,39,40,40,42,42],"right_children":[2,4,6,8,10,12,14,16,18,20,22,24,26,28,30,-1,-1,-1,-1,-1,32,34,-1,36,38,-1,40,-1,42,-1,44,46,-1,-1,48,-1,50,-1,-1,52,54,-1,56,-1,-1,-1,-1,-1,-1,-1,-1,-1,-1,-1,-1,-1,-1],"split_conditions":[1.2712319E0,-2.3336142E-1,1.8849348E-1,-4.9693298E-1,5.394371E-1,-3.5162818E-1,-1.465991E-1,-2.3351048E-1,-8.932725E-3,-5.6976303E-2,2.541656E-1,1.2719235E-1,-3.288213E-1,-2.9007035E-1,2.0570233E-1,1.2367222E-3,-1.5920534E-3,6.1889957E-3,3.353823E-3,5.985578E-3,5.012665E-1,2.6967907E-1,2.3723054E-3,2.823593E-1,4.069438E-1,-9.746052E-3,-2.4487853E-1,-2.1117856E-3,2.7067333E-1,5.4514906E-3,1.2597859E-1,-6.370841E-1,5.2055535E-3,3.2216508E-3,1.5437615E-1,5.8313883E-3,-1.8422614E-1,-1.9429539E-3,1.7339692E-3,4.9729772E-2,-8.4821396E-2,-9.792502E-3,3.3309255E0,-5.493143E-4,-3.06938E-3,5.2750856E-3,8.190951E-3,4.2924187E-3,7.3922514E-3,1.1701927E-3,3.0897406E-3,-6.601757E-4,5.0252076E-4,-4.8632505E-3,-3.2441956E-3,-6.7241727E-3,-4.3649864E-3],"split_indices":[389,276,329,176,100,163,143,389,151,88,389,9,8,215,26,0,0,0,0,0,7,88,0,42,0,0,3,0,227,0,0,267,0,0,48,0,47,0,0,0,4,0,388,0,0,0,0,0,0,0,0,0,0,0,0,0,0],"split_type":[0,0,0,0,0,0,0,0,0,0,0,0,0,0,0,0,0,0,0,0,0,0,0,0,0,0,0,0,0,0,0,0,0,0,0,0,0,0,0,0,0,0,0,0,0,0,0,0,0,0,0,0,0,0,0,0,0],"sum_hessian":[4.4509525E2,1.8666504E2,2.584302E2,3.1377466E1,1.5528757E2,1.0793201E2,1.5049818E2,1.2258507E1,1.911896E1,1.281664E2,2.712118E1,6.3721844E1,4.4210163E1,1.1255339E2,3.79448E1,6.755577E0,5.50293E0,8.749675E0,1.0369286E1,4.8623173E1,7.954322E1,2.1992851E1,5.1283274E0,4.1373943E1,2.23479E1,6.956197E0,3.7253967E1,1.3178724E1,9.9374664E1,6.631304E0,3.1313498E1,7.032124E1,9.221977E0,6.7638326E0,1.5229019E1,2.3426224E1,1.794772E1,1.3294777E1,9.053123E0,1.1826041E1,2.5427925E1,5.6820873E1,4.2553795E1,8.357373E0,2.2956123E1,8.970431E0,6.135081E1,6.9128036E0,8.316216E0,5.8434863E0,1.2104234E1,6.484765E0,5.341276E0,9.089211E0,1.6338713E1,3.2709595E1,9.8442E0],"tree_param":{"num_deleted":"0","num_feature":"403","num_nodes":"57","size_leaf_vector":"1"}},{"base_weights":[-1.306123E-2,1.0657464E-1,-8.575925E-2,1.1794965E-1,-6.9480897E-3,-1.3405818E-1,-2.5859404E-2,1.9502077E-2,1.2525101E-1,5.9468504E-3,-1.6043018E-1,9.682683E-2,-4.481983E-2,-4.4422885E-4,1.9784665E-3,1.3459615E-1,8.3948955E-2,-9.766197E-2,-2.1297884E-1,5.6025516E-3,3.1191024E-3,-2.134647E-3,-7.5743906E-2,1.1223608E-1,1.463627E-1,1.3179763E-3,1.0817027E-1,-1.2073427E-1,7.7080736E-3,-1.2005861E-2,-9.2156865E-3,4.3128063E-3,-1.8319327E-2,-9.3548276E-2,1.4069623E-3,5.815433E-3,3.2672926E-3,7.5126267E-3,3.959022E-3,5.952521E-3,3.3369206E-3,-1.3896673E-3,-7.406015E-3,4.0329937E-3,-2.2632233E-3,-2.2873206E-3,9.041401E-5,-3.993516E-3,-8.343129E-3],"categories":[],"categories_nodes":[],"categories_segments":[],"categories_sizes":[],"default_left":[0,0,0,0,0,0,0,0,0,0,0,0,0,0,0,0,0,0,0,0,0,0,0,0,0,0,0,0,0,0,0,0,0,0,0,0,0,0,0,0,0,0,0,0,0,0,0,0,0],"id":12,"left_children":[1,3,5,7,-1,9,11,13,15,-1,17,19,21,-1,-1,23,25,27,29,-1,-1,31,33,35,37,-1,39,41,43,-1,-1,-1,45,47,-1,-1,-1,-1,-1,-1,-1,-1,-1,-1,-1,-1,-1,-1,-1],"loss_changes":[4.4108434E0,5.519185E-1,9.088993E-1,1.2966728E-1,0E0,1.1823235E0,3.3468714E-1,8.254896E-3,5.467081E-2,0E0,5.0138235E-1,3.1443834E-3,1.6310482E-1,0E0,0E0,1.9807816E-2,4.4846207E-2,1.8080777E-1,2.2119999E-2,0E0,0E0,7.7388115E-2,1.3523868E-1,2.2867918E-3,1.0825157E-2,0E0,2.760172E-3,1.5053058E-1,5.8645025E-2,0E0,0E0,0E0,2.5263987E-2,4.8280954E-2,0E0,0E0,0E0,0E0,0E0,0E0,0E0,0E0,0E0,0E0,0E0,0E0,0E0,0E0,0E0],"parents":[2147483647,0,0,1,1,2,2,3,3,5,5,6,6,7,7,8,8,10,10,11,11,12,12,15,15,16,16,17,17,18,18,21,21,22,22,23,23,24,24,26,26,27,27,28,28,32,32,33,33],"right_children":[2,4,6,8,-1,10,12,14,16,-1,18,20,22,-1,-1,24,26,28,30,-1,-1,32,34,36,38,-1,40,42,44,-1,-1,-1,46,48,-1,-1,-1,-1,-1,-1,-1,-1,-1,-1,-1,-1,-1,-1,-1],"split_conditions":[1.2712319E0,8.34467E-1,-4.4222973E-2,-3.863415E-1,-6.9480897E-3,-5.883264E-1,-9.515427E-2,-1.9039275E-1,3.4525058E-1,5.9468504E-3,-2.6073866E-2,-2.6372217E-2,-2.446641E-1,-4.4422885E-4,1.9784665E-3,1.2202114E-3,6.5593846E-2,2.3621054E0,-9.582037E-2,5.6025516E-3,3.1191024E-3,-2.5184542E-1,3.175014E0,4.494446E-1,4.9593583E-1,1.3179763E-3,7.253578E-2,3.1221724E0,-2.7030224E-1,-1.2005861E-2,-9.2156865E-3,4.3128063E-3,-3.0226284E-1,9.486833E-1,1.4069623E-3,5.815433E-3,3.2672926E-3,7.5126267E-3,3.959022E-3,5.952521E-3,3.3369206E-3,-1.3896673E-3,-7.406015E-3,4.0329937E-3,-2.2632233E-3,-2.2873206E-3,9.041401E-5,-3.993516E-3,-8.343129E-3],"split_indices":[389,87,31,6,0,163,73,2,389,0,179,79,21,0,0,306,242,389,38,0,0,334,388,78,255,0,301,388,6,0,0,0,6,401,0,0,0,0,0,0,0,0,0,0,0,0,0,0,0],"split_type":[0,0,0,0,0,0,0,0,0,0,0,0,0,0,0,0,0,0,0,0,0,0,0,0,0,0,0,0,0,0,0,0,0,0,0,0,0,0,0,0,0,0,0,0,0,0,0,0,0],"sum_hessian":[5.0510052E2,1.9074088E2,3.1435965E2,1.8279225E2,7.9486246E0,1.7334706E2,1.410126E2,1.2874218E1,1.6991803E2,1.6032465E1,1.5731459E2,1.8325832E1,1.2268677E2,5.5626655E0,7.3115525E0,1.3672362E2,3.319441E1,7.298916E1,8.432543E1,1.1146253E1,7.1795807E0,5.1991196E1,7.069557E1,5.077465E1,8.594897E1,1.0445976E1,2.2748432E1,5.9758385E1,1.3230774E1,3.9527035E1,4.4798397E1,7.3763914E0,4.4614803E1,6.043688E1,1.0258697E1,4.5354973E1,5.419676E0,8.0076096E1,5.8728733E0,1.6533323E1,6.2151093E0,1.40594015E1,4.5698982E1,5.3459115E0,7.884863E0,1.8344574E1,2.6270231E1,5.2695168E1,7.7417088E0],"tree_param":{"num_deleted":"0","num_feature":"403","num_nodes":"49","size_leaf_vector":"1"}},{"base_weights":[1.301748E-2,-8.043771E-2,8.3593674E-2,-1.3526411E-1,1.1510968E-2,1.11348055E-1,7.290195E-3,1.7510819E-4,-1.6199294E-1,-4.0663693E-2,9.516438E-2,2.4553489E-2,1.18069656E-1,-8.689236E-2,3.783815E-2,-2.0378134E-1,-1.102162E-1,-1.3057676E-2,-7.0761936E-3,3.2461134E-3,5.3322115E-3,2.9577216E-4,2.1597801E-3,1.228767E-1,6.69197E-2,-1.03654E-3,-6.2159724E-3,1.8922789E-2,4.1804877E-3,-1.1533353E-2,-8.171284E-3,-3.852646E-3,-1.1804017E-1,-3.7395943E-2,1.9951644E-3,1.2881775E-1,9.34281E-2,4.2497898E-3,1.8643256E-3,3.335288E-2,-6.6478755E-3,-6.584847E-3,-3.8307111E-3,-2.3512614E-3,-9.6787274E-4,6.8635345E-3,4.7716005E-3,5.127915E-3,2.2105582E-3,1.0301734E-3,2.4082665E-3,-6.354938E-4,1.6822976E-5],"categories":[],"categories_nodes":[],"categories_segments":[],"categories_sizes":[],"default_left":[0,0,0,0,0,0,0,0,0,0,0,0,0,0,0,0,0,0,0,0,0,0,0,0,0,0,0,0,0,0,0,0,0,0,0,0,0,0,0,0,0,0,0,0,0,0,0,0,0,0,0,0,0],"id":13,"left_children":[1,3,5,7,9,11,13,-1,15,17,19,21,23,25,27,29,31,33,-1,-1,-1,-1,-1,35,37,-1,-1,39,-1,-1,-1,-1,41,43,-1,45,47,-1,-1,49,51,-1,-1,-1,-1,-1,-1,-1,-1,-1,-1,-1,-1],"loss_changes":[2.7593608E0,9.0934527E-1,5.037732E-1,4.1927218E-1,3.0147442E-1,9.8988056E-2,1.8920499E-1,0E0,1.8238735E-1,1.170296E-1,2.273485E-3,4.544651E-3,3.1567574E-2,3.7363313E-2,4.1266024E-2,1.7869234E-2,2.441287E-3,4.611909E-2,0E0,0E0,0E0,0E0,0E0,1.3636112E-2,5.4537207E-3,0E0,0E0,1.3620117E-2,0E0,0E0,0E0,0E0,9.199351E-3,3.299646E-3,0E0,2.061212E-2,8.170307E-3,0E0,0E0,3.422629E-3,5.9418357E-4,0E0,0E0,0E0,0E0,0E0,0E0,0E0,0E0,0E0,0E0,0E0,0E0],"parents":[2147483647,0,0,1,1,2,2,3,3,4,4,5,5,6,6,8,8,9,9,10,10,11,11,12,12,13,13,14,14,15,15,16,16,17,17,23,23,24,24,27,27,32,32,33,33,35,35,36,36,39,39,40,40],"right_children":[2,4,6,8,10,12,14,-1,16,18,20,22,24,26,28,30,32,34,-1,-1,-1,-1,-1,36,38,-1,-1,40,-1,-1,-1,-1,42,44,-1,46,48,-1,-1,50,52,-1,-1,-1,-1,-1,-1,-1,-1,-1,-1,-1,-1],"split_conditions":[-3.4410942E-1,1.9498292E-1,1.1844426E0,-3.297842E-1,-7.985026E-2,-5.4582906E-1,-4.7841124E-2,1.7510819E-4,5.399761E-2,3.9821267E-1,-4.4054168E-1,5.191216E-1,9.834802E-1,-1.06186576E-1,-1.6389653E-1,9.5872514E-2,1.1088572E-2,-4.7963738E-1,-7.0761936E-3,3.2461134E-3,5.3322115E-3,2.9577216E-4,2.1597801E-3,5.394371E-1,9.338713E-2,-1.03654E-3,-6.2159724E-3,-8.349046E-3,4.1804877E-3,-1.1533353E-2,-8.171284E-3,-3.852646E-3,3.3309255E0,2.6466656E-1,1.9951644E-3,-1.5169786E-1,-1.326223E-1,4.2497898E-3,1.8643256E-3,-2.7906093E-1,4.9729772E-2,-6.584847E-3,-3.8307111E-3,-2.3512614E-3,-9.6787274E-4,6.8635345E-3,4.7716005E-3,5.127915E-3,2.2105582E-3,1.0301734E-3,2.4082665E-3,-6.354938E-4,1.6822976E-5],"split_indices":[340,42,389,130,273,331,308,0,89,0,228,183,389,4,291,33,1,8,0,0,0,0,0,100,159,0,0,78,0,0,0,0,388,0,0,161,120,0,0,359,0,0,0,0,0,0,0,0,0,0,0,0,0],"split_type":[0,0,0,0,0,0,0,0,0,0,0,0,0,0,0,0,0,0,0,0,0,0,0,0,0,0,0,0,0,0,0,0,0,0,0,0,0,0,0,0,0,0,0,0,0,0,0,0,0,0,0,0,0],"sum_hessian":[4.1633728E2,1.7907329E2,2.3726399E2,1.1188709E2,6.7186195E1,1.7364401E2,6.3619987E1,1.821104E1,9.3676056E1,4.1694946E1,2.5491247E1,1.2815331E1,1.6082867E2,1.5129546E1,4.849044E1,5.021354E1,4.3462513E1,3.36219E1,8.073047E0,8.845166E0,1.6646082E1,7.067095E0,5.748237E0,1.4573071E2,1.5097972E1,6.027811E0,9.101735E0,3.531128E1,1.3179159E1,2.7305944E1,2.2907595E1,1.0367275E1,3.3095238E1,2.3237143E1,1.0384756E1,1.1845824E2,2.7272472E1,8.217235E0,6.880737E0,2.2378344E1,1.2932937E1,2.3251038E1,9.8442E0,1.4102186E1,9.134956E0,9.204239E1,2.6415846E1,2.2090649E1,5.1818237E0,1.3311653E1,9.0666895E0,6.484765E0,6.4481716E0],"tree_param":{"num_deleted":"0","num_feature":"403","num_nodes":"53","size_leaf_vector":"1"}},{"base_weights":[-1.9563665E-3,1.0030654E-1,-7.2749175E-2,3.0135555E-2,1.11485116E-1,-1.1763775E-1,-7.4769384E-3,4.6754773E-3,-5.980864E-3,1.19722396E-1,7.630718E-2,-1.3951877E-1,9.010703E-2,5.592903E-2,-4.0645484E-2,5.502158E-4,-1.7066544E-2,1.2549105E-1,4.0414226E-3,5.795592E-3,5.035443E-2,-1.0550845E-1,-2.0527314E-1,5.108037E-3,2.8458512E-3,5.5967495E-3,1.3292709E-2,-7.8728355E-2,-1.384443E-2,-1.2932145E-3,-3.3028107E-4,1.0654081E-1,6.778521E-3,3.7827254E-3,3.533975E-2,1.0851914E-4,-1.2658626E-1,-1.1025794E-2,-6.858624E-3,3.5711423E-2,-3.0154225E-3,-3.030988E-3,-4.586145E-3,-3.405886E-2,2.2373913E-2,3.4027416E-3,5.588557E-3,1.0004917E-3,2.0762389E-3,-5.496725E-3,-7.895594E-3,8.7706523E-4,2.3509017E-3,-3.518066E-4,-4.28367E-3,3.2349885E-4,2.2392338E-3],"categories":[],"categories_nodes":[],"categories_segments":[],"categories_sizes":[],"default_left":[0,0,0,0,0,0,0,0,0,0,0,0,0,0,0,0,0,0,0,0,0,0,0,0,0,0,0,0,0,0,0,0,0,0,0,0,0,0,0,0,0,0,0,0,0,0,0,0,0,0,0,0,0,0,0,0,0],"id":14,"left_children":[1,3,5,7,9,11,13,-1,15,17,19,21,23,25,27,-1,29,31,-1,-1,33,35,37,-1,-1,-1,39,41,43,-1,-1,45,-1,-1,47,-1,49,-1,-1,51,-1,-1,-1,53,55,-1,-1,-1,-1,-1,-1,-1,-1,-1,-1,-1,-1],"loss_changes":[3.5057423E0,1.520356E-1,8.375083E-1,6.600353E-2,4.0273666E-2,7.829528E-1,2.497335E-1,0E0,3.7941793E-3,2.0460606E-2,3.0250281E-2,3.221078E-1,8.891523E-4,9.601691E-2,7.8350455E-2,0E0,9.318106E-4,7.899046E-3,0E0,0E0,6.0552247E-3,2.3489356E-1,2.3050785E-2,0E0,0E0,0E0,4.228026E-2,1.954779E-3,3.5096258E-2,0E0,0E0,1.5089512E-3,0E0,0E0,7.143095E-4,0E0,2.7743816E-2,0E0,0E0,3.1338502E-3,0E0,0E0,0E0,4.192953E-2,5.9126215E-3,0E0,0E0,0E0,0E0,0E0,0E0,0E0,0E0,0E0,0E0,0E0,0E0],"parents":[2147483647,0,0,1,1,2,2,3,3,4,4,5,5,6,6,8,8,9,9,10,10,11,11,12,12,13,13,14,14,16,16,17,17,20,20,21,21,22,22,26,26,27,27,28,28,31,31,34,34,36,36,39,39,43,43,44,44],"right_children":[2,4,6,8,10,12,14,-1,16,18,20,22,24,26,28,-1,30,32,-1,-1,34,36,38,-1,-1,-1,40,42,44,-1,-1,46,-1,-1,48,-1,50,-1,-1,52,-1,-1,-1,54,56,-1,-1,-1,-1,-1,-1,-1,-1,-1,-1,-1,-1],"split_conditions":[1.2712319E0,-5.4582906E-1,-3.416695E-1,3.9604244E-1,3.4525058E-1,2.8344744E-1,-1.6575211E-1,4.6754773E-3,-2.3351048E-1,8.5659504E-2,-3.8598517E-1,6.276065E-2,-3.0895644E-1,1.459645E-1,8.447471E-2,5.502158E-4,-3.0084866E-1,-5.690031E-1,4.0414226E-3,5.795592E-3,-4.254669E-3,9.798099E-2,-2.3849455E-1,5.108037E-3,2.8458512E-3,5.5967495E-3,5.457E-1,1.3498425E-1,2.2602754E0,-1.2932145E-3,-3.3028107E-4,-5.126229E-2,6.778521E-3,3.7827254E-3,3.2190263E-2,1.0851914E-4,-5.911202E-2,-1.1025794E-2,-6.858624E-3,-2.160044E-2,-3.0154225E-3,-3.030988E-3,-4.586145E-3,2.6052493E-1,3.6082554E-1,3.4027416E-3,5.588557E-3,1.0004917E-3,2.0762389E-3,-5.496725E-3,-7.895594E-3,8.7706523E-4,2.3509017E-3,-3.518066E-4,-4.28367E-3,3.2349885E-4,2.2392338E-3],"split_indices":[389,331,214,90,389,67,334,0,389,55,121,44,11,74,144,0,6,321,0,0,240,14,5,0,0,0,0,0,389,0,0,135,0,0,337,0,102,0,0,189,0,0,0,0,7,0,0,0,0,0,0,0,0,0,0,0,0],"split_type":[0,0,0,0,0,0,0,0,0,0,0,0,0,0,0,0,0,0,0,0,0,0,0,0,0,0,0,0,0,0,0,0,0,0,0,0,0,0,0,0,0,0,0,0,0,0,0,0,0,0,0,0,0,0,0,0,0],"sum_hessian":[4.822455E2,1.9710414E2,2.8514136E2,2.7592749E1,1.695114E2,1.6847594E2,1.16665405E2,9.439685E0,1.8153063E1,1.354022E2,3.4109188E1,1.5271901E2,1.575693E1,3.983309E1,7.683231E1,7.171865E0,1.0981198E1,1.15974625E2,1.9427584E1,1.2130864E1,2.1978325E1,1.0237295E2,5.0346066E1,1.0034586E1,5.722345E0,1.65146E1,2.3318493E1,3.0936165E1,4.5896152E1,5.1649523E0,5.8162456E0,4.428481E1,7.168982E1,6.681366E0,1.5296959E1,1.6905575E1,8.546738E1,3.9309475E1,1.1036589E1,1.8268696E1,5.0497966E0,1.5291566E1,1.56446E1,2.9494246E1,1.6401907E1,6.9747324E0,3.7310078E1,5.6150236E0,9.681935E0,5.874809E1,2.6719282E1,7.9861283E0,1.0282567E1,2.010475E1,9.389496E0,1.0347465E1,6.054442E0],"tree_param":{"num_deleted":"0","num_feature":"403","num_nodes":"57","size_leaf_vector":"1"}},{"base_weights":[-1.850213E-3,9.091656E-2,-6.2786765E-2,1.0123273E-1,-6.5547056E-3,-4.2353828E-2,-1.6259998E-1,1.8112399E-2,1.082521E-1,9.717907E-2,-5.667644E-2,-9.182854E-3,-3.6964868E-3,-4.9674686E-4,1.7396702E-3,1.1384826E-1,5.6417592E-2,2.3396094E-3,5.5874395E-3,-2.340544E-2,-1.00593485E-1,9.789372E-2,1.2679034E-1,3.5575062E-2,4.6122572E-3,6.9987215E-2,-3.519831E-2,-5.7168674E-2,-1.19792454E-1,2.8684763E-3,5.1753283E-3,4.7538364E-3,6.6492385E-3,8.0955506E-4,2.271123E-3,4.7803754E-3,1.8680095E-3,-1.1008283E-3,-3.673703E-3,-4.49989E-3,-7.578975E-5,-7.864355E-3,-4.601729E-3],"categories":[],"categories_nodes":[],"categories_segments":[],"categories_sizes":[],"default_left":[0,0,0,0,0,0,0,0,0,0,0,0,0,0,0,0,0,0,0,0,0,0,0,0,0,0,0,0,0,0,0,0,0,0,0,0,0,0,0,0,0,0,0],"id":15,"left_children":[1,3,5,7,-1,9,11,13,15,17,19,-1,-1,-1,-1,21,23,-1,-1,25,27,29,31,33,-1,35,37,39,41,-1,-1,-1,-1,-1,-1,-1,-1,-1,-1,-1,-1,-1,-1],"loss_changes":[2.7334754E0,4.523579E-1,5.8829033E-1,1.05258584E-1,0E0,4.9231902E-1,7.835436E-2,7.6027415E-3,4.2673826E-2,1.168862E-2,3.2136166E-1,0E0,0E0,0E0,0E0,1.8928528E-2,1.0514345E-2,0E0,0E0,1.4272785E-1,7.2514296E-2,1.0522127E-2,3.1533241E-3,1.8047951E-3,0E0,8.643299E-3,5.5769756E-2,5.6677915E-2,5.32735E-2,0E0,0E0,0E0,0E0,0E0,0E0,0E0,0E0,0E0,0E0,0E0,0E0,0E0,0E0],"parents":[2147483647,0,0,1,1,2,2,3,3,5,5,6,6,7,7,8,8,9,9,10,10,15,15,16,16,19,19,20,20,21,21,22,22,23,23,25,25,26,26,27,27,28,28],"right_children":[2,4,6,8,-1,10,12,14,16,18,20,-1,-1,-1,-1,22,24,-1,-1,26,28,30,32,34,-1,36,38,40,42,-1,-1,-1,-1,-1,-1,-1,-1,-1,-1,-1,-1,-1,-1],"split_conditions":[1.2712319E0,8.34467E-1,1.6559204E-1,-3.7372363E-1,-6.5547056E-3,-1.1271156E-1,-3.873293E-1,-5.4568076E-1,9.834802E-1,-2.9801318E-1,5.015574E-1,-9.182854E-3,-3.6964868E-3,-4.9674686E-4,1.7396702E-3,-1.13216475E-1,1.0374332E-1,2.3396094E-3,5.5874395E-3,-2.3595545E-1,3.1458282E0,-3.202539E-2,-1.826001E-1,3.2190263E-2,4.6122572E-3,2.330379E0,-3.9712462E-1,-1.4382674E-1,8.505394E-2,2.8684763E-3,5.1753283E-3,4.7538364E-3,6.6492385E-3,8.0955506E-4,2.271123E-3,4.7803754E-3,1.8680095E-3,-1.1008283E-3,-3.673703E-3,-4.49989E-3,-7.578975E-5,-7.864355E-3,-4.601729E-3],"split_indices":[389,87,343,6,0,363,333,1,389,40,103,0,0,0,0,215,337,0,0,334,388,312,13,337,0,389,216,81,1,0,0,0,0,0,0,0,0,0,0,0,0,0,0],"split_type":[0,0,0,0,0,0,0,0,0,0,0,0,0,0,0,0,0,0,0,0,0,0,0,0,0,0,0,0,0,0,0,0,0,0,0,0,0,0,0,0,0,0,0],"sum_hessian":[4.8154407E2,1.907158E2,2.9082825E2,1.8276718E2,7.9486246E0,2.4259131E2,4.823695E1,1.4511281E1,1.682559E2,2.2044613E1,2.2054669E2,3.8114437E1,1.0122512E1,5.5626655E0,8.948616E0,1.507809E2,1.7475006E1,5.889253E0,1.615536E1,1.2635481E2,9.419188E1,7.136664E1,7.941426E1,1.2307893E1,5.167114E0,1.3613006E1,1.12741806E2,3.0096468E1,6.4095406E1,1.0047279E1,6.1319355E1,1.5648309E1,6.3765953E1,5.0370297E0,7.270863E0,6.544017E0,7.0689893E0,8.503271E1,2.7709103E1,1.8541739E1,1.1554729E1,2.5280602E1,3.8814808E1],"tree_param":{"num_deleted":"0","num_feature":"403","num_nodes":"43","size_leaf_vector":"1"}},{"base_weights":[-1.2689834E-2,8.210203E-2,-7.879617E-2,9.112247E-2,-6.2635937E-3,1.2594215E-2,-1.0396018E-1,9.989309E-2,1.3764788E-2,-5.7106186E-3,4.202841E-2,1.1007275E-2,-1.2542807E-1,3.4530587E-2,1.05173476E-1,2.2718634E-3,-6.658954E-4,-1.778207E-2,6.5010935E-2,-3.1330053E-2,8.816818E-2,4.7620605E-3,-1.3503529E-1,3.2898856E-3,-9.44634E-5,1.2497766E-1,9.7228035E-2,3.3356284E-4,-2.8436303E-3,4.4994958E-2,4.6260483E-3,-5.950702E-4,-2.9692987E-3,6.276621E-3,2.275339E-3,-1.9219713E-1,-1.1256841E-1,3.6056382E-3,6.520523E-3,4.9992595E-3,1.6429046E-3,1.1669646E-3,3.195563E-3,-1.0260346E-2,-6.5755337E-3,-3.7812497E-3,-6.773889E-3],"categories":[],"categories_nodes":[],"categories_segments":[],"categories_sizes":[],"default_left":[0,0,0,0,0,0,0,0,0,0,0,0,0,0,0,0,0,0,0,0,0,0,0,0,0,0,0,0,0,0,0,0,0,0,0,0,0,0,0,0,0,0,0,0,0,0,0],"id":16,"left_children":[1,3,5,7,-1,9,11,13,15,-1,17,19,21,23,25,-1,-1,27,29,31,33,-1,35,-1,-1,37,39,-1,-1,41,-1,-1,-1,-1,-1,43,45,-1,-1,-1,-1,-1,-1,-1,-1,-1,-1],"loss_changes":[3.1190648E0,3.9408398E-1,6.75473E-1,1.320275E-1,0E0,2.4435668E-1,5.6895804E-1,5.7264328E-2,1.8774673E-2,0E0,7.376472E-2,1.2397278E-1,4.2384958E-1,1.6837867E-2,1.3459802E-2,0E0,0E0,1.5146105E-2,1.6967177E-2,1.2754774E-2,1.5659608E-2,0E0,2.1747422E-1,0E0,0E0,2.9740334E-3,1.8129587E-2,0E0,0E0,8.405011E-3,0E0,0E0,0E0,0E0,0E0,1.3371587E-2,1.0491598E-1,0E0,0E0,0E0,0E0,0E0,0E0,0E0,0E0,0E0,0E0],"parents":[2147483647,0,0,1,1,2,2,3,3,5,5,6,6,7,7,8,8,10,10,11,11,12,12,13,13,14,14,17,17,18,18,19,19,20,20,22,22,25,25,26,26,29,29,35,35,36,36],"right_children":[2,4,6,8,-1,10,12,14,16,-1,18,20,22,24,26,-1,-1,28,30,32,34,-1,36,-1,-1,38,40,-1,-1,42,-1,-1,-1,-1,-1,44,46,-1,-1,-1,-1,-1,-1,-1,-1,-1,-1],"split_conditions":[1.3950728E0,8.34467E-1,2.1840437E-1,7.758389E-1,-6.2635937E-3,1.2813091E-1,1.1348206E-1,-5.5163838E-2,2.6914203E-1,-5.7106186E-3,-3.668569E-2,-2.5436792E-1,-3.188813E-1,3.3340935E-2,-6.153135E-1,2.2718634E-3,-6.658954E-4,5.9051573E-1,3.1221724E0,1.2597859E-1,-3.473649E-2,4.7620605E-3,1.4195909E-1,3.2898856E-3,-9.44634E-5,-6.370841E-1,1.9891007E0,3.3356284E-4,-2.8436303E-3,-1.3982233E-1,4.6260483E-3,-5.950702E-4,-2.9692987E-3,6.276621E-3,2.275339E-3,-2.3849455E-1,1.6576219E0,3.6056382E-3,6.520523E-3,4.9992595E-3,1.6429046E-3,1.1669646E-3,3.195563E-3,-1.0260346E-2,-6.5755337E-3,-3.7812497E-3,-6.773889E-3],"split_indices":[389,87,101,302,0,25,185,368,0,0,22,4,215,9,389,0,0,0,388,0,12,0,32,0,0,267,399,0,0,12,0,0,0,0,0,5,392,0,0,0,0,0,0,0,0,0,0],"split_type":[0,0,0,0,0,0,0,0,0,0,0,0,0,0,0,0,0,0,0,0,0,0,0,0,0,0,0,0,0,0,0,0,0,0,0,0,0,0,0,0,0,0,0,0,0,0,0],"sum_hessian":[4.9571643E2,2.0356972E2,2.921467E2,1.956211E2,7.9486246E0,6.318211E1,2.289646E2,1.7543895E2,2.018215E1,1.1360263E1,5.182185E1,3.610388E1,1.9286072E2,1.3677189E1,1.6176176E2,8.990397E0,1.11917515E1,1.444805E1,3.73738E1,2.3696075E1,1.2407807E1,7.674351E0,1.8518637E2,6.9251637E0,6.752025E0,4.2099167E1,1.1966259E2,9.3982525E0,5.0497966E0,2.3159094E1,1.4214705E1,1.4842138E1,8.853937E0,5.579005E0,6.828803E0,5.0117966E1,1.3506839E2,5.2534084E0,3.6845757E1,1.1421706E2,5.4455366E0,1.18392105E1,1.1319883E1,3.9309475E1,1.0808492E1,5.334533E1,8.172307E1],"tree_param":{"num_deleted":"0","num_feature":"403","num_nodes":"47","size_leaf_vector":"1"}},{"base_weights":[-1.03881955E-2,7.620773E-2,-8.8217214E-2,9.049059E-2,3.4216812E-3,7.436586E-2,-9.8863944E-2,4.578934E-2,1.0123369E-1,3.6926143E-2,-1.6933676E-2,2.4225044E-3,4.2839306E-3,-1.1591476E-2,-1.2021471E-1,-7.2546775E-4,5.6092594E-2,1.06562614E-1,5.8188587E-2,3.0493247E-3,4.042865E-4,-4.8721556E-4,-1.3220431E-3,-5.708244E-2,4.3131303E-2,-9.769875E-2,-1.8291663E-1,1.9104198E-3,3.5584231E-3,1.0937968E-1,3.1727802E-3,1.3701594E-3,3.5914963E-3,-3.8392674E-2,-5.262961E-3,2.1832278E-2,4.1624135E-3,-5.132061E-2,-1.4174442E-1,-9.760057E-3,-6.2745996E-3,3.1247025E-3,5.5644247E-3,-1.076801E-3,-2.1980924E-3,1.6246984E-3,3.0866516E-4,-4.2524613E-3,2.4273832E-4,-4.3477183E-3,-8.377115E-3],"categories":[],"categories_nodes":[],"categories_segments":[],"categories_sizes":[],"default_left":[0,0,0,0,0,0,0,0,0,0,0,0,0,0,0,0,0,0,0,0,0,0,0,0,0,0,0,0,0,0,0,0,0,0,0,0,0,0,0,0,0,0,0,0,0,0,0,0,0,0,0],"id":17,"left_children":[1,3,5,7,9,11,13,15,17,19,21,-1,-1,23,25,-1,27,29,31,-1,-1,-1,-1,33,35,37,39,-1,-1,41,-1,-1,-1,43,-1,45,-1,47,49,-1,-1,-1,-1,-1,-1,-1,-1,-1,-1,-1,-1],"loss_changes":[3.3537269E0,2.4462175E-1,4.6088386E-1,8.992946E-2,2.7692223E-2,7.3726475E-4,4.5761085E-1,2.5652938E-2,3.0026793E-2,1.0133231E-2,1.4766897E-3,0E0,0E0,1.2575124E-1,2.6139522E-1,0E0,6.5426975E-3,9.97901E-3,6.2631816E-3,0E0,0E0,0E0,0E0,2.0697206E-2,1.7878756E-2,2.9442275E-1,1.1564016E-2,0E0,0E0,4.626274E-3,0E0,0E0,0E0,1.0593347E-3,0E0,2.53951E-3,0E0,1.3969041E-1,9.169996E-2,0E0,0E0,0E0,0E0,0E0,0E0,0E0,0E0,0E0,0E0,0E0,0E0],"parents":[2147483647,0,0,1,1,2,2,3,3,4,4,5,5,6,6,7,7,8,8,9,9,10,10,13,13,14,14,16,16,17,17,18,18,23,23,24,24,25,25,26,26,29,29,33,33,35,35,37,37,38,38],"right_children":[2,4,6,8,10,12,14,16,18,20,22,-1,-1,24,26,-1,28,30,32,-1,-1,-1,-1,34,36,38,40,-1,-1,42,-1,-1,-1,44,-1,46,-1,48,50,-1,-1,-1,-1,-1,-1,-1,-1,-1,-1,-1,-1],"split_conditions":[4.4532952E-1,1.6000518E-1,-5.972427E-1,-4.0178448E-1,-1.0355237E-1,1.9227625E0,3.2038742E-1,-6.866252E-1,8.872628E-2,-1.8986365E-1,1.2597859E-1,2.4225044E-3,4.2839306E-3,-2.6097772E-1,-6.283425E-2,-7.2546775E-4,-8.4805325E-2,5.7348686E-1,-2.616918E-2,3.0493247E-3,4.042865E-4,-4.8721556E-4,-1.3220431E-3,9.486833E-1,2.2827245E-2,1.7310517E0,-2.3849455E-1,1.9104198E-3,3.5584231E-3,-6.5136415E-1,3.1727802E-3,1.3701594E-3,3.5914963E-3,2.2180101E-1,-5.262961E-3,1.9891007E0,4.1624135E-3,2.9024377E-2,4.81982E-1,-9.760057E-3,-6.2745996E-3,3.1247025E-3,5.5644247E-3,-1.076801E-3,-2.1980924E-3,1.6246984E-3,3.0866516E-4,-4.2524613E-3,2.4273832E-4,-4.3477183E-3,-8.377115E-3],"split_indices":[106,9,115,287,131,392,349,3,55,4,0,0,0,249,176,0,303,377,243,0,0,0,0,401,23,392,5,0,0,38,0,0,0,0,0,399,0,78,7,0,0,0,0,0,0,0,0,0,0,0,0],"split_type":[0,0,0,0,0,0,0,0,0,0,0,0,0,0,0,0,0,0,0,0,0,0,0,0,0,0,0,0,0,0,0,0,0,0,0,0,0,0,0,0,0,0,0,0,0,0,0,0,0,0,0],"sum_hessian":[4.9561203E2,2.3460321E2,2.6100882E2,1.9591536E2,3.8687855E1,1.5673816E1,2.45335E2,3.8980923E1,1.5693443E2,1.4313719E1,2.4374134E1,6.3681474E0,9.305669E0,4.852583E1,1.9680919E2,5.6290855E0,3.3351837E1,1.3833336E2,1.8601082E1,7.1958785E0,7.117841E0,1.5031902E1,9.342232E0,2.6474497E1,2.205133E1,1.4669122E2,5.0117966E1,1.6871693E1,1.6480145E1,1.2840466E2,9.928701E0,6.635376E0,1.1965705E1,2.036931E1,6.105187E0,1.5412624E1,6.6387053E0,7.250832E1,7.418289E1,3.9309475E1,1.0808492E1,6.342995E0,1.2206166E2,6.2671237E0,1.4102186E1,8.529836E0,6.882789E0,4.4984745E1,2.7523575E1,2.5146614E1,4.903628E1],"tree_param":{"num_deleted":"0","num_feature":"403","num_nodes":"51","size_leaf_vector":"1"}},{"base_weights":[-1.0509188E-2,7.823008E-2,-6.696526E-2,2.1250904E-2,9.6648656E-2,3.1443756E-2,-8.809402E-2,-1.3091218E-2,4.8685614E-2,1.0106129E-1,6.850383E-2,7.2452165E-2,-3.9035603E-2,-1.1407559E-1,5.604071E-3,7.5509626E-4,-2.5578301E-2,3.8499255E-3,3.164753E-2,1.0669318E-1,3.3193193E-3,1.2635117E-3,8.3085135E-2,9.30396E-2,5.068458E-2,2.66838E-4,-4.0547266E-3,-7.0660576E-2,-1.4707151E-1,9.272156E-2,-2.9165268E-2,-4.981515E-4,-1.794007E-3,2.2556768E-3,8.7342504E-4,3.1781096E-3,1.0955428E-1,5.1510637E-3,2.6465412E-3,5.4550855E-3,3.1177353E-3,1.5475833E-3,3.4208023E-3,6.153327E-3,-8.486566E-2,-9.284159E-3,-1.2175712E-1,3.164888E-3,6.01786E-3,2.6339765E-3,-5.46939E-2,4.1670944E-3,5.695013E-3,-1.3354298E-3,-4.825489E-3,-3.67707E-3,-7.8916885E-3,5.0171406E-5,-6.064994E-3],"categories":[],"categories_nodes":[],"categories_segments":[],"categories_sizes":[],"default_left":[0,0,0,0,0,0,0,0,0,0,0,0,0,0,0,0,0,0,0,0,0,0,0,0,0,0,0,0,0,0,0,0,0,0,0,0,0,0,0,0,0,0,0,0,0,0,0,0,0,0,0,0,0,0,0,0,0,0,0],"id":18,"left_children":[1,3,5,7,9,11,13,15,17,19,21,23,25,27,29,-1,31,-1,33,35,-1,-1,37,39,41,-1,-1,43,45,47,49,-1,-1,-1,-1,-1,51,-1,-1,-1,-1,-1,-1,-1,53,-1,55,-1,-1,-1,57,-1,-1,-1,-1,-1,-1,-1,-1],"loss_changes":[2.404509E0,1.9385636E-1,6.1248004E-1,4.480959E-2,1.05621815E-2,1.547604E-1,5.889591E-1,7.99368E-3,1.0238107E-2,1.6274214E-2,1.1886522E-2,1.0333568E-2,3.773099E-2,2.607112E-1,1.6450614E-1,0E0,2.1113511E-3,0E0,2.66812E-3,5.5304766E-3,0E0,0E0,4.2578205E-3,1.1133552E-3,4.3623075E-3,0E0,0E0,2.4063283E-1,8.158851E-2,4.9667805E-3,8.424242E-2,0E0,0E0,0E0,0E0,0E0,1.1661053E-3,0E0,0E0,0E0,0E0,0E0,0E0,0E0,5.0598145E-2,0E0,1.05446815E-1,0E0,0E0,0E0,1.1205526E-1,0E0,0E0,0E0,0E0,0E0,0E0,0E0,0E0],"parents":[2147483647,0,0,1,1,2,2,3,3,4,4,5,5,6,6,7,7,8,8,9,9,10,10,11,11,12,12,13,13,14,14,16,16,18,18,19,19,22,22,23,23,24,24,27,27,28,28,29,29,30,30,36,36,44,44,46,46,50,50],"right_children":[2,4,6,8,10,12,14,16,18,20,22,24,26,28,30,-1,32,-1,34,36,-1,-1,38,40,42,-1,-1,44,46,48,50,-1,-1,-1,-1,-1,52,-1,-1,-1,-1,-1,-1,-1,54,-1,56,-1,-1,-1,58,-1,-1,-1,-1,-1,-1,-1,-1],"split_conditions":[3.589967E-1,-3.7324166E-1,-1.261087E-1,-1.2301075E-1,5.394371E-1,6.9919884E-2,-2.2461322E-1,1.6991961E-1,1.052954E0,8.5659504E-2,4.6515256E-1,-6.3865757E-1,5.1524603E-1,-1.799831E-1,7.0564434E-2,7.5509626E-4,4.9729772E-2,3.8499255E-3,-1.1427775E-2,-6.370841E-1,3.3193193E-3,1.2635117E-3,2.8891355E-1,1.7779619E-1,1.7118559E0,2.66838E-4,-4.0547266E-3,1.7993405E-1,-3.3871418E-1,-1.2402683E-1,1.2712319E0,-4.981515E-4,-1.794007E-3,2.2556768E-3,8.7342504E-4,3.1781096E-3,1.7879862E-1,5.1510637E-3,2.6465412E-3,5.4550855E-3,3.1177353E-3,1.5475833E-3,3.4208023E-3,6.153327E-3,5.915954E-1,-9.284159E-3,2.310932E0,3.164888E-3,6.01786E-3,2.6339765E-3,-2.5011575E-1,4.1670944E-3,5.695013E-3,-1.3354298E-3,-4.825489E-3,-3.67707E-3,-7.8916885E-3,5.0171406E-5,-6.064994E-3],"split_indices":[106,147,304,168,100,12,5,9,389,55,86,216,389,180,162,0,0,0,151,267,0,0,122,100,392,0,0,205,114,199,389,0,0,0,0,0,238,0,0,0,0,0,0,0,0,0,390,0,0,0,3,0,0,0,0,0,0,0,0],"split_type":[0,0,0,0,0,0,0,0,0,0,0,0,0,0,0,0,0,0,0,0,0,0,0,0,0,0,0,0,0,0,0,0,0,0,0,0,0,0,0,0,0,0,0,0,0,0,0,0,0,0,0,0,0,0,0,0,0,0,0],"sum_hessian":[4.7790863E2,1.8567448E2,2.9223416E2,4.5883705E1,1.3979079E2,5.156721E1,2.4066695E2,2.0608852E1,2.527485E1,1.1860478E2,2.1186E1,3.258161E1,1.89856E1,1.8824965E2,5.241729E1,6.2617555E0,1.4347097E1,8.173464E0,1.7101387E1,1.0024591E2,1.835887E1,6.0325465E0,1.5153454E1,1.5061992E1,1.751962E1,9.663586E0,9.322014E0,8.264689E1,1.0560277E2,1.4477055E1,3.7940235E1,6.484765E0,7.8623323E0,7.6522446E0,9.449142E0,7.680382E0,9.256553E1,7.6676283E0,7.485825E0,8.209272E0,6.852719E0,9.591289E0,7.928332E0,5.1225576E0,7.752433E1,3.9309475E1,6.629329E1,8.605342E0,5.871712E0,8.767638E0,2.9172596E1,1.6034098E1,7.653143E1,1.3481937E1,6.404239E1,2.9673594E1,3.6619698E1,1.6423693E1,1.2748903E1],"tree_param":{"num_deleted":"0","num_feature":"403","num_nodes":"59","size_leaf_vector":"1"}},{"base_weights":[-9.750281E-4,7.043443E-2,-5.4408874E-2,8.188423E-2,-7.480379E-2,5.536655E-3,-6.6053495E-2,2.4228724E-2,8.628876E-2,-3.7955592E-4,-5.882051E-3,-1.075111E-1,-2.2519568E-2,6.539435E-5,1.9808903E-3,9.4089076E-2,5.5906955E-2,-5.9805594E-2,-1.4506613E-1,-9.9909596E-2,3.4419487E-3,9.8443285E-2,2.8734643E-3,4.536399E-3,3.5558697E-2,-7.569375E-2,1.2610272E-3,-8.902035E-3,-1.1923633E-1,-2.833838E-3,-1.2236834E-1,-4.5059774E-2,3.6785994E-2,3.0311625E-3,5.108816E-3,1.1335908E-3,3.0919204E-3,-4.1880584E-3,-1.9110242E-3,-3.2178264E-3,-8.432689E-3,-4.3973983E-3,-8.612536E-3,-3.1939398E-3,-1.1682013E-3,3.5887018E-3,-7.0411676E-5],"categories":[],"categories_nodes":[],"categories_segments":[],"categories_sizes":[],"default_left":[0,0,0,0,0,0,0,0,0,0,0,0,0,0,0,0,0,0,0,0,0,0,0,0,0,0,0,0,0,0,0,0,0,0,0,0,0,0,0,0,0,0,0,0,0,0,0],"id":19,"left_children":[1,3,5,7,9,-1,11,13,15,-1,-1,17,19,-1,-1,21,23,25,27,29,31,33,-1,-1,35,37,-1,-1,39,-1,41,43,45,-1,-1,-1,-1,-1,-1,-1,-1,-1,-1,-1,-1,-1,-1],"loss_changes":[1.7375013E0,3.3023787E-1,5.081659E-1,4.3908477E-2,4.1618057E-2,0E0,4.3781245E-1,4.973231E-3,3.4528017E-2,0E0,0E0,2.1469045E-1,2.4193867E-1,0E0,0E0,1.5410423E-2,2.2822283E-2,7.839438E-2,3.758955E-2,2.2425026E-2,1.4883925E-1,1.0279775E-2,0E0,0E0,7.0132054E-3,1.1295617E-2,0E0,0E0,1.0237789E-1,0E0,1.7538458E-2,1.3829179E-2,7.290715E-2,0E0,0E0,0E0,0E0,0E0,0E0,0E0,0E0,0E0,0E0,0E0,0E0,0E0,0E0],"parents":[2147483647,0,0,1,1,2,2,3,3,4,4,6,6,7,7,8,8,11,11,12,12,15,15,16,16,17,17,18,18,19,19,20,20,21,21,24,24,25,25,28,28,30,30,31,31,32,32],"right_children":[2,4,6,8,10,-1,12,14,16,-1,-1,18,20,-1,-1,22,24,26,28,30,32,34,-1,-1,36,38,-1,-1,40,-1,42,44,46,-1,-1,-1,-1,-1,-1,-1,-1,-1,-1,-1,-1,-1,-1],"split_conditions":[1.2712319E0,7.7431023E-1,-4.1399273E-1,-3.7372363E-1,-6.9887303E-3,5.536655E-3,-4.4516087E-2,-8.654674E-1,3.4525058E-1,-3.7955592E-4,-5.882051E-3,-2.8956318E-1,-3.8962287E-1,6.539435E-5,1.9808903E-3,8.872628E-2,-3.8598517E-1,2.4676383E-1,-9.582037E-2,3.8807458E-1,1.19635105E-1,-3.4454787E-1,2.8734643E-3,4.536399E-3,-8.892432E-2,1.0296872E0,1.2610272E-3,-8.902035E-3,2.2344165E0,-2.833838E-3,9.486833E-1,-6.9553226E-2,-3.6478996E-1,3.0311625E-3,5.108816E-3,1.1335908E-3,3.0919204E-3,-4.1880584E-3,-1.9110242E-3,-3.2178264E-3,-8.432689E-3,-4.3973983E-3,-8.612536E-3,-3.1939398E-3,-1.1682013E-3,3.5887018E-3,-7.0411676E-5],"split_indices":[389,184,202,6,2,0,31,389,389,0,0,97,176,0,0,55,121,94,38,15,94,247,0,0,51,0,0,0,389,0,401,1,121,0,0,0,0,0,0,0,0,0,0,0,0,0,0],"split_type":[0,0,0,0,0,0,0,0,0,0,0,0,0,0,0,0,0,0,0,0,0,0,0,0,0,0,0,0,0,0,0,0,0,0,0,0,0,0,0,0,0,0,0,0,0,0,0],"sum_hessian":[4.5335364E2,1.939025E2,2.5945114E2,1.8013763E2,1.3764871E1,1.652909E1,2.4292204E2,1.3246135E1,1.668915E2,5.8162456E0,7.9486246E0,1.2367554E2,1.1924651E2,5.7568064E0,7.489328E0,1.3112831E2,3.5763176E1,5.561774E1,6.80578E1,2.9238771E1,9.0007744E1,1.15684784E2,1.544353E1,1.1914937E1,2.3848242E1,4.6953648E1,8.664093E0,2.7305944E1,4.0751854E1,1.1200853E1,1.8037918E1,3.6526096E1,5.3481644E1,1.1941637E1,1.0374315E2,1.7251345E1,6.596896E0,3.7619514E1,9.334133E0,2.0399643E1,2.035221E1,1.2308073E1,5.7298446E0,1.8518627E1,1.8007467E1,2.745351E1,2.6028135E1],"tree_param":{"num_deleted":"0","num_feature":"403","num_nodes":"47","size_leaf_vector":"1"}},{"base_weights":[-5.5102073E-3,6.434096E-2,-6.5077566E-2,8.092448E-2,-2.4949223E-2,-1.1077752E-1,-1.5013687E-2,8.547296E-2,3.1022396E-2,2.1367935E-3,-4.3798752E-2,-1.2341751E-1,4.325452E-3,-3.4267023E-2,6.5839216E-2,8.879238E-2,5.3950064E-2,1.8886448E-3,9.3224965E-4,-4.7352127E-4,-2.697451E-3,-1.3826978E-1,-2.2999456E-4,-7.6358565E-3,-8.0064945E-2,8.345327E-2,1.4038545E-5,9.3875356E-2,7.0225336E-2,1.5859454E-3,3.4356792E-3,-1.491932E-1,-2.0629833E-3,2.921218E-2,-3.0526603E-2,-3.1538025E-4,-9.66503E-2,6.6009522E-3,5.2882023E-2,3.8060662E-3,5.0404593E-3,3.8523336E-3,1.4784273E-3,-5.7720914E-3,-8.602315E-3,-6.8988156E-4,2.1245226E-3,1.0545512E-3,-1.9350576E-3,-3.191019E-3,-5.913884E-3,3.319402E-3,1.7610859E-3],"categories":[],"categories_nodes":[],"categories_segments":[],"categories_sizes":[],"default_left":[0,0,0,0,0,0,0,0,0,0,0,0,0,0,0,0,0,0,0,0,0,0,0,0,0,0,0,0,0,0,0,0,0,0,0,0,0,0,0,0,0,0,0,0,0,0,0,0,0,0,0,0,0],"id":20,"left_children":[1,3,5,7,9,11,13,15,17,-1,19,21,-1,23,25,27,29,-1,-1,-1,-1,31,-1,33,35,37,-1,39,41,-1,-1,43,-1,45,47,-1,49,-1,51,-1,-1,-1,-1,-1,-1,-1,-1,-1,-1,-1,-1,-1,-1],"loss_changes":[1.9469892E0,3.209921E-1,5.760603E-1,3.863752E-2,4.5895226E-2,3.39476E-1,1.9164075E-1,1.2594461E-2,6.965194E-4,0E0,9.065405E-3,2.187618E-1,0E0,1.2003404E-1,2.7391255E-2,7.4476004E-3,3.8519464E-3,0E0,0E0,0E0,0E0,1.1091423E-1,0E0,5.4581363E-2,4.37534E-2,2.0797119E-2,0E0,6.3382387E-3,7.6900125E-3,0E0,0E0,5.64332E-2,0E0,1.4807375E-2,1.7589271E-2,0E0,1.3424069E-2,0E0,7.9828873E-4,0E0,0E0,0E0,0E0,0E0,0E0,0E0,0E0,0E0,0E0,0E0,0E0,0E0,0E0],"parents":[2147483647,0,0,1,1,2,2,3,3,4,4,5,5,6,6,7,7,8,8,10,10,11,11,13,13,14,14,15,15,16,16,21,21,23,23,24,24,25,25,27,27,28,28,31,31,33,33,34,34,36,36,38,38],"right_children":[2,4,6,8,10,12,14,16,18,-1,20,22,-1,24,26,28,30,-1,-1,-1,-1,32,-1,34,36,38,-1,40,42,-1,-1,44,-1,46,48,-1,50,-1,52,-1,-1,-1,-1,-1,-1,-1,-1,-1,-1,-1,-1,-1,-1],"split_conditions":[3.742851E-1,1.6000518E-1,-4.3221727E-1,1.7763141E0,-2.025715E-1,3.1667462E-1,1.0405108E-3,1.0526335E-1,-1.8030256E-1,2.1367935E-3,4.9729772E-2,2.330379E0,4.325452E-3,5.2801204E-1,1.9891007E0,7.888785E-2,2.6959851E-2,1.8886448E-3,9.3224965E-4,-4.7352127E-4,-2.697451E-3,1.3610868E-1,-2.2999456E-4,7.539269E-2,7.9909134E-1,-2.89812E-1,1.4038545E-5,-1.6259657E-1,2.3610257E-1,1.5859454E-3,3.4356792E-3,9.115453E-2,-2.0629833E-3,-6.866252E-1,1.052954E0,-3.1538025E-4,1.6322471E0,6.6009522E-3,2.265973E0,3.8060662E-3,5.0404593E-3,3.8523336E-3,1.4784273E-3,-5.7720914E-3,-8.602315E-3,-6.8988156E-4,2.1245226E-3,1.0545512E-3,-1.9350576E-3,-3.191019E-3,-5.913884E-3,3.319402E-3,1.7610859E-3],"split_indices":[106,9,226,389,6,368,47,247,333,0,0,389,0,126,399,213,354,0,0,0,0,213,0,162,389,333,0,13,99,0,0,220,0,3,389,0,392,0,389,0,0,0,0,0,0,0,0,0,0,0,0,0,0],"split_type":[0,0,0,0,0,0,0,0,0,0,0,0,0,0,0,0,0,0,0,0,0,0,0,0,0,0,0,0,0,0,0,0,0,0,0,0,0,0,0,0,0,0,0,0,0,0,0,0,0,0,0,0,0],"sum_hessian":[4.659244E2,2.1441377E2,2.5151064E2,1.8090808E2,3.3505684E1,1.3085194E2,1.2065868E2,1.6514285E2,1.5765235E1,7.0223913E0,2.6483294E1,1.23325035E2,7.5269113E0,9.791788E1,2.2740805E1,1.47766E2,1.7376837E1,8.8738E0,6.8914347E0,6.484765E0,1.9998528E1,1.0947668E2,1.384836E1,6.2652576E1,3.52653E1,1.7709663E1,5.0311413E0,1.12823135E2,3.494288E1,8.191061E0,9.185776E0,9.791362E1,1.1563061E1,2.3901438E1,3.875114E1,6.7274995E0,2.8537802E1,5.559455E0,1.2150209E1,3.5051674E1,7.777146E1,2.915607E1,5.786807E0,4.197415E1,5.5939465E1,5.6290855E0,1.8272352E1,5.081878E0,3.3669262E1,1.2902689E1,1.5635114E1,5.3214064E0,6.828803E0],"tree_param":{"num_deleted":"0","num_feature":"403","num_nodes":"53","size_leaf_vector":"1"}},{"base_weights":[-1.3738287E-2,6.533669E-2,-6.735824E-2,-6.718662E-2,7.624249E-2,1.5524594E-2,-8.49808E-2,-3.9909777E-4,-5.2387645E-3,8.019303E-2,7.826555E-5,5.442571E-2,-1.9816186E-2,3.6476143E-3,-9.3308255E-2,8.522776E-2,4.8180345E-2,3.8135707E-2,4.149243E-3,-3.4095727E-2,7.9454895E-4,3.7676145E-3,-9.991376E-2,6.5269664E-2,9.2752665E-2,5.9943758E-2,8.281899E-4,2.1177826E-3,1.1797058E-3,-2.7213995E-3,-5.781194E-4,-1.2524807E-1,-6.193768E-2,3.928997E-3,2.2118564E-3,3.0416248E-3,4.771727E-3,1.8713259E-3,3.3298705E-3,-6.671957E-3,-3.3513413E-4,-2.3108942E-3,-6.808005E-3],"categories":[],"categories_nodes":[],"categories_segments":[],"categories_sizes":[],"default_left":[0,0,0,0,0,0,0,0,0,0,0,0,0,0,0,0,0,0,0,0,0,0,0,0,0,0,0,0,0,0,0,0,0,0,0,0,0,0,0,0,0,0,0],"id":21,"left_children":[1,3,5,7,9,11,13,-1,-1,15,-1,17,19,-1,21,23,25,27,-1,29,-1,-1,31,33,35,37,-1,-1,-1,-1,-1,39,41,-1,-1,-1,-1,-1,-1,-1,-1,-1,-1],"loss_changes":[1.9632434E0,2.7566487E-1,4.0415537E-1,3.202179E-2,5.103767E-2,6.872426E-2,3.0613685E-1,0E0,0E0,2.2438169E-2,0E0,7.856205E-3,1.4061336E-2,0E0,2.4887967E-1,1.5123367E-2,8.186877E-3,3.9879233E-5,0E0,8.194016E-3,0E0,0E0,1.9322515E-1,8.277208E-3,2.7573109E-3,1.4544278E-4,0E0,0E0,0E0,0E0,0E0,1.1983025E-1,9.35491E-2,0E0,0E0,0E0,0E0,0E0,0E0,0E0,0E0,0E0,0E0],"parents":[2147483647,0,0,1,1,2,2,3,3,4,4,5,5,6,6,9,9,11,11,12,12,14,14,15,15,16,16,17,17,19,19,22,22,23,23,24,24,25,25,31,31,32,32],"right_children":[2,4,6,8,10,12,14,-1,-1,16,-1,18,20,-1,22,24,26,28,-1,30,-1,-1,32,34,36,38,-1,-1,-1,-1,-1,40,42,-1,-1,-1,-1,-1,-1,-1,-1,-1,-1],"split_conditions":[1.2712319E0,-6.866252E-1,-5.1778406E-2,-6.78269E-2,4.0140197E-1,-8.711435E-2,-1.2362325E-1,-3.9909777E-4,-5.2387645E-3,8.5659504E-2,7.826555E-5,-2.2487842E-1,2.248517E0,3.6476143E-3,-5.543588E-2,-1.9517393E-1,-1.7328224E-1,-3.5113725E-1,4.149243E-3,-3.51559E-1,7.9454895E-4,3.7676145E-3,-4.4222973E-2,2.7570707E-1,-2.1574318E-1,5.3085525E-2,8.281899E-4,2.1177826E-3,1.1797058E-3,-2.7213995E-3,-5.781194E-4,1.6495451E-1,5.4599154E-1,3.928997E-3,2.2118564E-3,3.0416248E-3,4.771727E-3,1.8713259E-3,3.3298705E-3,-6.671957E-3,-3.3513413E-4,-2.3108942E-3,-6.808005E-3],"split_indices":[389,3,78,2,15,255,73,0,0,55,0,6,389,0,89,180,389,97,0,3,0,0,31,225,37,70,0,0,0,0,0,148,70,0,0,0,0,0,0,0,0,0,0],"split_type":[0,0,0,0,0,0,0,0,0,0,0,0,0,0,0,0,0,0,0,0,0,0,0,0,0,0,0,0,0,0,0,0,0,0,0,0,0,0,0,0,0,0,0],"sum_hessian":[4.6099146E2,1.8619116E2,2.748003E2,1.3764871E1,1.7242628E2,4.820422E1,2.2659608E2,5.8162456E0,7.9486246E0,1.6369284E2,8.733454E0,2.2689207E1,2.551501E1,1.096077E1,2.1563531E2,1.4001064E2,2.36822E1,1.5935179E1,6.754029E0,1.8258457E1,7.2565527E0,7.7347217E0,2.0790059E2,4.0983967E1,9.902667E1,1.6607256E1,7.0749416E0,1.0868445E1,5.0667334E0,8.853937E0,9.404521E0,1.23328545E2,8.457205E1,2.3424097E1,1.755987E1,9.5107355E0,8.951594E1,5.299088E0,1.1308168E1,1.1524022E2,8.088327E0,7.112992E1,1.3442132E1],"tree_param":{"num_deleted":"0","num_feature":"403","num_nodes":"43","size_leaf_vector":"1"}},{"base_weights":[-7.4673602E-3,7.049651E-2,-5.555152E-2,7.464777E-3,7.509213E-2,-3.788132E-2,-1.1463865E-1,-4.4790105E-4,1.0181378E-3,8.222052E-2,4.6223726E-2,-5.6092683E-2,2.6006386E-2,-1.2521666E-3,-1.2662925E-1,6.775252E-2,9.005167E-2,4.1518807E-3,2.6957944E-2,-8.3019875E-2,5.283204E-3,4.431835E-2,-3.0382003E-3,-9.032642E-3,-1.0880968E-1,7.154302E-2,1.9583572E-3,9.468019E-2,2.5881936E-3,1.7046338E-4,3.360454E-2,3.4942988E-3,-9.472414E-2,7.5790666E-2,-2.6635587E-2,4.591921E-3,2.7492287E-2,-1.1505996E-3,-6.8972544E-3,2.1978866E-3,3.8682043E-3,3.0949705E-3,5.175103E-3,2.4800687E-3,6.9317187E-4,9.859088E-4,-5.01644E-3,2.307266E-3,4.2859293E-3,-2.0456119E-3,-2.3102682E-4,4.766938E-4,1.5634511E-3],"categories":[],"categories_nodes":[],"categories_segments":[],"categories_sizes":[],"default_left":[0,0,0,0,0,0,0,0,0,0,0,0,0,0,0,0,0,0,0,0,0,0,0,0,0,0,0,0,0,0,0,0,0,0,0,0,0,0,0,0,0,0,0,0,0,0,0,0,0,0,0,0,0],"id":22,"left_children":[1,3,5,7,9,11,13,-1,-1,15,17,19,21,-1,23,25,27,-1,29,31,33,35,-1,-1,37,39,-1,41,-1,-1,43,-1,45,47,49,-1,51,-1,-1,-1,-1,-1,-1,-1,-1,-1,-1,-1,-1,-1,-1,-1,-1],"loss_changes":[1.7681558E0,5.1570415E-2,3.001575E-1,3.0081118E-3,3.0694664E-2,2.6440412E-1,6.842613E-2,0E0,0E0,8.984566E-3,2.2924915E-2,2.916143E-1,8.343418E-2,0E0,3.669113E-2,2.7019978E-3,9.8698735E-3,0E0,3.7625786E-3,2.2588444E-1,1.2504485E-1,3.148734E-2,0E0,0E0,1.1313641E-1,3.6069304E-3,0E0,1.47486925E-2,0E0,0E0,5.3773914E-3,0E0,7.524741E-2,1.1348054E-3,1.1870833E-2,0E0,1.9293446E-3,0E0,0E0,0E0,0E0,0E0,0E0,0E0,0E0,0E0,0E0,0E0,0E0,0E0,0E0,0E0,0E0],"parents":[2147483647,0,0,1,1,2,2,3,3,4,4,5,5,6,6,9,9,10,10,11,11,12,12,14,14,15,15,16,16,18,18,19,19,20,20,21,21,24,24,25,25,27,27,30,30,32,32,33,33,34,34,36,36],"right_children":[2,4,6,8,10,12,14,-1,-1,16,18,20,22,-1,24,26,28,-1,30,32,34,36,-1,-1,38,40,-1,42,-1,-1,44,-1,46,48,50,-1,52,-1,-1,-1,-1,-1,-1,-1,-1,-1,-1,-1,-1,-1,-1,-1,-1],"split_conditions":[1.3950728E0,-3.863415E-1,1.1239879E-1,-1.9039275E-1,3.4525058E-1,2.3053896E0,9.294616E-2,-4.4790105E-4,1.0181378E-3,-3.4814775E-3,-3.8598517E-1,7.2088756E-2,-1.3314667E-1,-1.2521666E-3,-2.4919796E-1,2.532638E-1,2.8760034E-1,4.1518807E-3,-1.8050432E-2,-1.454095E-1,-5.7905763E-2,-2.246067E-2,-3.0382003E-3,-9.032642E-3,2.2344165E0,-4.537578E-2,1.9583572E-3,-1.0505238E-1,2.5881936E-3,1.7046338E-4,-1.0797733E-1,3.4942988E-3,-2.502875E-1,-5.912264E-2,-2.8564072E-1,4.591921E-3,-1.72143E-1,-1.1505996E-3,-6.8972544E-3,2.1978866E-3,3.8682043E-3,3.0949705E-3,5.175103E-3,2.4800687E-3,6.9317187E-4,9.859088E-4,-5.01644E-3,2.307266E-3,4.2859293E-3,-2.0456119E-3,-2.3102682E-4,4.766938E-4,1.5634511E-3],"split_indices":[389,6,78,2,389,389,341,0,0,306,121,102,35,0,4,173,115,0,151,213,235,50,0,0,389,290,0,144,0,0,96,0,128,72,6,0,315,0,0,0,0,0,0,0,0,0,0,0,0,0,0,0,0],"split_type":[0,0,0,0,0,0,0,0,0,0,0,0,0,0,0,0,0,0,0,0,0,0,0,0,0,0,0,0,0,0,0,0,0,0,0,0,0,0,0,0,0,0,0,0,0,0,0,0,0,0,0,0,0],"sum_hessian":[4.696111E2,1.7896704E2,2.9064407E2,1.2340052E1,1.6662698E2,2.249986E2,6.564546E1,5.5626655E0,6.7773867E0,1.3214796E2,3.4479023E1,1.7518394E2,4.9814648E1,8.11296E0,5.75325E1,4.979807E1,8.23499E1,1.0707865E1,2.377116E1,1.2151814E2,5.3665813E1,4.153779E1,8.276859E0,1.2003531E1,4.552897E1,4.2640972E1,7.157095E0,7.215447E1,1.0195425E1,5.565545E0,1.8205614E1,8.286843E0,1.1323129E2,1.6295391E1,3.7370422E1,9.696075E0,3.1841711E1,1.1995262E1,3.353371E1,8.920304E0,3.372067E1,1.7000324E1,5.515415E1,9.220976E0,8.984639E0,5.1688857E0,1.0806241E2,5.5050416E0,1.079035E1,2.2148714E1,1.5221707E1,6.145266E0,2.5696445E1],"tree_param":{"num_deleted":"0","num_feature":"403","num_nodes":"53","size_leaf_vector":"1"}},{"base_weights":[-1.5198525E-2,5.7524618E-2,-6.178645E-2,-6.7790784E-2,6.715007E-2,1.8018162E-2,-7.6760106E-2,-4.6824486E-4,-5.2359374E-3,7.1705274E-2,1.0512302E-2,-2.9831056E-2,4.9081594E-2,3.6350568E-3,-8.454702E-2,7.842485E-2,4.622735E-2,1.7003942E-3,-4.1503945E-4,-2.4464082E-3,8.939233E-4,4.1714944E-3,2.8528616E-2,-2.1449909E-2,-1.007295E-1,8.0309466E-2,1.7975027E-3,3.7963428E-3,2.8435009E-2,7.74131E-4,1.7743044E-3,2.3088178E-2,-7.33216E-2,-1.3983637E-1,-8.3563395E-2,3.3976014E-3,4.5156213E-3,6.766301E-4,2.1544888E-3,3.5774019E-3,-3.1216423E-5,-2.6922738E-3,-5.0017294E-3,-5.906485E-3,-8.239247E-3,-2.873036E-4,-4.694025E-3],"categories":[],"categories_nodes":[],"categories_segments":[],"categories_sizes":[],"default_left":[0,0,0,0,0,0,0,0,0,0,0,0,0,0,0,0,0,0,0,0,0,0,0,0,0,0,0,0,0,0,0,0,0,0,0,0,0,0,0,0,0,0,0,0,0,0,0],"id":23,"left_children":[1,3,5,7,9,11,13,-1,-1,15,17,19,21,-1,23,25,27,-1,-1,-1,-1,-1,29,31,33,35,-1,-1,37,-1,-1,39,41,43,45,-1,-1,-1,-1,-1,-1,-1,-1,-1,-1,-1,-1],"loss_changes":[1.7345252E0,2.4581361E-1,3.740865E-1,3.0875243E-2,4.7298074E-2,7.590838E-2,3.1201553E-1,0E0,0E0,2.5857747E-2,6.928677E-3,1.9404585E-2,1.9326232E-2,0E0,2.5336933E-1,7.9064965E-3,1.812008E-2,0E0,0E0,0E0,0E0,0E0,1.3345759E-3,1.22642E-1,1.2184191E-1,9.722114E-3,0E0,0E0,5.007237E-3,0E0,0E0,3.328613E-2,7.3209554E-3,1.2588739E-2,1.1243242E-1,0E0,0E0,0E0,0E0,0E0,0E0,0E0,0E0,0E0,0E0,0E0,0E0],"parents":[2147483647,0,0,1,1,2,2,3,3,4,4,5,5,6,6,9,9,10,10,11,11,12,12,14,14,15,15,16,16,22,22,23,23,24,24,25,25,28,28,31,31,32,32,33,33,34,34],"right_children":[2,4,6,8,10,12,14,-1,-1,16,18,20,22,-1,24,26,28,-1,-1,-1,-1,-1,30,32,34,36,-1,-1,38,-1,-1,40,42,44,46,-1,-1,-1,-1,-1,-1,-1,-1,-1,-1,-1,-1],"split_conditions":[1.2712319E0,-6.866252E-1,-5.1778406E-2,2.818716E-1,4.481722E-1,-4.094377E-3,-5.543588E-2,-4.6824486E-4,-5.2359374E-3,3.4525058E-1,1.9891007E0,2.310932E0,1.459645E-1,3.6350568E-3,2.933209E-1,4.538738E-2,-3.8598517E-1,1.7003942E-3,-4.1503945E-4,-2.4464082E-3,8.939233E-4,4.1714944E-3,-3.352472E-2,8.921108E-2,-3.851989E-2,2.5300264E-1,1.7975027E-3,3.7963428E-3,1.07788324E-1,7.74131E-4,1.7743044E-3,-4.921055E-2,-6.9553226E-2,-4.841061E-2,3.066468E-1,3.3976014E-3,4.5156213E-3,6.766301E-4,2.1544888E-3,3.5774019E-3,-3.1216423E-5,-2.6922738E-3,-5.0017294E-3,-5.906485E-3,-8.239247E-3,-2.873036E-4,-4.694025E-3],"split_indices":[389,3,78,0,90,185,89,0,0,389,399,390,74,0,183,28,121,0,0,0,0,0,352,55,168,219,0,0,165,0,0,162,1,1,236,0,0,0,0,0,0,0,0,0,0,0,0],"split_type":[0,0,0,0,0,0,0,0,0,0,0,0,0,0,0,0,0,0,0,0,0,0,0,0,0,0,0,0,0,0,0,0,0,0,0,0,0,0,0,0,0,0,0,0,0,0,0],"sum_hessian":[5.0990927E2,1.9901488E2,3.108944E2,1.3764871E1,1.8525002E2,4.908489E1,2.618095E2,5.8162456E0,7.9486246E0,1.7121378E2,1.4036236E1,1.9337551E1,2.9747337E1,1.2551977E1,2.4925754E2,1.3383725E2,3.7376522E1,5.88225E0,8.153986E0,1.3791546E1,5.5460057E0,9.991015E0,1.9756323E1,5.1352905E1,1.9790462E2,1.2729824E2,6.539009E0,1.27786455E1,2.459788E1,7.9933214E0,1.1763001E1,2.792814E1,2.3424767E1,5.8191013E1,1.3971361E2,6.043338E1,6.686486E1,1.3149551E1,1.1448327E1,8.513102E0,1.941504E1,1.5291566E1,8.133201E0,3.4183952E1,2.4007063E1,1.6537271E1,1.2317634E2],"tree_param":{"num_deleted":"0","num_feature":"403","num_nodes":"47","size_leaf_vector":"1"}},{"base_weights":[-6.6877534E-3,5.4703727E-2,-5.1569976E-2,6.1598815E-2,-5.0033974E-3,7.6964736E-2,-6.1572704E-2,1.4914277E-2,6.923199E-2,2.6889597E-3,5.180374E-3,1.3004681E-2,-7.70468E-2,2.8149132E-3,-8.887332E-3,7.328592E-2,3.913346E-2,4.2895272E-2,-3.1192012E-2,4.2983722E-2,-8.412669E-2,3.661792E-4,-1.8840462E-2,7.90038E-2,5.2878283E-2,4.685611E-2,5.746558E-4,2.6097504E-2,4.6260813E-3,-2.6492183E-3,8.5605396E-4,3.5888168E-3,5.396389E-4,-9.1272436E-2,3.1760344E-6,-1.334339E-3,-4.4899038E-4,4.5972494E-3,3.470225E-3,3.8298683E-3,1.7697245E-3,1.5771826E-3,2.7401005E-3,1.6053945E-3,5.198031E-4,-6.282863E-3,-3.2040037E-3],"categories":[],"categories_nodes":[],"categories_segments":[],"categories_sizes":[],"default_left":[0,0,0,0,0,0,0,0,0,0,0,0,0,0,0,0,0,0,0,0,0,0,0,0,0,0,0,0,0,0,0,0,0,0,0,0,0,0,0,0,0,0,0,0,0,0,0],"id":24,"left_children":[1,3,5,7,-1,9,11,13,15,-1,-1,17,19,-1,21,23,25,27,29,31,33,-1,35,37,39,41,-1,43,-1,-1,-1,-1,-1,45,-1,-1,-1,-1,-1,-1,-1,-1,-1,-1,-1,-1,-1],"loss_changes":[1.3102673E0,2.2053772E-1,3.5782236E-1,6.771928E-2,0E0,6.9511905E-3,2.9568148E-1,2.8461792E-2,1.73316E-2,0E0,0E0,6.0434666E-2,1.8344867E-1,0E0,3.1851602E-3,1.2713015E-2,4.1140504E-3,2.0182222E-2,2.0518703E-2,1.0763492E-2,1.2042737E-1,0E0,6.873412E-4,7.4133277E-3,1.16806775E-2,3.046468E-4,0E0,1.7088791E-3,0E0,0E0,0E0,0E0,0E0,1.6446435E-1,0E0,0E0,0E0,0E0,0E0,0E0,0E0,0E0,0E0,0E0,0E0,0E0,0E0],"parents":[2147483647,0,0,1,1,2,2,3,3,5,5,6,6,7,7,8,8,11,11,12,12,14,14,15,15,16,16,17,17,18,18,19,19,20,20,22,22,23,23,24,24,25,25,27,27,33,33],"right_children":[2,4,6,8,-1,10,12,14,16,-1,-1,18,20,-1,22,24,26,28,30,32,34,-1,36,38,40,42,-1,44,-1,-1,-1,-1,-1,46,-1,-1,-1,-1,-1,-1,-1,-1,-1,-1,-1,-1,-1],"split_conditions":[1.2712319E0,8.34467E-1,-2.2467604E-1,-5.4582906E-1,-5.0033974E-3,-5.883264E-1,-5.1778406E-2,-2.984857E-1,9.039019E-2,2.6889597E-3,5.180374E-3,-1.4580578E-2,-2.9608142E-1,2.8149132E-3,-2.3351048E-1,2.541656E-1,2.2568804E-1,1.15806475E-1,3.1458282E0,-2.2170803E-1,9.407932E-2,3.661792E-4,-3.0084866E-1,-1.2637243E-2,-3.8598517E-1,-1.4383131E-1,5.746558E-4,2.2827245E-2,4.6260813E-3,-2.6492183E-3,8.5605396E-4,3.5888168E-3,5.396389E-4,-3.235579E-1,3.1760344E-6,-1.334339E-3,-4.4899038E-4,4.5972494E-3,3.470225E-3,3.8298683E-3,1.7697245E-3,1.5771826E-3,2.7401005E-3,1.6053945E-3,5.198031E-4,-6.282863E-3,-3.2040037E-3],"split_indices":[389,87,131,331,0,163,78,47,151,0,0,215,270,0,389,389,36,23,388,3,199,0,6,304,121,88,0,23,0,0,0,0,0,333,0,0,0,0,0,0,0,0,0,0,0,0,0],"split_type":[0,0,0,0,0,0,0,0,0,0,0,0,0,0,0,0,0,0,0,0,0,0,0,0,0,0,0,0,0,0,0,0,0,0,0,0,0,0,0,0,0,0,0,0,0,0,0],"sum_hessian":[4.7350558E2,1.9988162E2,2.7362393E2,1.91933E2,7.9486246E0,1.9272938E1,2.54351E2,2.73871E1,1.645459E2,1.1919048E1,7.353889E0,4.3734108E1,2.106169E2,9.501492E0,1.7885609E1,1.4374956E2,2.0796349E1,2.6107103E1,1.7627005E1,1.144863E1,1.9916826E2,6.9044113E0,1.0981198E1,1.1004539E2,3.3704166E1,1.5711409E1,5.0849404E0,2.0644974E1,5.46213E0,1.2080999E1,5.5460057E0,5.3941884E0,6.054442E0,1.8350862E2,1.5659644E1,5.1649523E0,5.8162456E0,4.3211754E1,6.683364E1,1.2867136E1,2.0837029E1,7.0654507E0,8.645958E0,1.4174275E1,6.470698E0,7.943799E1,1.0407063E2],"tree_param":{"num_deleted":"0","num_feature":"403","num_nodes":"47","size_leaf_vector":"1"}},{"base_weights":[-4.288115E-3,5.3869035E-2,-4.6751782E-2,6.069395E-2,-4.781184E-3,-7.509364E-2,-9.440578E-3,6.311301E-2,-5.464942E-4,-1.1226992E-1,-3.023681E-2,1.4663628E-2,-6.6834174E-2,7.0345186E-2,3.4009747E-2,-7.9306036E-2,-1.3419485E-1,-4.826528E-2,2.9086815E-3,6.0448863E-2,-1.7789307E-3,-7.836949E-2,-1.2692349E-4,8.263016E-2,6.1323524E-2,-1.3208353E-3,4.605428E-2,7.857402E-4,-1.14585705E-1,-7.542178E-3,-5.580471E-3,-1.1424801E-2,-7.255631E-2,4.416781E-2,4.5790207E-3,-2.4126635E-3,1.2596546E-2,-2.5613548E-3,-6.5074614E-3,2.601626E-3,4.6576015E-3,3.2453944E-3,1.5176706E-3,3.063483E-3,1.0536242E-3,-6.8993545E-3,-3.4259993E-3,5.380582E-4,-1.4126049E-3,-6.050467E-3,1.3298422E-4,1.6044102E-3,2.7467168E-3,-2.7504316E-4,1.7028115E-3],"categories":[],"categories_nodes":[],"categories_segments":[],"categories_sizes":[],"default_left":[0,0,0,0,0,0,0,0,0,0,0,0,0,0,0,0,0,0,0,0,0,0,0,0,0,0,0,0,0,0,0,0,0,0,0,0,0,0,0,0,0,0,0,0,0,0,0,0,0,0,0,0,0,0,0],"id":25,"left_children":[1,3,5,7,-1,9,11,13,-1,15,17,19,21,23,25,27,29,31,-1,33,35,37,-1,39,41,-1,43,-1,45,-1,-1,47,49,51,-1,-1,53,-1,-1,-1,-1,-1,-1,-1,-1,-1,-1,-1,-1,-1,-1,-1,-1,-1,-1],"loss_changes":[1.147142E0,2.05845E-1,2.8314322E-1,3.3283412E-2,0E0,2.5075728E-1,1.6286996E-1,3.593999E-2,0E0,4.9321532E-2,1.15076736E-1,6.2765494E-2,2.5604278E-2,1.0996103E-2,2.9007837E-2,1.2109576E-1,1.3571382E-3,5.201681E-2,0E0,7.11637E-3,4.2169496E-2,3.4743518E-2,0E0,1.3983488E-2,7.7367723E-3,0E0,1.094953E-2,0E0,1.8650204E-2,0E0,0E0,9.50729E-3,1.2933779E-1,3.6893412E-4,0E0,0E0,1.8947639E-2,0E0,0E0,0E0,0E0,0E0,0E0,0E0,0E0,0E0,0E0,0E0,0E0,0E0,0E0,0E0,0E0,0E0,0E0],"parents":[2147483647,0,0,1,1,2,2,3,3,5,5,6,6,7,7,9,9,10,10,11,11,12,12,13,13,14,14,15,15,16,16,17,17,19,19,20,20,21,21,23,23,24,24,26,26,28,28,31,31,32,32,33,33,36,36],"right_children":[2,4,6,8,-1,10,12,14,-1,16,18,20,22,24,26,28,30,32,-1,34,36,38,-1,40,42,-1,44,-1,46,-1,-1,48,50,52,-1,-1,54,-1,-1,-1,-1,-1,-1,-1,-1,-1,-1,-1,-1,-1,-1,-1,-1,-1,-1],"split_conditions":[1.2712319E0,8.34467E-1,-1.549244E-1,7.3893934E-1,-4.781184E-3,-2.3990273E-3,-1.6288036E-1,3.4525058E-1,-5.464942E-4,-1.08795464E-1,1.0350687E-1,-3.1238472E-1,1.9891007E0,-1.7856315E-2,-4.033153E-1,2.310932E0,3.6888742E-1,3.1458282E0,2.9086815E-3,2.9367618E-2,-3.5263398E-1,1.9784868E-2,-1.2692349E-4,-2.6079085E-1,4.7691318E-1,-1.3208353E-3,7.253578E-2,7.857402E-4,3.9821267E-1,-7.542178E-3,-5.580471E-3,9.5898256E-2,3.3713257E0,3.1221724E0,4.5790207E-3,-2.4126635E-3,2.6378319E-2,-2.5613548E-3,-6.5074614E-3,2.601626E-3,4.6576015E-3,3.2453944E-3,1.5176706E-3,3.063483E-3,1.0536242E-3,-6.8993545E-3,-3.4259993E-3,5.380582E-4,-1.4126049E-3,-6.050467E-3,1.3298422E-4,1.6044102E-3,2.7467168E-3,-2.7504316E-4,1.7028115E-3],"split_indices":[389,87,162,220,0,354,3,389,0,80,220,340,399,357,181,390,0,388,0,95,123,78,0,120,196,0,301,0,0,0,0,9,388,388,0,0,210,0,0,0,0,0,0,0,0,0,0,0,0,0,0,0,0,0,0],"split_type":[0,0,0,0,0,0,0,0,0,0,0,0,0,0,0,0,0,0,0,0,0,0,0,0,0,0,0,0,0,0,0,0,0,0,0,0,0,0,0,0,0,0,0,0,0,0,0,0,0,0,0,0,0,0,0],"sum_hessian":[4.6249182E2,1.9506593E2,2.674259E2,1.8711731E2,7.9486246E0,1.5140497E2,1.1602093E2,1.8111894E2,5.998369E0,8.196853E1,6.943644E1,8.223029E1,3.3790634E1,1.4393413E2,3.718482E1,3.4586002E1,4.7382523E1,5.8052563E1,1.1383878E1,2.1020676E1,6.120962E1,2.8464851E1,5.325782E0,5.748992E1,8.64442E1,5.981727E0,3.120309E1,9.514525E0,2.5071478E1,2.4007063E1,2.337546E1,2.3651834E1,3.440073E1,1.539054E1,5.6301355E0,1.3903734E1,4.7305885E1,1.9980572E1,8.48428E0,1.6232088E1,4.1257835E1,7.6495125E1,9.9490795E0,1.8489397E1,1.2713695E1,1.5302413E1,9.769065E0,1.0357057E1,1.3294777E1,2.055237E1,1.384836E1,9.128784E0,6.2617555E0,2.6066833E1,2.1239052E1],"tree_param":{"num_deleted":"0","num_feature":"403","num_nodes":"55","size_leaf_vector":"1"}},{"base_weights":[-2.5326381E-3,5.42115E-2,-4.033341E-2,-4.568839E-3,6.129738E-2,-6.9144E-2,-2.9181824E-3,2.1543086E-2,6.40709E-2,-5.0573334E-2,-1.30101E-1,-7.0623E-2,1.066768E-2,2.5886397E-3,-3.996451E-4,6.5613486E-2,1.3567586E-3,-5.780204E-2,4.1956524E-3,-4.5245006E-3,-7.180149E-3,-4.7675935E-3,-2.334657E-3,5.4197587E-2,-1.1695587E-2,1.3362179E-3,6.694052E-2,-3.4247056E-2,-1.12017624E-1,2.6651805E-2,9.416502E-2,-2.0446047E-2,1.7836521E-3,3.4751215E-3,2.26699E-3,-2.6736E-3,1.0785487E-3,-1.8272552E-3,-7.027668E-3,5.1880133E-4,1.7602759E-3,2.83669E-3,6.1494964E-3,-1.2448649E-3,9.219958E-4],"categories":[],"categories_nodes":[],"categories_segments":[],"categories_sizes":[],"default_left":[0,0,0,0,0,0,0,0,0,0,0,0,0,0,0,0,0,0,0,0,0,0,0,0,0,0,0,0,0,0,0,0,0,0,0,0,0,0,0,0,0,0,0,0,0],"id":26,"left_children":[1,3,5,-1,7,9,11,13,15,17,19,21,23,-1,-1,25,-1,27,-1,-1,-1,-1,-1,29,31,-1,33,35,37,39,41,43,-1,-1,-1,-1,-1,-1,-1,-1,-1,-1,-1,-1,-1],"loss_changes":[9.8788524E-1,1.955831E-1,2.977239E-1,0E0,1.8048465E-2,1.7012858E-1,1.1230963E-1,1.2019608E-2,7.57581E-3,1.2275955E-1,6.1604977E-3,7.619761E-3,9.981026E-2,0E0,0E0,6.3094497E-3,0E0,1.439066E-1,0E0,0E0,0E0,0E0,0E0,3.5752088E-2,2.896709E-2,0E0,5.209446E-3,8.9245275E-2,6.9379926E-2,2.693179E-3,7.895693E-3,1.0522338E-2,0E0,0E0,0E0,0E0,0E0,0E0,0E0,0E0,0E0,0E0,0E0,0E0,0E0],"parents":[2147483647,0,0,1,1,2,2,4,4,5,5,6,6,7,7,8,8,9,9,10,10,11,11,12,12,15,15,17,17,23,23,24,24,26,26,27,27,28,28,29,29,30,30,31,31],"right_children":[2,4,6,-1,8,10,12,14,16,18,20,22,24,-1,-1,26,-1,28,-1,-1,-1,-1,-1,30,32,-1,34,36,38,40,42,44,-1,-1,-1,-1,-1,-1,-1,-1,-1,-1,-1,-1,-1],"split_conditions":[1.2712319E0,-6.8907976E-1,3.810273E-2,-4.568839E-3,-7.2787684E-1,8.909941E-3,-3.1734976E-1,1.08260594E-1,1.9002655E-1,2.30596E0,-1.0435377E-1,2.0876983E-1,3.1136996E-1,2.5886397E-3,-3.996451E-4,-3.830225E-1,1.3567586E-3,1.9227625E0,4.1956524E-3,-4.5245006E-3,-7.180149E-3,-4.7675935E-3,-2.334657E-3,-1.3444564E-1,5.596077E-2,1.3362179E-3,3.450523E-1,5.612399E-2,-1.1357586E-1,-2.160044E-2,3.4796533E-1,1.7310517E0,1.7836521E-3,3.4751215E-3,2.26699E-3,-2.6736E-3,1.0785487E-3,-1.8272552E-3,-7.027668E-3,5.1880133E-4,1.7602759E-3,2.83669E-3,6.1494964E-3,-1.2448649E-3,9.219958E-4],"split_indices":[389,3,310,0,76,199,231,389,376,392,1,7,207,0,0,159,0,392,0,0,0,0,0,304,138,0,371,102,2,189,299,392,0,0,0,0,0,0,0,0,0,0,0,0,0],"split_type":[0,0,0,0,0,0,0,0,0,0,0,0,0,0,0,0,0,0,0,0,0,0,0,0,0,0,0,0,0,0,0,0,0,0,0,0,0,0,0,0,0,0,0,0,0],"sum_hessian":[4.5853915E2,1.8315869E2,2.7538046E2,7.9486246E0,1.7521007E2,1.5510103E2,1.2027942E2,1.1998383E1,1.6321169E2,1.2028548E2,3.4815556E1,1.9400286E1,1.00879135E2,5.55749E0,6.4408927E0,1.5592328E2,7.2884064E0,1.1469099E2,5.594495E0,1.0808492E1,2.4007063E1,8.073047E0,1.1327239E1,3.3753914E1,6.712521E1,5.842612E0,1.5008067E2,8.10911E1,3.359988E1,2.096888E1,1.2785035E1,5.7138348E1,9.986868E0,1.3218549E2,1.789518E1,6.034798E1,2.0743126E1,9.8442E0,2.375568E1,7.9861283E0,1.2982751E1,6.853498E0,5.9315376E0,5.1592342E1,5.5460057E0],"tree_param":{"num_deleted":"0","num_feature":"403","num_nodes":"45","size_leaf_vector":"1"}},{"base_weights":[-9.055575E-3,4.5301158E-2,-4.9713302E-2,-5.8854025E-2,5.31228E-2,4.095238E-3,-6.744635E-2,-4.365926E-3,-6.4251915E-4,-3.1767278E-3,5.6648616E-2,4.974773E-2,-3.81844E-2,5.2910034E-2,-7.630233E-2,-7.3320227E-4,3.5754612E-4,6.0648624E-2,3.071157E-2,6.4036897E-3,2.8989498E-2,-1.5159063E-2,-5.4420647E-3,1.6011673E-3,3.277999E-3,-1.3281387E-2,-9.035751E-2,3.9644744E-2,6.4907186E-2,3.859953E-2,4.396904E-4,2.1772452E-3,1.6445398E-2,-3.034095E-2,1.2769978E-3,2.527583E-2,-2.4005792E-3,-1.19293086E-1,-6.134618E-2,2.8212573E-3,1.0620306E-3,1.2991846E-3,3.3273571E-3,1.1335341E-3,2.2200653E-3,1.04423E-3,3.2813518E-4,-5.506174E-4,-2.164723E-3,2.7696423E-3,-4.259598E-5,-6.3115465E-3,-4.643229E-3,-3.735403E-3,1.3078272E-4],"categories":[],"categories_nodes":[],"categories_segments":[],"categories_sizes":[],"default_left":[0,0,0,0,0,0,0,0,0,0,0,0,0,0,0,0,0,0,0,0,0,0,0,0,0,0,0,0,0,0,0,0,0,0,0,0,0,0,0,0,0,0,0,0,0,0,0,0,0,0,0,0,0,0,0],"id":27,"left_children":[1,3,5,7,9,11,13,-1,-1,15,17,19,21,23,25,-1,-1,27,29,-1,31,33,-1,-1,-1,35,37,39,41,43,-1,-1,45,47,-1,49,-1,51,53,-1,-1,-1,-1,-1,-1,-1,-1,-1,-1,-1,-1,-1,-1,-1,-1],"loss_changes":[1.0561713E0,1.697956E-1,2.6105213E-1,1.8212084E-2,3.80584E-2,1.3447282E-1,2.2319257E-1,0E0,0E0,1.5514005E-3,1.6773462E-2,5.0689064E-2,5.7285115E-2,1.7799549E-3,1.688044E-1,0E0,0E0,1.1255324E-2,4.1602347E-3,0E0,4.349172E-3,1.837463E-2,0E0,0E0,0E0,4.9650542E-2,1.2427306E-1,7.643562E-3,6.37573E-3,7.3485635E-4,0E0,0E0,5.871421E-4,4.8316866E-3,0E0,1.4050958E-2,0E0,2.4734735E-3,6.885347E-2,0E0,0E0,0E0,0E0,0E0,0E0,0E0,0E0,0E0,0E0,0E0,0E0,0E0,0E0,0E0,0E0],"parents":[2147483647,0,0,1,1,2,2,3,3,4,4,5,5,6,6,9,9,10,10,11,11,12,12,13,13,14,14,17,17,18,18,20,20,21,21,25,25,26,26,27,27,28,28,29,29,32,32,33,33,35,35,37,37,38,38],"right_children":[2,4,6,8,10,12,14,-1,-1,16,18,20,22,24,26,-1,-1,28,30,-1,32,34,-1,-1,-1,36,38,40,42,44,-1,-1,46,48,-1,50,-1,52,54,-1,-1,-1,-1,-1,-1,-1,-1,-1,-1,-1,-1,-1,-1,-1,-1],"split_conditions":[1.2712319E0,-6.866252E-1,7.223976E-2,-4.9665314E-1,-3.863415E-1,-1.6575211E-1,-5.543588E-2,-4.365926E-3,-6.4251915E-4,2.5191522E-1,8.5659504E-2,-1.4296702E-1,9.486833E-1,3.3309255E0,-5.8916647E-2,-7.3320227E-4,3.5754612E-4,-4.3813723E-1,-1.7328224E-1,6.4036897E-3,-2.201231E-1,1.7310517E0,-5.4420647E-3,1.6011673E-3,3.277999E-3,-7.780287E-2,2.0269394E-1,1.9538853E-1,-6.5136415E-1,-1.4383131E-1,4.396904E-4,2.1772452E-3,-2.59355E-1,3.8807458E-1,1.2769978E-3,-1.2605026E-1,-2.4005792E-3,1.1759515E-1,3.3713257E0,2.8212573E-3,1.0620306E-3,