{"learner":{"attributes":{"scikit_learn":"{\"_estimator_type\": \"regressor\"}"},"feature_names":[],"feature_types":[],"gradient_booster":{"model":{"cats":{"enc":[],"feature_segments":[],"sorted_idx":[]},"gbtree_model_param":{"num_parallel_tree":"1","num_trees":"1000"},"iteration_indptr":[0,1,2,3,4,5,6,7,8,9,10,11,12,13,14,15,16,17,18,19,20,21,22,23,24,25,26,27,28,29,30,31,32,33,34,35,36,37,38,39,40,41,42,43,44,45,46,47,48,49,50,51,52,53,54,55,56,57,58,59,60,61,62,63,64,65,66,67,68,69,70,71,72,73,74,75,76,77,78,79,80,81,82,83,84,85,86,87,88,89,90,91,92,93,94,95,96,97,98,99,100,101,102,103,104,105,106,107,108,109,110,111,112,113,114,115,116,117,118,119,120,121,122,123,124,125,126,127,128,129,130,131,132,133,134,135,136,137,138,139,140,141,142,143,144,145,146,147,148,149,150,151,152,153,154,155,156,157,158,159,160,161,162,163,164,165,166,167,168,169,170,171,172,173,174,175,176,177,178,179,180,181,182,183,184,185,186,187,188,189,190,191,192,193,194,195,196,197,198,199,200,201,202,203,204,205,206,207,208,209,210,211,212,213,214,215,216,217,218,219,220,221,222,223,224,225,226,227,228,229,230,231,232,233,234,235,236,237,238,239,240,241,242,243,244,245,246,247,248,249,250,251,252,253,254,255,256,257,258,259,260,261,262,263,264,265,266,267,268,269,270,271,272,273,274,275,276,277,278,279,280,281,282,283,284,285,286,287,288,289,290,291,292,293,294,295,296,297,298,299,300,301,302,303,304,305,306,307,308,309,310,311,312,313,314,315,316,317,318,319,320,321,322,323,324,325,326,327,328,329,330,331,332,333,334,335,336,337,338,339,340,341,342,343,344,345,346,347,348,349,350,351,352,353,354,355,356,357,358,359,360,361,362,363,364,365,366,367,368,369,370,371,372,373,374,375,376,377,378,379,380,381,382,383,384,385,386,387,388,389,390,391,392,393,394,395,396,397,398,399,400,401,402,403,404,405,406,407,408,409,410,411,412,413,414,415,416,417,418,419,420,421,422,423,424,425,426,427,428,429,430,431,432,433,434,435,436,437,438,439,440,441,442,443,444,445,446,447,448,449,450,451,452,453,454,455,456,457,458,459,460,461,462,463,464,465,466,467,468,469,470,471,472,473,474,475,476,477,478,479,480,481,482,483,484,485,486,487,488,489,490,491,492,493,494,495,496,497,498,499,500,501,502,503,504,505,506,507,508,509,510,511,512,513,514,515,516,517,518,519,520,521,522,523,524,525,526,527,528,529,530,531,532,533,534,535,536,537,538,539,540,541,542,543,544,545,546,547,548,549,550,551,552,553,554,555,556,557,558,559,560,561,562,563,564,565,566,567,568,569,570,571,572,573,574,575,576,577,578,579,580,581,582,583,584,585,586,587,588,589,590,591,592,593,594,595,596,597,598,599,600,601,602,603,604,605,606,607,608,609,610,611,612,613,614,615,616,617,618,619,620,621,622,623,624,625,626,627,628,629,630,631,632,633,634,635,636,637,638,639,640,641,642,643,644,645,646,647,648,649,650,651,652,653,654,655,656,657,658,659,660,661,662,663,664,665,666,667,668,669,670,671,672,673,674,675,676,677,678,679,680,681,682,683,684,685,686,687,688,689,690,691,692,693,694,695,696,697,698,699,700,701,702,703,704,705,706,707,708,709,710,711,712,713,714,715,716,717,718,719,720,721,722,723,724,725,726,727,728,729,730,731,732,733,734,735,736,737,738,739,740,741,742,743,744,745,746,747,748,749,750,751,752,753,754,755,756,757,758,759,760,761,762,763,764,765,766,767,768,769,770,771,772,773,774,775,776,777,778,779,780,781,782,783,784,785,786,787,788,789,790,791,792,793,794,795,796,797,798,799,800,801,802,803,804,805,806,807,808,809,810,811,812,813,814,815,816,817,818,819,820,821,822,823,824,825,826,827,828,829,830,831,832,833,834,835,836,837,838,839,840,841,842,843,844,845,846,847,848,849,850,851,852,853,854,855,856,857,858,859,860,861,862,863,864,865,866,867,868,869,870,871,872,873,874,875,876,877,878,879,880,881,882,883,884,885,886,887,888,889,890,891,892,893,894,895,896,897,898,899,900,901,902,903,904,905,906,907,908,909,910,911,912,913,914,915,916,917,918,919,920,921,922,923,924,925,926,927,928,929,930,931,932,933,934,935,936,937,938,939,940,941,942,943,944,945,946,947,948,949,950,951,952,953,954,955,956,957,958,959,960,961,962,963,964,965,966,967,968,969,970,971,972,973,974,975,976,977,978,979,980,981,982,983,984,985,986,987,988,989,990,991,992,993,994,995,996,997,998,999,1000],"tree_info":[0,0,0,0,0,0,0,0,0,0,0,0,0,0,0,0,0,0,0,0,0,0,0,0,0,0,0,0,0,0,0,0,0,0,0,0,0,0,0,0,0,0,0,0,0,0,0,0,0,0,0,0,0,0,0,0,0,0,0,0,0,0,0,0,0,0,0,0,0,0,0,0,0,0,0,0,0,0,0,0,0,0,0,0,0,0,0,0,0,0,0,0,0,0,0,0,0,0,0,0,0,0,0,0,0,0,0,0,0,0,0,0,0,0,0,0,0,0,0,0,0,0,0,0,0,0,0,0,0,0,0,0,0,0,0,0,0,0,0,0,0,0,0,0,0,0,0,0,0,0,0,0,0,0,0,0,0,0,0,0,0,0,0,0,0,0,0,0,0,0,0,0,0,0,0,0,0,0,0,0,0,0,0,0,0,0,0,0,0,0,0,0,0,0,0,0,0,0,0,0,0,0,0,0,0,0,0,0,0,0,0,0,0,0,0,0,0,0,0,0,0,0,0,0,0,0,0,0,0,0,0,0,0,0,0,0,0,0,0,0,0,0,0,0,0,0,0,0,0,0,0,0,0,0,0,0,0,0,0,0,0,0,0,0,0,0,0,0,0,0,0,0,0,0,0,0,0,0,0,0,0,0,0,0,0,0,0,0,0,0,0,0,0,0,0,0,0,0,0,0,0,0,0,0,0,0,0,0,0,0,0,0,0,0,0,0,0,0,0,0,0,0,0,0,0,0,0,0,0,0,0,0,0,0,0,0,0,0,0,0,0,0,0,0,0,0,0,0,0,0,0,0,0,0,0,0,0,0,0,0,0,0,0,0,0,0,0,0,0,0,0,0,0,0,0,0,0,0,0,0,0,0,0,0,0,0,0,0,0,0,0,0,0,0,0,0,0,0,0,0,0,0,0,0,0,0,0,0,0,0,0,0,0,0,0,0,0,0,0,0,0,0,0,0,0,0,0,0,0,0,0,0,0,0,0,0,0,0,0,0,0,0,0,0,0,0,0,0,0,0,0,0,0,0,0,0,0,0,0,0,0,0,0,0,0,0,0,0,0,0,0,0,0,0,0,0,0,0,0,0,0,0,0,0,0,0,0,0,0,0,0,0,0,0,0,0,0,0,0,0,0,0,0,0,0,0,0,0,0,0,0,0,0,0,0,0,0,0,0,0,0,0,0,0,0,0,0,0,0,0,0,0,0,0,0,0,0,0,0,0,0,0,0,0,0,0,0,0,0,0,0,0,0,0,0,0,0,0,0,0,0,0,0,0,0,0,0,0,0,0,0,0,0,0,0,0,0,0,0,0,0,0,0,0,0,0,0,0,0,0,0,0,0,0,0,0,0,0,0,0,0,0,0,0,0,0,0,0,0,0,0,0,0,0,0,0,0,0,0,0,0,0,0,0,0,0,0,0,0,0,0,0,0,0,0,0,0,0,0,0,0,0,0,0,0,0,0,0,0,0,0,0,0,0,0,0,0,0,0,0,0,0,0,0,0,0,0,0,0,0,0,0,0,0,0,0,0,0,0,0,0,0,0,0,0,0,0,0,0,0,0,0,0,0,0,0,0,0,0,0,0,0,0,0,0,0,0,0,0,0,0,0,0,0,0,0,0,0,0,0,0,0,0,0,0,0,0,0,0,0,0,0,0,0,0,0,0,0,0,0,0,0,0,0,0,0,0,0,0,0,0,0,0,0,0,0,0,0,0,0,0,0,0,0,0,0,0,0,0,0,0,0,0,0,0,0,0,0,0,0,0,0,0,0,0,0,0,0,0,0,0,0,0,0,0,0,0,0,0,0,0,0,0,0,0,0,0,0,0,0,0,0,0,0,0,0,0,0,0,0,0,0,0,0,0,0,0,0,0,0,0,0,0,0,0,0,0,0,0,0,0,0,0,0,0,0,0,0,0,0,0,0,0,0,0,0,0,0,0,0,0,0,0,0,0,0,0,0,0,0,0,0,0,0,0,0,0,0,0,0,0,0,0,0,0,0,0,0,0,0,0,0,0,0,0,0,0,0,0,0,0,0,0,0,0,0,0,0,0,0,0,0,0,0,0,0,0,0,0,0,0,0,0,0,0,0,0,0,0,0,0,0,0,0,0,0,0,0,0,0,0,0,0,0,0,0,0,0,0,0,0,0,0,0,0,0,0,0,0,0,0,0,0,0,0,0,0,0,0,0,0,0,0,0,0,0,0,0,0,0,0,0,0,0,0,0,0,0,0,0,0,0,0,0,0,0,0,0,0,0],"trees":[{"base_weights":[-4.8606982E-3,1.590267E-1,-1.8541123E-1,2.4142775E-1,6.1465718E-2,1.1967347E-1,-2.2226697E-1,1.285921E-2,1.0576279E-2,1.3956252E-1,-2.7538754E-2,8.294537E-3,1.9592775E-3,8.7689655E-3,-2.3500891E-1,2.0061165E-1,4.3101296E-2,1.06151834E-1,-9.8307766E-2,2.2401384E-5,-2.5531638E-1,1.2274821E-2,1.2320567E-1,4.6382677E-3,1.419824E-2,3.7356545E-3,7.4589374E-3,-4.2424306E-2,-1.0347339E-2,-2.9133576E-1,-1.6866647E-1,7.535767E-3,3.6753812E-3,1.3022334E-3,-1.8871545E-4,-4.29269E-3,1.3541564E-3,-1.6093394E-2,-1.1866811E-2,-9.423621E-3,4.8442627E-4],"categories":[],"categories_nodes":[],"categories_segments":[],"categories_sizes":[],"default_left":[0,0,0,0,0,0,0,0,0,0,0,0,0,0,0,0,0,0,0,0,0,0,0,0,0,0,0,0,0,0,0,0,0,0,0,0,0,0,0,0,0],"id":0,"left_children":[1,3,5,7,9,11,13,-1,-1,15,17,-1,-1,-1,19,21,23,25,27,-1,29,-1,31,-1,33,-1,-1,35,-1,37,39,-1,-1,-1,-1,-1,-1,-1,-1,-1,-1],"loss_changes":[1.43483E1,2.0286865E0,2.6207361E0,1.0365486E-2,8.2220507E-1,8.842072E-2,1.0859547E0,0E0,0E0,3.6161125E-1,5.3892976E-1,0E0,0E0,0E0,9.5746803E-1,1.02582335E-1,3.549184E-2,1.5658721E-2,2.1611995E-1,0E0,5.261488E-1,0E0,1.08502805E-2,0E0,3.8008532E-3,0E0,0E0,7.9963E-2,0E0,1.3600731E-1,2.014041E-1,0E0,0E0,0E0,0E0,0E0,0E0,0E0,0E0,0E0,0E0],"parents":[2147483647,0,0,1,1,2,2,3,3,4,4,5,5,6,6,9,9,10,10,14,14,15,15,16,16,17,17,18,18,20,20,22,22,24,24,27,27,29,29,30,30],"right_children":[2,4,6,8,10,12,14,-1,-1,16,18,-1,-1,-1,20,22,24,26,28,-1,30,-1,32,-1,34,-1,-1,36,-1,38,40,-1,-1,-1,-1,-1,-1,-1,-1,-1,-1],"split_conditions":[1.5564623E-1,-4.5459315E-2,-1.21939026E-1,-4.050529E-2,9.018971E-1,2.2851412E-1,8.252509E-3,1.285921E-2,1.0576279E-2,3.223558E-1,-3.407168E-1,8.294537E-3,1.9592775E-3,8.7689655E-3,-1.1873496E-1,7.600516E-2,-3.3321828E-1,-2.4461678E-1,2.265302E-2,2.2401384E-5,-6.462157E-2,1.2274821E-2,-1.3188091E-1,4.6382677E-3,-2.666606E-2,3.7356545E-3,7.4589374E-3,-8.045466E-2,-1.0347339E-2,5.458331E-1,2.1421578E0,7.535767E-3,3.6753812E-3,1.3022334E-3,-1.8871545E-4,-4.29269E-3,1.3541564E-3,-1.6093394E-2,-1.1866811E-2,-9.423621E-3,4.8442627E-4],"split_indices":[45,157,304,69,389,42,307,0,0,311,330,0,0,0,23,389,30,21,266,0,38,0,17,0,1,0,0,1,0,0,389,0,0,0,0,0,0,0,0,0,0],"split_type":[0,0,0,0,0,0,0,0,0,0,0,0,0,0,0,0,0,0,0,0,0,0,0,0,0,0,0,0,0,0,0,0,0,0,0,0,0,0,0,0,0],"sum_hessian":[4.8290796E2,2.5319748E2,2.2971048E2,1.3646391E2,1.1673356E2,2.4516937E1,2.0519354E2,8.4393364E1,5.2070553E1,6.187416E1,5.4859398E1,1.4900057E1,9.61688E0,5.9746513E0,1.9921889E2,3.7231247E1,2.4642914E1,1.881527E1,3.604413E1,1.5895443E1,1.8332344E2,2.2191622E1,1.5039622E1,8.25273E0,1.6390184E1,1.2452759E1,6.3625116E0,2.4719185E1,1.1324942E1,1.2782558E2,5.5497864E1,8.372513E0,6.6671095E0,9.608018E0,6.782166E0,1.5068771E1,9.6504135E0,7.848723E1,4.933835E1,4.9899864E1,5.5980034E0],"tree_param":{"num_deleted":"0","num_feature":"403","num_nodes":"41","size_leaf_vector":"1"}},{"base_weights":[4.6965918E-3,1.8679225E-1,-1.2095153E-1,4.9890675E-2,2.2571763E-1,3.3104025E-2,-1.6487789E-1,9.085618E-2,-6.350003E-3,2.3317595E-1,4.186568E-3,-7.2054E-2,1.17886506E-1,-2.2338066E-1,-3.5228753E-5,1.4693176E-2,1.1945302E-1,8.482448E-3,2.3944227E-1,-1.2981695E-2,-5.3345985E-3,9.895882E-5,1.4688836E-1,-6.3008256E-2,-2.573058E-1,1.1485038E-1,-1.1966782E-1,4.4407585E-4,9.042563E-4,7.2676996E-3,4.078242E-3,1.2290596E-2,9.091921E-3,-1.5408859E-3,4.3833532E-4,5.9967972E-3,8.752373E-3,-1.0726414E-2,-9.004972E-3,-1.9640104E-1,-1.5974445E-2,9.029745E-3,2.777385E-2,-1.1295122E-3,-7.3488182E-3,-2.1971518E-3,2.0851642E-3,-3.219891E-3,-1.0792102E-2,1.939464E-3,4.638768E-4],"categories":[],"categories_nodes":[],"categories_segments":[],"categories_sizes":[],"default_left":[0,0,0,0,0,0,0,0,0,0,0,0,0,0,0,0,0,0,0,0,0,0,0,0,0,0,0,0,0,0,0,0,0,0,0,0,0,0,0,0,0,0,0,0,0,0,0,0,0,0,0],"id":1,"left_children":[1,3,5,7,9,11,13,15,-1,17,-1,19,21,23,25,27,29,-1,31,33,-1,-1,35,37,39,41,43,-1,-1,-1,-1,-1,-1,-1,-1,-1,-1,45,-1,47,-1,-1,49,-1,-1,-1,-1,-1,-1,-1,-1],"loss_changes":[1.0826628E1,1.0182309E0,1.9003553E0,3.307633E-1,1.3946629E-1,5.69819E-1,2.1028705E0,7.742041E-2,0E0,1.5939713E-2,0E0,5.7387903E-2,1.1815739E-1,8.5939884E-1,8.125134E-1,5.7469122E-5,1.39422715E-2,0E0,1.8620491E-3,4.8302407E-3,0E0,0E0,3.8576126E-4,1.7819932E-1,4.3911457E-1,1.6762814E-1,7.345477E-2,0E0,0E0,0E0,0E0,0E0,0E0,0E0,0E0,0E0,0E0,3.911075E-2,0E0,1.6456032E-1,0E0,0E0,2.5242493E-3,0E0,0E0,0E0,0E0,0E0,0E0,0E0,0E0],"parents":[2147483647,0,0,1,1,2,2,3,3,4,4,5,5,6,6,7,7,9,9,11,11,12,12,13,13,14,14,15,15,16,16,18,18,19,19,22,22,23,23,24,24,25,25,26,26,37,37,39,39,42,42],"right_children":[2,4,6,8,10,12,14,16,-1,18,-1,20,22,24,26,28,30,-1,32,34,-1,-1,36,38,40,42,44,-1,-1,-1,-1,-1,-1,-1,-1,-1,-1,46,-1,48,-1,-1,50,-1,-1,-1,-1,-1,-1,-1,-1],"split_conditions":[3.556437E-1,-3.7324166E-1,-1.21939026E-1,1.7421953E-2,7.7431023E-1,-3.0082458E-1,-2.2461322E-1,-8.186117E-2,-6.350003E-3,-5.475059E-2,4.186568E-3,2.7751327E-1,-2.684252E-1,-5.8584005E-1,-1.1094621E-1,1.607301E-1,4.182534E-1,8.482448E-3,5.394371E-1,2.0338051E0,-5.3345985E-3,9.895882E-5,3.4310836E-1,-5.4648966E-3,-2.7369297E-1,1.1813336E-1,-9.628935E-2,4.4407585E-4,9.042563E-4,7.2676996E-3,4.078242E-3,1.2290596E-2,9.091921E-3,-1.5408859E-3,4.3833532E-4,5.9967972E-3,8.752373E-3,1.6389248E-1,-9.004972E-3,-1.2171371E-1,-1.5974445E-2,9.029745E-3,2.3505153E-1,-1.1295122E-3,-7.3488182E-3,-2.1971518E-3,2.0851642E-3,-3.219891E-3,-1.0792102E-2,1.939464E-3,4.638768E-4],"split_indices":[106,147,304,1,184,164,5,13,0,297,0,0,28,226,202,0,167,0,100,399,0,0,250,1,11,254,338,0,0,0,0,0,0,0,0,0,0,7,0,128,0,0,0,0,0,0,0,0,0,0,0],"split_type":[0,0,0,0,0,0,0,0,0,0,0,0,0,0,0,0,0,0,0,0,0,0,0,0,0,0,0,0,0,0,0,0,0,0,0,0,0,0,0,0,0,0,0,0,0,0,0,0,0,0,0],"sum_hessian":[4.712048E2,1.9218863E2,2.7901617E2,4.3052742E1,1.4913588E2,6.196014E1,2.1705603E2,3.5352055E1,7.7006865E0,1.410828E2,8.053096E0,2.7723747E1,3.4236393E1,1.599386E2,5.7117424E1,1.0063465E1,2.528859E1,1.5187502E1,1.2589529E2,1.0755639E1,1.696811E1,7.0658035E0,2.7170588E1,2.8424816E1,1.315138E2,2.9157173E1,2.796025E1,5.042394E0,5.021071E0,1.3335698E1,1.195289E1,1.104183E2,1.547699E1,5.68023E0,5.075409E0,1.6569937E1,1.0600651E1,2.0405333E1,8.019484E0,6.854064E1,6.2973145E1,1.6001637E1,1.3155536E1,6.539737E0,2.1420513E1,1.2590525E1,7.8148074E0,9.352201E0,5.9188442E1,7.5575323E0,5.5980034E0],"tree_param":{"num_deleted":"0","num_feature":"403","num_nodes":"51","size_leaf_vector":"1"}},{"base_weights":[-4.466229E-3,1.7904954E-1,-1.3459232E-1,2.093067E-1,5.551241E-2,9.509129E-2,-1.7186724E-1,2.1595047E-1,9.855211E-2,1.5670866E-2,1.17674954E-1,1.5525486E-1,-2.0953778E-3,-3.8309302E-2,-2.4285404E-1,2.2297369E-1,7.7180765E-3,2.5062086E-3,6.439883E-3,1.3877049E-3,2.3191746E-3,7.205481E-3,4.0003615E-3,5.5388473E-3,8.635997E-3,-8.5838236E-2,1.1752001E-1,-1.6905554E-2,-1.996858E-1,8.104927E-3,1.1388805E-2,6.5466813E-3,-3.6292252E-4,-1.3479005E-1,3.7145562E-2,8.907045E-3,4.8211776E-2,-2.1933268E-1,-2.7433503E-3,4.8122485E-4,1.13575676E-4,-2.8414873E-3,-8.367663E-3,-1.08347E-3,3.239806E-3,3.931224E-3,4.2554765E-4,-1.1629977E-2,4.4419715E-4],"categories":[],"categories_nodes":[],"categories_segments":[],"categories_sizes":[],"default_left":[0,0,0,0,0,0,0,0,0,0,0,0,0,0,0,0,0,0,0,0,0,0,0,0,0,0,0,0,0,0,0,0,0,0,0,0,0,0,0,0,0,0,0,0,0,0,0,0,0],"id":2,"left_children":[1,3,5,7,9,11,13,15,17,19,21,23,-1,25,27,29,-1,-1,-1,31,-1,-1,-1,-1,-1,33,35,-1,37,-1,-1,39,-1,41,43,-1,45,47,-1,-1,-1,-1,-1,-1,-1,-1,-1,-1,-1],"loss_changes":[1.2076575E1,7.726846E-1,2.5495062E0,1.0247183E-1,1.03764266E-1,3.523306E-1,2.4075894E0,3.3848763E-2,1.0179445E-2,1.1841197E-2,4.901409E-3,3.6787987E-3,0E0,6.7413074E-1,6.161823E-1,3.8385391E-3,0E0,0E0,0E0,9.1980473E-4,0E0,0E0,0E0,0E0,0E0,4.2209792E-1,8.122751E-2,0E0,3.2045412E-1,0E0,0E0,1.4621369E-4,0E0,1.1684251E-1,3.4757122E-2,0E0,1.3028765E-2,3.12603E-1,0E0,0E0,0E0,0E0,0E0,0E0,0E0,0E0,0E0,0E0,0E0],"parents":[2147483647,0,0,1,1,2,2,3,3,4,4,5,5,6,6,7,7,8,8,9,9,10,10,11,11,13,13,14,14,15,15,19,19,25,25,26,26,28,28,31,31,33,33,34,34,36,36,37,37],"right_children":[2,4,6,8,10,12,14,16,18,20,22,24,-1,26,28,30,-1,-1,-1,32,-1,-1,-1,-1,-1,34,36,-1,38,-1,-1,40,-1,42,44,-1,46,48,-1,-1,-1,-1,-1,-1,-1,-1,-1,-1,-1],"split_conditions":[1.1849408E0,3.1872758E-1,-2.199696E-1,6.5872484E-1,4.709259E-1,1.24531284E-1,3.8313368E-1,9.514463E-2,-4.078539E-1,-6.8281054E-1,-3.3176813E-2,-3.282306E-1,-2.0953778E-3,-2.006408E-1,2.6124752E-1,-2.8393453E-1,7.7180765E-3,2.5062086E-3,6.439883E-3,-5.88673E-3,2.3191746E-3,7.205481E-3,4.0003615E-3,5.5388473E-3,8.635997E-3,9.7677566E-2,-1.0070948E-1,-1.6905554E-2,-3.542262E-1,8.104927E-3,1.1388805E-2,-5.4648966E-3,-3.6292252E-4,-1.0381268E-1,1.06068395E-1,8.907045E-3,-2.746402E-1,3.1898386E0,-2.7433503E-3,4.8122485E-4,1.13575676E-4,-2.8414873E-3,-8.367663E-3,-1.08347E-3,3.239806E-3,3.931224E-3,4.2554765E-4,-1.1629977E-2,4.4419715E-4],"split_indices":[389,345,131,307,94,9,87,247,332,255,2,99,0,199,57,180,0,0,0,2,0,0,0,0,0,337,115,0,146,0,0,1,0,338,107,0,4,388,0,0,0,0,0,0,0,0,0,0,0],"split_type":[0,0,0,0,0,0,0,0,0,0,0,0,0,0,0,0,0,0,0,0,0,0,0,0,0,0,0,0,0,0,0,0,0,0,0,0,0,0,0,0,0,0,0,0,0,0,0,0,0],"sum_hessian":[5.037061E2,2.088254E2,2.948807E2,1.6718382E2,4.1641567E1,4.095705E1,2.5392365E2,1.5682655E2,1.0357268E1,2.6139925E1,1.5501643E1,2.8366526E1,1.2590525E1,8.8658E1,1.6526566E2,1.3842151E2,1.8405058E1,5.0033507E0,5.3539176E0,1.855565E1,7.5842743E0,7.4485474E0,8.053096E0,1.0068381E1,1.8298143E1,6.8281006E1,2.037699E1,4.9407784E1,1.1585787E2,1.2662749E1,1.2575875E2,1.1773485E1,6.782166E0,4.877204E1,1.9508963E1,1.0032089E1,1.03449E1,1.0156455E2,1.4293323E1,6.117829E0,5.6556563E0,1.5178372E1,3.359367E1,6.3078876E0,1.3201075E1,5.302506E0,5.042394E0,9.5966545E1,5.5980034E0],"tree_param":{"num_deleted":"0","num_feature":"403","num_nodes":"49","size_leaf_vector":"1"}},{"base_weights":[2.1239864E-2,1.3677712E-1,-1.4745015E-1,2.0271534E-1,5.7998236E-2,8.100249E-2,-2.0531285E-1,4.7606286E-3,2.0635667E-1,7.593935E-2,-4.8252773E-3,-1.9983167E-3,7.0088245E-3,8.06775E-3,-2.218603E-1,1.0658695E-2,7.886756E-3,5.540799E-2,1.8178967E-1,-1.4214349E-1,-2.621524E-1,-4.726429E-3,6.9010146E-2,1.0688483E-2,4.5773876E-3,-1.6091493E-1,4.2535443E-4,-9.3342E-3,-1.3679126E-2,4.790936E-3,-6.728284E-4,-7.9343765E-4,-9.171357E-3],"categories":[],"categories_nodes":[],"categories_segments":[],"categories_sizes":[],"default_left":[0,0,0,0,0,0,0,0,0,0,0,0,0,0,0,0,0,0,0,0,0,0,0,0,0,0,0,0,0,0,0,0,0],"id":3,"left_children":[1,3,5,7,9,11,13,-1,15,17,-1,-1,-1,-1,19,-1,-1,21,23,25,27,-1,29,-1,-1,31,-1,-1,-1,-1,-1,-1,-1],"loss_changes":[9.080702E0,1.4241581E0,2.5209985E0,3.9099693E-2,3.6034185E-1,2.8480554E-1,9.547043E-1,0E0,1.4206886E-2,2.3911482E-1,0E0,0E0,0E0,0E0,4.2953253E-1,0E0,0E0,2.0531422E-1,3.292179E-2,1.455313E-1,3.1178951E-2,0E0,2.0013699E-1,0E0,0E0,1.4526927E-1,0E0,0E0,0E0,0E0,0E0,0E0,0E0],"parents":[2147483647,0,0,1,1,2,2,3,3,4,4,5,5,6,6,8,8,9,9,14,14,17,17,18,18,19,19,20,20,22,22,25,25],"right_children":[2,4,6,8,10,12,14,-1,16,18,-1,-1,-1,-1,20,-1,-1,22,24,26,28,-1,30,-1,-1,32,-1,-1,-1,-1,-1,-1,-1],"split_conditions":[5.088466E-1,-2.53544E-2,-2.2250004E-1,-5.224804E-1,4.6663147E-1,-7.472068E-3,5.0086778E-2,4.7606286E-3,9.2466354E-2,-2.2943331E-1,-4.8252773E-3,-1.9983167E-3,7.0088245E-3,8.06775E-3,-4.8311815E-2,1.0658695E-2,7.886756E-3,2.5687374E-2,2.3911658E-1,3.3456218E0,-6.4675206E-1,-4.726429E-3,1.0217448E-1,1.0688483E-2,4.5773876E-3,-6.0373843E-3,4.2535443E-4,-9.3342E-3,-1.3679126E-2,4.790936E-3,-6.728284E-4,-7.9343765E-4,-9.171357E-3],"split_indices":[106,120,131,24,100,1,361,0,301,309,0,0,0,0,1,0,0,299,97,390,5,0,327,0,0,13,0,0,0,0,0,0,0],"split_type":[0,0,0,0,0,0,0,0,0,0,0,0,0,0,0,0,0,0,0,0,0,0,0,0,0,0,0,0,0,0,0,0,0],"sum_hessian":[4.638816E2,2.7542786E2,1.8845375E2,1.490768E2,1.2635106E2,3.800461E1,1.5044914E2,5.773516E0,1.4330328E2,1.13661125E2,1.2689934E1,1.2590525E1,2.5414083E1,6.118607E0,1.4433054E2,1.2271331E2,2.0589966E1,9.6472244E1,1.7188877E1,4.997809E1,9.435244E1,7.529129E0,8.8943115E1,1.16806345E1,5.5082426E0,4.4380085E1,5.5980034E0,1.4690385E1,7.9662056E1,6.7000465E1,2.1942656E1,6.1917186E0,3.8188366E1],"tree_param":{"num_deleted":"0","num_feature":"403","num_nodes":"33","size_leaf_vector":"1"}},{"base_weights":[1.0970774E-2,1.13369554E-1,-1.6956241E-1,7.8151785E-3,1.7983373E-1,-8.001346E-3,-2.187366E-1,-7.7198E-3,3.5951056E-2,1.9504142E-1,3.902715E-2,6.8942527E-3,-6.956544E-2,-2.809018E-1,-1.4581054E-1,9.257407E-2,-4.0954437E-2,2.0005469E-1,5.2399375E-3,-1.8662978E-3,6.305121E-3,-1.214824E-3,-5.410864E-3,-1.1655471E-2,-1.6029565E-2,-1.6860104E-1,1.0913692E-3,1.3729942E-1,3.816692E-2,-1.2835522E-1,6.621616E-2,2.0704512E-1,1.4027292E-1,-3.8824107E-3,-9.753221E-3,3.0684432E-3,7.850108E-3,4.216132E-3,5.831907E-4,-1.015037E-2,-4.3641874E-3,4.437666E-3,2.2674045E-3,6.078697E-3,1.047993E-2,4.3089013E-3,7.7115656E-3],"categories":[],"categories_nodes":[],"categories_segments":[],"categories_sizes":[],"default_left":[0,0,0,0,0,0,0,0,0,0,0,0,0,0,0,0,0,0,0,0,0,0,0,0,0,0,0,0,0,0,0,0,0,0,0,0,0,0,0,0,0,0,0,0,0,0,0],"id":4,"left_children":[1,3,5,7,9,11,13,-1,15,17,19,-1,21,23,25,27,29,31,-1,-1,-1,-1,-1,-1,-1,33,-1,35,37,39,41,43,45,-1,-1,-1,-1,-1,-1,-1,-1,-1,-1,-1,-1,-1,-1],"loss_changes":[8.309514E0,2.010305E0,1.290884E0,5.15978E-1,3.6907196E-1,3.599062E-1,5.2436733E-1,0E0,4.223517E-1,5.074787E-2,1.2702015E-1,0E0,4.652761E-2,5.0909996E-2,2.3086214E-1,1.3021636E-1,3.967771E-1,3.325367E-2,0E0,0E0,0E0,0E0,0E0,0E0,0E0,1.11123204E-1,0E0,3.5494983E-2,3.1432804E-2,5.3329527E-2,5.042754E-3,3.1876564E-3,8.339286E-4,0E0,0E0,0E0,0E0,0E0,0E0,0E0,0E0,0E0,0E0,0E0,0E0,0E0,0E0],"parents":[2147483647,0,0,1,1,2,2,3,3,4,4,5,5,6,6,8,8,9,9,10,10,12,12,13,13,14,14,15,15,16,16,17,17,25,25,27,27,28,28,29,29,30,30,31,31,32,32],"right_children":[2,4,6,8,10,12,14,-1,16,18,20,-1,22,24,26,28,30,32,-1,-1,-1,-1,-1,-1,-1,34,-1,36,38,40,42,44,46,-1,-1,-1,-1,-1,-1,-1,-1,-1,-1,-1,-1,-1,-1],"split_conditions":[4.2046624E-1,-2.097894E-1,-2.199696E-1,-4.0743226E-1,1.7070952E-1,1.079777E-1,1.0452653E-1,-7.7198E-3,9.018971E-1,1.7689295E0,-2.9129893E-1,6.8942527E-3,2.585795E0,-4.7990626E-1,2.1421578E0,1.771447E-1,-2.6914677E-1,9.514463E-2,5.2399375E-3,-1.8662978E-3,6.305121E-3,-1.214824E-3,-5.410864E-3,-1.1655471E-2,-1.6029565E-2,3.829211E-1,1.0913692E-3,-3.6311477E-1,-6.366687E-1,-5.9210694E-1,1.5626512E-1,-4.7197008E-1,6.4627096E-2,-3.8824107E-3,-9.753221E-3,3.0684432E-3,7.850108E-3,4.216132E-3,5.831907E-4,-1.015037E-2,-4.3641874E-3,4.437666E-3,2.2674045E-3,6.078697E-3,1.047993E-2,4.3089013E-3,7.7115656E-3],"split_indices":[349,346,131,31,107,22,308,0,389,389,227,0,388,5,389,66,28,247,0,0,0,0,0,0,0,18,0,24,112,239,229,132,210,0,0,0,0,0,0,0,0,0,0,0,0,0,0],"split_type":[0,0,0,0,0,0,0,0,0,0,0,0,0,0,0,0,0,0,0,0,0,0,0,0,0,0,0,0,0,0,0,0,0,0,0,0,0,0,0,0,0,0,0,0,0,0,0],"sum_hessian":[4.4745407E2,2.857488E2,1.6170526E2,1.1083884E2,1.7490996E2,3.8004562E1,1.237007E2,1.572017E1,9.511867E1,1.5751276E2,1.739721E1,1.0910533E1,2.7094028E1,6.5237595E1,5.84631E1,5.4666077E1,4.045259E1,1.4807013E2,9.442616E0,9.57371E0,7.8234987E0,1.3228929E1,1.38651E1,3.2715878E1,3.252172E1,5.1461174E1,7.0019274E0,2.9166348E1,2.5499731E1,2.217255E1,1.828004E1,1.303631E2,1.770704E1,1.2485057E1,3.8976116E1,6.856692E0,2.2309654E1,8.505541E0,1.699419E1,6.469927E0,1.5702624E1,7.224568E0,1.1055473E1,5.191796E0,1.251713E2,5.1033278E0,1.2603713E1],"tree_param":{"num_deleted":"0","num_feature":"403","num_nodes":"47","size_leaf_vector":"1"}},{"base_weights":[3.5585067E-3,1.3907763E-1,-1.2580593E-1,1.7411901E-1,1.1956331E-2,6.4116426E-2,-1.7555834E-1,9.0617456E-2,1.8707651E-1,-3.4222744E-2,1.2779559E-1,-4.014298E-3,8.835567E-2,3.1262163E-2,-2.070997E-1,4.6439562E-4,1.1392316E-1,3.6821829E-3,1.9052096E-1,-4.6213185E-3,-2.8558415E-3,2.905145E-3,7.877986E-3,1.24531195E-1,5.3764813E-2,-1.6301567E-2,7.8526E-3,-1.5747417E-2,-1.7295186E-1,1.3686767E-1,3.2780864E-3,1.9767307E-1,7.616132E-3,1.1924744E-3,-1.0739927E-2,4.05169E-3,6.951856E-3,3.1997699E-3,1.292948E-3,1.0436204E-3,-1.8494824E-3,1.4974435E-3,-1.8995148E-1,8.342593E-3,4.568851E-3,1.0114758E-2,6.8284343E-3,-1.5192437E-4,-1.1355017E-3,4.2731944E-3,-4.0647835E-3,-7.851756E-3,-1.1737707E-2],"categories":[],"categories_nodes":[],"categories_segments":[],"categories_sizes":[],"default_left":[0,0,0,0,0,0,0,0,0,0,0,0,0,0,0,0,0,0,0,0,0,0,0,0,0,0,0,0,0,0,0,0,0,0,0,0,0,0,0,0,0,0,0,0,0,0,0,0,0,0,0,0,0],"id":5,"left_children":[1,3,5,7,9,11,13,15,17,19,21,-1,23,25,27,-1,29,-1,31,-1,33,-1,-1,35,37,39,-1,-1,41,43,-1,45,-1,-1,47,-1,-1,-1,-1,-1,-1,49,51,-1,-1,-1,-1,-1,-1,-1,-1,-1,-1],"loss_changes":[8.57001E0,1.0613322E0,2.3746002E0,1.854496E-1,2.860697E-1,1.9138561E-1,1.3011179E0,5.0248846E-2,4.887438E-2,6.99135E-2,2.2417948E-2,0E0,5.0315827E-2,1.6488202E-1,5.8018875E-1,0E0,1.4274299E-2,0E0,1.2405872E-2,0E0,5.732486E-3,0E0,0E0,2.3055673E-3,5.496718E-3,1.6608857E-2,0E0,0E0,3.9502048E-1,2.8810054E-3,0E0,8.445263E-3,0E0,0E0,1.8458136E-3,0E0,0E0,0E0,0E0,0E0,0E0,9.6009895E-2,1.4201355E-1,0E0,0E0,0E0,0E0,0E0,0E0,0E0,0E0,0E0,0E0],"parents":[2147483647,0,0,1,1,2,2,3,3,4,4,5,5,6,6,7,7,8,8,9,9,10,10,12,12,13,13,14,14,16,16,18,18,20,20,23,23,24,24,25,25,28,28,29,29,31,31,34,34,41,41,42,42],"right_children":[2,4,6,8,10,12,14,16,18,20,22,-1,24,26,28,-1,30,-1,32,-1,34,-1,-1,36,38,40,-1,-1,42,44,-1,46,-1,-1,48,-1,-1,-1,-1,-1,-1,50,52,-1,-1,-1,-1,-1,-1,-1,-1,-1,-1],"split_conditions":[1.5398959E0,3.964307E-1,-1.21939026E-1,-2.0891167E-1,1.6912523E-1,-3.3073062E-1,7.348406E-2,-4.7105622E-1,-6.989842E-1,2.801684E-1,-4.4949025E-1,-4.014298E-3,-3.6226833E-1,4.854638E-1,5.7157032E-2,4.6439562E-4,-1.2464404E-2,3.6821829E-3,8.997488E-2,-4.6213185E-3,-1.0040731E0,2.905145E-3,7.877986E-3,2.6656103E0,-3.3455113E-1,-3.2618228E-1,7.8526E-3,-1.5747417E-2,-1.7189205E-1,7.754994E-2,3.2780864E-3,4.7951916E-1,7.616132E-3,1.1924744E-3,7.600516E-2,4.05169E-3,6.951856E-3,3.1997699E-3,1.292948E-3,1.0436204E-3,-1.8494824E-3,-1.0487285E-1,2.7627914E0,8.342593E-3,4.568851E-3,1.0114758E-2,6.8284343E-3,-1.5192437E-4,-1.1355017E-3,4.2731944E-3,-4.0647835E-3,-7.851756E-3,-1.1737707E-2],"split_indices":[389,90,304,285,363,21,232,17,287,72,359,0,5,174,61,0,63,0,301,0,389,0,0,388,146,4,0,0,128,15,0,210,0,0,389,0,0,0,0,0,0,5,388,0,0,0,0,0,0,0,0,0,0],"split_type":[0,0,0,0,0,0,0,0,0,0,0,0,0,0,0,0,0,0,0,0,0,0,0,0,0,0,0,0,0,0,0,0,0,0,0,0,0,0,0,0,0,0,0,0,0,0,0,0,0,0,0,0,0],"sum_hessian":[4.86841E2,2.3772783E2,2.4911316E2,1.8606795E2,5.1659893E1,5.1651745E1,1.9746141E2,2.6068598E1,1.5999934E2,3.7439342E1,1.4220548E1,7.0916805E0,4.4560062E1,2.6130356E1,1.7133105E2,6.117829E0,1.995077E1,5.3748465E0,1.546245E2,1.2429276E1,2.5010067E1,5.1392083E0,9.08134E0,2.051017E1,2.4049894E1,1.9592451E1,6.537904E0,3.9224827E1,1.3210623E2,1.2289881E1,7.660889E0,1.2672256E2,2.7901937E1,5.239063E0,1.9771004E1,6.776488E0,1.3733683E1,1.6651876E1,7.3980174E0,7.0019274E0,1.2590525E1,1.1811286E1,1.20294945E2,5.7994633E0,6.490417E0,1.1566288E2,1.1059682E1,1.2793586E1,6.977419E0,5.848075E0,5.963211E0,7.194341E1,4.8351536E1],"tree_param":{"num_deleted":"0","num_feature":"403","num_nodes":"53","size_leaf_vector":"1"}},{"base_weights":[-9.579998E-3,8.6487785E-2,-1.7411464E-1,2.2889571E-2,1.8010749E-1,6.683091E-3,-2.0194955E-1,-3.15177E-2,8.63997E-2,5.824668E-3,1.8749142E-1,-1.5038505E-2,-1.7531128E-1,1.4116008E-2,-1.3251972E-1,1.1556021E-1,-2.7326867E-2,1.0482971E-2,8.367298E-3,-2.2785368E-3,-1.8776341E-1,-1.498608E-1,6.479379E-2,-1.0337863E-2,-7.1855225E-2,2.8055086E-4,1.323635E-1,5.6483276E-4,-3.838387E-3,-1.9731128E-1,3.1674077E-4,-8.784304E-3,-5.2932627E-3,5.9439703E-3,1.0951672E-3,-1.3263639E-3,-4.8740166E-3,7.917649E-3,3.6090189E-3,-8.096017E-3,-1.10580195E-2],"categories":[],"categories_nodes":[],"categories_segments":[],"categories_sizes":[],"default_left":[0,0,0,0,0,0,0,0,0,0,0,0,0,0,0,0,0,0,0,0,0,0,0,0,0,0,0,0,0,0,0,0,0,0,0,0,0,0,0,0,0],"id":6,"left_children":[1,3,5,7,9,-1,11,13,15,-1,17,-1,19,21,23,25,27,-1,-1,-1,29,31,33,-1,35,-1,37,-1,-1,39,-1,-1,-1,-1,-1,-1,-1,-1,-1,-1,-1],"loss_changes":[7.671656E0,1.8207791E0,1.5596023E0,6.3733745E-1,3.6328793E-2,0E0,3.801961E-1,4.6117017E-1,2.8507E-1,0E0,1.3734579E-2,0E0,2.0459414E-1,5.8760816E-1,1.2524086E-1,1.246112E-1,3.5539728E-2,0E0,0E0,0E0,2.2375345E-1,3.9833784E-4,1.2225112E-1,0E0,1.9078568E-2,0E0,8.055842E-2,0E0,0E0,6.0802937E-2,0E0,0E0,0E0,0E0,0E0,0E0,0E0,0E0,0E0,0E0,0E0],"parents":[2147483647,0,0,1,1,2,2,3,3,4,4,6,6,7,7,8,8,10,10,12,12,13,13,14,14,15,15,16,16,20,20,21,21,22,22,24,24,26,26,29,29],"right_children":[2,4,6,8,10,-1,12,14,16,-1,18,-1,20,22,24,26,28,-1,-1,-1,30,32,34,-1,36,-1,38,-1,-1,40,-1,-1,-1,-1,-1,-1,-1,-1,-1,-1,-1],"split_conditions":[4.2635566E-1,-1.709696E-1,-4.1399273E-1,2.1010146E-1,-1.0225962E0,6.683091E-3,9.79335E-2,1.2258623E0,2.1519284E0,5.824668E-3,1.4507473E-1,-1.5038505E-2,3.044686E-1,-1.524348E-1,5.0606644E-1,2.2047907E-2,5.9134805E-1,1.0482971E-2,8.367298E-3,-2.2785368E-3,3.1898386E0,3.9904064E-1,1.8578605E-1,-1.0337863E-2,-1.871113E-1,2.8055086E-4,2.6089215E-1,5.6483276E-4,-3.838387E-3,2.7627914E0,3.1674077E-4,-8.784304E-3,-5.2932627E-3,5.9439703E-3,1.0951672E-3,-1.3263639E-3,-4.8740166E-3,7.917649E-3,3.6090189E-3,-8.096017E-3,-1.10580195E-2],"split_indices":[349,287,202,84,388,0,32,389,389,0,43,0,236,284,71,262,0,0,0,0,388,0,209,0,6,0,191,0,0,388,0,0,0,0,0,0,0,0,0,0,0],"split_type":[0,0,0,0,0,0,0,0,0,0,0,0,0,0,0,0,0,0,0,0,0,0,0,0,0,0,0,0,0,0,0,0,0,0,0,0,0,0,0,0,0],"sum_hessian":[4.8339612E2,3.0549774E2,1.7789838E2,1.8265805E2,1.2283971E2,1.4439196E1,1.6345918E2,9.865066E1,8.400739E1,1.4520343E1,1.0831936E2,3.252172E1,1.3093745E2,6.8542656E1,3.0108002E1,6.6850266E1,1.7157131E1,4.7092083E1,6.122728E1,1.1874536E1,1.1906292E2,1.572017E1,5.2822483E1,1.2456403E1,1.76516E1,9.0390215E0,5.781124E1,1.006545E1,7.0916805E0,1.1346492E2,5.5980034E0,8.019484E0,7.7006865E0,2.2578676E1,3.0243807E1,7.1100044E0,1.0541595E1,3.9236263E1,1.8574978E1,4.8815037E1,6.464988E1],"tree_param":{"num_deleted":"0","num_feature":"403","num_nodes":"41","size_leaf_vector":"1"}},{"base_weights":[-1.804593E-2,1.2187441E-1,-1.4659628E-1,-2.4881095E-3,1.614136E-1,4.8908316E-2,-1.748377E-1,-1.12099685E-1,4.7045443E-2,4.479395E-2,1.6948305E-1,8.515027E-2,-3.670187E-3,-1.9829652E-1,-1.1456936E-2,-2.5977928E-3,-8.393786E-3,2.2509972E-2,6.9414214E-3,4.1066515E-3,-5.588788E-4,1.4320825E-1,1.817326E-1,5.063007E-2,6.513254E-3,-2.2864997E-1,-9.892339E-2,-1.1182744E-1,1.1526391E-1,4.119877E-2,-2.9195773E-3,3.680508E-3,7.445535E-3,1.6089943E-1,9.810532E-3,3.13484E-3,1.3125746E-3,-1.4542158E-2,-1.9486572E-1,-1.4136097E-1,-2.2108776E-4,-3.8217318E-3,-6.6978014E-3,3.2627422E-3,7.5395564E-3,2.5166E-4,4.8807627E-3,8.372937E-3,4.3216194E-3,-2.3060981E-3,-1.0162027E-2,-8.599192E-3,3.0330406E-4],"categories":[],"categories_nodes":[],"categories_segments":[],"categories_sizes":[],"default_left":[0,0,0,0,0,0,0,0,0,0,0,0,0,0,0,0,0,0,0,0,0,0,0,0,0,0,0,0,0,0,0,0,0,0,0,0,0,0,0,0,0,0,0,0,0,0,0,0,0,0,0,0,0],"id":7,"left_children":[1,3,5,7,9,11,13,15,17,19,21,23,-1,25,27,-1,-1,29,-1,-1,-1,31,33,35,-1,37,39,41,43,45,-1,-1,-1,47,-1,-1,-1,-1,49,51,-1,-1,-1,-1,-1,-1,-1,-1,-1,-1,-1,-1,-1],"loss_changes":[8.825419E0,1.1559954E0,1.420114E0,3.1843454E-1,1.602292E-1,1.5275797E-1,8.547468E-1,5.2491665E-2,8.792164E-2,2.7878774E-2,2.7541637E-2,3.3832356E-2,0E0,5.6698084E-1,3.8347626E-1,0E0,0E0,5.2444853E-2,0E0,0E0,0E0,1.1913896E-2,1.5461445E-3,3.1614378E-3,0E0,2.5633478E-1,1.8986431E-1,2.8922558E-3,1.3914764E-2,5.555957E-2,0E0,0E0,0E0,1.0228872E-2,0E0,0E0,0E0,0E0,1.1465216E-1,1.4888161E-1,0E0,0E0,0E0,0E0,0E0,0E0,0E0,0E0,0E0,0E0,0E0,0E0,0E0],"parents":[2147483647,0,0,1,1,2,2,3,3,4,4,5,5,6,6,7,7,8,8,9,9,10,10,11,11,13,13,14,14,17,17,21,21,22,22,23,23,25,25,26,26,27,27,28,28,29,29,33,33,38,38,39,39],"right_children":[2,4,6,8,10,12,14,16,18,20,22,24,-1,26,28,-1,-1,30,-1,-1,-1,32,34,36,-1,38,40,42,44,46,-1,-1,-1,48,-1,-1,-1,-1,50,52,-1,-1,-1,-1,-1,-1,-1,-1,-1,-1,-1,-1,-1],"split_conditions":[1.5398959E0,-6.1297727E-1,1.9337565E-2,-7.130118E-1,6.279653E-2,-7.3162794E-2,2.3099282E-1,2.230009E-1,-2.1877536E-1,1.6000518E-1,-4.5810677E-2,-1.9367784E-2,-3.670187E-3,1.1636095E-1,-1.9184726E-1,-2.5977928E-3,-8.393786E-3,1.1849408E0,6.9414214E-3,4.1066515E-3,-5.588788E-4,-2.1755086E-1,1.4022453E-1,-6.261331E-2,6.513254E-3,1.2369318E-1,3.6915302E-1,3.8074923E-1,2.3157267E-1,-1.8529679E-1,-2.9195773E-3,3.680508E-3,7.445535E-3,1.3512602E-1,9.810532E-3,3.13484E-3,1.3125746E-3,-1.4542158E-2,-2.214114E-1,2.1421578E0,-2.2108776E-4,-3.8217318E-3,-6.6978014E-3,3.2627422E-3,7.5395564E-3,2.5166E-4,4.8807627E-3,8.372937E-3,4.3216194E-3,-2.3060981E-3,-1.0162027E-2,-8.599192E-3,3.0330406E-4],"split_indices":[389,199,329,294,212,2,353,0,287,9,23,1,0,308,273,0,0,389,0,0,0,241,289,1,0,42,0,0,353,261,0,0,0,289,0,0,0,0,270,389,0,0,0,0,0,0,0,0,0,0,0,0,0],"split_type":[0,0,0,0,0,0,0,0,0,0,0,0,0,0,0,0,0,0,0,0,0,0,0,0,0,0,0,0,0,0,0,0,0,0,0,0,0,0,0,0,0,0,0,0,0,0,0,0,0,0,0,0,0],"sum_hessian":[4.8866733E2,2.3401079E2,2.5465656E2,5.667816E1,1.7733263E2,3.2050594E1,2.2260596E2,1.7247807E1,3.943035E1,1.1900329E1,1.654323E2,2.4958912E1,7.0916805E0,1.9446959E2,2.8136374E1,9.228324E0,8.019484E0,3.2095753E1,7.3346004E0,6.857934E0,5.042394E0,5.663765E1,1.0879464E2,1.5342013E1,9.6168995E0,1.47971E2,4.649859E1,1.576616E1,1.2370214E1,2.6471428E1,5.624325E0,5.3424063E0,5.1295242E1,4.9573826E1,5.9220818E1,9.211014E0,6.130999E0,4.9407784E1,9.856322E1,3.1746447E1,1.4752143E1,7.7787766E0,7.9873834E0,6.316165E0,6.054049E0,1.6794556E1,9.676871E0,4.441302E1,5.160805E0,5.60052E0,9.29627E1,2.6148443E1,5.5980034E0],"tree_param":{"num_deleted":"0","num_feature":"403","num_nodes":"53","size_leaf_vector":"1"}},{"base_weights":[-6.0239816E-3,8.6610824E-2,-1.5322758E-1,1.1300404E-2,1.5815185E-1,-2.2662383E-1,-4.8665527E-2,-5.8711607E-2,5.946101E-2,1.6325074E-1,1.8018784E-3,-1.3829474E-2,-1.8045126E-1,-9.064039E-2,6.3349954E-3,-9.200233E-2,5.5071316E-3,1.4610122E-1,3.0446932E-2,7.0775757E-3,1.7513496E-1,-4.6567093E-3,-9.876345E-3,-1.1483115E-1,5.0078696E-3,-1.4469437E-2,-1.2885359E-1,8.515584E-3,3.2271314E-3,-2.456346E-2,7.833065E-2,4.7790622E-3,8.96973E-3,-4.501839E-2,-8.101772E-3,8.5702835E-4,-3.504409E-3,-4.5351344E-3,-1.04319E-2,-5.0100004E-3,8.239602E-4,6.822966E-3,2.6304522E-3,-7.4530113E-4,-4.0456494E-3],"categories":[],"categories_nodes":[],"categories_segments":[],"categories_sizes":[],"default_left":[0,0,0,0,0,0,0,0,0,0,0,0,0,0,0,0,0,0,0,0,0,0,0,0,0,0,0,0,0,0,0,0,0,0,0,0,0,0,0,0,0,0,0,0,0],"id":8,"left_children":[1,3,5,7,9,11,13,15,17,19,-1,-1,21,23,-1,25,-1,27,29,-1,31,-1,-1,33,-1,35,37,-1,-1,39,41,-1,-1,43,-1,-1,-1,-1,-1,-1,-1,-1,-1,-1,-1],"loss_changes":[6.558324E0,1.58885E0,1.4144773E0,4.9207845E-1,8.834052E-2,2.0124435E-1,5.8476824E-1,3.4492362E-1,2.1260568E-1,1.2596369E-2,0E0,0E0,7.025361E-2,3.0423534E-1,0E0,1.418351E-1,0E0,3.1259775E-2,1.7563604E-1,0E0,1.3168573E-2,0E0,0E0,1.7973256E-1,0E0,3.166903E-2,8.445811E-2,0E0,0E0,9.928569E-2,4.589364E-2,0E0,0E0,2.5036015E-2,0E0,0E0,0E0,0E0,0E0,0E0,0E0,0E0,0E0,0E0,0E0],"parents":[2147483647,0,0,1,1,2,2,3,3,4,4,5,5,6,6,7,7,8,8,9,9,12,12,13,13,15,15,17,17,18,18,20,20,23,23,25,25,26,26,29,29,30,30,33,33],"right_children":[2,4,6,8,10,12,14,16,18,20,-1,-1,22,24,-1,26,-1,28,30,-1,32,-1,-1,34,-1,36,38,-1,-1,40,42,-1,-1,44,-1,-1,-1,-1,-1,-1,-1,-1,-1,-1,-1],"split_conditions":[4.2635566E-1,-1.2928325E-1,-1.0770491E-1,5.7462752E-2,4.1426784E-1,1.4195909E-1,1.0128466E-1,-3.30962E-1,-1.8990669E-1,-7.4556634E-2,1.8018784E-3,-1.3829474E-2,3.5156763E-1,2.8814094E0,6.3349954E-3,1.8845168E-1,5.5071316E-3,-1.8859483E-1,-2.4694636E-2,7.0775757E-3,-4.6991873E-1,-4.6567093E-3,-9.876345E-3,2.755322E-1,5.0078696E-3,9.018971E-1,1.2800182E0,8.515584E-3,3.2271314E-3,-3.8593164E-1,9.018971E-1,4.7790622E-3,8.96973E-3,9.906607E-1,-8.101772E-3,8.5702835E-4,-3.504409E-3,-4.5351344E-3,-1.04319E-2,-5.0100004E-3,8.239602E-4,6.822966E-3,2.6304522E-3,-7.4530113E-4,-4.0456494E-3],"split_indices":[349,346,175,275,30,32,220,388,362,88,0,0,0,388,0,42,0,300,156,0,132,0,0,74,0,389,389,0,0,96,389,0,0,0,0,0,0,0,0,0,0,0,0,0,0],"split_type":[0,0,0,0,0,0,0,0,0,0,0,0,0,0,0,0,0,0,0,0,0,0,0,0,0,0,0,0,0,0,0,0,0,0,0,0,0,0,0,0,0,0,0,0,0],"sum_hessian":[4.7897705E2,2.9423035E2,1.847467E2,1.4390312E2,1.5032724E2,1.07864784E2,7.688192E1,5.8557644E1,8.5345474E1,1.4397852E2,6.348721E0,4.9407784E1,5.8457E1,6.2423565E1,1.4458355E1,4.929412E1,9.263523E0,2.0398146E1,6.494733E1,5.5518604E1,8.8459915E1,1.0617601E1,4.7839397E1,5.5752945E1,6.6706195E0,1.6329803E1,3.2964317E1,1.4889904E1,5.5082426E0,3.0451109E1,3.449622E1,5.687014E0,8.2772896E1,2.327866E1,3.2474285E1,1.0853317E1,5.4764853E0,2.3746286E1,9.218033E0,1.0204365E1,2.0246744E1,9.261274E0,2.5234943E1,1.3428563E1,9.850096E0],"tree_param":{"num_deleted":"0","num_feature":"403","num_nodes":"45","size_leaf_vector":"1"}},{"base_weights":[-1.956167E-2,7.764706E-2,-1.6174896E-1,1.915449E-2,1.4793627E-1,6.3565806E-3,-1.7734389E-1,7.752183E-2,-2.2519503E-2,-6.0024945E-4,1.5421452E-1,-1.4772189E-1,-1.3151719E-2,-1.6810916E-3,9.926536E-2,-7.2503076E-3,1.4973707E-3,1.798677E-1,1.3509674E-1,-5.17276E-4,-1.6134012E-1,8.467461E-3,7.4461564E-2,-4.6489593E-3,2.3409119E-2,9.309574E-3,5.2316226E-3,7.0363837E-3,3.1865728E-3,-1.6886602E-1,7.0941116E-4,5.8597373E-3,2.9390904E-3,2.4703061E-3,-2.613998E-3,-6.636064E-3,-9.730904E-3],"categories":[],"categories_nodes":[],"categories_segments":[],"categories_sizes":[],"default_left":[0,0,0,0,0,0,0,0,0,0,0,0,0,0,0,0,0,0,0,0,0,0,0,0,0,0,0,0,0,0,0,0,0,0,0,0,0],"id":9,"left_children":[1,3,5,7,9,-1,11,13,15,-1,17,19,-1,-1,21,-1,23,25,27,-1,29,-1,31,-1,33,-1,-1,-1,-1,35,-1,-1,-1,-1,-1,-1,-1],"loss_changes":[7.2054276E0,1.2707214E0,9.759836E-1,4.1578203E-1,1.4297938E-1,0E0,4.7189093E-1,1.752392E-1,2.9464206E-1,0E0,4.2060375E-2,2.823336E-1,0E0,0E0,9.1249466E-2,0E0,1.7745078E-1,6.5721273E-3,2.3801088E-2,0E0,1.84757E-1,0E0,2.3874998E-2,0E0,1.3938957E-1,0E0,0E0,0E0,0E0,9.7453356E-2,0E0,0E0,0E0,0E0,0E0,0E0,0E0],"parents":[2147483647,0,0,1,1,2,2,3,3,4,4,6,6,7,7,8,8,10,10,11,11,14,14,16,16,17,17,18,18,20,20,22,22,24,24,29,29],"right_children":[2,4,6,8,10,-1,12,14,16,-1,18,20,-1,-1,22,-1,24,26,28,-1,30,-1,32,-1,34,-1,-1,-1,-1,36,-1,-1,-1,-1,-1,-1,-1],"split_conditions":[4.2635566E-1,-9.035212E-2,-5.543588E-2,3.556437E-1,6.279653E-2,6.3565806E-3,-1.5906744E-1,1.6162616E-1,-1.4940396E-1,-6.0024945E-4,2.3962235E-1,2.5885528E-1,-1.3151719E-2,-1.6810916E-3,1.1582079E-1,-7.2503076E-3,-6.855263E-1,3.505194E-1,2.9072294E-1,-5.17276E-4,3.1898386E0,8.467461E-3,1.4422804E-1,-4.6489593E-3,2.1519284E0,9.309574E-3,5.2316226E-3,7.0363837E-3,3.1865728E-3,2.7627914E0,7.0941116E-4,5.8597373E-3,2.9390904E-3,2.4703061E-3,-2.613998E-3,-6.636064E-3,-9.730904E-3],"split_indices":[349,346,89,106,212,0,34,351,203,0,167,234,0,0,74,0,112,371,256,0,388,0,378,0,389,0,0,0,0,388,0,0,0,0,0,0,0],"split_type":[0,0,0,0,0,0,0,0,0,0,0,0,0,0,0,0,0,0,0,0,0,0,0,0,0,0,0,0,0,0,0,0,0,0,0,0,0],"sum_hessian":[5.1939856E2,3.087621E2,2.1063646E2,1.6921716E2,1.395449E2,1.0422263E1,2.002142E2,7.013209E1,9.908508E1,5.236273E0,1.3430864E2,1.5080641E2,4.9407784E1,1.13859005E1,5.8746185E1,1.5417545E1,8.366754E1,5.376103E1,8.054761E1,1.3759958E1,1.3704646E2,1.3833022E1,4.4913162E1,1.5140994E1,6.852654E1,4.823216E1,5.5288706E0,7.375611E1,6.7915015E0,1.3144846E2,5.5980034E0,1.0318135E1,3.4595028E1,5.126556E1,1.7260983E1,5.724915E1,7.41993E1],"tree_param":{"num_deleted":"0","num_feature":"403","num_nodes":"37","size_leaf_vector":"1"}},{"base_weights":[-1.01081E-3,8.302684E-2,-1.3937455E-1,2.3613065E-2,1.4163886E-1,-2.003829E-1,-3.526423E-2,-6.749008E-2,5.0240062E-2,1.4916027E-1,3.291518E-2,-1.5894511E-1,-1.250718E-2,-8.164689E-2,5.797164E-3,-6.771759E-3,-1.0203824E-2,8.897693E-2,-3.79148E-2,1.5566756E-1,5.786546E-3,-8.847769E-4,3.9167325E-3,-5.2921246E-3,-8.874938E-3,-6.543097E-4,-1.0453526E-1,-2.4926277E-2,7.8875775E-4,1.1362671E-1,5.451637E-3,1.5908659E-2,-1.3207042E-1,1.6552678E-1,6.7355777E-3,-3.1778887E-3,-5.819208E-3,-8.3366473E-4,-1.5707966E-3,6.6754348E-3,1.7593676E-3,2.250023E-3,-3.848E-3,2.050205E-3,-5.121701E-4,-4.3623066E-3,-8.3203735E-3,8.490116E-3,5.3656762E-3],"categories":[],"categories_nodes":[],"categories_segments":[],"categories_sizes":[],"default_left":[0,0,0,0,0,0,0,0,0,0,0,0,0,0,0,0,0,0,0,0,0,0,0,0,0,0,0,0,0,0,0,0,0,0,0,0,0,0,0,0,0,0,0,0,0,0,0,0,0],"id":10,"left_children":[1,3,5,7,9,11,13,15,17,19,21,23,-1,25,-1,-1,27,29,31,33,-1,-1,-1,-1,-1,-1,35,37,-1,39,41,43,45,47,-1,-1,-1,-1,-1,-1,-1,-1,-1,-1,-1,-1,-1,-1,-1],"loss_changes":[5.612115E0,1.0423379E0,1.151293E0,3.6803746E-1,1.1853862E-1,1.9690561E-1,4.9056527E-1,1.326095E-1,4.025531E-1,1.26369E-2,2.6788581E-2,4.5616627E-2,0E0,8.1929386E-2,0E0,0E0,7.950435E-3,1.6719776E-1,1.8649966E-1,1.4724731E-3,0E0,0E0,0E0,0E0,0E0,0E0,1.1855781E-2,1.7241854E-4,0E0,9.337348E-2,6.742273E-2,1.620026E-2,6.0168803E-3,1.6331673E-4,0E0,0E0,0E0,0E0,0E0,0E0,0E0,0E0,0E0,0E0,0E0,0E0,0E0,0E0,0E0],"parents":[2147483647,0,0,1,1,2,2,3,3,4,4,5,5,6,6,7,7,8,8,9,9,10,10,11,11,13,13,16,16,17,17,18,18,19,19,26,26,27,27,29,29,30,30,31,31,32,32,33,33],"right_children":[2,4,6,8,10,12,14,16,18,20,22,24,-1,26,-1,-1,28,30,32,34,-1,-1,-1,-1,-1,-1,36,38,-1,40,42,44,46,48,-1,-1,-1,-1,-1,-1,-1,-1,-1,-1,-1,-1,-1,-1,-1],"split_conditions":[4.2635566E-1,-9.035212E-2,-2.3990273E-3,-5.9017175E-1,3.898421E-2,-2.737115E-1,1.0128466E-1,1.2539719E-1,2.1519284E0,-1.1238396E-1,-7.4395716E-2,-4.8311815E-2,-1.250718E-2,2.585795E0,5.797164E-3,-6.771759E-3,7.388402E-2,6.423148E-1,-4.441671E-2,4.595034E-2,5.786546E-3,-8.847769E-4,3.9167325E-3,-5.2921246E-3,-8.874938E-3,-6.543097E-4,7.7765346E-2,-5.9656143E-1,7.8875775E-4,3.4841412E-1,4.9068376E-1,-6.860301E-3,-3.945133E-2,2.6227057E-1,6.7355777E-3,-3.1778887E-3,-5.819208E-3,-8.3366473E-4,-1.5707966E-3,6.6754348E-3,1.7593676E-3,2.250023E-3,-3.848E-3,2.050205E-3,-5.121701E-4,-4.3623066E-3,-8.3203735E-3,8.490116E-3,5.3656762E-3],"split_indices":[349,346,354,111,80,3,220,131,389,313,2,1,0,388,0,0,21,295,211,127,0,0,0,0,0,0,1,389,0,262,389,151,1,115,0,0,0,0,0,0,0,0,0,0,0,0,0,0,0],"split_type":[0,0,0,0,0,0,0,0,0,0,0,0,0,0,0,0,0,0,0,0,0,0,0,0,0,0,0,0,0,0,0,0,0,0,0,0,0,0,0,0,0,0,0,0,0,0,0,0,0],"sum_hessian":[4.8065262E2,2.9927975E2,1.813729E2,1.4932E2,1.4995973E2,1.1377584E2,6.7597046E1,3.3424576E1,1.1589543E2,1.3990901E2,1.0050714E1,6.436806E1,4.9407784E1,5.208124E1,1.5515801E1,1.4665815E1,1.8758762E1,8.050899E1,3.538645E1,1.14051414E2,2.5857605E1,5.042394E0,5.0083194E0,1.840255E1,4.596551E1,1.3428563E1,3.865268E1,1.1999238E1,6.759523E0,6.188519E1,1.8623795E1,2.304434E1,1.2342111E1,7.286952E1,4.118189E1,1.0097193E1,2.8555485E1,6.853174E0,5.1460643E0,4.8811024E1,1.3074167E1,1.2891298E1,5.732497E0,1.1469924E1,1.1574416E1,6.889408E0,5.4527025E0,6.609798E1,6.771548E0],"tree_param":{"num_deleted":"0","num_feature":"403","num_nodes":"49","size_leaf_vector":"1"}},{"base_weights":[-1.3006656E-2,6.554897E-2,-1.5055215E-1,7.7026444E-3,1.3270469E-1,-2.124894E-2,-1.7936876E-1,6.674969E-2,-2.8445564E-2,-1.07203436E-4,1.3788253E-1,-6.65397E-2,5.8249314E-3,-1.4824055E-1,-1.1894225E-2,1.2090944E-1,2.8096428E-3,-5.1358264E-2,8.4511966E-2,2.7191096E-3,1.4162147E-1,-8.789054E-3,2.3545821E-4,-1.1017533E-1,-9.244005E-3,1.3285913E-1,3.138835E-3,-4.02121E-3,4.579065E-2,-6.5996945E-2,4.629237E-3,6.882378E-3,1.2268061E-3,6.449837E-3,1.6014355E-1,-6.7855786E-3,-1.0955966E-3,3.4606631E-3,7.583353E-3,1.4493577E-3,2.8277482E-3,-1.3947645E-3,-5.7574953E-3,8.400012E-3,5.202343E-3],"categories":[],"categories_nodes":[],"categories_segments":[],"categories_sizes":[],"default_left":[0,0,0,0,0,0,0,0,0,0,0,0,0,0,0,0,0,0,0,0,0,0,0,0,0,0,0,0,0,0,0,0,0,0,0,0,0,0,0,0,0,0,0,0,0],"id":11,"left_children":[1,3,5,7,9,11,13,15,17,-1,19,21,-1,23,-1,25,27,29,31,-1,33,-1,-1,35,-1,37,-1,-1,39,41,-1,-1,-1,-1,43,-1,-1,-1,-1,-1,-1,-1,-1,-1,-1],"loss_changes":[5.455321E0,1.2478001E0,6.799445E-1,3.727964E-1,1.0412383E-1,2.2346953E-1,2.3782825E-1,2.2919723E-1,2.851161E-1,0E0,3.70121E-2,2.0831634E-1,0E0,1.1982584E-1,0E0,1.657188E-2,1.16089694E-1,1.9746381E-1,5.6129083E-2,0E0,1.1250973E-2,0E0,0E0,1.1372453E-1,0E0,2.4039567E-2,0E0,0E0,2.2238232E-3,1.5225554E-1,0E0,0E0,0E0,0E0,5.0719976E-3,0E0,0E0,0E0,0E0,0E0,0E0,0E0,0E0,0E0,0E0],"parents":[2147483647,0,0,1,1,2,2,3,3,4,4,5,5,6,6,7,7,8,8,10,10,11,11,13,13,15,15,16,16,17,17,18,18,20,20,23,23,25,25,28,28,29,29,34,34],"right_children":[2,4,6,8,10,12,14,16,18,-1,20,22,-1,24,-1,26,28,30,32,-1,34,-1,-1,36,-1,38,-1,-1,40,42,-1,-1,-1,-1,44,-1,-1,-1,-1,-1,-1,-1,-1,-1,-1],"split_conditions":[4.2635566E-1,-9.035212E-2,-4.0887928E-1,2.4574977E-1,6.279653E-2,2.8814094E0,-1.5906744E-1,1.5398959E0,5.695998E-2,-1.07203436E-4,-2.8393453E-1,-4.8085815E-1,5.8249314E-3,2.7627914E0,-1.1894225E-2,2.0588848E-1,-1.8003927E-1,3.3239576E-1,1.771447E-1,2.7191096E-3,-1.0748428E-1,-8.789054E-3,2.3545821E-4,-8.003144E-1,-9.244005E-3,-3.7275758E-1,3.138835E-3,-4.02121E-3,2.0483682E-1,1.2258623E0,4.629237E-3,6.882378E-3,1.2268061E-3,6.449837E-3,1.8603969E-1,-6.7855786E-3,-1.0955966E-3,3.4606631E-3,7.583353E-3,1.4493577E-3,2.8277482E-3,-1.3947645E-3,-5.7574953E-3,8.400012E-3,5.202343E-3],"split_indices":[349,346,114,90,212,388,34,389,365,0,180,3,0,388,0,214,315,74,66,0,3,0,0,60,0,355,0,0,224,389,0,0,0,0,233,0,0,0,0,0,0,0,0,0,0],"split_type":[0,0,0,0,0,0,0,0,0,0,0,0,0,0,0,0,0,0,0,0,0,0,0,0,0,0,0,0,0,0,0,0,0,0,0,0,0,0,0,0,0,0,0,0,0],"sum_hessian":[5.029765E2,3.2047104E2,1.8250548E2,1.7276775E2,1.477033E2,3.3577404E1,1.4892807E2,6.528312E1,1.0748462E2,5.48337E0,1.4221992E2,2.565809E1,7.9193153E0,9.952029E1,4.9407784E1,3.4862347E1,3.0420769E1,8.981215E1,1.7672476E1,6.761556E0,1.3545837E2,9.549421E0,1.610867E1,5.0775795E1,4.874449E1,2.785174E1,7.010609E0,1.0062778E1,2.035799E1,8.201311E1,7.799042E0,8.683914E0,8.988562E0,8.528926E1,5.0169106E1,3.896494E1,1.1810853E1,7.4205785E0,2.043116E1,9.391069E0,1.0966921E1,4.70833E1,3.4929802E1,4.225606E1,7.9130425E0],"tree_param":{"num_deleted":"0","num_feature":"403","num_nodes":"45","size_leaf_vector":"1"}},{"base_weights":[-1.011437E-2,1.02888E-1,-8.973012E-2,1.2753375E-1,-5.3035274E-2,1.0496309E-2,-1.2225132E-1,1.1402388E-1,1.4801168E-1,-6.564752E-3,4.6306286E-2,-6.8394006E-3,4.0218018E-2,6.307322E-3,-1.3493448E-1,1.21129036E-1,7.6427E-2,5.088892E-3,1.6193926E-1,4.0246947E-3,1.6775221E-4,1.0411156E-1,1.0198676E-2,-1.1311311E-2,-1.06329866E-1,1.2549308E-1,2.53516E-3,8.8579565E-2,2.1099374E-3,8.399231E-3,4.480204E-3,2.6874633E-3,6.162685E-3,-4.0226247E-2,3.6408093E-2,-1.1856892E-1,5.9821997E-3,4.66578E-3,6.676828E-3,2.6425158E-3,5.132657E-3,-3.0746462E-3,-7.293296E-4,4.7789235E-4,2.3182493E-3,-6.199164E-3,1.206278E-3],"categories":[],"categories_nodes":[],"categories_segments":[],"categories_sizes":[],"default_left":[0,0,0,0,0,0,0,0,0,0,0,0,0,0,0,0,0,0,0,0,0,0,0,0,0,0,0,0,0,0,0,0,0,0,0,0,0,0,0,0,0,0,0,0,0,0,0],"id":12,"left_children":[1,3,5,7,9,11,13,15,17,-1,19,-1,21,-1,23,25,27,-1,29,-1,-1,31,33,-1,35,37,-1,39,-1,-1,-1,-1,-1,41,43,45,-1,-1,-1,-1,-1,-1,-1,-1,-1,-1,-1],"loss_changes":[4.579089E0,8.153627E-1,9.743283E-1,3.3471584E-2,2.3485018E-1,3.2968336E-1,7.2736406E-1,2.11972E-2,2.793932E-2,0E0,1.9855486E-2,0E0,1.18611656E-1,0E0,5.3739333E-1,2.25811E-2,4.9266815E-3,0E0,7.390976E-3,0E0,0E0,1.24975145E-2,5.9031133E-2,0E0,4.7216976E-1,1.0315776E-2,0E0,1.8471032E-3,0E0,0E0,0E0,0E0,0E0,7.4850265E-3,7.3595345E-3,1.247437E-1,0E0,0E0,0E0,0E0,0E0,0E0,0E0,0E0,0E0,0E0,0E0],"parents":[2147483647,0,0,1,1,2,2,3,3,4,4,5,5,6,6,7,7,8,8,10,10,12,12,14,14,15,15,16,16,18,18,21,21,22,22,24,24,25,25,27,27,33,33,34,34,35,35],"right_children":[2,4,6,8,10,12,14,16,18,-1,20,-1,22,-1,24,26,28,-1,30,-1,-1,32,34,-1,36,38,-1,40,-1,-1,-1,-1,-1,42,44,46,-1,-1,-1,-1,-1,-1,-1,-1,-1,-1,-1],"split_conditions":[1.1849408E0,8.1495035E-1,2.1840437E-1,1.7736092E-2,-9.098202E-4,1.2505996E-1,1.8598124E-1,2.5025162E-1,-2.251384E-1,-6.564752E-3,2.1834207E-1,-6.8394006E-3,-1.7836997E-1,6.307322E-3,1.3447893E-1,-6.0145855E-3,3.5107535E-1,5.088892E-3,2.3257099E-1,4.0246947E-3,1.6775221E-4,2.6656103E0,-9.607504E-2,-1.1311311E-2,-9.5751256E-2,5.5492774E-2,2.53516E-3,4.1566517E-2,2.1099374E-3,8.399231E-3,4.480204E-3,2.6874633E-3,6.162685E-3,-1.986042E-1,-2.2703916E-2,3.1898386E0,5.9821997E-3,4.66578E-3,6.676828E-3,2.6425158E-3,5.132657E-3,-3.0746462E-3,-7.293296E-4,4.7789235E-4,2.3182493E-3,-6.199164E-3,1.206278E-3],"split_indices":[389,286,101,323,38,25,324,88,102,0,18,0,5,0,94,39,389,0,123,0,0,388,5,0,64,296,0,58,0,0,0,0,0,4,189,388,0,0,0,0,0,0,0,0,0,0,0],"split_type":[0,0,0,0,0,0,0,0,0,0,0,0,0,0,0,0,0,0,0,0,0,0,0,0,0,0,0,0,0,0,0,0,0,0,0,0,0,0,0,0,0,0,0,0,0,0,0],"sum_hessian":[5.0694427E2,2.0941682E2,2.9752744E2,1.8099089E2,2.8425934E1,7.3055725E1,2.2447173E2,1.1300592E2,6.798497E1,1.572017E1,1.2705763E1,1.1662171E1,6.139355E1,1.0470129E1,2.140016E2,9.317557E1,1.9830353E1,1.7662003E1,5.0322968E1,6.5879345E0,6.117829E0,1.883556E1,4.255799E1,4.9407784E1,1.6459381E2,8.700241E1,6.173156E0,1.3462611E1,6.36774E0,4.522133E1,5.10164E0,6.236212E0,1.2599349E1,1.43721895E1,2.81858E1,1.5658809E2,8.005724E0,1.9919003E1,6.7083405E1,5.1481194E0,8.314492E0,7.0916805E0,7.280509E0,8.154881E0,2.003092E1,1.5099008E2,5.5980034E0],"tree_param":{"num_deleted":"0","num_feature":"403","num_nodes":"47","size_leaf_vector":"1"}},{"base_weights":[1.5260953E-3,-6.9930345E-2,1.0183549E-1,-2.7933207E-3,-1.09849E-1,1.19995646E-1,1.6759717E-3,4.1383035E-2,-6.884914E-2,8.912386E-2,-1.23933166E-1,1.2736839E-1,1.0613929E-2,2.990281E-2,-4.803051E-3,1.251235E-1,1.7391628E-2,-1.0221034E-1,-3.3804127E-3,5.3956253E-3,2.9280917E-3,-1.3219857E-1,-3.1338588E-4,1.299019E-1,2.745522E-3,-8.9133665E-4,1.8921018E-3,2.521727E-3,8.390236E-3,7.4766274E-3,3.769317E-3,-3.5855009E-3,8.188162E-2,-2.6953674E-3,-1.3641769E-1,9.186891E-4,-1.4014379E-3,-1.4766409E-1,-5.509598E-2,1.3374533E-1,4.5239255E-3,9.2341605E-4,-5.649392E-5,2.4549612E-3,-7.705429E-4,5.7881204E-3,1.5131895E-3,-4.76559E-3,-8.450945E-3,-6.0259365E-3,-8.460013E-3,-6.4346986E-3,3.197815E-3,5.9936107E-3,7.538264E-3],"categories":[],"categories_nodes":[],"categories_segments":[],"categories_sizes":[],"default_left":[0,0,0,0,0,0,0,0,0,0,0,0,0,0,0,0,0,0,0,0,0,0,0,0,0,0,0,0,0,0,0,0,0,0,0,0,0,0,0,0,0,0,0,0,0,0,0,0,0,0,0,0,0,0,0],"id":13,"left_children":[1,3,5,7,9,11,13,15,17,19,21,23,25,27,-1,29,31,33,35,-1,-1,37,-1,39,-1,-1,-1,-1,41,-1,-1,43,45,-1,47,-1,-1,49,51,53,-1,-1,-1,-1,-1,-1,-1,-1,-1,-1,-1,-1,-1,-1,-1],"loss_changes":[3.3789608E0,7.375344E-1,3.5649872E-1,3.054092E-1,4.9481297E-1,1.3251185E-1,8.870799E-2,1.2390453E-1,9.12288E-2,5.6723505E-4,1.5636969E-1,2.1398067E-2,9.636503E-3,1.0576617E-2,0E0,5.4981112E-3,6.78561E-2,3.8481593E-2,8.6584985E-3,0E0,0E0,1.7189312E-1,0E0,1.0541439E-2,0E0,0E0,0E0,0E0,1.3027787E-3,0E0,0E0,2.4831466E-2,1.8007137E-2,0E0,4.77764E-3,0E0,0E0,5.2776337E-2,2.4321975E-1,1.3584614E-2,0E0,0E0,0E0,0E0,0E0,0E0,0E0,0E0,0E0,0E0,0E0,0E0,0E0,0E0,0E0],"parents":[2147483647,0,0,1,1,2,2,3,3,4,4,5,5,6,6,7,7,8,8,9,9,10,10,11,11,12,12,13,13,15,15,16,16,17,17,18,18,21,21,23,23,28,28,31,31,32,32,34,34,37,37,38,38,39,39],"right_children":[2,4,6,8,10,12,14,16,18,20,22,24,26,28,-1,30,32,34,36,-1,-1,38,-1,40,-1,-1,-1,-1,42,-1,-1,44,46,-1,48,-1,-1,50,52,54,-1,-1,-1,-1,-1,-1,-1,-1,-1,-1,-1,-1,-1,-1,-1],"split_conditions":[-2.8897995E-1,1.9726042E-1,1.7946529E0,-1.3180265E-1,-7.3098564E-1,1.7070952E-1,-1.491016E-1,-5.0426543E-2,-2.3104438E-1,-4.1650403E-1,-9.148158E-2,9.425452E-2,-2.560321E-1,-6.7545645E-2,-4.803051E-3,-2.0116791E-2,4.2939216E-1,9.018971E-1,1.2800182E0,5.3956253E-3,2.9280917E-3,3.0288503E0,-3.1338588E-4,3.505194E-1,2.745522E-3,-8.9133665E-4,1.8921018E-3,2.521727E-3,-1.9367784E-2,7.4766274E-3,3.769317E-3,-1.1305736E-1,6.301763E-1,-2.6953674E-3,-2.6553681E-1,9.186891E-4,-1.4014379E-3,1.764833E0,-6.661931E-1,6.423841E-2,4.5239255E-3,9.2341605E-4,-5.649392E-5,2.4549612E-3,-7.705429E-4,5.7881204E-3,1.5131895E-3,-4.76559E-3,-8.450945E-3,-6.0259365E-3,-8.460013E-3,-6.4346986E-3,3.197815E-3,5.9936107E-3,7.538264E-3],"split_indices":[8,45,389,30,96,107,6,127,139,6,93,55,8,158,0,44,245,389,389,0,0,388,0,371,0,0,0,0,1,0,0,107,0,0,3,0,0,392,3,234,0,0,0,0,0,0,0,0,0,0,0,0,0,0,0],"split_type":[0,0,0,0,0,0,0,0,0,0,0,0,0,0,0,0,0,0,0,0,0,0,0,0,0,0,0,0,0,0,0,0,0,0,0,0,0,0,0,0,0,0,0,0,0,0,0,0,0,0,0,0,0,0,0],"sum_hessian":[4.69418E2,2.7431192E2,1.9510608E2,1.02683716E2,1.7162819E2,1.649928E2,3.0113276E1,6.1756287E1,4.092743E1,1.0993303E1,1.6063489E2,1.5441988E2,1.0572925E1,2.3903809E1,6.209469E0,1.281411E1,4.8942177E1,2.674013E1,1.41873E1,5.2406E0,5.7527027E0,1.499763E2,1.0658588E1,1.4843694E2,5.982943E0,5.340195E0,5.232729E0,1.1542835E1,1.2360972E1,7.249759E0,5.5643506E0,3.7642372E1,1.1299806E1,1.21539135E1,1.4586216E1,7.6713047E0,6.515995E0,1.2415723E2,2.5819075E1,1.3307115E2,1.5365788E1,5.547942E0,6.8130307E0,6.322432E0,3.131994E1,6.0717583E0,5.2280474E0,8.187017E0,6.399198E0,5.784383E1,6.631339E1,1.5905393E1,9.913682E0,7.774419E1,5.532696E1],"tree_param":{"num_deleted":"0","num_feature":"403","num_nodes":"55","size_leaf_vector":"1"}},{"base_weights":[-5.5375462E-3,6.9055036E-2,-1.15073405E-1,2.8447008E-2,1.2357297E-1,-1.4528486E-1,4.6540696E-2,1.113242E-1,7.634684E-3,1.2805778E-1,2.7191003E-3,-1.1295718E-1,-1.0890161E-2,5.918055E-3,-7.303221E-3,3.2485803E-3,5.8767055E-3,-2.8733179E-2,4.5645256E-2,7.3418515E-3,1.1084204E-1,5.687231E-3,-1.2465423E-1,1.0194487E-3,-1.0105002E-3,2.4637333E-3,-9.493152E-2,7.58479E-2,1.1150638E-2,3.394325E-3,1.13802314E-1,-1.3661502E-1,-3.8671661E-3,2.3829509E-3,-2.1914204E-3,-3.0860913E-3,-7.340384E-3,4.09331E-4,4.9620126E-3,-2.3560748E-3,1.5252949E-3,6.042239E-3,4.3401504E-3,-5.480246E-3,-7.785982E-3],"categories":[],"categories_nodes":[],"categories_segments":[],"categories_sizes":[],"default_left":[0,0,0,0,0,0,0,0,0,0,0,0,0,0,0,0,0,0,0,0,0,0,0,0,0,0,0,0,0,0,0,0,0,0,0,0,0,0,0,0,0,0,0,0,0],"id":14,"left_children":[1,3,5,7,9,11,13,15,17,19,-1,21,-1,-1,23,-1,-1,25,27,-1,29,-1,31,-1,-1,33,35,37,39,-1,41,43,-1,-1,-1,-1,-1,-1,-1,-1,-1,-1,-1,-1,-1],"loss_changes":[3.991847E0,6.4002824E-1,9.730482E-1,2.8874826E-1,3.1449556E-2,3.6685276E-1,1.2432594E-1,2.0427406E-3,1.8830366E-1,2.1071076E-2,0E0,3.259449E-1,0E0,0E0,7.2703715E-3,0E0,0E0,1.4426479E-1,6.84645E-2,0E0,4.567504E-4,0E0,5.2969694E-2,0E0,0E0,1.0330411E-1,2.9468417E-2,5.5055812E-2,3.7788127E-2,0E0,6.7549944E-4,2.8505087E-2,0E0,0E0,0E0,0E0,0E0,0E0,0E0,0E0,0E0,0E0,0E0,0E0,0E0],"parents":[2147483647,0,0,1,1,2,2,3,3,4,4,5,5,6,6,7,7,8,8,9,9,11,11,14,14,17,17,18,18,20,20,22,22,25,25,26,26,27,27,28,28,30,30,31,31],"right_children":[2,4,6,8,10,12,14,16,18,20,-1,22,-1,-1,24,-1,-1,26,28,-1,30,-1,32,-1,-1,34,36,38,40,-1,42,44,-1,-1,-1,-1,-1,-1,-1,-1,-1,-1,-1,-1,-1],"split_conditions":[4.2635566E-1,-2.0043764E-1,1.6734678E-1,1.9451335E-2,5.549143E-1,-1.5906744E-1,8.398286E-2,-3.8626947E-2,1.1799911E-1,-4.1222557E-2,2.7191003E-3,3.044686E-1,-1.0890161E-2,5.918055E-3,3.6915302E-1,3.2485803E-3,5.8767055E-3,1.2299856E0,2.116682E0,7.3418515E-3,-4.0240127E-1,5.687231E-3,-6.4532496E-2,1.0194487E-3,-1.0105002E-3,-2.0211235E-1,-1.1094621E-1,-9.727356E-2,-1.8003927E-1,3.394325E-3,1.0728106E-1,2.7627914E0,-3.8671661E-3,2.3829509E-3,-2.1914204E-3,-3.0860913E-3,-7.340384E-3,4.09331E-4,4.9620126E-3,-2.3560748E-3,1.5252949E-3,6.042239E-3,4.3401504E-3,-5.480246E-3,-7.785982E-3],"split_indices":[349,287,203,307,324,34,9,371,165,8,0,236,0,0,0,0,0,389,389,0,45,0,9,0,0,28,202,266,315,0,247,388,0,0,0,0,0,0,0,0,0,0,0,0,0],"split_type":[0,0,0,0,0,0,0,0,0,0,0,0,0,0,0,0,0,0,0,0,0,0,0,0,0,0,0,0,0,0,0,0,0,0,0,0,0,0,0,0,0,0,0,0,0],"sum_hessian":[4.8659192E2,2.896877E2,1.9690422E2,1.6689597E2,1.2279173E2,1.6597803E2,3.0926195E1,3.262607E1,1.342699E2,1.1451813E2,8.273601E0,1.16570244E2,4.9407784E1,1.2737668E1,1.8188528E1,5.2087817E0,2.7417286E1,6.874242E1,6.552749E1,5.117081E1,6.334732E1,5.2914734E0,1.1127877E2,5.5980034E0,1.2590525E1,4.7377754E1,2.136466E1,3.4298084E1,3.1229404E1,5.6270843E0,5.7720238E1,8.7316475E1,2.3962294E1,2.3957947E1,2.3419807E1,1.4360959E1,7.0037003E0,9.158247E0,2.5139837E1,7.4289103E0,2.3800493E1,4.3022472E1,1.4697764E1,3.896494E1,4.8351536E1],"tree_param":{"num_deleted":"0","num_feature":"403","num_nodes":"45","size_leaf_vector":"1"}},{"base_weights":[2.4823371E-2,9.093386E-2,-5.924894E-2,1.1081585E-1,2.3444137E-2,4.8386E-2,-9.903852E-2,1.1433795E-1,9.644686E-5,5.2947323E-3,5.1647346E-3,-1.6397672E-3,7.1257435E-2,4.8995526E-3,-1.0791686E-1,9.9219E-2,1.2806627E-1,2.9303972E-2,-3.1367575E-3,5.7493537E-3,4.4076446E-2,-1.2358299E-1,-4.8704002E-2,1.0300956E-1,2.0481304E-3,1.3528444E-1,8.430187E-2,6.821057E-2,-6.951925E-3,1.0837329E-3,5.163719E-2,-1.3199708E-1,9.762005E-4,-4.0785368E-3,-3.6168724E-4,5.5500143E-3,3.6344659E-3,7.1670525E-3,5.069767E-3,2.3638876E-3,5.9592025E-3,2.128071E-3,4.790645E-3,1.8308482E-4,-1.1307058E-3,1.5506E-3,3.1700209E-3,-5.213153E-3,-7.67539E-3],"categories":[],"categories_nodes":[],"categories_segments":[],"categories_sizes":[],"default_left":[0,0,0,0,0,0,0,0,0,0,0,0,0,0,0,0,0,0,0,0,0,0,0,0,0,0,0,0,0,0,0,0,0,0,0,0,0,0,0,0,0,0,0,0,0,0,0,0,0],"id":15,"left_children":[1,3,5,7,9,11,13,15,-1,-1,17,-1,19,-1,21,23,25,27,-1,-1,29,31,33,35,-1,37,39,41,43,-1,45,47,-1,-1,-1,-1,-1,-1,-1,-1,-1,-1,-1,-1,-1,-1,-1,-1,-1],"loss_changes":[2.3553188E0,3.1551802E-1,8.044702E-1,6.9907665E-2,8.2672454E-2,9.71554E-2,2.496221E-1,2.4054766E-2,0E0,0E0,7.7640735E-2,0E0,4.266368E-2,0E0,1.15721345E-1,1.5373468E-2,1.6832232E-2,4.9562648E-2,0E0,0E0,3.3499263E-3,1.2675667E-1,3.9083578E-2,1.1955082E-2,0E0,5.964279E-3,1.4136411E-2,7.871851E-3,3.2281026E-3,0E0,2.644688E-3,4.2179823E-2,0E0,0E0,0E0,0E0,0E0,0E0,0E0,0E0,0E0,0E0,0E0,0E0,0E0,0E0,0E0,0E0,0E0],"parents":[2147483647,0,0,1,1,2,2,3,3,4,4,5,5,6,6,7,7,10,10,12,12,14,14,15,15,16,16,17,17,20,20,21,21,22,22,23,23,25,25,26,26,27,27,28,28,30,30,31,31],"right_children":[2,4,6,8,10,12,14,16,-1,-1,18,-1,20,-1,22,24,26,28,-1,-1,30,32,34,36,-1,38,40,42,44,-1,46,48,-1,-1,-1,-1,-1,-1,-1,-1,-1,-1,-1,-1,-1,-1,-1,-1,-1],"split_conditions":[1.8540998E0,7.604689E-1,-1.21939026E-1,1.4573672E-1,-3.2406956E-2,-2.6773185E-1,-4.2069778E-1,-1.1733923E-1,9.644686E-5,5.2947323E-3,1.1849408E0,-1.6397672E-3,-4.3452483E-1,4.8995526E-3,8.203344E-1,2.8553784E-1,2.0634721E-1,-5.0738603E-2,-3.1367575E-3,5.7493537E-3,5.6546107E-2,3.1898386E0,5.7834613E-1,8.676016E-2,2.0481304E-3,-6.814325E-2,2.0138265E-1,5.0606644E-1,-5.4648966E-3,1.0837329E-3,2.049203E0,-3.4115908E-1,9.762005E-4,-4.0785368E-3,-3.6168724E-4,5.5500143E-3,3.6344659E-3,7.1670525E-3,5.069767E-3,2.3638876E-3,5.9592025E-3,2.128071E-3,4.790645E-3,1.8308482E-4,-1.1307058E-3,1.5506E-3,3.1700209E-3,-5.213153E-3,-7.67539E-3],"split_indices":[389,103,304,343,107,28,202,59,0,0,389,0,6,0,117,74,267,1,0,0,261,388,25,55,0,359,253,71,1,0,389,124,0,0,0,0,0,0,0,0,0,0,0,0,0,0,0,0,0],"split_type":[0,0,0,0,0,0,0,0,0,0,0,0,0,0,0,0,0,0,0,0,0,0,0,0,0,0,0,0,0,0,0,0,0,0,0,0,0,0,0,0,0,0,0,0,0,0,0,0,0],"sum_hessian":[4.217969E2,2.3607617E2,1.8572075E2,1.8185963E2,5.4216534E1,5.006734E1,1.356534E2,1.7611296E2,5.746678E0,8.968841E0,4.5247692E1,1.0909733E1,3.9157608E1,5.4163265E0,1.3023708E2,8.772693E1,8.8386024E1,3.3799854E1,1.1447837E1,1.3771371E1,2.5386238E1,1.0212931E2,2.8107767E1,8.1646255E1,6.0806723E0,7.407712E1,1.4308905E1,1.5878788E1,1.7921066E1,7.3816957E0,1.8004541E1,9.65313E1,5.5980034E0,1.5140994E1,1.2966773E1,6.2510925E1,1.9135334E1,5.7239574E1,1.6837547E1,8.083933E0,6.224972E0,9.54819E0,6.3305984E0,1.11389E1,6.782166E0,7.8598065E0,1.0144734E1,4.4720135E1,5.181117E1],"tree_param":{"num_deleted":"0","num_feature":"403","num_nodes":"49","size_leaf_vector":"1"}},{"base_weights":[2.5066588E-2,8.86443E-2,-4.1352153E-2,1.06715865E-1,-1.7388497E-2,1.4909984E-2,-1.1351529E-1,2.788198E-3,1.10324815E-1,1.4781281E-2,-3.970005E-3,-2.015326E-2,7.673676E-2,-1.2698393E-1,-1.0876589E-3,1.1359218E-1,3.678261E-3,6.269342E-4,1.8697877E-3,-6.1849467E-2,3.52169E-2,1.011254E-1,2.8949661E-2,-1.4588244E-1,-4.6951384E-3,3.3113302E-3,1.15754575E-1,-4.6220608E-4,5.114354E-4,-1.0890859E-1,-8.1818225E-3,-6.6544255E-3,8.566472E-2,2.2713977E-3,1.1691168E-1,9.34788E-4,1.6385912E-3,-7.997219E-3,-5.5204867E-3,4.8819813E-3,6.085843E-3,-3.3498835E-3,-6.2586935E-3,1.9210343E-3,-2.6721996E-3,-1.0814354E-3,1.7468374E-4,6.007398E-3,2.5609962E-3,4.0929597E-3,6.5843384E-3],"categories":[],"categories_nodes":[],"categories_segments":[],"categories_sizes":[],"default_left":[0,0,0,0,0,0,0,0,0,0,0,0,0,0,0,0,0,0,0,0,0,0,0,0,0,0,0,0,0,0,0,0,0,0,0,0,0,0,0,0,0,0,0,0,0,0,0,0,0,0,0],"id":16,"left_children":[1,3,5,7,9,11,13,-1,15,17,-1,19,21,23,-1,25,-1,27,-1,29,31,33,35,37,-1,-1,39,-1,-1,41,43,45,47,-1,49,-1,-1,-1,-1,-1,-1,-1,-1,-1,-1,-1,-1,-1,-1,-1,-1],"loss_changes":[1.7752217E0,4.131931E-1,8.374982E-1,2.7599096E-2,6.5247014E-2,2.5422788E-1,1.0884309E-1,0E0,1.2107849E-2,7.015666E-3,0E0,1.757241E-1,4.6475336E-2,3.540182E-2,0E0,8.172631E-3,0E0,1.4728782E-3,0E0,1.08319536E-1,7.012302E-2,1.9013017E-2,3.5865232E-6,6.3718557E-3,0E0,0E0,3.94392E-3,0E0,0E0,7.2642267E-3,4.694799E-2,2.9508187E-3,1.1669993E-2,0E0,5.4568052E-5,0E0,0E0,0E0,0E0,0E0,0E0,0E0,0E0,0E0,0E0,0E0,0E0,0E0,0E0,0E0,0E0],"parents":[2147483647,0,0,1,1,2,2,3,3,4,4,5,5,6,6,8,8,9,9,11,11,12,12,13,13,15,15,17,17,19,19,20,20,21,21,22,22,23,23,26,26,29,29,30,30,31,31,32,32,34,34],"right_children":[2,4,6,8,10,12,14,-1,16,18,-1,20,22,24,-1,26,-1,28,-1,30,32,34,36,38,-1,-1,40,-1,-1,42,44,46,48,-1,50,-1,-1,-1,-1,-1,-1,-1,-1,-1,-1,-1,-1,-1,-1,-1,-1],"split_conditions":[2.1586543E-1,2.7310271E0,7.380724E-3,-2.0891167E-1,-4.835683E-2,-6.1297727E-1,-1.1808164E-2,2.788198E-3,8.9702904E-2,-2.7705345E-1,-3.970005E-3,-1.0353755E-3,5.370678E-1,-2.6507437E-1,-1.0876589E-3,-4.968925E-1,3.678261E-3,-9.607504E-2,1.8697877E-3,-3.9414465E-2,-4.137513E-1,-4.3533018E-1,3.6915302E-1,2.9496233E0,-4.6951384E-3,3.3113302E-3,-7.4556634E-2,-4.6220608E-4,5.114354E-4,-9.118884E-2,4.9068376E-1,3.9950448E-1,4.144445E-1,2.2713977E-3,-1.9312903E-2,9.34788E-4,1.6385912E-3,-7.997219E-3,-5.5204867E-3,4.8819813E-3,6.085843E-3,-3.3498835E-3,-6.2586935E-3,1.9210343E-3,-2.6721996E-3,-1.0814354E-3,1.7468374E-4,6.007398E-3,2.5609962E-3,4.0929597E-3,6.5843384E-3],"split_indices":[135,389,362,285,211,199,28,0,55,359,0,334,257,136,0,199,0,5,0,151,5,362,0,388,0,0,88,0,0,4,389,0,190,0,105,0,0,0,0,0,0,0,0,0,0,0,0,0,0,0,0],"split_type":[0,0,0,0,0,0,0,0,0,0,0,0,0,0,0,0,0,0,0,0,0,0,0,0,0,0,0,0,0,0,0,0,0,0,0,0,0,0,0,0,0,0,0,0,0,0,0,0,0,0,0],"sum_hessian":[4.1852646E2,2.1366563E2,2.0486082E2,1.8254703E2,3.1118603E1,1.1555866E2,8.930216E1,1.316285E1,1.6938417E2,2.0990824E1,1.0127779E1,7.416959E1,4.1389072E1,7.7537544E1,1.1764617E1,1.53638E2,1.5746182E1,1.3542393E1,7.44843E0,4.2242264E1,3.192733E1,2.6664438E1,1.4724633E1,4.717671E1,3.0360836E1,8.088678E0,1.4554932E2,6.695927E0,6.846466E0,2.195843E1,2.0283833E1,1.7921066E1,1.4006264E1,6.7448454E0,1.9919594E1,5.5980034E0,9.12663E0,3.1271317E1,1.5905393E1,4.03455E1,1.0520382E2,7.570497E0,1.4387933E1,1.0068416E1,1.0215417E1,6.782166E0,1.11389E1,5.7558546E0,8.250409E0,7.846017E0,1.2073577E1],"tree_param":{"num_deleted":"0","num_feature":"403","num_nodes":"51","size_leaf_vector":"1"}},{"base_weights":[-6.702922E-3,5.4714765E-2,-1.0941927E-1,1.1016946E-2,9.7037226E-2,-1.6428763E-1,-4.634945E-2,2.7750267E-2,-8.074603E-2,-1.4849528E-4,1.00783005E-1,-1.1546358E-2,-1.2691045E-1,-7.369121E-2,4.7197356E-3,-3.2028217E-2,4.1990954E-2,1.1034289E-4,-5.924388E-3,1.0462651E-1,1.5745134E-3,-3.4662343E-3,-1.3616128E-1,-9.4379425E-2,2.8198767E-3,-2.9200453E-3,1.1869976E-3,2.0008206E-2,7.049737E-2,4.2227055E-3,1.1125568E-1,-7.2886855E-3,-5.260791E-3,-2.6487963E-2,-1.321931E-1,1.4399925E-3,-2.01377E-3,1.6092997E-3,4.5292303E-3,3.2765248E-3,5.716465E-3,-3.669661E-4,-2.4973417E-3,-7.5112516E-3,-4.6456805E-3],"categories":[],"categories_nodes":[],"categories_segments":[],"categories_sizes":[],"default_left":[0,0,0,0,0,0,0,0,0,0,0,0,0,0,0,0,0,0,0,0,0,0,0,0,0,0,0,0,0,0,0,0,0,0,0,0,0,0,0,0,0,0,0,0,0],"id":17,"left_children":[1,3,5,7,9,11,13,15,17,-1,19,-1,21,23,-1,25,27,-1,-1,29,-1,-1,31,33,-1,-1,-1,35,37,-1,39,-1,-1,41,43,-1,-1,-1,-1,-1,-1,-1,-1,-1,-1],"loss_changes":[3.1704957E0,5.8072096E-1,6.430874E-1,2.4163239E-1,6.0115576E-2,2.2017765E-1,3.4895462E-1,1.1422885E-1,7.6342314E-2,0E0,3.770423E-2,0E0,2.5927901E-2,2.0711026E-1,0E0,3.974262E-2,6.596975E-2,0E0,0E0,1.0050654E-2,0E0,0E0,1.3688803E-3,1.635322E-1,0E0,0E0,0E0,3.4075197E-2,3.2807454E-2,0E0,7.4477196E-3,0E0,0E0,1.065053E-2,1.5462875E-2,0E0,0E0,0E0,0E0,0E0,0E0,0E0,0E0,0E0,0E0],"parents":[2147483647,0,0,1,1,2,2,3,3,4,4,5,5,6,6,7,7,8,8,10,10,12,12,13,13,15,15,16,16,19,19,22,22,23,23,27,27,28,28,30,30,33,33,34,34],"right_children":[2,4,6,8,10,12,14,16,18,-1,20,-1,22,24,-1,26,28,-1,-1,30,-1,-1,32,34,-1,-1,-1,36,38,-1,40,-1,-1,42,44,-1,-1,-1,-1,-1,-1,-1,-1,-1,-1],"split_conditions":[4.2635566E-1,-1.1997226E-1,-2.3990273E-3,9.083968E-1,-1.7725372E-1,1.9789669E-1,1.0128466E-1,-1.7312741E-1,4.3296903E-1,-1.4849528E-4,1.0045266E0,-1.1546358E-2,3.5156763E-1,2.2680273E0,4.7197356E-3,-9.893152E-2,-8.7127656E-2,1.1034289E-4,-5.924388E-3,2.3943436E-1,1.5745134E-3,-3.4662343E-3,2.1141448E0,1.7336801E0,2.8198767E-3,-2.9200453E-3,1.1869976E-3,2.158362E-1,-7.2942823E-3,4.2227055E-3,-4.8843735E-1,-7.2886855E-3,-5.260791E-3,9.906607E-1,-6.4341225E-2,1.4399925E-3,-2.01377E-3,1.6092997E-3,4.5292303E-3,3.2765248E-3,5.716465E-3,-3.669661E-4,-2.4973417E-3,-7.5112516E-3,-4.6456805E-3],"split_indices":[349,346,354,360,383,18,220,250,19,0,238,0,0,392,0,20,215,0,0,71,0,0,392,392,0,0,0,358,266,0,108,0,0,0,4,0,0,0,0,0,0,0,0,0,0],"split_type":[0,0,0,0,0,0,0,0,0,0,0,0,0,0,0,0,0,0,0,0,0,0,0,0,0,0,0,0,0,0,0,0,0,0,0,0,0,0,0,0,0,0,0,0,0],"sum_hessian":[5.0061816E2,3.135832E2,1.8703499E2,1.5490477E2,1.586784E2,9.916251E1,8.787248E1,1.316039E2,2.3300873E1,5.7362227E0,1.5294218E2,3.3772125E1,6.539039E1,7.397759E1,1.3894892E1,2.5079214E1,1.0652468E2,7.580703E0,1.572017E1,1.4442154E2,8.52064E0,1.0226294E1,5.5164093E1,6.406391E1,9.913682E0,1.6995064E1,8.08415E0,6.110522E1,4.5419464E1,3.912003E1,1.0530151E2,3.92587E1,1.5905393E1,2.3525757E1,4.0538155E1,5.3783764E1,7.3214583E0,1.6517933E1,2.890153E1,8.038312E0,9.726321E1,1.367566E1,9.850096E0,2.5847769E1,1.4690385E1],"tree_param":{"num_deleted":"0","num_feature":"403","num_nodes":"45","size_leaf_vector":"1"}},{"base_weights":[2.938601E-3,6.682958E-2,-7.778664E-2,9.198358E-2,4.060841E-3,2.9869642E-2,-1.00425296E-1,9.98571E-2,4.26907E-2,-4.612347E-2,7.674237E-2,5.1688696E-3,-3.125244E-2,3.3792392E-3,-1.0977982E-1,1.0586086E-1,6.4254336E-2,3.3821398E-4,5.5001717E-2,-7.518697E-3,-2.4617562E-2,1.735018E-3,1.03420764E-1,-3.0729654E-3,-8.53818E-3,-1.2104847E-1,2.691801E-3,1.1233196E-1,8.203081E-2,3.6684067E-3,1.3607509E-3,3.3884353E-3,1.6155153E-3,8.657123E-3,-5.1350277E-2,3.0404527E-3,5.835317E-3,-9.861011E-4,1.5595123E-4,-7.218668E-2,-1.4253752E-1,6.154246E-3,4.632373E-3,4.560568E-3,1.8848263E-3,1.2836664E-3,-3.833617E-4,-3.7754655E-3,-1.7578356E-3,-4.650336E-3,-1.0290571E-3,-6.4187422E-3,-1.0108743E-2],"categories":[],"categories_nodes":[],"categories_segments":[],"categories_sizes":[],"default_left":[0,0,0,0,0,0,0,0,0,0,0,0,0,0,0,0,0,0,0,0,0,0,0,0,0,0,0,0,0,0,0,0,0,0,0,0,0,0,0,0,0,0,0,0,0,0,0,0,0,0,0,0,0],"id":18,"left_children":[1,3,5,7,9,11,13,15,17,19,21,-1,23,-1,25,27,29,-1,31,-1,33,-1,35,-1,37,39,-1,41,43,-1,-1,-1,-1,45,47,-1,-1,-1,-1,49,51,-1,-1,-1,-1,-1,-1,-1,-1,-1,-1,-1,-1],"loss_changes":[2.3570235E0,4.0235817E-1,4.9511158E-1,6.639314E-2,2.735281E-1,1.6431987E-1,2.699858E-1,2.6592612E-2,1.149058E-2,9.586921E-2,3.0742705E-2,0E0,1.3433795E-2,0E0,2.9899395E-1,1.1162758E-2,6.4723417E-3,0E0,3.5567284E-3,0E0,3.425752E-2,0E0,3.2185912E-3,0E0,1.7268228E-3,1.4586544E-1,0E0,1.0020614E-2,9.556636E-3,0E0,0E0,0E0,0E0,5.1385043E-3,5.6480505E-3,0E0,0E0,0E0,0E0,4.9071133E-2,6.042242E-2,0E0,0E0,0E0,0E0,0E0,0E0,0E0,0E0,0E0,0E0,0E0,0E0],"parents":[2147483647,0,0,1,1,2,2,3,3,4,4,5,5,6,6,7,7,8,8,9,9,10,10,12,12,14,14,15,15,16,16,18,18,20,20,22,22,24,24,25,25,27,27,28,28,33,33,34,34,39,39,40,40],"right_children":[2,4,6,8,10,12,14,16,18,20,22,-1,24,-1,26,28,30,-1,32,-1,34,-1,36,-1,38,40,-1,42,44,-1,-1,-1,-1,46,48,-1,-1,-1,-1,50,52,-1,-1,-1,-1,-1,-1,-1,-1,-1,-1,-1,-1],"split_conditions":[1.5564623E-1,1.0789618E0,-5.0474125E-1,2.9212838E-1,4.3540147E-1,2.0401871E-1,-1.6387641E-1,8.676016E-2,-2.8776807E-1,-3.288213E-1,-5.2566934E-1,5.1688696E-3,2.656532E-1,3.3792392E-3,3.0288503E0,2.1630421E-1,-2.8717196E-1,3.3821398E-4,1.3097233E-1,-7.518697E-3,4.1367553E-2,1.735018E-3,-1.8168867E-2,-3.0729654E-3,2.87818E-1,-4.8227422E-2,2.691801E-3,-8.709878E-2,7.214376E-2,3.6684067E-3,1.3607509E-3,3.3884353E-3,1.6155153E-3,2.7968913E-1,-3.0251855E-1,3.0404527E-3,5.835317E-3,-9.861011E-4,1.5595123E-4,-3.0206084E-1,-2.4479054E-1,6.154246E-3,4.632373E-3,4.560568E-3,1.8848263E-3,1.2836664E-3,-3.833617E-4,-3.7754655E-3,-1.7578356E-3,-4.650336E-3,-1.0290571E-3,-6.4187422E-3,-1.0108743E-2],"split_indices":[45,389,161,345,388,232,213,55,108,8,252,0,0,0,388,389,389,0,270,0,22,0,7,0,0,382,0,359,301,0,0,0,0,305,110,0,0,0,0,3,6,0,0,0,0,0,0,0,0,0,0,0,0],"split_type":[0,0,0,0,0,0,0,0,0,0,0,0,0,0,0,0,0,0,0,0,0,0,0,0,0,0,0,0,0,0,0,0,0,0,0,0,0,0,0,0,0,0,0,0,0,0,0,0,0,0,0,0,0],"sum_hessian":[4.5499088E2,2.5407346E2,2.009174E2,1.8105276E2,7.302069E1,3.4853764E1,1.6606364E2,1.552319E2,2.5820868E1,4.341169E1,2.9609003E1,1.5509782E1,1.9343983E1,8.430186E0,1.5763345E2,1.3114352E2,2.4088379E1,6.9853716E0,1.8835495E1,6.399198E0,3.7012493E1,1.2387867E1,1.7221138E1,7.570497E0,1.1773485E1,1.4771977E2,9.913682E0,1.00215836E2,3.0927687E1,1.854454E1,5.543839E0,1.07824E1,8.053096E0,1.6789928E1,2.0222563E1,5.4186435E0,1.1802493E1,5.6556563E0,6.117829E0,4.645336E1,1.0126642E2,6.1414402E1,3.880143E1,2.4746037E1,6.18165E0,7.9403534E0,8.849576E0,6.6454124E0,1.357715E1,3.2527863E1,1.3925497E1,8.4380356E1,1.6886063E1],"tree_param":{"num_deleted":"0","num_feature":"403","num_nodes":"53","size_leaf_vector":"1"}},{"base_weights":[-2.1055626E-2,3.9125152E-2,-1.10898815E-1,-1.2361576E-3,8.796288E-2,-8.981318E-2,-1.08818775E-2,-2.186787E-2,6.4990796E-2,9.352824E-2,4.2834828E-4,2.0388799E-2,-1.0480009E-1,4.9965166E-2,-4.208306E-2,5.47689E-3,4.517338E-2,9.5982395E-2,1.4454833E-3,-1.4380132E-3,4.2740363E-3,-1.1651714E-1,-4.23824E-2,6.66771E-2,5.4591184E-4,2.5462419E-2,-5.96671E-2,3.349221E-3,3.2035306E-2,1.0203615E-1,3.4277514E-3,-9.388611E-2,-7.1708946E-3,-5.0206473E-3,2.569543E-3,4.456236E-3,2.2336645E-3,2.8962153E-3,-5.0475134E-4,-6.5803053E-3,-2.1951639E-3,2.175349E-3,1.0701272E-3,4.4075353E-3,5.5119065E-3,-5.4599107E-3,-5.3571915E-4],"categories":[],"categories_nodes":[],"categories_segments":[],"categories_sizes":[],"default_left":[0,0,0,0,0,0,0,0,0,0,0,0,0,0,0,0,0,0,0,0,0,0,0,0,0,0,0,0,0,0,0,0,0,0,0,0,0,0,0,0,0,0,0,0,0,0,0],"id":19,"left_children":[1,3,5,7,9,11,-1,13,15,17,-1,19,21,23,25,-1,27,29,-1,-1,-1,31,33,35,-1,37,39,-1,41,43,-1,45,-1,-1,-1,-1,-1,-1,-1,-1,-1,-1,-1,-1,-1,-1,-1],"loss_changes":[2.89945E0,6.336392E-1,4.644642E-1,2.4321166E-1,6.346524E-2,3.0153847E-1,0E0,1.9911553E-1,3.2381147E-2,1.8763304E-2,0E0,7.456574E-2,1.118896E-1,1.9013569E-2,1.2791635E-1,0E0,6.728016E-3,1.46586895E-2,0E0,0E0,0E0,6.806624E-2,1.5110204E-1,6.386079E-3,0E0,2.6766364E-2,9.031686E-2,0E0,1.6599391E-3,2.2164583E-3,0E0,9.514648E-2,0E0,0E0,0E0,0E0,0E0,0E0,0E0,0E0,0E0,0E0,0E0,0E0,0E0,0E0,0E0],"parents":[2147483647,0,0,1,1,2,2,3,3,4,4,5,5,7,7,8,8,9,9,11,11,12,12,13,13,14,14,16,16,17,17,21,21,22,22,23,23,25,25,26,26,28,28,29,29,31,31],"right_children":[2,4,6,8,10,12,-1,14,16,18,-1,20,22,24,26,-1,28,30,-1,-1,-1,32,34,36,-1,38,40,-1,42,44,-1,46,-1,-1,-1,-1,-1,-1,-1,-1,-1,-1,-1,-1,-1,-1,-1],"split_conditions":[4.2635566E-1,-9.035212E-2,3.0306943E-2,1.19392484E-1,3.898421E-2,1.9618608E-1,-1.08818775E-2,-7.9605E-2,1.1582079E-1,1.0045266E0,4.2834828E-4,-3.008026E-1,2.1421578E0,2.116682E0,-2.6371978E-2,5.47689E-3,-2.445378E-1,-1.1238396E-1,1.4454833E-3,-1.4380132E-3,4.2740363E-3,2.0726225E0,-6.661931E-1,2.2487542E-1,5.4591184E-4,4.6396953E-1,-1.4940396E-1,3.349221E-3,9.018971E-1,9.836173E-2,3.4277514E-3,7.3211753E-1,-7.1708946E-3,-5.0206473E-3,2.569543E-3,4.456236E-3,2.2336645E-3,2.8962153E-3,-5.0475134E-4,-6.5803053E-3,-2.1951639E-3,2.175349E-3,1.0701272E-3,4.4075353E-3,5.5119065E-3,-5.4599107E-3,-5.3571915E-4],"split_indices":[349,346,50,337,80,240,0,303,74,238,0,40,389,389,95,0,28,313,0,0,0,389,3,191,0,7,203,0,389,361,0,56,0,0,0,0,0,0,0,0,0,0,0,0,0,0,0],"split_type":[0,0,0,0,0,0,0,0,0,0,0,0,0,0,0,0,0,0,0,0,0,0,0,0,0,0,0,0,0,0,0,0,0,0,0,0,0,0,0,0,0,0,0,0,0,0,0],"sum_hessian":[5.3445416E2,3.2040073E2,2.1405348E2,1.7595755E2,1.4444316E2,1.8028136E2,3.3772125E1,1.3467271E2,4.1284847E1,1.3481512E2,9.628041E0,2.1539114E1,1.5874223E2,2.9252974E1,1.0541973E2,1.13174095E1,2.9967438E1,1.2941469E2,5.400434E0,1.2590525E1,8.948589E0,1.3292316E2,2.5819075E1,1.9989801E1,9.263172E0,2.1682566E1,8.373717E1,9.724654E0,2.0242783E1,1.03786736E2,2.5627954E1,7.462925E1,5.829391E1,1.5905393E1,9.913682E0,8.385127E0,1.1604673E1,1.1005839E1,1.0676727E1,1.3730178E1,7.000699E1,8.25004E0,1.1992743E1,4.290268E1,6.0884056E1,6.2761745E1,1.1867504E1],"tree_param":{"num_deleted":"0","num_feature":"403","num_nodes":"47","size_leaf_vector":"1"}},{"base_weights":[-6.4507257E-3,6.041423E-2,-6.8703964E-2,7.8094706E-2,-5.876257E-2,-1.1911211E-1,-1.7263945E-2,8.469226E-2,2.0035619E-2,-3.812531E-3,-5.291385E-3,-1.4325756E-1,5.316962E-2,2.2740096E-2,-7.477574E-2,9.01483E-2,5.0542284E-2,2.3987475E-3,-9.63352E-3,6.456025E-4,-1.0911181E-3,-1.0989657E-1,-1.0025592E-2,4.4497116E-3,-1.1678858E-3,-2.5235678E-3,4.409962E-3,-2.228033E-3,-9.059867E-2,1.11455776E-1,8.1487946E-2,1.7801823E-2,7.571095E-2,-9.2275924E-4,8.5893254E-5,-6.322006E-3,-2.9126198E-3,-3.8564283E-2,2.50207E-2,-5.0788894E-3,-3.5067138E-3,2.6541513E-3,5.916312E-3,5.264398E-3,3.8321496E-3,9.274056E-5,1.463814E-3,4.6409983E-3,2.6232474E-3,-9.349606E-4,-4.3291925E-3,1.7860035E-3,6.0310744E-4],"categories":[],"categories_nodes":[],"categories_segments":[],"categories_sizes":[],"default_left":[0,0,0,0,0,0,0,0,0,0,0,0,0,0,0,0,0,0,0,0,0,0,0,0,0,0,0,0,0,0,0,0,0,0,0,0,0,0,0,0,0,0,0,0,0,0,0,0,0,0,0,0,0],"id":20,"left_children":[1,3,5,7,9,11,13,15,17,19,-1,21,23,25,27,29,31,-1,33,-1,-1,35,-1,-1,-1,37,-1,-1,39,41,43,45,47,-1,-1,-1,-1,49,51,-1,-1,-1,-1,-1,-1,-1,-1,-1,-1,-1,-1,-1,-1],"loss_changes":[2.0404823E0,5.027009E-1,6.560594E-1,7.7320695E-2,8.005548E-2,5.401521E-1,2.9339838E-1,2.9899836E-2,1.8996581E-2,4.917446E-3,0E0,1.9294763E-1,4.722068E-2,1.2514834E-1,2.0940661E-2,2.0105958E-2,2.1520153E-2,0E0,1.2009891E-3,0E0,0E0,5.52845E-2,0E0,0E0,0E0,5.6038298E-2,0E0,0E0,3.6248565E-4,1.0960579E-2,5.3275824E-3,2.3919553E-3,1.2480766E-3,0E0,0E0,0E0,0E0,2.1680932E-2,4.013071E-3,0E0,0E0,0E0,0E0,0E0,0E0,0E0,0E0,0E0,0E0,0E0,0E0,0E0,0E0],"parents":[2147483647,0,0,1,1,2,2,3,3,4,4,5,5,6,6,7,7,8,8,9,9,11,11,12,12,13,13,14,14,15,15,16,16,18,18,21,21,25,25,28,28,29,29,30,30,31,31,32,32,37,37,38,38],"right_children":[2,4,6,8,10,12,14,16,18,20,-1,22,24,26,28,30,32,-1,34,-1,-1,36,-1,-1,-1,38,-1,-1,40,42,44,46,48,-1,-1,-1,-1,50,52,-1,-1,-1,-1,-1,-1,-1,-1,-1,-1,-1,-1,-1,-1],"split_conditions":[1.1849408E0,4.526085E-1,-2.3990273E-3,3.2538325E-1,4.161022E-1,-8.224672E-2,1.05328456E-1,7.481311E-1,-2.615533E-2,-5.4648966E-3,-5.291385E-3,-2.1583283E-1,-1.9994926E-1,1.509688E-1,-6.474583E-2,-1.1146209E-1,1.02010734E-1,2.3987475E-3,2.87818E-1,6.456025E-4,-1.0911181E-3,-1.53411E-1,-1.0025592E-2,4.4497116E-3,-1.1678858E-3,-1.3723001E-1,4.409962E-3,-2.228033E-3,9.06344E-1,-6.370841E-1,-3.669539E-1,-3.945133E-2,-3.311743E-1,-9.2275924E-4,8.5893254E-5,-6.322006E-3,-2.9126198E-3,-2.5011575E-1,2.3136187E-1,-5.0788894E-3,-3.5067138E-3,2.6541513E-3,5.916312E-3,5.264398E-3,3.8321496E-3,9.274056E-5,1.463814E-3,4.6409983E-3,2.6232474E-3,-9.349606E-4,-4.3291925E-3,1.7860035E-3,6.0310744E-4],"split_indices":[389,253,354,262,19,118,52,389,109,1,0,11,3,150,55,278,337,0,0,0,0,93,0,0,0,125,0,0,0,267,315,1,214,0,0,0,0,3,82,0,0,0,0,0,0,0,0,0,0,0,0,0,0],"split_type":[0,0,0,0,0,0,0,0,0,0,0,0,0,0,0,0,0,0,0,0,0,0,0,0,0,0,0,0,0,0,0,0,0,0,0,0,0,0,0,0,0,0,0,0,0,0,0,0,0,0,0,0,0],"sum_hessian":[4.8820172E2,2.3539656E2,2.5280518E2,2.0528606E2,3.0110506E1,1.270188E2,1.2578638E2,1.8392677E2,2.1359285E1,1.4390336E1,1.572017E1,1.11553E2,1.5465791E1,7.454145E1,5.1244923E1,1.5717555E2,2.6751225E1,1.0682558E1,1.0676727E1,7.60817E0,6.782166E0,7.232818E1,3.9224827E1,1.0423397E1,5.042394E0,5.447754E1,2.0063913E1,1.8924107E1,3.2320816E1,4.1991695E1,1.1518385E2,1.2368744E1,1.4382481E1,5.6556563E0,5.021071E0,5.368316E1,1.8645018E1,2.3425718E1,3.105182E1,1.8455715E1,1.38651E1,5.3408756E0,3.665082E1,1.5975522E1,9.920833E1,5.661764E0,6.7069793E0,6.5608015E0,7.821679E0,1.755348E1,5.872239E0,1.6046427E1,1.5005394E1],"tree_param":{"num_deleted":"0","num_feature":"403","num_nodes":"53","size_leaf_vector":"1"}},{"base_weights":[-4.3328064E-3,5.1927216E-2,-8.224032E-2,2.3389837E-2,8.672577E-2,-1.01854794E-1,4.762976E-3,5.075218E-2,-1.5756024E-2,7.085305E-2,9.753497E-2,-1.1365621E-1,4.976662E-2,-2.0242264E-3,6.1194845E-2,1.1443256E-2,-7.0955195E-2,8.391333E-2,5.7358116E-2,8.363511E-2,1.11077234E-1,-1.20005175E-1,-1.7942978E-3,-8.835543E-4,5.204757E-3,7.4484065E-2,2.8178308E-2,5.9569173E-2,-4.034531E-2,9.025835E-4,-1.0335202E-1,2.519394E-3,9.099163E-2,1.3356687E-3,6.289222E-2,2.2835778E-3,8.872354E-2,3.4368986E-3,5.86307E-3,-1.1175075E-1,-8.644637E-3,1.6510912E-3,3.993118E-3,2.0546587E-3,7.326216E-4,7.075692E-3,1.1218794E-3,-5.956031E-4,-3.8774197E-3,-7.285145E-3,-3.2893256E-3,2.6249548E-3,5.084456E-3,4.057565E-3,2.3395072E-3,4.7756713E-3,2.9574372E-3,-4.8242207E-3,-6.0967794E-3],"categories":[],"categories_nodes":[],"categories_segments":[],"categories_sizes":[],"default_left":[0,0,0,0,0,0,0,0,0,0,0,0,0,0,0,0,0,0,0,0,0,0,0,0,0,0,0,0,0,0,0,0,0,0,0,0,0,0,0,0,0,0,0,0,0,0,0,0,0,0,0,0,0,0,0,0,0,0,0],"id":21,"left_children":[1,3,5,7,9,11,-1,13,15,17,19,21,23,-1,25,27,29,31,33,35,37,39,-1,-1,-1,41,43,45,47,-1,49,-1,51,-1,53,-1,55,-1,-1,57,-1,-1,-1,-1,-1,-1,-1,-1,-1,-1,-1,-1,-1,-1,-1,-1,-1,-1,-1],"loss_changes":[1.9726548E0,2.575432E-1,6.666782E-1,1.5609324E-1,1.323247E-2,3.1057394E-1,0E0,8.400604E-2,9.151113E-2,4.21384E-3,3.3569932E-3,7.390785E-2,4.9473353E-2,0E0,3.176552E-2,1.0541441E-1,5.9767425E-2,1.0790378E-3,3.1277463E-3,3.1345487E-3,5.2154064E-5,4.442668E-2,0E0,0E0,0E0,9.498835E-3,3.5481658E-3,6.3237354E-2,2.076538E-2,0E0,1.4072463E-2,0E0,2.2652447E-3,0E0,3.0458793E-3,0E0,7.252246E-4,0E0,0E0,8.314133E-3,0E0,0E0,0E0,0E0,0E0,0E0,0E0,0E0,0E0,0E0,0E0,0E0,0E0,0E0,0E0,0E0,0E0,0E0,0E0],"parents":[2147483647,0,0,1,1,2,2,3,3,4,4,5,5,7,7,8,8,9,9,10,10,11,11,12,12,14,14,15,15,16,16,17,17,18,18,19,19,20,20,21,21,25,25,26,26,27,27,28,28,30,30,32,32,34,34,36,36,39,39],"right_children":[2,4,6,8,10,12,-1,14,16,18,20,22,24,-1,26,28,30,32,34,36,38,40,-1,-1,-1,42,44,46,48,-1,50,-1,52,-1,54,-1,56,-1,-1,58,-1,-1,-1,-1,-1,-1,-1,-1,-1,-1,-1,-1,-1,-1,-1,-1,-1,-1,-1],"split_conditions":[1.5564623E-1,-1.709696E-1,8.341793E-1,-1.3658407E-1,7.788846E-2,-9.148158E-2,4.762976E-3,-6.890239E-2,1.2258623E0,-5.224602E-2,-2.0372495E-2,1.4210302E-1,-1.5321222E-1,-2.0242264E-3,1.9032756E0,2.7120152E-1,-1.3792208E-1,-2.1906702E-1,-1.7861149E-1,-2.0411485E-1,-1.9920647E-2,-2.7241248E-1,-1.7942978E-3,-8.835543E-4,5.204757E-3,-5.088368E-1,2.62891E-1,2.1630421E-1,-2.2581257E-3,9.025835E-4,-3.288213E-1,2.519394E-3,-3.5024446E-1,1.3356687E-3,-1.9239645E-2,2.2835778E-3,2.8623062E-1,3.4368986E-3,5.86307E-3,1.5469453E0,-8.644637E-3,1.6510912E-3,3.993118E-3,2.0546587E-3,7.326216E-4,7.075692E-3,1.1218794E-3,-5.956031E-4,-3.8774197E-3,-7.285145E-3,-3.2893256E-3,2.6249548E-3,5.084456E-3,4.057565E-3,2.3395072E-3,4.7756713E-3,2.9574372E-3,-4.8242207E-3,-6.0967794E-3],"split_indices":[45,287,88,35,165,93,0,66,389,241,273,213,23,0,389,69,12,6,69,355,66,6,0,0,0,199,103,389,2,0,8,0,244,0,187,0,108,0,0,392,0,0,0,0,0,0,0,0,0,0,0,0,0,0,0,0,0,0,0],"split_type":[0,0,0,0,0,0,0,0,0,0,0,0,0,0,0,0,0,0,0,0,0,0,0,0,0,0,0,0,0,0,0,0,0,0,0,0,0,0,0,0,0,0,0,0,0,0,0,0,0,0,0,0,0,0,0,0,0,0,0],"sum_hessian":[4.4808713E2,2.603859E2,1.8770123E2,1.439821E2,1.1640381E2,1.6940721E2,1.8294031E1,8.457147E1,5.941063E1,5.0217308E1,6.61865E1,1.5740594E2,1.2001257E1,8.390193E0,7.6181274E1,4.0330532E1,1.9080095E1,2.2867846E1,2.7349463E1,3.6203186E1,2.9983313E1,1.4502353E2,1.2382427E1,5.6556563E0,6.3456006E0,5.3422607E1,2.2758667E1,2.0826609E1,1.9503923E1,5.209723E0,1.3870373E1,5.401756E0,1.746609E1,5.07485E0,2.2274612E1,5.4579945E0,3.0745192E1,5.3653274E0,2.4617985E1,1.2813747E2,1.6886063E1,6.9538627E0,4.6468746E1,1.0599689E1,1.2158979E1,5.6177683E0,1.520884E1,1.1803237E1,7.7006865E0,5.1667776E0,8.703595E0,5.0831413E0,1.2382948E1,8.545067E0,1.3729546E1,2.31913E1,7.5538926E0,5.5468094E1,7.2669365E1],"tree_param":{"num_deleted":"0","num_feature":"403","num_nodes":"59","size_leaf_vector":"1"}},{"base_weights":[-7.700199E-3,4.600649E-2,-9.794121E-2,6.731171E-2,-4.902425E-3,-7.2775654E-2,-9.753622E-3,7.510227E-2,-4.6055526E-2,4.012283E-2,-7.317715E-2,-9.777082E-2,3.0542733E-2,3.8778543E-2,8.125301E-2,1.0714724E-4,-3.7058317E-3,8.449489E-3,6.463413E-2,-6.4637125E-3,-5.2307494E-2,-1.03921235E-1,7.8536366E-4,-1.1046318E-3,7.5974114E-2,5.7947106E-4,5.2499883E-2,7.373226E-2,9.65057E-2,-6.772512E-4,2.278207E-2,1.316745E-3,7.140279E-2,-1.164822E-3,-3.075075E-3,-1.9722043E-3,-1.1067536E-1,2.2639323E-3,4.4445232E-3,1.7718932E-3,4.1454826E-3,4.8240903E-3,3.28132E-3,5.3996886E-3,3.1117059E-3,1.7014807E-3,4.1941303E-4,4.378951E-3,2.6394539E-3,-3.8798887E-3,-6.47126E-3],"categories":[],"categories_nodes":[],"categories_segments":[],"categories_sizes":[],"default_left":[0,0,0,0,0,0,0,0,0,0,0,0,0,0,0,0,0,0,0,0,0,0,0,0,0,0,0,0,0,0,0,0,0,0,0,0,0,0,0,0,0,0,0,0,0,0,0,0,0,0,0],"id":22,"left_children":[1,3,5,7,9,11,-1,13,15,17,19,21,23,25,27,-1,-1,29,31,-1,33,35,-1,-1,37,-1,39,41,43,-1,45,-1,47,-1,-1,-1,49,-1,-1,-1,-1,-1,-1,-1,-1,-1,-1,-1,-1,-1,-1],"loss_changes":[2.23299E0,3.1371647E-1,4.0592456E-1,1.8341762E-1,2.6784912E-1,3.5962778E-1,0E0,3.9530158E-2,1.8717535E-2,4.0271312E-2,3.374566E-2,7.9408765E-2,6.783084E-2,1.0425929E-2,1.1520386E-2,0E0,0E0,7.901808E-3,5.764045E-3,0E0,5.7417005E-3,4.172623E-2,0E0,0E0,1.9513071E-3,0E0,7.113941E-3,1.4514506E-2,1.3127625E-2,0E0,2.1359622E-3,0E0,2.7463064E-3,0E0,0E0,0E0,4.903114E-2,0E0,0E0,0E0,0E0,0E0,0E0,0E0,0E0,0E0,0E0,0E0,0E0,0E0,0E0],"parents":[2147483647,0,0,1,1,2,2,3,3,4,4,5,5,7,7,8,8,9,9,10,10,11,11,12,12,13,13,14,14,17,17,18,18,20,20,21,21,24,24,26,26,27,27,28,28,30,30,32,32,36,36],"right_children":[2,4,6,8,10,12,-1,14,16,18,20,22,24,26,28,-1,-1,30,32,-1,34,36,-1,-1,38,-1,40,42,44,-1,46,-1,48,-1,-1,-1,50,-1,-1,-1,-1,-1,-1,-1,-1,-1,-1,-1,-1,-1,-1],"split_conditions":[4.2635566E-1,1.0789618E0,3.0306943E-2,6.1609256E-1,2.2330713E-1,-1.8916258E-1,-9.753622E-3,-2.0891167E-1,-2.2581257E-3,3.362605E-1,-1.4502807E-1,3.0288503E0,-3.008026E-1,-4.2041117E-1,8.374424E-2,1.0714724E-4,-3.7058317E-3,3.2019403E-2,4.5516457E-2,-6.4637125E-3,-2.3846795E-1,1.7331716E-1,7.8536366E-4,-1.1046318E-3,-3.2353234E-1,5.7947106E-4,-7.7841133E-3,-2.8891805E-1,5.366429E-1,-6.772512E-4,-1.4562303E-1,1.316745E-3,5.7335623E-2,-1.164822E-3,-3.075075E-3,-1.9722043E-3,2.626654E0,2.2639323E-3,4.4445232E-3,1.7718932E-3,4.1454826E-3,4.8240903E-3,3.28132E-3,5.3996886E-3,3.1117059E-3,1.7014807E-3,4.1941303E-4,4.378951E-3,2.6394539E-3,-3.8798887E-3,-6.47126E-3],"split_indices":[349,389,50,104,196,221,0,285,2,174,47,388,40,30,387,0,0,89,240,0,2,135,0,0,38,0,164,338,234,0,11,0,343,0,0,0,388,0,0,0,0,0,0,0,0,0,0,0,0,0,0],"split_type":[0,0,0,0,0,0,0,0,0,0,0,0,0,0,0,0,0,0,0,0,0,0,0,0,0,0,0,0,0,0,0,0,0,0,0,0,0,0,0,0,0,0,0,0,0,0,0,0,0,0,0],"sum_hessian":[4.5880872E2,2.8793512E2,1.7087361E2,2.0275893E2,8.517618E1,1.3710149E2,3.3772125E1,1.9003717E2,1.2721758E1,5.1575752E1,3.360042E1,1.1043768E2,2.6663797E1,2.857712E1,1.6146005E2,5.021071E0,7.7006865E0,2.3087261E1,2.8488491E1,7.702347E0,2.5898075E1,1.04839676E2,5.5980034E0,1.2590525E1,1.4073273E1,1.0203434E1,1.8373686E1,1.1204658E2,4.9413483E1,9.130585E0,1.39566765E1,5.013158E0,2.3475334E1,7.0827665E0,1.881531E1,1.0589421E1,9.425026E1,5.502414E0,8.570859E0,1.3157017E1,5.216669E0,2.6570984E1,8.547559E1,3.5397038E1,1.4016445E1,7.0688143E0,6.8878627E0,1.0577707E1,1.2897626E1,3.5956345E1,5.829391E1],"tree_param":{"num_deleted":"0","num_feature":"403","num_nodes":"51","size_leaf_vector":"1"}},{"base_weights":[-1.1864051E-2,5.215124E-2,-6.545181E-2,7.814375E-2,-1.408306E-2,-1.2260566E-1,-3.5365146E-2,7.360264E-2,5.1835417E-3,2.6393173E-2,-9.219923E-2,-8.819867E-2,-9.03855E-3,-7.524914E-2,-7.174532E-3,7.5380854E-2,1.378274E-3,3.2675385E-3,1.4979251E-2,-4.204033E-2,-6.8295645E-3,-5.1813233E-3,3.1642837E-3,-9.5839076E-2,-3.2801088E-2,4.4535785E-3,-2.1814337E-2,5.2361738E-2,7.985348E-2,2.898736E-2,-3.8510056E-3,-1.0026348E-3,-2.8710961E-3,-3.3072107E-3,-6.03958E-3,-4.2372015E-3,2.533225E-3,-4.8988173E-3,-5.054823E-3,3.0874596E-3,1.1131833E-3,4.099517E-3,2.0917559E-3,1.8485327E-3,1.0489367E-3,-1.0064365E-3,2.5600355E-4,-1.5336978E-3,2.2549455E-3],"categories":[],"categories_nodes":[],"categories_segments":[],"categories_sizes":[],"default_left":[0,0,0,0,0,0,0,0,0,0,0,0,0,0,0,0,0,0,0,0,0,0,0,0,0,0,0,0,0,0,0,0,0,0,0,0,0,0,0,0,0,0,0,0,0,0,0,0,0],"id":23,"left_children":[1,3,5,7,9,11,13,15,-1,17,19,21,-1,23,25,27,-1,-1,29,31,-1,-1,-1,33,35,-1,37,39,41,43,45,-1,-1,-1,-1,-1,-1,47,-1,-1,-1,-1,-1,-1,-1,-1,-1,-1,-1],"loss_changes":[1.7887652E0,4.103337E-1,4.835726E-1,1.2176514E-2,2.1693477E-1,1.7907774E-1,2.100418E-1,1.0079563E-2,0E0,1.92369E-2,4.6309963E-2,1.5421745E-1,0E0,6.455174E-2,1.5811473E-1,1.0480583E-2,0E0,0E0,9.7286925E-3,3.049096E-3,0E0,0E0,0E0,3.027013E-2,1.20566234E-1,0E0,1.2960032E-1,5.992025E-3,6.1022043E-3,5.685631E-4,2.5030994E-3,0E0,0E0,0E0,0E0,0E0,0E0,1.0576776E-1,0E0,0E0,0E0,0E0,0E0,0E0,0E0,0E0,0E0,0E0,0E0],"parents":[2147483647,0,0,1,1,2,2,3,3,4,4,5,5,6,6,7,7,9,9,10,10,11,11,13,13,14,14,15,15,18,18,19,19,23,23,24,24,26,26,27,27,28,28,29,29,30,30,37,37],"right_children":[2,4,6,8,10,12,14,16,-1,18,20,22,-1,24,26,28,-1,-1,30,32,-1,-1,-1,34,36,-1,38,40,42,44,46,-1,-1,-1,-1,-1,-1,48,-1,-1,-1,-1,-1,-1,-1,-1,-1,-1,-1],"split_conditions":[3.1872758E-1,1.1329964E0,1.7652084E-1,5.629535E-1,1.4416884E-1,-1.7970933E-1,-7.9706264E-1,3.4912753E-1,5.1835417E-3,-1.1499338E-2,-9.628935E-2,-2.90999E-1,-9.03855E-3,2.1421578E0,-9.5662725E-1,-8.647426E-2,1.378274E-3,3.2675385E-3,-1.5309337E-1,-5.596311E-1,-6.8295645E-3,-5.1813233E-3,3.1642837E-3,2.0726225E0,-6.661931E-1,4.4535785E-3,7.027176E-1,7.481311E-1,6.8431735E-1,1.9862425E-1,1.607301E-1,-1.0026348E-3,-2.8710961E-3,-3.3072107E-3,-6.03958E-3,-4.2372015E-3,2.533225E-3,2.4273534E-1,-5.054823E-3,3.0874596E-3,1.1131833E-3,4.099517E-3,2.0917559E-3,1.8485327E-3,1.0489367E-3,-1.0064365E-3,2.5600355E-4,-1.5336978E-3,2.2549455E-3],"split_indices":[345,389,32,361,159,24,60,25,0,14,338,5,0,389,142,371,0,0,17,1,0,0,0,389,3,0,70,389,271,162,0,0,0,0,0,0,0,85,0,0,0,0,0,0,0,0,0,0,0],"split_type":[0,0,0,0,0,0,0,0,0,0,0,0,0,0,0,0,0,0,0,0,0,0,0,0,0,0,0,0,0,0,0,0,0,0,0,0,0,0,0,0,0,0,0,0,0,0,0,0,0],"sum_hessian":[5.1944464E2,2.3670567E2,2.8273895E2,1.6986519E2,6.684049E1,9.644776E1,1.862912E2,1.4750774E2,2.2357452E1,4.4463608E1,2.2376883E1,6.2181442E1,3.426632E1,7.645442E1,1.0983678E2,1.4140836E2,6.0993795E0,9.004439E0,3.5459167E1,1.1420172E1,1.095671E1,5.6720695E1,5.4607444E0,5.0635345E1,2.5819075E1,1.3830048E1,9.600673E1,2.5073032E1,1.1633532E2,2.0023777E1,1.54353895E1,5.648892E0,5.7712803E0,2.4787579E1,2.5847769E1,1.5905393E1,9.913682E0,7.999986E1,1.6006866E1,1.8310478E1,6.7625546E0,1.09049484E2,7.285829E0,8.216706E0,1.1807071E1,5.042394E0,1.0392996E1,5.3041878E1,2.6957989E1],"tree_param":{"num_deleted":"0","num_feature":"403","num_nodes":"49","size_leaf_vector":"1"}},{"base_weights":[-1.2007845E-2,3.567298E-2,-9.276095E-2,7.386802E-2,3.303739E-3,-7.159871E-2,-8.841035E-3,-9.644433E-4,7.7573456E-2,3.0086024E-2,-3.2079432E-2,7.316986E-2,-8.51974E-2,6.1463594E-2,8.6857565E-2,4.425802E-2,-5.3518796E-3,1.1817488E-2,-7.770909E-2,2.3531213E-3,4.4609318E-3,-9.959613E-2,4.8683202E-4,6.555355E-2,1.3260229E-3,9.224822E-2,5.4884877E-2,1.4925034E-2,7.637812E-2,-1.9150116E-3,2.9749945E-2,-1.16003506E-1,-4.114007E-2,-1.05545916E-1,6.4458436E-4,2.5602689E-3,4.007996E-3,4.924701E-3,3.6247864E-3,1.4271943E-3,3.6188539E-3,2.5933802E-3,7.4787626E-5,4.765837E-3,1.9988944E-3,3.707908E-3,8.3128543E-4,-3.532047E-3,-6.8328427E-3,-2.5163966E-3,-1.1065635E-3,-2.159512E-3,-5.587914E-3],"categories":[],"categories_nodes":[],"categories_segments":[],"categories_sizes":[],"default_left":[0,0,0,0,0,0,0,0,0,0,0,0,0,0,0,0,0,0,0,0,0,0,0,0,0,0,0,0,0,0,0,0,0,0,0,0,0,0,0,0,0,0,0,0,0,0,0,0,0,0,0,0,0],"id":24,"left_children":[1,3,5,7,9,11,-1,-1,13,15,17,19,21,23,25,27,-1,29,31,-1,-1,33,-1,35,-1,37,39,41,43,-1,45,47,49,51,-1,-1,-1,-1,-1,-1,-1,-1,-1,-1,-1,-1,-1,-1,-1,-1,-1,-1,-1],"loss_changes":[1.828662E0,3.6917046E-1,3.009156E-1,4.879266E-2,1.5522136E-1,2.867754E-1,0E0,0E0,1.4400244E-2,1.8578845E-1,1.4235593E-1,1.1535734E-3,1.7966747E-1,5.646065E-3,8.949876E-3,7.90834E-2,0E0,3.426474E-2,4.389824E-2,0E0,0E0,7.739186E-2,0E0,5.447194E-3,0E0,1.2617111E-3,4.476521E-3,2.2618087E-2,2.403973E-2,0E0,1.4915893E-2,5.7371855E-3,2.261743E-3,3.7011147E-2,0E0,0E0,0E0,0E0,0E0,0E0,0E0,0E0,0E0,0E0,0E0,0E0,0E0,0E0,0E0,0E0,0E0,0E0,0E0],"parents":[2147483647,0,0,1,1,2,2,3,3,4,4,5,5,8,8,9,9,10,10,11,11,12,12,13,13,14,14,15,15,17,17,18,18,21,21,23,23,25,25,26,26,27,27,28,28,30,30,31,31,32,32,33,33],"right_children":[2,4,6,8,10,12,-1,-1,14,16,18,20,22,24,26,28,-1,30,32,-1,-1,34,-1,36,-1,38,40,42,44,-1,46,48,50,52,-1,-1,-1,-1,-1,-1,-1,-1,-1,-1,-1,-1,-1,-1,-1,-1,-1,-1,-1],"split_conditions":[4.2635566E-1,-4.5459315E-2,3.0306943E-2,-1.7725372E-1,9.018971E-1,-1.41936E-1,-8.841035E-3,-9.644433E-4,-5.9334487E-2,8.34467E-1,1.3036706E-1,-1.9615954E-1,-7.968685E-2,4.2755157E-1,1.6458929E-3,-4.4329578E-1,-5.3518796E-3,-3.535601E-1,-2.879028E-2,2.3531213E-3,4.4609318E-3,3.0288503E0,4.8683202E-4,-9.87117E-3,1.3260229E-3,1.1366917E-1,-5.769221E-2,-3.707515E-3,1.829797E-1,-1.9150116E-3,3.452529E-2,-9.392779E-2,4.694581E-1,2.6169625E-1,6.4458436E-4,2.5602689E-3,4.007996E-3,4.924701E-3,3.6247864E-3,1.4271943E-3,3.6188539E-3,2.5933802E-3,7.4787626E-5,4.765837E-3,1.9988944E-3,3.707908E-3,8.3128543E-4,-3.532047E-3,-6.8328427E-3,-2.5163966E-3,-1.1065635E-3,-2.159512E-3,-5.587914E-3],"split_indices":[349,157,50,383,389,23,0,0,88,87,363,155,376,200,80,326,0,24,47,0,0,388,0,130,0,125,72,363,389,0,14,4,5,0,0,0,0,0,0,0,0,0,0,0,0,0,0,0,0,0,0,0,0],"split_type":[0,0,0,0,0,0,0,0,0,0,0,0,0,0,0,0,0,0,0,0,0,0,0,0,0,0,0,0,0,0,0,0,0,0,0,0,0,0,0,0,0,0,0,0,0,0,0,0,0,0,0,0,0],"sum_hessian":[4.730715E2,2.9779572E2,1.752758E2,1.3601672E2,1.6177898E2,1.4150368E2,3.3772125E1,5.042394E0,1.3097433E2,9.2166145E1,6.961283E1,1.1774485E1,1.297292E2,5.0670593E1,8.030374E1,8.414666E1,8.019484E0,3.585775E1,3.3755077E1,5.9796E0,5.7948847E0,1.1260168E2,1.7127516E1,4.4577015E1,6.0935774E0,6.710456E1,1.3199185E1,4.474705E1,3.939961E1,9.149863E0,2.6707888E1,1.5427501E1,1.8327578E1,1.0700368E2,5.5980034E0,2.4760178E1,1.9816835E1,4.7954727E1,1.914983E1,6.317562E0,6.8816233E0,1.1166602E1,3.358045E1,2.4851229E1,1.4548379E1,5.031712E0,2.1676176E1,6.209469E0,9.218033E0,1.1244812E1,7.0827665E0,1.0415167E1,9.658851E1],"tree_param":{"num_deleted":"0","num_feature":"403","num_nodes":"53","size_leaf_vector":"1"}},{"base_weights":[-1.37048885E-2,3.0770132E-2,-8.247352E-2,-2.0185895E-3,6.3042864E-2,-9.969299E-2,2.0308444E-2,5.289036E-2,-2.0239294E-2,-3.1293527E-4,6.7044206E-2,-8.411696E-3,-8.181053E-2,3.4477178E-3,-9.990919E-3,3.7443207E-3,3.6076356E-2,4.1242827E-2,-4.6199527E-2,7.126139E-2,8.105694E-3,-9.7366556E-4,-8.881889E-2,6.172407E-4,-1.0049728E-3,1.3489254E-3,2.1359366E-3,4.3530012E-3,2.2602819E-2,1.5314149E-2,-6.4008996E-2,5.4456122E-2,8.172261E-2,-9.242009E-4,1.6748563E-3,-1.2725123E-3,-9.460567E-2,2.1223547E-3,3.693392E-4,1.9002482E-3,-7.2166126E-4,-4.2500007E-3,-9.7539974E-4,2.1879126E-3,3.3602694E-3,4.4542775E-3,2.8084822E-3,-3.8949575E-3,-5.441999E-3],"categories":[],"categories_nodes":[],"categories_segments":[],"categories_sizes":[],"default_left":[0,0,0,0,0,0,0,0,0,0,0,0,0,0,0,0,0,0,0,0,0,0,0,0,0,0,0,0,0,0,0,0,0,0,0,0,0,0,0,0,0,0,0,0,0,0,0,0,0],"id":25,"left_children":[1,3,5,7,9,11,13,15,17,-1,19,-1,21,-1,23,-1,25,27,29,31,33,-1,35,-1,-1,-1,-1,-1,37,39,41,43,45,-1,-1,-1,47,-1,-1,-1,-1,-1,-1,-1,-1,-1,-1,-1,-1],"loss_changes":[1.5684285E0,3.2989472E-1,3.583777E-1,1.5669626E-1,4.397911E-2,1.9781792E-1,4.4498436E-2,1.1734515E-2,1.8947451E-1,0E0,3.635639E-2,0E0,5.8932126E-2,0E0,4.58054E-3,0E0,3.010109E-4,2.827992E-2,9.201884E-2,1.9906342E-2,8.08006E-3,0E0,4.3260276E-2,0E0,0E0,0E0,0E0,0E0,7.6960092E-3,1.3686894E-2,5.8719605E-2,4.717797E-3,1.068604E-2,0E0,0E0,0E0,1.8571615E-2,0E0,0E0,0E0,0E0,0E0,0E0,0E0,0E0,0E0,0E0,0E0,0E0],"parents":[2147483647,0,0,1,1,2,2,3,3,4,4,5,5,6,6,7,7,8,8,10,10,12,12,14,14,16,16,17,17,18,18,19,19,20,20,22,22,28,28,29,29,30,30,31,31,32,32,36,36],"right_children":[2,4,6,8,10,12,14,16,18,-1,20,-1,22,-1,24,-1,26,28,30,32,34,-1,36,-1,-1,-1,-1,-1,38,40,42,44,46,-1,-1,-1,48,-1,-1,-1,-1,-1,-1,-1,-1,-1,-1,-1,-1],"split_conditions":[4.2635566E-1,-1.1997226E-1,1.6734678E-1,-7.9605E-2,-5.9614074E-1,1.0457553E-1,6.9010064E-2,-2.949986E-1,-2.6065022E-2,-3.1293527E-4,3.898421E-2,-8.411696E-3,2.4148612E-1,3.4477178E-3,3.6915302E-1,3.7443207E-3,-1.5309337E-1,2.3959464E-1,-1.611081E-2,-8.158417E-2,-7.4395716E-2,-9.7366556E-4,-3.320211E-2,6.172407E-4,-1.0049728E-3,1.3489254E-3,2.1359366E-3,4.3530012E-3,-1.9799428E-1,-2.4982985E-2,3.5509884E-1,-1.7180134E-1,3.3804968E-1,-9.242009E-4,1.6748563E-3,-1.2725123E-3,2.7627914E0,2.1223547E-3,3.693392E-4,1.9002482E-3,-7.2166126E-4,-4.2500007E-3,-9.7539974E-4,2.1879126E-3,3.3602694E-3,4.4542775E-3,2.8084822E-3,-3.8949575E-3,-5.441999E-3],"split_indices":[349,346,203,303,28,7,9,333,95,0,80,0,26,0,0,0,17,173,72,88,2,0,138,0,0,0,0,0,366,2,353,131,285,0,0,0,388,0,0,0,0,0,0,0,0,0,0,0,0],"split_type":[0,0,0,0,0,0,0,0,0,0,0,0,0,0,0,0,0,0,0,0,0,0,0,0,0,0,0,0,0,0,0,0,0,0,0,0,0,0,0,0,0,0,0,0,0,0,0,0,0],"sum_hessian":[5.1098227E2,3.1063593E2,2.0034631E2,1.5455118E2,1.5608476E2,1.7162358E2,2.872273E1,3.803329E1,1.16517876E2,8.489322E0,1.4759544E2,3.3772125E1,1.3785146E2,1.0534203E1,1.8188528E1,1.4981157E1,2.3052134E1,3.4417515E1,8.2100365E1,1.3754474E2,1.0050714E1,1.4313754E1,1.23537704E2,5.5980034E0,1.2590525E1,1.186399E1,1.1188145E1,8.891523E0,2.5525991E1,1.8464464E1,6.36359E1,5.515205E1,8.2392685E1,5.042394E0,5.0083194E0,1.0789056E1,1.1274865E2,1.0301487E1,1.5224504E1,1.0317132E1,8.147332E0,4.262141E1,2.101449E1,3.2398655E1,2.2753395E1,6.203216E1,2.0360523E1,5.4847694E1,5.7900955E1],"tree_param":{"num_deleted":"0","num_feature":"403","num_nodes":"49","size_leaf_vector":"1"}},{"base_weights":[-5.1597534E-3,5.603356E-2,-5.128346E-2,-4.7947045E-2,6.432684E-2,1.4734444E-2,-6.978814E-2,-1.0921856E-3,-3.2891983E-3,1.1815581E-4,6.640531E-2,-1.4604712E-2,4.8042893E-2,3.910582E-3,-7.720515E-2,5.714443E-2,8.2836054E-2,-1.1211099E-5,-3.2761598E-3,2.8399013E-2,3.6220797E-3,-8.522484E-3,-6.501706E-2,1.0654279E-3,5.9528586E-2,5.2641455E-2,9.386086E-2,-1.2686135E-2,1.0562791E-2,6.089714E-4,2.0376798E-3,-7.206073E-2,2.480664E-3,2.4096705E-3,3.3836854E-3,3.0029712E-3,1.7464329E-3,4.901402E-3,2.8733097E-3,-8.856373E-4,-3.3970104E-4,9.0484455E-4,1.0623065E-4,3.0611174E-3,-3.941124E-3],"categories":[],"categories_nodes":[],"categories_segments":[],"categories_sizes":[],"default_left":[0,0,0,0,0,0,0,0,0,0,0,0,0,0,0,0,0,0,0,0,0,0,0,0,0,0,0,0,0,0,0,0,0,0,0,0,0,0,0,0,0,0,0,0,0],"id":26,"left_children":[1,3,5,7,9,11,13,-1,-1,-1,15,17,19,-1,21,23,25,27,-1,29,-1,-1,31,-1,33,35,37,39,41,-1,-1,43,-1,-1,-1,-1,-1,-1,-1,-1,-1,-1,-1,-1,-1],"loss_changes":[1.3252972E0,1.7714709E-1,3.280443E-1,5.7718977E-3,2.3973942E-2,5.8779776E-2,2.3574126E-1,0E0,0E0,0E0,2.2845805E-2,2.4048967E-2,1.139421E-2,0E0,2.1595371E-1,8.910626E-3,1.6067445E-2,3.6394792E-3,0E0,2.9488131E-3,0E0,0E0,1.4753371E-1,0E0,7.000625E-3,4.1925907E-4,1.1843741E-3,2.4544215E-4,9.027773E-4,0E0,0E0,1.5657562E-1,0E0,0E0,0E0,0E0,0E0,0E0,0E0,0E0,0E0,0E0,0E0,0E0,0E0],"parents":[2147483647,0,0,1,1,2,2,3,3,4,4,5,5,6,6,10,10,11,11,12,12,14,14,15,15,16,16,17,17,19,19,22,22,24,24,25,25,26,26,27,27,28,28,31,31],"right_children":[2,4,6,8,10,12,14,-1,-1,-1,16,18,20,-1,22,24,26,28,-1,30,-1,-1,32,-1,34,36,38,40,42,-1,-1,44,-1,-1,-1,-1,-1,-1,-1,-1,-1,-1,-1,-1,-1],"split_conditions":[1.1849408E0,-7.020671E-1,2.1840437E-1,3.9950448E-1,-4.5291412E-1,1.4332823E-1,2.2777289E-1,-1.0921856E-3,-3.2891983E-3,1.1815581E-4,2.2201087E-2,-2.4322069E-1,1.6039747E0,3.910582E-3,3.579144E-1,-2.7116007E-1,-6.0826766E-1,4.7777437E-2,-3.2761598E-3,-1.2220688E-1,3.6220797E-3,-8.522484E-3,2.1421578E0,1.0654279E-3,-1.2095124E-3,2.0338051E0,-5.948204E-2,1.607301E-1,-1.3815981E-1,6.089714E-4,2.0376798E-3,-1.5321222E-1,2.480664E-3,2.4096705E-3,3.3836854E-3,3.0029712E-3,1.7464329E-3,4.901402E-3,2.8733097E-3,-8.856373E-4,-3.3970104E-4,9.0484455E-4,1.0623065E-4,3.0611174E-3,-3.941124E-3],"split_indices":[389,182,101,0,30,54,103,0,0,0,131,21,392,0,167,235,267,14,0,2,0,0,389,0,66,399,263,0,11,0,0,23,0,0,0,0,0,0,0,0,0,0,0,0,0],"split_type":[0,0,0,0,0,0,0,0,0,0,0,0,0,0,0,0,0,0,0,0,0,0,0,0,0,0,0,0,0,0,0,0,0,0,0,0,0,0,0,0,0,0,0,0,0],"sum_hessian":[4.675354E2,2.0084938E2,2.6668604E2,1.4482853E1,1.8636653E2,5.8430656E1,2.0825537E2,6.782166E0,7.7006865E0,6.117829E0,1.802487E2,3.1364939E1,2.706572E1,9.4831295E0,1.9877225E2,1.1813949E2,6.210921E1,2.515547E1,6.209469E0,1.619265E1,1.0873069E1,2.1477154E1,1.7729509E2,7.9894257E0,1.1015006E2,1.8156696E1,4.3952515E1,1.1350282E1,1.3805188E1,7.8598065E0,8.332844E0,1.6738141E2,9.913682E0,4.8948135E1,6.120193E1,1.1112246E1,7.0444503E0,3.7917496E1,6.0350175E0,5.042394E0,6.3078876E0,6.6885843E0,7.116604E0,7.692759E0,1.5968864E2],"tree_param":{"num_deleted":"0","num_feature":"403","num_nodes":"45","size_leaf_vector":"1"}},{"base_weights":[-1.0712756E-2,4.117997E-2,-6.132103E-2,6.0855918E-2,-8.2863895E-3,-7.891225E-3,-4.5476243E-2,7.6849334E-2,5.4499134E-2,-5.2669857E-2,1.8403372E-2,2.037481E-2,-5.908072E-2,5.0201207E-2,8.61967E-2,3.9754238E-2,5.9144318E-2,-5.524458E-3,-2.8891537E-2,-1.7745922E-3,3.168519E-2,6.1221477E-2,-3.945557E-3,4.871578E-2,-6.633981E-2,1.6189719E-3,2.9101605E-3,2.6085465E-3,4.7050687E-3,4.8894458E-2,5.1959505E-4,4.386905E-3,5.342785E-2,-2.8582942E-4,-4.1176427E-2,1.9813702E-2,3.469978E-3,1.9816656E-3,3.8710714E-3,4.7673835E-4,-7.758641E-4,3.7541434E-3,5.7146413E-4,-7.261073E-2,4.9656455E-4,4.610225E-3,1.6304266E-3,2.8891405E-3,1.8709333E-3,-1.390566E-3,-2.517087E-3,3.1688722E-4,1.4897819E-3,6.54819E-4,-3.8599707E-3],"categories":[],"categories_nodes":[],"categories_segments":[],"categories_sizes":[],"default_left":[0,0,0,0,0,0,0,0,0,0,0,0,0,0,0,0,0,0,0,0,0,0,0,0,0,0,0,0,0,0,0,0,0,0,0,0,0,0,0,0,0,0,0,0,0,0,0,0,0,0,0,0,0,0,0],"id":27,"left_children":[1,3,5,7,9,-1,11,13,15,17,19,21,23,25,27,29,31,-1,33,-1,35,37,39,41,43,-1,-1,-1,-1,45,-1,-1,47,-1,49,51,-1,-1,-1,-1,-1,-1,-1,53,-1,-1,-1,-1,-1,-1,-1,-1,-1,-1,-1],"loss_changes":[1.2943008E0,2.3745963E-1,3.7421048E-1,1.3531804E-2,8.408083E-2,0E0,1.9439924E-1,7.4134767E-3,6.426871E-3,3.3387087E-2,3.301809E-2,3.7660845E-2,1.4328736E-1,2.0244345E-4,4.1007847E-3,8.55051E-3,1.0907292E-2,0E0,5.5175535E-3,0E0,1.486576E-2,1.869034E-3,3.9774515E-3,1.081074E-2,8.112866E-2,0E0,0E0,0E0,0E0,1.4958814E-2,0E0,0E0,3.559649E-3,0E0,1.9789487E-4,3.7106741E-3,0E0,0E0,0E0,0E0,0E0,0E0,0E0,6.215197E-2,0E0,0E0,0E0,0E0,0E0,0E0,0E0,0E0,0E0,0E0,0E0],"parents":[2147483647,0,0,1,1,2,2,3,3,4,4,6,6,7,7,8,8,9,9,10,10,11,11,12,12,13,13,14,14,15,15,16,16,18,18,20,20,21,21,22,22,23,23,24,24,29,29,32,32,34,34,35,35,43,43],"right_children":[2,4,6,8,10,-1,12,14,16,18,20,22,24,26,28,30,32,-1,34,-1,36,38,40,42,44,-1,-1,-1,-1,46,-1,-1,48,-1,50,52,-1,-1,-1,-1,-1,-1,-1,54,-1,-1,-1,-1,-1,-1,-1,-1,-1,-1,-1],"split_conditions":[3.701334E-1,1.0789618E0,1.7415628E-1,1.0085651E-1,-1.8003927E-1,-7.891225E-3,2.401679E-2,-2.5831717E-1,-3.7293202E-1,-3.288213E-1,-6.890239E-2,-1.8735933E-1,2.965499E-1,-6.0826766E-1,-6.2548004E-2,2.1630421E-1,-1.8240923E-1,-5.524458E-3,-4.132483E-1,-1.7745922E-3,3.444172E-1,-3.2353234E-1,-4.1521358E-1,-2.4407426E-1,5.1887006E-1,1.6189719E-3,2.9101605E-3,2.6085465E-3,4.7050687E-3,-3.7864313E-1,5.1959505E-4,4.386905E-3,2.1630421E-1,-2.8582942E-4,-2.5496882E-1,-2.7545768E-1,3.469978E-3,1.9816656E-3,3.8710714E-3,4.7673835E-4,-7.758641E-4,3.7541434E-3,5.7146413E-4,1.5370439E-1,4.9656455E-4,4.610225E-3,1.6304266E-3,2.8891405E-3,1.8709333E-3,-1.390566E-3,-2.517087E-3,3.1688722E-4,1.4897819E-3,6.54819E-4,-3.8599707E-3],"split_indices":[87,389,230,7,315,0,297,120,62,8,66,146,90,267,119,389,344,0,332,0,174,38,3,244,26,0,0,0,0,264,0,0,389,0,6,359,0,0,0,0,0,0,0,54,0,0,0,0,0,0,0,0,0,0,0],"split_type":[0,0,0,0,0,0,0,0,0,0,0,0,0,0,0,0,0,0,0,0,0,0,0,0,0,0,0,0,0,0,0,0,0,0,0,0,0,0,0,0,0,0,0,0,0,0,0,0,0,0,0,0,0,0,0],"sum_hessian":[4.9087985E2,2.4245627E2,2.4842357E2,1.7329533E2,6.9160934E1,3.3772125E1,2.1465144E2,4.6134205E1,1.2716113E2,2.5606106E1,4.3554825E1,3.666768E1,1.7798376E2,1.363454E1,3.2499664E1,3.2753162E1,9.440797E1,6.399198E0,1.9206907E1,8.280765E0,3.527406E1,1.3118141E1,2.3549538E1,1.086904E1,1.6711473E2,5.788661E0,7.845878E0,7.559534E0,2.4940132E1,2.4470514E1,8.28265E0,1.3338828E1,8.106914E1,7.1617985E0,1.204511E1,2.798917E1,7.284889E0,7.101347E0,6.016794E0,1.0959013E1,1.2590525E1,5.772999E0,5.0960407E0,1.5446297E2,1.2651768E1,5.413225E0,1.905729E1,6.1680824E1,1.9388313E1,6.5411024E0,5.5040073E0,1.2605811E1,1.538336E1,7.755335E0,1.4670763E2],"tree_param":{"num_deleted":"0","num_feature":"403","num_nodes":"55","size_leaf_vector":"1"}},{"base_weights":[-1.1168119E-2,4.274024E-2,-5.4900397E-2,5.9215546E-2,-4.742389E-3,3.8713638E-2,-7.005867E-2,6.368584E-2,4.271821E-2,-6.0653217E-2,2.2640675E-2,3.0837622E-3,8.151961E-2,-7.909251E-3,-8.8724285E-2,7.008091E-2,4.3121208E-2,2.8246898E-2,3.353034E-3,-2.078679E-2,-5.0559323E-3,6.2362514E-3,5.408339E-2,-5.356286E-4,1.9335346E-3,4.8557324E-3,2.1189277E-3,6.365251E-2,-2.859086E-2,-7.1487874E-3,-7.2524846E-2,9.3935676E-2,5.7282526E-2,4.2104512E-4,5.0192382E-2,4.1160226E-2,1.5189136E-2,2.9519322E-5,-1.9637912E-3,-6.114206E-4,1.6082274E-2,1.8162705E-3,3.6053383E-3,1.3676755E-3,4.9336497E-3,-4.5359127E-2,1.3102351E-2,-7.59589E-2,6.495681E-4,3.384738E-3,5.2229804E-3,3.100822E-3,1.4815641E-3,3.6905992E-3,1.6864392E-3,2.8032463E-3,7.651317E-4,1.2740456E-3,-2.1097196E-4,1.4572276E-4,1.0557538E-3,-1.0016087E-3,-2.5634568E-3,-5.3282445E-5,1.2144909E-3,-1.2506242E-4,-3.9908905E-3],"categories":[],"categories_nodes":[],"categories_segments":[],"categories_sizes":[],"default_left":[0,0,0,0,0,0,0,0,0,0,0,0,0,0,0,0,0,0,0,0,0,0,0,0,0,0,0,0,0,0,0,0,0,0,0,0,0,0,0,0,0,0,0,0,0,0,0,0,0,0,0,0,0,0,0,0,0,0,0,0,0,0,0,0,0,0,0],"id":28,"left_children":[1,3,5,7,9,11,13,15,17,19,21,23,25,