{"learner":{"attributes":{"best_iteration":"144","best_score":"1.0558963584379655","scikit_learn":"{\"_estimator_type\": \"regressor\"}"},"feature_names":[],"feature_types":[],"gradient_booster":{"model":{"cats":{"enc":[],"feature_segments":[],"sorted_idx":[]},"gbtree_model_param":{"num_parallel_tree":"1","num_trees":"195"},"iteration_indptr":[0,1,2,3,4,5,6,7,8,9,10,11,12,13,14,15,16,17,18,19,20,21,22,23,24,25,26,27,28,29,30,31,32,33,34,35,36,37,38,39,40,41,42,43,44,45,46,47,48,49,50,51,52,53,54,55,56,57,58,59,60,61,62,63,64,65,66,67,68,69,70,71,72,73,74,75,76,77,78,79,80,81,82,83,84,85,86,87,88,89,90,91,92,93,94,95,96,97,98,99,100,101,102,103,104,105,106,107,108,109,110,111,112,113,114,115,116,117,118,119,120,121,122,123,124,125,126,127,128,129,130,131,132,133,134,135,136,137,138,139,140,141,142,143,144,145,146,147,148,149,150,151,152,153,154,155,156,157,158,159,160,161,162,163,164,165,166,167,168,169,170,171,172,173,174,175,176,177,178,179,180,181,182,183,184,185,186,187,188,189,190,191,192,193,194,195],"tree_info":[0,0,0,0,0,0,0,0,0,0,0,0,0,0,0,0,0,0,0,0,0,0,0,0,0,0,0,0,0,0,0,0,0,0,0,0,0,0,0,0,0,0,0,0,0,0,0,0,0,0,0,0,0,0,0,0,0,0,0,0,0,0,0,0,0,0,0,0,0,0,0,0,0,0,0,0,0,0,0,0,0,0,0,0,0,0,0,0,0,0,0,0,0,0,0,0,0,0,0,0,0,0,0,0,0,0,0,0,0,0,0,0,0,0,0,0,0,0,0,0,0,0,0,0,0,0,0,0,0,0,0,0,0,0,0,0,0,0,0,0,0,0,0,0,0,0,0,0,0,0,0,0,0,0,0,0,0,0,0,0,0,0,0,0,0,0,0,0,0,0,0,0,0,0,0,0,0,0,0,0,0,0,0,0,0,0,0,0,0,0,0,0,0,0,0],"trees":[{"base_weights":[-1.6805987E-3,5.590122E-1,-7.26176E-2,8.842746E-1,4.1198876E-2,1.1147586E-1,-2.1531367E-1,1.1363422E0,-3.5090353E-2,-2.080637E-1,5.9558105E-1,-1.9300407E-1,3.9233837E-1,-2.9682663E-1,2.3569669E-1,1.5558566E0,6.0845023E-1,-2.1025017E-1,1.6813809E-2,-4.502892E-1,1.1376488E-1,8.0216044E-1,-6.3758884E-3,2.1478894E-1,-3.398719E-1,8.3031076E-1,1.60145E-1,-6.01948E-1,-2.1210478E-1,7.764089E-1,-1.6539109E-1,1.7657967E0,-6.001639E-3,7.8471833E-1,-1.6796009E-1,-1.0417133E-2,8.256264E-3,-9.953748E-2,-6.218367E-1,2.0140762E-2,-1.19512804E-1,4.1036606E-3,2.897261E-2,-3.9757746E-1,3.342942E-1,-2.2267492E-1,-8.0122787E-1,6.348211E-1,1.6611598E0,2.694379E-1,-6.867634E-1,2.1772036E-2,-8.1476915E-1,-8.451076E-1,-1.550088E-1,6.365955E-1,6.011122E-2,3.9477926E-1,-5.1337755E-1,1.915258E-2,6.2017433E-2,2.7601343E-2,-7.44734E-3,-1.8075788E-2,8.837985E-3,7.881953E-3,-1.2122427E-2,-1.4054673E-2,-3.0294126E-2,-1.0629398E-2,1.4847171E-2,-3.0719012E-4,-1.6208323E-2,7.4267033E-3,4.35145E-2,-8.03378E-3,3.4422364E-2,-2.8999262E-2,-7.438711E-3,2.1865854E-2,-4.449432E-3,2.4477668E-2,6.189235E-2,-1.0557058E-2,1.1997265E-2,4.1963784E-3,-2.8394848E-2,1.135489E-2,-8.944987E-3,1.1004221E-2,-2.6742931E-2,-2.9905904E-2,-1.9405243E-3,1.5143009E-3,-1.0675868E-2,1.2597318E-2,4.079327E-2,-7.0770746E-3,2.3569362E-2,-3.792024E-2,-9.1761295E-3],"categories":[],"categories_nodes":[],"categories_segments":[],"categories_sizes":[],"default_left":[0,0,0,0,0,0,0,0,0,0,0,0,0,0,0,0,0,0,0,0,0,0,0,0,0,0,0,0,0,0,0,0,0,0,0,0,0,0,0,0,0,0,0,0,0,0,0,0,0,0,0,0,0,0,0,0,0,0,0,0,0,0,0,0,0,0,0,0,0,0,0,0,0,0,0,0,0,0,0,0,0,0,0,0,0,0,0,0,0,0,0,0,0,0,0,0,0,0,0,0,0],"id":0,"left_children":[1,3,5,7,9,11,13,15,17,19,21,23,25,27,29,31,33,35,-1,37,39,41,-1,43,45,47,49,51,53,55,57,59,-1,61,63,-1,-1,65,67,-1,69,-1,-1,71,73,75,77,79,81,83,85,87,89,91,93,95,-1,97,99,-1,-1,-1,-1,-1,-1,-1,-1,-1,-1,-1,-1,-1,-1,-1,-1,-1,-1,-1,-1,-1,-1,-1,-1,-1,-1,-1,-1,-1,-1,-1,-1,-1,-1,-1,-1,-1,-1,-1,-1,-1,-1],"loss_changes":[8.853744E1,4.206987E1,5.1932365E1,3.561229E1,1.3597126E1,7.391965E1,4.1005764E1,2.573906E1,3.6645997E0,5.352174E0,5.262121E0,2.4928045E1,4.5578613E1,2.4262222E1,3.7213707E1,2.4867554E1,7.6588993E0,1.891113E0,0E0,2.2847557E0,3.9824617E0,2.534729E0,0E0,8.21941E0,1.6339832E1,2.4202133E1,2.7490559E1,2.716323E1,2.6614025E1,1.1250721E1,1.9500908E1,1.8901276E1,0E0,6.5188236E0,2.3886445E0,0E0,0E0,1.650739E0,1.0737591E0,0E0,3.3491983E0,0E0,0E0,1.01702E0,8.6447525E0,1.5452003E1,5.3887177E0,9.498051E0,8.16848E0,2.1380232E1,7.432373E0,6.1617312E0,1.4140739E1,7.159981E0,2.808325E1,9.928068E0,0E0,9.676054E0,9.192663E0,0E0,0E0,0E0,0E0,0E0,0E0,0E0,0E0,0E0,0E0,0E0,0E0,0E0,0E0,0E0,0E0,0E0,0E0,0E0,0E0,0E0,0E0,0E0,0E0,0E0,0E0,0E0,0E0,0E0,0E0,0E0,0E0,0E0,0E0,0E0,0E0,0E0,0E0,0E0,0E0,0E0,0E0],"parents":[2147483647,0,0,1,1,2,2,3,3,4,4,5,5,6,6,7,7,8,8,9,9,10,10,11,11,12,12,13,13,14,14,15,15,16,16,17,17,19,19,20,20,21,21,23,23,24,24,25,25,26,26,27,27,28,28,29,29,30,30,31,31,33,33,34,34,37,37,38,38,40,40,43,43,44,44,45,45,46,46,47,47,48,48,49,49,50,50,51,51,52,52,53,53,54,54,55,55,57,57,58,58],"right_children":[2,4,6,8,10,12,14,16,18,20,22,24,26,28,30,32,34,36,-1,38,40,42,-1,44,46,48,50,52,54,56,58,60,-1,62,64,-1,-1,66,68,-1,70,-1,-1,72,74,76,78,80,82,84,86,88,90,92,94,96,-1,98,100,-1,-1,-1,-1,-1,-1,-1,-1,-1,-1,-1,-1,-1,-1,-1,-1,-1,-1,-1,-1,-1,-1,-1,-1,-1,-1,-1,-1,-1,-1,-1,-1,-1,-1,-1,-1,-1,-1,-1,-1,-1,-1],"split_conditions":[-7.255969E-1,-2.2890434E-1,-1.1867072E-1,4.539395E-1,5.9723055E-1,6.5397285E-2,5.174964E-1,4.85678E-3,-1.3591535E-1,-2.6155189E-2,1.1587559E0,-3.914845E-1,-8.953057E-2,-3.0915624E-1,-4.9099594E-1,3.1245375E-1,-4.09371E-1,2.5057086E-1,1.6813809E-2,3.3907658E-1,-7.827702E-1,-2.3903257E-1,-6.3758884E-3,-3.4465432E-1,4.5195855E-3,2.1161129E-1,2.0460233E-2,1.79411E-1,-4.4683725E-1,-2.4461883E-1,-1.1912435E-3,1.7237945E-1,-6.001639E-3,7.113204E-1,1.5188991E0,-1.0417133E-2,8.256264E-3,-5.392918E-1,-3.4506068E-1,2.0140762E-2,4.1315265E-2,4.1036606E-3,2.897261E-2,6.7592375E-2,7.525793E-2,2.6831174E-1,6.4608604E-3,3.1864733E-1,4.6736836E-2,4.1206717E-2,3.5650138E-2,2.5967595E-1,1.4676845E-1,3.9490277E-1,1.7920658E-2,5.8390725E-1,6.011122E-2,9.760112E-2,2.1818699E-1,1.915258E-2,6.2017433E-2,2.7601343E-2,-7.44734E-3,-1.8075788E-2,8.837985E-3,7.881953E-3,-1.2122427E-2,-1.4054673E-2,-3.0294126E-2,-1.0629398E-2,1.4847171E-2,-3.0719012E-4,-1.6208323E-2,7.4267033E-3,4.35145E-2,-8.03378E-3,3.4422364E-2,-2.8999262E-2,-7.438711E-3,2.1865854E-2,-4.449432E-3,2.4477668E-2,6.189235E-2,-1.0557058E-2,1.1997265E-2,4.1963784E-3,-2.8394848E-2,1.135489E-2,-8.944987E-3,1.1004221E-2,-2.6742931E-2,-2.9905904E-2,-1.9405243E-3,1.5143009E-3,-1.0675868E-2,1.2597318E-2,4.079327E-2,-7.0770746E-3,2.3569362E-2,-3.792024E-2,-9.1761295E-3],"split_indices":[251,198,274,190,149,269,167,303,309,202,71,77,390,35,112,166,64,19,0,93,28,10,0,241,334,53,189,117,17,123,352,167,0,162,391,0,0,28,254,0,205,0,0,273,338,68,326,193,58,7,319,238,174,378,208,245,0,68,295,0,0,0,0,0,0,0,0,0,0,0,0,0,0,0,0,0,0,0,0,0,0,0,0,0,0,0,0,0,0,0,0,0,0,0,0,0,0,0,0,0,0],"split_type":[0,0,0,0,0,0,0,0,0,0,0,0,0,0,0,0,0,0,0,0,0,0,0,0,0,0,0,0,0,0,0,0,0,0,0,0,0,0,0,0,0,0,0,0,0,0,0,0,0,0,0,0,0,0,0,0,0,0,0,0,0,0,0,0,0,0,0,0,0,0,0,0,0,0,0,0,0,0,0,0,0,0,0,0,0,0,0,0,0,0,0,0,0,0,0,0,0,0,0,0,0],"sum_hessian":[2.224E3,2.49E2,1.975E3,1.525E2,9.65E1,8.625E2,1.1125E3,1.195E2,3.3E1,6.7E1,2.95E1,4.14E2,4.485E2,9.425E2,1.7E2,6.55E1,5.4E1,2.6E1,7E0,3.8E1,2.9E1,2.35E1,6E0,1.095E2,3.045E2,1.545E2,2.94E2,2.035E2,7.39E2,7.2E1,9.8E1,5.85E1,7E0,4.4E1,1E1,2.05E1,5.5E0,1.3E1,2.5E1,8E0,2.1E1,5E0,1.85E1,1.75E1,9.2E1,2.44E2,6.05E1,1.265E2,2.8E1,2.61E2,3.3E1,5.2E1,1.515E2,6E1,6.79E2,6.6E1,6E0,3.75E1,6.05E1,1.3E1,4.55E1,3.9E1,5E0,5E0,5E0,6E0,7E0,1.95E1,5.5E0,1.55E1,5.5E0,5E0,1.25E1,8.65E1,5.5E0,2.37E2,7E0,4.6E1,1.45E1,1.13E2,1.35E1,1E1,1.8E1,4.5E1,2.16E2,8E0,2.5E1,2.45E1,2.75E1,9E0,1.425E2,5E1,1E1,3.36E2,3.43E2,5.2E1,1.4E1,1.45E1,2.3E1,1.2E1,4.85E1],"tree_param":{"num_deleted":"0","num_feature":"404","num_nodes":"101","size_leaf_vector":"1"}},{"base_weights":[6.289962E-3,5.891534E-1,-6.9549344E-2,8.777796E-2,8.5702044E-1,1.646097E-1,-2.2420922E-1,-3.3343214E-1,3.3468342E-1,4.7495165E-1,1.5233539E0,-9.652625E-2,4.1228738E-1,5.511389E-3,-3.6564216E-1,-4.582877E-1,8.247386E-3,8.4867366E-2,7.9361725E-1,6.5663743E-1,-1.9966386E-1,1.8624824E0,4.425519E-1,1.777356E-1,-2.0103511E-1,8.9885265E-1,2.7263197E-1,2.0654084E-1,-3.1436467E-1,2.4906012E-1,-4.2997512E-1,-4.502522E-3,-1.7684253E-2,-4.0866575E-1,4.2777923E-1,3.0399994E-3,3.0311909E-2,5.651748E-2,4.9874276E-1,-3.9768413E-1,1.3820329E-2,2.12494E0,1.8498057E-2,3.6030255E-2,-3.9786873E-3,-4.044011E-1,3.271037E-1,-2.9278612E-1,1.1678338E-1,1.4264864E0,6.024672E-1,-3.935282E-1,3.7331122E-1,8.066775E-2,7.119472E-1,-4.2364052E-1,8.219458E-1,-5.270365E-1,4.8229584E-1,-8.139039E-1,-3.2573617E-1,-1.7524777E-2,-1.2576504E-4,1.9399324E-2,-3.7605553E-3,2.091627E-3,2.2962866E-2,-1.7572192E-2,2.5122054E-4,7.915258E-2,4.673701E-2,-1.7892916E-2,6.692549E-3,1.2432198E-2,-1.1466123E-2,4.9425047E-3,-1.0693862E-2,-1.6102182E-3,2.3688879E-2,1.54014705E-2,5.2844003E-2,2.628667E-2,1.0066484E-2,9.541679E-3,-2.9471576E-2,-3.8533572E-2,1.2435781E-2,-1.9832584E-4,2.1968089E-2,1.6785398E-2,5.7050418E-2,-1.6852248E-2,4.842696E-3,3.9047E-2,-5.830504E-3,-6.674321E-3,-3.144946E-2,1.0309079E-2,4.7069013E-2,-5.150213E-3,-2.7664717E-2,9.2008E-3,-1.1119936E-2],"categories":[],"categories_nodes":[],"categories_segments":[],"categories_sizes":[],"default_left":[0,0,0,0,0,0,0,0,0,0,0,0,0,0,0,0,0,0,0,0,0,0,0,0,0,0,0,0,0,0,0,0,0,0,0,0,0,0,0,0,0,0,0,0,0,0,0,0,0,0,0,0,0,0,0,0,0,0,0,0,0,0,0,0,0,0,0,0,0,0,0,0,0,0,0,0,0,0,0,0,0,0,0,0,0,0,0,0,0,0,0,0,0,0,0,0,0,0,0,0,0,0,0],"id":1,"left_children":[1,3,5,7,9,11,13,15,17,19,21,23,25,27,29,31,-1,33,35,37,39,41,43,45,47,49,51,53,55,57,59,-1,-1,61,63,-1,-1,-1,65,67,-1,69,-1,-1,-1,71,73,75,77,79,81,83,85,87,89,91,93,95,97,99,101,-1,-1,-1,-1,-1,-1,-1,-1,-1,-1,-1,-1,-1,-1,-1,-1,-1,-1,-1,-1,-1,-1,-1,-1,-1,-1,-1,-1,-1,-1,-1,-1,-1,-1,-1,-1,-1,-1,-1,-1,-1,-1],"loss_changes":[1.0020715E2,3.4977577E1,7.268422E1,9.679509E0,4.255596E1,5.168482E1,3.926625E1,2.746445E0,6.6396165E0,1.3552307E1,2.1717407E1,1.1199889E1,2.7615044E1,2.9741459E1,2.9687218E1,1.0840697E0,0E0,6.7751145E0,2.9741116E0,1.5822449E1,3.3214679E0,1.3894821E1,7.1392026E0,9.523167E0,8.27194E0,1.3371445E1,2.1608831E1,1.8009815E1,2.2512783E1,1.3196648E1,2.6848656E1,0E0,0E0,1.1687622E0,2.925991E0,0E0,0E0,0E0,8.870939E0,1.4557734E0,0E0,6.9537964E0,0E0,0E0,0E0,2.8442104E0,5.514868E0,6.4536552E0,7.3826394E0,8.883598E0,4.090187E0,1.812088E1,1.9560787E1,1.2999845E1,9.182583E0,1.3301147E1,8.051948E0,2.4656973E0,7.8234587E0,9.853088E0,1.5300991E1,0E0,0E0,0E0,0E0,0E0,0E0,0E0,0E0,0E0,0E0,0E0,0E0,0E0,0E0,0E0,0E0,0E0,0E0,0E0,0E0,0E0,0E0,0E0,0E0,0E0,0E0,0E0,0E0,0E0,0E0,0E0,0E0,0E0,0E0,0E0,0E0,0E0,0E0,0E0,0E0,0E0,0E0],"parents":[2147483647,0,0,1,1,2,2,3,3,4,4,5,5,6,6,7,7,8,8,9,9,10,10,11,11,12,12,13,13,14,14,15,15,17,17,18,18,19,19,20,20,21,21,22,22,23,23,24,24,25,25,26,26,27,27,28,28,29,29,30,30,33,33,34,34,38,38,39,39,41,41,45,45,46,46,47,47,48,48,49,49,50,50,51,51,52,52,53,53,54,54,55,55,56,56,57,57,58,58,59,59,60,60],"right_children":[2,4,6,8,10,12,14,16,18,20,22,24,26,28,30,32,-1,34,36,38,40,42,44,46,48,50,52,54,56,58,60,-1,-1,62,64,-1,-1,-1,66,68,-1,70,-1,-1,-1,72,74,76,78,80,82,84,86,88,90,92,94,96,98,100,102,-1,-1,-1,-1,-1,-1,-1,-1,-1,-1,-1,-1,-1,-1,-1,-1,-1,-1,-1,-1,-1,-1,-1,-1,-1,-1,-1,-1,-1,-1,-1,-1,-1,-1,-1,-1,-1,-1,-1,-1,-1,-1],"split_conditions":[-6.335424E-1,2.5312263E-1,-2.2610268E-1,-1.0297954E-1,-3.956482E-3,2.664243E-1,-2.5878006E-1,6.9556236E-1,2.7919096E-1,4.3442363E-1,-1.258977E-1,-4.065963E-1,4.577956E-2,2.1981114E-1,-2.1962352E-1,1.4727789E-1,8.247386E-3,-2.0709687E-1,1.7800815E-1,-1.610365E-1,3.3223946E0,3.022236E-1,-2.5927866E-1,-2.7487302E-1,2.3263395E-3,1.3788001E-1,2.5661677E-1,-7.122152E-2,1.7532468E-2,-4.5760073E-2,-3.5930994E-1,-4.502522E-3,-1.7684253E-2,2.0672679E-2,2.6888725E-1,3.0399994E-3,3.0311909E-2,5.651748E-2,-1.4946972E-1,5.4404116E-1,1.3820329E-2,4.5601326E-1,1.8498057E-2,3.6030255E-2,-3.9786873E-3,1.7613538E-2,2.1250099E-1,-1.8347256E-2,-1.6032627E-1,5.16828E-2,-2.2696555E-1,8.673149E-2,-4.7536272E-1,6.24455E-1,3.162222E-1,4.4803983E-1,1.3396098E-1,-1.0422799E-1,-1.5652783E-1,1.9277565E-1,-4.0652207E-1,-1.7524777E-2,-1.2576504E-4,1.9399324E-2,-3.7605553E-3,2.091627E-3,2.2962866E-2,-1.7572192E-2,2.5122054E-4,7.915258E-2,4.673701E-2,-1.7892916E-2,6.692549E-3,1.2432198E-2,-1.1466123E-2,4.9425047E-3,-1.0693862E-2,-1.6102182E-3,2.3688879E-2,1.54014705E-2,5.2844003E-2,2.628667E-2,1.0066484E-2,9.541679E-3,-2.9471576E-2,-3.8533572E-2,1.2435781E-2,-1.9832584E-4,2.1968089E-2,1.6785398E-2,5.7050418E-2,-1.6852248E-2,4.842696E-3,3.9047E-2,-5.830504E-3,-6.674321E-3,-3.144946E-2,1.0309079E-2,4.7069013E-2,-5.150213E-3,-2.7664717E-2,9.2008E-3,-1.1119936E-2],"split_indices":[76,299,293,128,143,350,331,302,43,18,147,39,314,58,274,209,0,263,363,47,388,155,249,194,87,353,212,382,152,328,121,0,0,332,274,0,0,0,354,319,0,168,0,0,0,312,105,135,123,206,76,173,17,238,102,53,134,22,142,305,30,0,0,0,0,0,0,0,0,0,0,0,0,0,0,0,0,0,0,0,0,0,0,0,0,0,0,0,0,0,0,0,0,0,0,0,0,0,0,0,0,0,0],"split_type":[0,0,0,0,0,0,0,0,0,0,0,0,0,0,0,0,0,0,0,0,0,0,0,0,0,0,0,0,0,0,0,0,0,0,0,0,0,0,0,0,0,0,0,0,0,0,0,0,0,0,0,0,0,0,0,0,0,0,0,0,0,0,0,0,0,0,0,0,0,0,0,0,0,0,0,0,0,0,0,0,0,0,0,0,0,0,0,0,0,0,0,0,0,0,0,0,0,0,0,0,0,0,0],"sum_hessian":[2.265E3,2.6E2,2.005E3,9.1E1,1.69E2,7.975E2,1.2075E3,3.35E1,5.75E1,1.085E2,6.05E1,3.885E2,4.09E2,4.605E2,7.47E2,2.8E1,5.5E0,3.8E1,1.95E1,8.55E1,2.3E1,4.55E1,1.5E1,1.07E2,2.815E2,9E1,3.19E2,2.83E2,1.775E2,7.05E1,6.765E2,9E0,1.9E1,1.55E1,2.25E1,5E0,1.45E1,8.5E0,7.7E1,1.8E1,5E0,3.7E1,8.5E0,6E0,9E0,2.15E1,8.55E1,2.185E2,6.3E1,3.1E1,5.9E1,4.15E1,2.775E2,2.275E2,5.55E1,1.625E2,1.5E1,1.6E1,5.45E1,1.43E2,5.335E2,1.05E1,5E0,1.6E1,6.5E0,3E1,4.7E1,1.2E1,6E0,1.75E1,1.95E1,1.65E1,5E0,7.65E1,9E0,2.65E1,1.92E2,5.1E1,1.2E1,9E0,2.2E1,2.8E1,3.1E1,1.9E1,2.25E1,6E0,2.715E2,2.015E2,2.6E1,5.05E1,5E0,1.315E2,3.1E1,1E1,5E0,1.1E1,5E0,4.95E1,5E0,2.1E1,1.22E2,3.5E1,4.985E2],"tree_param":{"num_deleted":"0","num_feature":"404","num_nodes":"103","size_leaf_vector":"1"}},{"base_weights":[1.7694062E-2,2.1705541E-1,-1.5712607E-1,1.4631267E-1,7.9947186E-1,5.7086796E-2,-3.514753E-1,3.2118845E-1,-1.1109372E-1,-2.5837088E-2,1.1831746E0,3.1915978E-1,-1.9572611E-1,-1.4368437E-1,-5.542325E-1,3.7397805E-1,-6.38123E-1,8.679145E-1,-1.5370479E-1,-3.5255423E-1,2.854503E-1,1.6861777E0,2.6221618E-2,7.4449845E-2,8.197399E-1,-4.7957E-1,1.4507769E-1,2.7293377E-2,-3.315407E-1,-9.407595E-1,-4.0074602E-1,2.7702257E-1,7.93279E-1,1.1348156E-2,-2.9134402E-2,4.8453614E-2,-2.435445E-3,5.741758E-1,-2.1471484E-1,3.2103606E-3,-1.5920721E-2,2.42484E-2,2.2318602E-2,2.104504E0,9.285932E-1,-2.7497596E-1,1.5922247E-2,2.2098276E-1,-3.1726664E-1,5.13526E-1,1.4354643E0,2.2269009E-2,-5.407239E-1,4.154371E-1,-3.268739E-1,-5.026935E-2,2.1028195E-2,-2.2241181E-1,-7.551861E-1,-2.1601607E-1,-1.0448432E0,-8.13768E-3,-4.9939E-1,9.548955E-3,-3.9949667E-2,4.406035E-2,1.7086713E-2,2.1566737E-4,2.2753252E-2,1.28507E-2,-9.189671E-3,1.3907918E-2,-8.2304105E-3,9.073358E-2,4.9570333E-2,6.7739272E-3,3.583975E-2,5.0021703E-3,-1.5666911E-2,1.8209506E-2,-2.1935476E-3,8.043145E-3,-1.905164E-2,-1.7637664E-2,1.985117E-2,2.5346793E-2,6.15016E-2,-2.5636135E-2,-1.149412E-2,4.19695E-2,8.852457E-3,-2.41552E-2,-3.0753347E-3,3.1766177E-3,-1.0480479E-2,-8.757085E-3,2.3478225E-2,-2.702538E-2,-6.721635E-4,4.2570154E-3,-1.4206415E-2,-3.2388683E-2,-1.34265E-2,-6.697936E-3,2.1486318E-2,-1.2528806E-2,-2.5362648E-2],"categories":[],"categories_nodes":[],"categories_segments":[],"categories_sizes":[],"default_left":[0,0,0,0,0,0,0,0,0,0,0,0,0,0,0,0,0,0,0,0,0,0,0,0,0,0,0,0,0,0,0,0,0,0,0,0,0,0,0,0,0,0,0,0,0,0,0,0,0,0,0,0,0,0,0,0,0,0,0,0,0,0,0,0,0,0,0,0,0,0,0,0,0,0,0,0,0,0,0,0,0,0,0,0,0,0,0,0,0,0,0,0,0,0,0,0,0,0,0,0,0,0,0,0,0,0,0],"id":2,"left_children":[1,3,5,7,9,11,13,15,17,19,21,23,25,27,29,31,33,35,37,39,41,43,45,47,49,51,53,55,57,59,61,63,65,-1,-1,-1,-1,67,69,-1,-1,-1,71,73,75,77,-1,79,81,83,85,-1,87,89,91,93,-1,95,97,99,101,103,105,-1,-1,-1,-1,-1,-1,-1,-1,-1,-1,-1,-1,-1,-1,-1,-1,-1,-1,-1,-1,-1,-1,-1,-1,-1,-1,-1,-1,-1,-1,-1,-1,-1,-1,-1,-1,-1,-1,-1,-1,-1,-1,-1,-1],"loss_changes":[7.832998E1,4.314485E1,4.987451E1,4.2236443E1,3.5972992E1,3.786119E1,2.6378693E1,2.8522022E1,1.5985704E1,3.8636448E0,4.5056976E1,3.429936E1,2.8219486E1,1.0014196E1,1.8459206E1,2.1326614E1,1.0352626E1,1.147784E1,1.6332214E1,1.5713029E0,2.6646354E0,1.5159317E1,3.868966E0,1.0947289E1,1.6608837E1,1.2282196E1,1.7106138E1,8.604212E0,6.697483E0,6.52565E0,8.86475E0,2.910852E1,1.4122566E1,0E0,0E0,0E0,0E0,2.972127E0,2.0013401E1,0E0,0E0,0E0,1.9599575E0,9.14534E0,3.6570282E0,1.8345318E0,0E0,1.5767348E1,9.84351E0,1.0671398E1,9.156689E0,0E0,7.18943E0,9.649054E0,5.1757765E0,6.9490814E0,0E0,8.5743065E0,3.1819172E0,1.2193799E0,1.1371536E0,7.4837627E0,4.824478E0,0E0,0E0,0E0,0E0,0E0,0E0,0E0,0E0,0E0,0E0,0E0,0E0,0E0,0E0,0E0,0E0,0E0,0E0,0E0,0E0,0E0,0E0,0E0,0E0,0E0,0E0,0E0,0E0,0E0,0E0,0E0,0E0,0E0,0E0,0E0,0E0,0E0,0E0,0E0,0E0,0E0,0E0,0E0,0E0],"parents":[2147483647,0,0,1,1,2,2,3,3,4,4,5,5,6,6,7,7,8,8,9,9,10,10,11,11,12,12,13,13,14,14,15,15,16,16,17,17,18,18,19,19,20,20,21,21,22,22,23,23,24,24,25,25,26,26,27,27,28,28,29,29,30,30,31,31,32,32,37,37,38,38,42,42,43,43,44,44,45,45,47,47,48,48,49,49,50,50,52,52,53,53,54,54,55,55,57,57,58,58,59,59,60,60,61,61,62,62],"right_children":[2,4,6,8,10,12,14,16,18,20,22,24,26,28,30,32,34,36,38,40,42,44,46,48,50,52,54,56,58,60,62,64,66,-1,-1,-1,-1,68,70,-1,-1,-1,72,74,76,78,-1,80,82,84,86,-1,88,90,92,94,-1,96,98,100,102,104,106,-1,-1,-1,-1,-1,-1,-1,-1,-1,-1,-1,-1,-1,-1,-1,-1,-1,-1,-1,-1,-1,-1,-1,-1,-1,-1,-1,-1,-1,-1,-1,-1,-1,-1,-1,-1,-1,-1,-1,-1,-1,-1,-1,-1],"split_conditions":[-2.649E-1,7.5682586E-1,-3.5999233E-1,1.7920658E-2,-1.1992053E0,6.9977954E-2,1.6019475E-1,4.2294177E-1,-4.986145E-1,-4.0521216E-1,2.7698565E-1,4.8097694E-1,1.024057E-1,-1.5828629E-1,-3.453493E-2,2.653641E-1,1.7144632E-1,1.490061E-1,-1.4925086E-1,-3.5546362E-1,-2.5535282E-1,-1.9482374E-3,9.3235135E-2,8.5634194E-2,-1.0987522E-1,-2.7418578E-2,-6.7958854E-2,2.5383508E-1,3.5231516E-2,2.0464663E-1,-1.8454719E-1,7.3728484E-1,1.5077607E-1,1.1348156E-2,-2.9134402E-2,4.8453614E-2,-2.435445E-3,-1.7001083E-1,-4.9099594E-1,3.2103606E-3,-1.5920721E-2,2.42484E-2,-1.5530029E-1,4.397291E-1,1.5916798E-1,4.3895826E-1,1.5922247E-2,-2.5473854E-1,-1.3515617E-1,9.618667E-2,1.2711921E-1,2.2269009E-2,1.21296495E-1,3.696118E-1,1.8692268E-1,4.1284606E-2,2.1028195E-2,1.6988864E-3,-3.622648E-2,-1.2008108E-1,-2.1119364E-1,2.341573E-1,7.6788478E-3,9.548955E-3,-3.9949667E-2,4.406035E-2,1.7086713E-2,2.1566737E-4,2.2753252E-2,1.28507E-2,-9.189671E-3,1.3907918E-2,-8.2304105E-3,9.073358E-2,4.9570333E-2,6.7739272E-3,3.583975E-2,5.0021703E-3,-1.5666911E-2,1.8209506E-2,-2.1935476E-3,8.043145E-3,-1.905164E-2,-1.7637664E-2,1.985117E-2,2.5346793E-2,6.15016E-2,-2.5636135E-2,-1.149412E-2,4.19695E-2,8.852457E-3,-2.41552E-2,-3.0753347E-3,3.1766177E-3,-1.0480479E-2,-8.757085E-3,2.3478225E-2,-2.702538E-2,-6.721635E-4,4.2570154E-3,-1.4206415E-2,-3.2388683E-2,-1.34265E-2,-6.697936E-3,2.1486318E-2,-1.2528806E-2,-2.5362648E-2],"split_indices":[331,86,39,208,390,358,165,207,98,377,166,117,12,235,367,15,134,258,178,141,382,304,148,109,265,191,308,256,13,277,231,25,149,0,0,0,0,141,112,0,0,0,186,388,57,71,0,30,366,269,299,0,49,238,299,208,0,392,62,143,77,257,334,0,0,0,0,0,0,0,0,0,0,0,0,0,0,0,0,0,0,0,0,0,0,0,0,0,0,0,0,0,0,0,0,0,0,0,0,0,0,0,0,0,0,0,0],"split_type":[0,0,0,0,0,0,0,0,0,0,0,0,0,0,0,0,0,0,0,0,0,0,0,0,0,0,0,0,0,0,0,0,0,0,0,0,0,0,0,0,0,0,0,0,0,0,0,0,0,0,0,0,0,0,0,0,0,0,0,0,0,0,0,0,0,0,0,0,0,0,0,0,0,0,0,0,0,0,0,0,0,0,0,0,0,0,0,0,0,0,0,0,0,0,0,0,0,0,0,0,0,0,0,0,0,0,0],"sum_hessian":[2.2455E3,1.049E3,1.1965E3,9.365E2,1.125E2,5.695E2,6.27E2,5.575E2,3.79E2,3.6E1,7.65E1,2.795E2,2.9E2,3.105E2,3.165E2,5.29E2,2.85E1,1.5E1,3.64E2,1.75E1,1.85E1,5.3E1,2.35E1,1.885E2,9.1E1,1.58E2,1.32E2,1.63E2,1.475E2,8.85E1,2.28E2,4.31E2,9.8E1,7E0,2.15E1,8E0,7E0,2.75E1,3.365E2,5E0,1.25E1,5.5E0,1.3E1,3.3E1,2E1,1.5E1,8.5E0,1.375E2,5.1E1,6.2E1,2.9E1,7E0,1.51E2,8.4E1,4.8E1,1.47E2,1.6E1,1.185E2,2.9E1,1.15E1,7.7E1,4.6E1,1.82E2,4.21E2,1E1,2.3E1,7.5E1,7E0,2.05E1,4.15E1,2.95E2,5E0,8E0,9E0,2.4E1,6E0,1.4E1,5.5E0,9.5E0,5.9E1,7.85E1,1.8E1,3.3E1,7E0,5.5E1,1.6E1,1.3E1,4.9E1,1.02E2,8E0,7.6E1,1.45E1,3.35E1,9.7E1,5E1,1.115E2,7E0,2.4E1,5E0,5E0,6.5E0,7.2E1,5E0,3.6E1,1E1,1.49E2,3.3E1],"tree_param":{"num_deleted":"0","num_feature":"404","num_nodes":"107","size_leaf_vector":"1"}},{"base_weights":[4.6337393E-4,7.312199E-1,-4.8391562E-2,1.8294388E-1,1.1599532E0,-2.5321087E-1,7.9324976E-2,-2.114307E-1,7.069045E-1,1.3467319E0,-2.904358E-3,-3.1273967E-1,4.7578037E-1,-1.04884826E-1,2.5516817E-1,-4.2234772E-1,1.817811E-2,1.0617685E0,-2.317044E-3,1.568339E0,-3.1950937E-3,1.6351026E-2,-1.4164531E-2,-1.2740918E-1,-4.5101362E-1,8.006016E-1,-1.9651832E-1,-5.500708E-1,-3.1978063E-2,3.640441E-1,-2.546134E-1,-2.456422E-2,-2.660858E-1,4.0310424E-2,6.8103517E-3,1.8854786E0,1.038324E0,-2.811231E-1,2.9456013E-1,-7.502865E-1,-2.7221233E-1,1.4075141E0,4.46877E-1,-2.4820855E-2,2.553363E-1,-8.923446E-1,-1.1872906E-2,-2.1761797E-1,1.7512228E-1,3.8992527E-1,-3.0271564E-2,-6.24475E-1,5.301503E-1,-1.3379692E-2,1.8995779E-3,7.505978E-2,4.418915E-2,1.1780296E-2,3.6136642E-2,-1.0969525E-2,1.8292269E-2,1.5587596E-2,-4.5092884E-3,-2.6334027E-2,2.8581787E-3,5.3402903E-3,-1.2055226E-2,5.3103644E-2,1.7057477E-2,1.6983053E-2,2.499253E-4,1.782781E-2,-9.232136E-4,-9.816409E-3,-2.8645994E-2,-1.2713147E-2,1.2707058E-2,2.2980383E-2,-7.2835064E-3,3.5652857E-2,3.7734925E-3,4.27221E-3,1.6015068E-2,-2.299558E-2,2.959919E-2,3.7250577E-3,3.818312E-2],"categories":[],"categories_nodes":[],"categories_segments":[],"categories_sizes":[],"default_left":[0,0,0,0,0,0,0,0,0,0,0,0,0,0,0,0,0,0,0,0,0,0,0,0,0,0,0,0,0,0,0,0,0,0,0,0,0,0,0,0,0,0,0,0,0,0,0,0,0,0,0,0,0,0,0,0,0,0,0,0,0,0,0,0,0,0,0,0,0,0,0,0,0,0,0,0,0,0,0,0,0,0,0,0,0,0,0],"id":3,"left_children":[1,3,5,7,9,11,13,15,17,19,21,23,25,27,29,31,-1,33,-1,35,-1,-1,-1,37,39,41,43,45,47,49,51,-1,53,-1,-1,55,57,59,61,63,65,67,69,-1,71,73,75,77,79,81,-1,83,85,-1,-1,-1,-1,-1,-1,-1,-1,-1,-1,-1,-1,-1,-1,-1,-1,-1,-1,-1,-1,-1,-1,-1,-1,-1,-1,-1,-1,-1,-1,-1,-1,-1,-1],"loss_changes":[8.0898285E1,3.3166924E1,5.558141E1,1.3270893E1,1.7271065E1,3.5559914E1,4.2427944E1,6.634596E0,7.734236E0,2.2227257E1,3.3427587E0,1.9290451E1,1.36967E1,2.0754936E1,3.7279663E1,1.6406741E0,0E0,4.1662045E0,0E0,8.043549E0,0E0,0E0,0E0,2.1098278E1,2.2912247E1,8.3875675E0,6.1972966E0,1.6568392E1,2.1221905E1,2.0027824E1,3.472616E1,0E0,1.3912493E0,0E0,0E0,5.4700317E0,2.156498E0,1.8145031E1,8.787447E0,1.744281E1,1.5945892E1,3.5565872E0,1.4592805E0,0E0,1.2788925E0,1.6308746E0,6.636377E0,7.38929E0,1.2899399E1,1.926587E1,0E0,1.9293108E1,1.1449338E1,0E0,0E0,0E0,0E0,0E0,0E0,0E0,0E0,0E0,0E0,0E0,0E0,0E0,0E0,0E0,0E0,0E0,0E0,0E0,0E0,0E0,0E0,0E0,0E0,0E0,0E0,0E0,0E0,0E0,0E0,0E0,0E0,0E0,0E0],"parents":[2147483647,0,0,1,1,2,2,3,3,4,4,5,5,6,6,7,7,8,8,9,9,10,10,11,11,12,12,13,13,14,14,15,15,17,17,19,19,23,23,24,24,25,25,26,26,27,27,28,28,29,29,30,30,32,32,35,35,36,36,37,37,38,38,39,39,40,40,41,41,42,42,44,44,45,45,46,46,47,47,48,48,49,49,51,51,52,52],"right_children":[2,4,6,8,10,12,14,16,18,20,22,24,26,28,30,32,-1,34,-1,36,-1,-1,-1,38,40,42,44,46,48,50,52,-1,54,-1,-1,56,58,60,62,64,66,68,70,-1,72,74,76,78,80,82,-1,84,86,-1,-1,-1,-1,-1,-1,-1,-1,-1,-1,-1,-1,-1,-1,-1,-1,-1,-1,-1,-1,-1,-1,-1,-1,-1,-1,-1,-1,-1,-1,-1,-1,-1,-1],"split_conditions":[-5.443006E-1,2.882204E-1,-1.5058647E-1,9.72008E-2,2.950957E-1,-2.9666826E-2,1.6405584E-1,3.6927766E-1,6.6491574E-2,3.1712794E-1,-6.8932734E-2,6.2672675E-2,-2.5389813E-2,-2.460455E-1,6.3598156E-2,-1.8319885E-1,1.817811E-2,4.859867E-1,-2.317044E-3,-2.5425784E-2,-3.1950937E-3,1.6351026E-2,-1.4164531E-2,-9.163442E-2,1.7052999E-1,-1.1539608E-3,1.7182589E-1,-8.486699E-3,1.0000159E-1,7.369562E-1,1.5022677E-1,-2.456422E-2,-5.6922066E-1,4.0310424E-2,6.8103517E-3,3.313302E-1,-7.546366E-1,3.5710773E-1,-2.1231195E-1,3.3925223E-1,1.4241493E-1,1.1768977E-1,1.4378361E-2,-2.4820855E-2,-1.11789316E-1,-5.284462E-1,3.1555617E-1,-1.30168E-1,-2.3166963E-1,2.7944997E-2,-3.0271564E-2,8.307658E-1,2.332649E-1,-1.3379692E-2,1.8995779E-3,7.505978E-2,4.418915E-2,1.1780296E-2,3.6136642E-2,-1.0969525E-2,1.8292269E-2,1.5587596E-2,-4.5092884E-3,-2.6334027E-2,2.8581787E-3,5.3402903E-3,-1.2055226E-2,5.3103644E-2,1.7057477E-2,1.6983053E-2,2.499253E-4,1.782781E-2,-9.232136E-4,-9.816409E-3,-2.8645994E-2,-1.2713147E-2,1.2707058E-2,2.2980383E-2,-7.2835064E-3,3.5652857E-2,3.7734925E-3,4.27221E-3,1.6015068E-2,-2.299558E-2,2.959919E-2,3.7250577E-3,3.818312E-2],"split_indices":[336,90,140,192,192,313,370,367,215,166,343,109,152,162,213,340,0,27,0,304,0,0,0,232,361,354,377,33,285,219,319,0,239,0,0,74,150,306,209,18,337,74,312,0,17,232,177,135,30,14,0,225,74,0,0,0,0,0,0,0,0,0,0,0,0,0,0,0,0,0,0,0,0,0,0,0,0,0,0,0,0,0,0,0,0,0,0],"split_type":[0,0,0,0,0,0,0,0,0,0,0,0,0,0,0,0,0,0,0,0,0,0,0,0,0,0,0,0,0,0,0,0,0,0,0,0,0,0,0,0,0,0,0,0,0,0,0,0,0,0,0,0,0,0,0,0,0,0,0,0,0,0,0,0,0,0,0,0,0,0,0,0,0,0,0,0,0,0,0,0,0,0,0,0,0,0,0],"sum_hessian":[2.264E3,1.41E2,2.123E3,6.25E1,7.85E1,8.15E2,1.308E3,3.6E1,2.65E1,6.75E1,1.1E1,7.54E2,6.1E1,6.39E2,6.69E2,2.9E1,7E0,1.8E1,8.5E0,5.85E1,9E0,5E0,6E0,3.23E2,4.31E2,4.1E1,2E1,8.9E1,5.5E2,5.515E2,1.175E2,7E0,2.2E1,1.3E1,5E0,3.5E1,2.35E1,2.37E2,8.6E1,1.6E2,2.71E2,1.4E1,2.7E1,8E0,1.2E1,5.4E1,3.5E1,2.9E2,2.6E2,5.42E2,9.5E0,8E1,3.75E1,1.4E1,8E0,1.2E1,2.3E1,5.5E0,1.8E1,2.17E2,2E1,5.7E1,2.9E1,1.39E2,2.1E1,6.05E1,2.105E2,9E0,5E0,2.1E1,6E0,5E0,7E0,6E0,4.8E1,1.8E1,1.7E1,6.5E0,2.835E2,1.1E1,2.49E2,2E2,3.42E2,7.4E1,6E0,2.5E1,1.25E1],"tree_param":{"num_deleted":"0","num_feature":"404","num_nodes":"87","size_leaf_vector":"1"}},{"base_weights":[-4.1106087E-3,5.3011954E-1,-7.6951995E-2,-3.0935465E-3,7.843933E-1,1.440372E-1,-2.2409022E-1,2.684564E-1,-2.0340042E-1,4.217221E-1,1.5618677E0,-1.23924926E-1,3.903183E-1,-2.7869254E-2,-3.8158804E-1,7.2230166E-1,-5.8934074E-2,2.03556E-1,-3.7621966E-1,-1.0390212E-1,6.984517E-1,2.5833316E0,1.2093707E0,-5.1317024E-1,4.22648E-3,5.7686985E-1,-5.906879E-2,3.1387115E-1,-2.0034786E-1,6.33866E-2,-4.5036513E-1,3.3840593E-3,2.9672766E-2,3.0855617E-1,-1.3597659E-2,-7.893082E-3,1.9388009E-2,-1.3649604E-2,1.7195696E-3,-3.6962757E-1,2.5494402E-2,8.381304E-1,-1.1813603E-1,9.018127E-2,4.5561314E-2,1.3922768E0,5.266557E-4,-4.0178338E-1,-2.9919866E-2,1.0337708E-1,-3.8236445E-1,3.642028E-1,9.486107E-1,-3.923865E-1,3.1229395E-1,-1.0005961E-1,6.7279106E-1,1.7962337E-1,-3.7772962E-1,-7.8940976E-1,2.3197678E-1,-6.840696E-1,-3.2956016E-1,2.3792803E-2,-5.563522E-3,-1.838927E-2,5.745947E-3,-7.6889823E-4,2.799014E-2,-1.2187866E-2,8.571645E-3,4.7212467E-2,1.0136051E-2,-1.3561028E-2,8.422624E-3,1.4947242E-3,3.349651E-2,-1.7047418E-2,-5.3165685E-3,-3.2510525E-3,1.4421482E-2,3.5531186E-2,4.120998E-3,-2.6502084E-2,-5.11113E-3,-1.2972528E-2,1.8084913E-2,-1.7208988E-2,3.8451648E-3,2.7575107E-2,5.2373153E-3,-4.915956E-3,1.7889764E-2,-3.0898E-3,-2.1194305E-2,-3.334646E-2,-3.6282956E-3,1.2351831E-2,-7.1592256E-3,-2.6151603E-2,-8.356484E-3,7.1209124E-3,-1.1286068E-2],"categories":[],"categories_nodes":[],"categories_segments":[],"categories_sizes":[],"default_left":[0,0,0,0,0,0,0,0,0,0,0,0,0,0,0,0,0,0,0,0,0,0,0,0,0,0,0,0,0,0,0,0,0,0,0,0,0,0,0,0,0,0,0,0,0,0,0,0,0,0,0,0,0,0,0,0,0,0,0,0,0,0,0,0,0,0,0,0,0,0,0,0,0,0,0,0,0,0,0,0,0,0,0,0,0,0,0,0,0,0,0,0,0,0,0,0,0,0,0,0,0,0,0],"id":4,"left_children":[1,3,5,7,9,11,13,15,17,19,21,23,25,27,29,31,33,35,37,39,41,43,45,47,49,51,53,55,57,59,61,-1,-1,63,-1,-1,-1,-1,-1,65,-1,67,69,-1,-1,71,-1,73,-1,75,77,79,81,83,85,87,89,91,93,95,97,99,101,-1,-1,-1,-1,-1,-1,-1,-1,-1,-1,-1,-1,-1,-1,-1,-1,-1,-1,-1,-1,-1,-1,-1,-1,-1,-1,-1,-1,-1,-1,-1,-1,-1,-1,-1,-1,-1,-1,-1,-1],"loss_changes":[8.78893E1,3.674517E1,6.4657745E1,4.868413E0,5.1082375E1,5.251361E1,3.6873734E1,5.688784E0,3.698572E0,1.8472727E1,1.7759445E1,1.9032278E1,3.4783207E1,3.1449982E1,2.028843E1,2.4901686E0,3.4727666E0,3.4755538E0,1.2725034E0,1.1591592E1,9.565987E0,1.7350693E0,9.785126E0,4.695572E0,1.1078775E1,2.281823E1,1.5285808E1,2.6660994E1,2.3961132E1,1.3050816E1,1.5965988E1,0E0,0E0,3.1391397E0,0E0,0E0,0E0,0E0,0E0,4.965179E0,0E0,5.84227E0,1.6287827E0,0E0,0E0,6.930771E0,0E0,2.819314E0,0E0,1.2423802E1,2.1491442E0,1.040353E1,2.0110931E1,6.935354E0,1.2918078E1,9.152619E0,1.1623493E1,1.6343245E1,2.178439E1,3.0956526E0,6.4850984E0,1.4557861E1,1.0137451E1,0E0,0E0,0E0,0E0,0E0,0E0,0E0,0E0,0E0,0E0,0E0,0E0,0E0,0E0,0E0,0E0,0E0,0E0,0E0,0E0,0E0,0E0,0E0,0E0,0E0,0E0,0E0,0E0,0E0,0E0,0E0,0E0,0E0,0E0,0E0,0E0,0E0,0E0,0E0,0E0],"parents":[2147483647,0,0,1,1,2,2,3,3,4,4,5,5,6,6,7,7,8,8,9,9,10,10,11,11,12,12,13,13,14,14,15,15,16,16,17,17,18,18,19,19,20,20,21,21,22,22,23,23,24,24,25,25,26,26,27,27,28,28,29,29,30,30,33,33,39,39,41,41,42,42,45,45,47,47,49,49,50,50,51,51,52,52,53,53,54,54,55,55,56,56,57,57,58,58,59,59,60,60,61,61,62,62],"right_children":[2,4,6,8,10,12,14,16,18,20,22,24,26,28,30,32,34,36,38,40,42,44,46,48,50,52,54,56,58,60,62,-1,-1,64,-1,-1,-1,-1,-1,66,-1,68,70,-1,-1,72,-1,74,-1,76,78,80,82,84,86,88,90,92,94,96,98,100,102,-1,-1,-1,-1,-1,-1,-1,-1,-1,-1,-1,-1,-1,-1,-1,-1,-1,-1,-1,-1,-1,-1,-1,-1,-1,-1,-1,-1,-1,-1,-1,-1,-1,-1,-1,-1,-1,-1,-1,-1],"split_conditions":[-6.335424E-1,-1.1992053E0,-2.2812587E-1,-8.0622673E-1,3.7432557E-1,3.3532837E-1,-2.4053839E-1,2.8606912E-1,9.50132E-2,1.4328173E-1,4.5279372E-1,-5.31496E-2,-7.739255E-2,2.9537076E-1,2.9850192E-2,5.117863E-1,-3.0221766E-1,5.341308E-1,-7.603941E-1,-2.8092809E-2,4.0183008E-1,3.7619573E-1,-3.4286115E-1,3.2733113E-1,-5.3701468E-2,-2.187233E-1,2.5116393E-1,1.7024772E-1,-9.784756E-1,-2.8071918E-2,-1.8802595E-1,3.3840593E-3,2.9672766E-2,3.4063253E-1,-1.3597659E-2,-7.893082E-3,1.9388009E-2,-1.3649604E-2,1.7195696E-3,1.832236E-1,2.5494402E-2,-2.8011274E-1,6.195666E-1,9.018127E-2,4.5561314E-2,-3.5684252E-1,5.266557E-4,-1.669453E-1,-2.9919866E-2,7.86509E-1,-2.9304177E-2,6.443587E-2,1.8965247E-1,3.7346482E-3,-6.511621E-3,-2.5357127E-1,3.546345E-1,-2.7422374E-1,-3.7140718E-1,1.0090594E-1,-3.0798572E-1,-1.2538946E-1,9.4706826E-2,2.3792803E-2,-5.563522E-3,-1.838927E-2,5.745947E-3,-7.6889823E-4,2.799014E-2,-1.2187866E-2,8.571645E-3,4.7212467E-2,1.0136051E-2,-1.3561028E-2,8.422624E-3,1.4947242E-3,3.349651E-2,-1.7047418E-2,-5.3165685E-3,-3.2510525E-3,1.4421482E-2,3.5531186E-2,4.120998E-3,-2.6502084E-2,-5.11113E-3,-1.2972528E-2,1.8084913E-2,-1.7208988E-2,3.8451648E-3,2.7575107E-2,5.2373153E-3,-4.915956E-3,1.7889764E-2,-3.0898E-3,-2.1194305E-2,-3.334646E-2,-3.6282956E-3,1.2351831E-2,-7.1592256E-3,-2.6151603E-2,-8.356484E-3,7.1209124E-3,-1.1286068E-2],"split_indices":[76,390,293,294,162,117,331,30,149,348,18,73,2,65,307,100,247,89,216,312,262,352,33,207,4,259,18,101,321,210,182,0,0,323,0,0,0,0,0,174,0,31,42,0,0,181,0,161,0,86,142,7,262,352,312,241,29,366,223,271,373,96,360,0,0,0,0,0,0,0,0,0,0,0,0,0,0,0,0,0,0,0,0,0,0,0,0,0,0,0,0,0,0,0,0,0,0,0,0,0,0,0,0],"split_type":[0,0,0,0,0,0,0,0,0,0,0,0,0,0,0,0,0,0,0,0,0,0,0,0,0,0,0,0,0,0,0,0,0,0,0,0,0,0,0,0,0,0,0,0,0,0,0,0,0,0,0,0,0,0,0,0,0,0,0,0,0,0,0,0,0,0,0,0,0,0,0,0,0,0,0,0,0,0,0,0,0,0,0,0,0,0,0,0,0,0,0,0,0,0,0,0,0,0,0,0,0,0,0],"sum_hessian":[2.2565E3,2.7E2,1.9865E3,8.75E1,1.825E2,7.94E2,1.1925E3,3.7E1,5.05E1,1.255E2,5.7E1,3.805E2,4.135E2,5.315E2,6.61E2,1.5E1,2.2E1,1.5E1,3.55E1,4.35E1,8.2E1,1.3E1,4.4E1,9.35E1,2.87E2,2.92E2,1.215E2,1.78E2,3.535E2,8.85E1,5.725E2,5E0,1E1,1.15E1,1.05E1,7.5E0,7.5E0,3E1,5.5E0,3.45E1,9E0,7E1,1.2E1,8E0,5E0,3.8E1,6E0,7.75E1,1.6E1,2.29E2,5.8E1,1.87E2,1.05E2,6.4E1,5.75E1,8.3E1,9.5E1,1.125E2,2.41E2,1.4E1,7.45E1,1.935E2,3.79E2,5.5E0,6E0,2.4E1,1.05E1,7E0,6.3E1,7E0,5E0,3.2E1,6E0,7.25E1,5E0,2.185E2,1.05E1,2.95E1,2.85E1,3.7E1,1.5E2,8.1E1,2.4E1,1.9E1,4.5E1,1.6E1,4.15E1,2.65E1,5.65E1,6.3E1,3.2E1,6.2E1,5.05E1,1.32E2,1.09E2,9E0,5E0,5.4E1,2.05E1,1.315E2,6.2E1,2.85E1,3.505E2],"tree_param":{"num_deleted":"0","num_feature":"404","num_nodes":"103","size_leaf_vector":"1"}},{"base_weights":[-5.41871E-3,2.0138733E-1,-1.5603538E-1,-7.172207E-2,4.239807E-1,6.815264E-2,-3.5015106E-1,-1.7579383E-1,3.553304E-1,8.6371684E-1,2.295253E-1,-3.9251706E-1,2.2342125E-1,-6.610749E-1,-2.59524E-1,-8.6522305E-1,-1.2829155E-1,3.7594687E-2,2.574351E-1,1.6602121E-1,1.0169013E0,-1.1035035E-1,3.5603416E-1,-4.7375962E-1,8.727824E-2,9.701797E-1,1.3366458E-1,-7.43406E-1,2.3262456E-2,1.3689217E-1,-3.288928E-1,-3.0616343E-2,-1.1597956E-2,-1.8429883E-1,5.466871E-1,-1.7828226E-2,3.248354E-1,-4.3373933E-1,5.112122E-1,1.101694E0,-3.5778356E-3,3.0146664E-1,-4.62927E-1,4.6139628E-1,-1.2489325E-1,-6.003911E-1,-2.1841082E-1,-7.2968365E-3,1.2315335E-2,1.4578363E0,2.0237708E-1,7.962477E-2,1.1726518E0,-8.083203E-1,-1.3215628E-1,8.7137836E-1,-5.582779E-2,2.4317475E-1,-3.9120987E-1,1.6319478E-2,-6.7810644E-3,3.1122165E-2,4.1747565E-4,1.9082872E-2,3.7183112E-3,-4.5995114E-4,-2.2596978E-2,-3.1280082E-3,2.377446E-2,4.3068253E-2,2.2327349E-2,3.3111535E-2,4.6608695E-3,-8.029796E-3,-2.8583325E-2,1.2341078E-2,5.169552E-2,-9.471973E-3,2.6420902E-2,-1.970384E-2,-7.781172E-3,-7.2644826E-4,-1.7066324E-2,2.5268504E-2,5.412938E-2,-3.251352E-2,2.4930065E-2,4.2884843E-3,-1.5697686E-2,8.586665E-3,4.3471403E-2,-2.5356079E-2,-4.7373582E-4,5.539228E-3,-1.0550238E-2,1.4829057E-2,3.701405E-2,1.2803074E-2,-7.430737E-3,1.8009527E-2,-8.878188E-3,-2.08888E-2,-8.8212425E-3],"categories":[],"categories_nodes":[],"categories_segments":[],"categories_sizes":[],"default_left":[0,0,0,0,0,0,0,0,0,0,0,0,0,0,0,0,0,0,0,0,0,0,0,0,0,0,0,0,0,0,0,0,0,0,0,0,0,0,0,0,0,0,0,0,0,0,0,0,0,0,0,0,0,0,0,0,0,0,0,0,0,0,0,0,0,0,0,0,0,0,0,0,0,0,0,0,0,0,0,0,0,0,0,0,0,0,0,0,0,0,0,0,0,0,0,0,0,0,0,0,0,0,0],"id":5,"left_children":[1,3,5,7,9,11,13,15,17,19,21,23,25,27,29,31,33,-1,35,37,39,41,43,45,47,49,51,53,-1,55,57,-1,-1,59,61,-1,63,65,67,69,-1,71,73,75,77,79,81,-1,-1,83,85,87,89,91,93,95,97,99,101,-1,-1,-1,-1,-1,-1,-1,-1,-1,-1,-1,-1,-1,-1,-1,-1,-1,-1,-1,-1,-1,-1,-1,-1,-1,-1,-1,-1,-1,-1,-1,-1,-1,-1,-1,-1,-1,-1,-1,-1,-1,-1,-1,-1],"loss_changes":[7.014655E1,5.7722343E1,5.6728355E1,1.9040098E1,4.4522987E1,4.3397625E1,1.9510857E1,1.1154812E1,7.060399E0,1.693135E1,1.5690298E1,6.0052547E0,3.026686E1,1.9144493E1,1.4963188E1,1.2409573E0,1.2311354E1,0E0,4.613261E0,6.432691E0,1.2751724E1,1.4586664E1,1.3510918E1,4.1047783E0,2.5569482E0,1.7864529E1,2.2702179E1,5.8053207E0,0E0,1.1584984E1,1.6565235E1,0E0,0E0,9.211376E0,6.5215807E0,0E0,4.423292E0,1.5257537E0,3.458386E0,1.3493149E1,0E0,5.2788997E0,4.9101715E0,1.3052052E1,9.5855055E0,1.5030651E0,3.0488877E0,0E0,0E0,4.771862E0,1.707089E1,1.4849398E1,4.485346E0,3.9181366E0,1.142847E0,1.7133713E0,6.1705294E0,9.034536E0,1.2157005E1,0E0,0E0,0E0,0E0,0E0,0E0,0E0,0E0,0E0,0E0,0E0,0E0,0E0,0E0,0E0,0E0,0E0,0E0,0E0,0E0,0E0,0E0,0E0,0E0,0E0,0E0,0E0,0E0,0E0,0E0,0E0,0E0,0E0,0E0,0E0,0E0,0E0,0E0,0E0,0E0,0E0,0E0,0E0,0E0],"parents":[2147483647,0,0,1,1,2,2,3,3,4,4,5,5,6,6,7,7,8,8,9,9,10,10,11,11,12,12,13,13,14,14,15,15,16,16,18,18,19,19,20,20,21,21,22,22,23,23,24,24,25,25,26,26,27,27,29,29,30,30,33,33,34,34,36,36,37,37,38,38,39,39,41,41,42,42,43,43,44,44,45,45,46,46,49,49,50,50,51,51,52,52,53,53,54,54,55,55,56,56,57,57,58,58],"right_children":[2,4,6,8,10,12,14,16,18,20,22,24,26,28,30,32,34,-1,36,38,40,42,44,46,48,50,52,54,-1,56,58,-1,-1,60,62,-1,64,66,68,70,-1,72,74,76,78,80,82,-1,-1,84,86,88,90,92,94,96,98,100,102,-1,-1,-1,-1,-1,-1,-1,-1,-1,-1,-1,-1,-1,-1,-1,-1,-1,-1,-1,-1,-1,-1,-1,-1,-1,-1,-1,-1,-1,-1,-1,-1,-1,-1,-1,-1,-1,-1,-1,-1,-1,-1,-1,-1],"split_conditions":[-2.2812587E-1,1.6629273E-1,-1.4187676E-1,2.4586931E-1,8.740025E-2,-6.645004E-1,-3.3882326E-1,-2.0529173E-1,6.222278E-2,8.032255E-2,2.54813E-1,-1.9705342E-1,-4.3372753E-1,1.7145874E-2,1.5025334E-2,4.6340537E-1,2.3263395E-3,3.7594687E-2,1.2269326E-2,-3.4666583E-2,3.0245686E-1,-7.76875E-2,1.8065505E-1,-9.116158E-2,1.7930458E-1,6.5767205E-1,2.634831E-1,-1.4075848E-1,2.3262456E-2,-6.632566E-2,-9.784756E-1,-3.0616343E-2,-1.1597956E-2,-5.7048345E-1,-6.250717E-2,-1.7828226E-2,1.442413E-2,2.1279721E-1,-3.312745E-1,-2.515142E-1,-3.5778356E-3,-1.0231605E0,-1.9173133E-1,5.7548296E-1,-2.8974468E-1,-3.1365708E-2,-5.763139E-2,-7.2968365E-3,1.2315335E-2,-3.6166406E-1,-1.2050891E-1,2.8180853E-1,-1.4750779E-2,7.4344486E-2,5.272578E-2,-1.9676298E-1,1.4468783E-1,4.621379E-1,-1.5463467E-2,1.6319478E-2,-6.7810644E-3,3.1122165E-2,4.1747565E-4,1.9082872E-2,3.7183112E-3,-4.5995114E-4,-2.2596978E-2,-3.1280082E-3,2.377446E-2,4.3068253E-2,2.2327349E-2,3.3111535E-2,4.6608695E-3,-8.029796E-3,-2.8583325E-2,1.2341078E-2,5.169552E-2,-9.471973E-3,2.6420902E-2,-1.970384E-2,-7.781172E-3,-7.2644826E-4,-1.7066324E-2,2.5268504E-2,5.412938E-2,-3.251352E-2,2.4930065E-2,4.2884843E-3,-1.5697686E-2,8.586665E-3,4.3471403E-2,-2.5356079E-2,-4.7373582E-4,5.539228E-3,-1.0550238E-2,1.4829057E-2,3.701405E-2,1.2803074E-2,-7.430737E-3,1.8009527E-2,-8.878188E-3,-2.08888E-2,-8.8212425E-3],"split_indices":[293,368,198,193,58,385,35,159,301,83,18,163,331,364,36,0,87,0,95,151,166,2,128,17,37,196,185,313,0,271,321,0,0,63,107,0,172,224,181,141,0,321,97,230,176,340,17,0,0,332,148,58,23,131,37,333,360,246,56,0,0,0,0,0,0,0,0,0,0,0,0,0,0,0,0,0,0,0,0,0,0,0,0,0,0,0,0,0,0,0,0,0,0,0,0,0,0,0,0,0,0,0,0],"split_type":[0,0,0,0,0,0,0,0,0,0,0,0,0,0,0,0,0,0,0,0,0,0,0,0,0,0,0,0,0,0,0,0,0,0,0,0,0,0,0,0,0,0,0,0,0,0,0,0,0,0,0,0,0,0,0,0,0,0,0,0,0,0,0,0,0,0,0,0,0,0,0,0,0,0,0,0,0,0,0,0,0,0,0,0,0,0,0,0,0,0,0,0,0,0,0,0,0,0,0,0,0,0,0],"sum_hessian":[2.25E3,9.48E2,1.302E3,4.26E2,5.22E2,6.045E2,6.975E2,3.43E2,8.3E1,1.59E2,3.63E2,1.52E2,4.525E2,1.56E2,5.415E2,2.1E1,3.22E2,7E0,7.6E1,2.9E1,1.3E2,9.85E1,2.645E2,1.3E2,2.2E1,4.75E1,4.05E2,1.48E2,8E0,8.05E1,4.61E2,1.5E1,6E0,2.98E2,2.4E1,5E0,7.1E1,1.05E1,1.85E1,1.21E2,9E0,4.55E1,5.3E1,2.17E2,4.75E1,8.6E1,4.4E1,1.1E1,1.1E1,2.85E1,1.9E1,3.86E2,1.9E1,1.335E2,1.45E1,1.6E1,6.45E1,4.5E1,4.16E2,1.55E1,2.825E2,1.2E1,1.2E1,2.7E1,4.4E1,5E0,5.5E0,6E0,1.25E1,6.1E1,6E1,6E0,3.95E1,3.9E1,1.4E1,2.1E2,7E0,4.05E1,7E0,7.3E1,1.3E1,2.9E1,1.5E1,1.15E1,1.7E1,6E0,1.3E1,3.5E2,3.6E1,5E0,1.4E1,1.275E2,6E0,6E0,8.5E0,9E0,7E0,1.8E1,4.65E1,2.7E1,1.8E1,9.9E1,3.17E2],"tree_param":{"num_deleted":"0","num_feature":"404","num_nodes":"103","size_leaf_vector":"1"}},{"base_weights":[1.1265928E-2,-5.5532876E-2,4.9313033E-1,9.770077E-2,-2.3459572E-1,7.8344244E-1,7.1987785E-2,3.408114E-1,-5.907152E-2,-2.625186E-1,1.0190041E0,-5.4595184E-1,8.986329E-1,-1.2231552E-1,5.148276E-1,5.326071E-1,-1.5178029E-1,-9.007464E-2,9.6958816E-1,-6.0709752E-2,-3.8967082E-1,6.37637E-3,3.8209613E-2,-2.6684364E-2,-4.575992E-3,2.5437486E-1,1.0832932E0,1.7916393E-1,-4.8739275E-1,7.677605E-1,-1.04752295E-2,3.500497E-1,9.168952E-1,-4.1009557E-1,7.085278E-1,-2.8129015E-2,-6.067642E-2,5.386265E-1,5.440702E-2,5.3284913E-1,-1.5843257E-1,2.6827106E-1,-4.55144E-1,3.647371E-2,-1.8766376E-1,1.4905218E0,6.749686E-1,2.7934358E-2,-1.3808176E-2,-7.5507635E-1,-7.0647607E-3,1.2256201E-2,3.3695616E-2,1.2853616E-2,-1.6266327E-2,3.2632343E-2,-1.1090925E-2,-2.4053141E-2,4.718649E-3,3.6096577E-2,9.174333E-3,1.6523167E-3,-6.7561725E-3,1.2911235E-3,2.4275154E-2,2.8581044E-2,-2.1696195E-3,-2.1065831E-2,-2.6689179E-3,-1.5469656E-2,1.5078011E-2,-1.7036889E-2,-6.0918382E-3,-1.4794136E-2,1.9394096E-2,-6.909619E-3,4.9812496E-2,-8.218893E-3,2.359535E-2,9.186251E-3,-1.1088271E-2,-9.884571E-3,-3.290309E-2],"categories":[],"categories_nodes":[],"categories_segments":[],"categories_sizes":[],"default_left":[0,0,0,0,0,0,0,0,0,0,0,0,0,0,0,0,0,0,0,0,0,0,0,0,0,0,0,0,0,0,0,0,0,0,0,0,0,0,0,0,0,0,0,0,0,0,0,0,0,0,0,0,0,0,0,0,0,0,0,0,0,0,0,0,0,0,0,0,0,0,0,0,0,0,0,0,0,0,0,0,0,0,0],"id":6,"left_children":[1,3,5,7,9,11,13,15,17,19,21,23,25,27,29,31,33,35,37,39,41,-1,-1,-1,-1,43,45,47,49,51,-1,53,55,57,59,-1,61,63,-1,65,67,69,71,-1,73,75,77,-1,79,81,-1,-1,-1,-1,-1,-1,-1,-1,-1,-1,-1,-1,-1,-1,-1,-1,-1,-1,-1,-1,-1,-1,-1,-1,-1,-1,-1,-1,-1,-1,-1,-1,-1],"loss_changes":[7.217672E1,5.406295E1,3.3321335E1,4.0496147E1,3.206875E1,2.5221687E1,9.74306E0,3.9430496E1,2.0705294E1,2.2801308E1,3.8365784E0,1.6888494E0,1.7450798E1,8.782323E0,7.8075237E0,2.0725426E1,2.6402678E1,1.5603274E1,5.933895E0,2.0095886E1,2.3620895E1,0E0,0E0,0E0,0E0,1.4890068E1,1.8199448E1,6.3977604E0,2.2496548E0,2.9883995E0,0E0,1.45734825E1,2.1504265E1,2.0349087E1,5.110606E0,0E0,1.1601206E1,1.8422852E0,0E0,1.2518914E1,1.1156527E1,9.444015E0,1.3996658E1,0E0,6.5615516E0,1.7047073E1,6.5133553E0,0E0,4.212215E0,2.110795E0,0E0,0E0,0E0,0E0,0E0,0E0,0E0,0E0,0E0,0E0,0E0,0E0,0E0,0E0,0E0,0E0,0E0,0E0,0E0,0E0,0E0,0E0,0E0,0E0,0E0,0E0,0E0,0E0,0E0,0E0,0E0,0E0,0E0],"parents":[2147483647,0,0,1,1,2,2,3,3,4,4,5,5,6,6,7,7,8,8,9,9,10,10,11,11,12,12,13,13,14,14,15,15,16,16,17,17,18,18,19,19,20,20,25,25,26,26,27,27,28,28,29,29,31,31,32,32,33,33,34,34,36,36,37,37,39,39,40,40,41,41,42,42,44,44,45,45,46,46,48,48,49,49],"right_children":[2,4,6,8,10,12,14,16,18,20,22,24,26,28,30,32,34,36,38,40,42,-1,-1,-1,-1,44,46,48,50,52,-1,54,56,58,60,-1,62,64,-1,66,68,70,72,-1,74,76,78,-1,80,82,-1,-1,-1,-1,-1,-1,-1,-1,-1,-1,-1,-1,-1,-1,-1,-1,-1,-1,-1,-1,-1,-1,-1,-1,-1,-1,-1,-1,-1,-1,-1,-1,-1],"split_conditions":[5.655614E-1,-1.8174422E-1,-3.5684648E-1,-1.0176012E-1,1.0189579E0,5.878239E-2,-4.4051155E-2,6.502525E-1,6.224468E-1,1.5317419E-1,6.422719E-2,1.0352662E-1,2.59054E-1,5.249815E-2,3.9739278E-1,-2.0637532E-1,1.6203806E-2,-3.5963407E-1,2.7223058E-2,-1.3242565E-1,-2.2258772E-1,6.37637E-3,3.8209613E-2,-2.6684364E-2,-4.575992E-3,4.2867593E-2,1.4758304E-1,-5.7260275E-1,3.784653E-1,2.8899035E-1,-1.04752295E-2,5.7937205E-3,8.658104E-2,7.526321E-2,8.407563E-3,-2.8129015E-2,-2.009041E-1,-4.288848E-1,5.440702E-2,2.2445796E-2,-4.4683725E-1,-2.5721073E-2,-2.180548E-3,3.647371E-2,9.8251706E-1,-5.583483E-1,2.5364897E-1,2.7934358E-2,2.9483962E-1,-1.3083096E-1,-7.0647607E-3,1.2256201E-2,3.3695616E-2,1.2853616E-2,-1.6266327E-2,3.2632343E-2,-1.1090925E-2,-2.4053141E-2,4.718649E-3,3.6096577E-2,9.174333E-3,1.6523167E-3,-6.7561725E-3,1.2911235E-3,2.4275154E-2,2.8581044E-2,-2.1696195E-3,-2.1065831E-2,-2.6689179E-3,-1.5469656E-2,1.5078011E-2,-1.7036889E-2,-6.0918382E-3,-1.4794136E-2,1.9394096E-2,-6.909619E-3,4.9812496E-2,-8.218893E-3,2.359535E-2,9.186251E-3,-1.1088271E-2,-9.884571E-3,-3.290309E-2],"split_indices":[100,293,331,208,339,48,215,390,167,144,156,182,5,309,285,259,194,182,14,143,274,0,0,0,0,342,329,336,130,52,0,231,327,197,148,0,252,28,0,127,17,151,72,0,339,41,122,0,18,266,0,0,0,0,0,0,0,0,0,0,0,0,0,0,0,0,0,0,0,0,0,0,0,0,0,0,0,0,0,0,0,0,0],"split_type":[0,0,0,0,0,0,0,0,0,0,0,0,0,0,0,0,0,0,0,0,0,0,0,0,0,0,0,0,0,0,0,0,0,0,0,0,0,0,0,0,0,0,0,0,0,0,0,0,0,0,0,0,0,0,0,0,0,0,0,0,0,0,0,0,0,0,0,0,0,0,0,0,0,0,0,0,0,0,0,0,0,0,0],"sum_hessian":[2.2405E3,1.9685E3,2.72E2,1.061E3,9.075E2,1.605E2,1.115E2,4.155E2,6.455E2,8.885E2,1.9E1,1.25E1,1.48E2,7.8E1,3.35E1,2.99E2,1.165E2,6.275E2,1.8E1,3.44E2,5.445E2,5E0,1.4E1,6E0,6.5E0,3.35E1,1.145E2,4.3E1,3.5E1,2.6E1,7.5E0,2.04E2,9.5E1,9E1,2.65E1,2E1,6.075E2,1.3E1,5E0,4.8E1,2.96E2,4.9E1,4.955E2,1E1,2.35E1,5.6E1,5.85E1,8E0,3.5E1,1.6E1,1.9E1,1.4E1,1.2E1,1.88E2,1.6E1,8.4E1,1.1E1,5.3E1,3.7E1,1.1E1,1.55E1,3.57E2,2.505E2,5E0,8E0,2.8E1,2E1,3.25E1,2.635E2,1.1E1,3.8E1,3.415E2,1.54E2,1.75E1,6E0,5E0,5.1E1,6E0,5.25E1,1.85E1,1.65E1,8E0,8E0],"tree_param":{"num_deleted":"0","num_feature":"404","num_nodes":"83","size_leaf_vector":"1"}},{"base_weights":[-6.354888E-4,4.4722986E-1,-7.263813E-2,2.0084493E-1,1.0863718E0,5.9660237E-2,-2.6289162E-1,1.3453894E0,1.1661354E-1,1.7541386E0,3.4590673E-1,2.622767E-1,-9.60868E-2,6.867337E-1,-3.0529106E-1,4.99928E-2,1.933509E-2,1.0474579E-3,6.6630495E-1,1.4153754E0,8.445632E-2,8.666927E-1,-5.331115E-2,-1.6246878E-1,4.678944E-1,-7.226137E-1,-5.501388E-2,2.9799864E-1,3.3527512E-2,-1.6579069E-1,-5.19891E-1,-5.2950863E-2,3.0446984E-2,9.241468E-1,5.2122332E-2,1.3802271E-2,1.5524046E0,3.6229577E-2,4.0206793E-3,-8.348849E-3,9.359821E-3,-4.5676267E-1,3.045024E-1,7.990285E-1,2.591878E-1,1.3978519E-2,-2.7171643E-2,2.8071412E-1,-1.3951877E-1,1.5556331E-2,-8.5396E-3,-5.8193687E-2,-4.4642633E-1,-7.5094587E-1,-3.5199976E-1,-3.3228528E-2,3.989025E-4,4.3852795E-2,1.6606268E-2,1.365993E-2,-1.2809244E-2,5.1868223E-2,2.2708908E-2,1.8934593E-2,-1.8316187E-2,-1.9499643E-2,1.9907193E-2,-2.4014175E-2,2.6486374E-2,-2.0364178E-2,9.295847E-3,5.6069917E-3,2.4605619E-2,-8.678376E-3,-2.4266349E-4,1.416185E-3,-9.9083735E-3,-1.6341144E-2,2.3326734E-2,-2.3737576E-2,1.4191077E-3,-6.753518E-3,-2.2975208E-2],"categories":[],"categories_nodes":[],"categories_segments":[],"categories_sizes":[],"default_left":[0,0,0,0,0,0,0,0,0,0,0,0,0,0,0,0,0,0,0,0,0,0,0,0,0,0,0,0,0,0,0,0,0,0,0,0,0,0,0,0,0,0,0,0,0,0,0,0,0,0,0,0,0,0,0,0,0,0,0,0,0,0,0,0,0,0,0,0,0,0,0,0,0,0,0,0,0,0,0,0,0,0,0],"id":7,"left_children":[1,3,5,7,9,11,13,15,17,19,21,23,25,27,29,-1,-1,31,33,35,-1,37,39,41,43,45,47,49,-1,51,53,55,-1,57,59,-1,61,-1,-1,-1,-1,63,65,67,69,-1,-1,71,73,-1,-1,75,77,79,81,-1,-1,-1,-1,-1,-1,-1,-1,-1,-1,-1,-1,-1,-1,-1,-1,-1,-1,-1,-1,-1,-1,-1,-1,-1,-1,-1,-1],"loss_changes":[7.299243E1,4.9150196E1,4.9097626E1,2.1775604E1,4.241108E1,3.634721E1,3.2420536E1,2.4136486E0,1.3530273E1,1.2370499E1,8.882254E0,4.378729E1,1.6725485E1,5.4452477E0,2.2860336E1,0E0,0E0,9.743835E0,5.811224E0,4.063774E0,0E0,4.459653E0,2.14152E0,2.2677076E1,2.3117477E1,9.127436E0,1.7416191E1,2.6533828E0,0E0,1.404515E1,1.143148E1,1.1822615E1,0E0,4.3711395E0,2.5125284E0,0E0,3.1146164E0,0E0,0E0,0E0,0E0,1.728227E1,2.2366013E1,1.8142212E1,1.012069E1,0E0,0E0,6.097084E0,9.642334E0,0E0,0E0,9.708675E0,1.5941114E1,4.091446E0,9.095453E0,0E0,0E0,0E0,0E0,0E0,0E0,0E0,0E0,0E0,0E0,0E0,0E0,0E0,0E0,0E0,0E0,0E0,0E0,0E0,0E0,0E0,0E0,0E0,0E0,0E0,0E0,0E0,0E0],"parents":[2147483647,0,0,1,1,2,2,3,3,4,4,5,5,6,6,7,7,8,8,9,9,10,10,11,11,12,12,13,13,14,14,17,17,18,18,19,19,21,21,22,22,23,23,24,24,25,25,26,26,27,27,29,29,30,30,31,31,33,33,34,34,36,36,41,41,42,42,43,43,44,44,47,47,48,48,51,51,52,52,53,53,54,54],"right_children":[2,4,6,8,10,12,14,16,18,20,22,24,26,28,30,-1,-1,32,34,36,-1,38,40,42,44,46,48,50,-1,52,54,56,-1,58,60,-1,62,-1,-1,-1,-1,64,66,68,70,-1,-1,72,74,-1,-1,76,78,80,82,-1,-1,-1,-1,-1,-1,-1,-1,-1,-1,-1,-1,-1,-1,-1,-1,-1,-1,-1,-1,-1,-1,-1,-1,-1,-1,-1,-1],"split_conditions":[-2.8414804E-1,5.4817533E-1,-1.5794432E-1,-1.9586952E-1,2.2038046E-1,-9.657854E-2,-2.4765126E-1,1.7919703E-1,6.033501E-1,-2.0817386E-1,1.7466769E-2,-3.6092103E-4,-4.675163E-1,3.5005677E-1,1.5103118E-1,4.99928E-2,1.933509E-2,9.019693E-1,1.5030397E-1,3.8869455E-1,8.445632E-2,2.0640767E-1,-3.212676E-1,-7.136609E-2,-2.1689856E-1,-5.8210003E-1,-2.409151E-1,5.94646E-1,3.3527512E-2,-7.1720675E-2,2.5106937E-2,-4.4577533E-1,3.0446984E-2,-3.0490303E-1,-5.467409E-1,1.3802271E-2,-5.025357E-1,3.6229577E-2,4.0206793E-3,-8.348849E-3,9.359821E-3,-9.9177435E-2,9.609506E-2,-2.6136428E-1,-2.4945523E-1,1.3978519E-2,-2.7171643E-2,3.7429053E-1,1.8294331E-1,1.5556331E-2,-8.5396E-3,1.2433231E-1,6.4028926E-2,2.9765207E-1,-1.5263759E-1,-3.3228528E-2,3.989025E-4,4.3852795E-2,1.6606268E-2,1.365993E-2,-1.2809244E-2,5.1868223E-2,2.2708908E-2,1.8934593E-2,-1.8316187E-2,-1.9499643E-2,1.9907193E-2,-2.4014175E-2,2.6486374E-2,-2.0364178E-2,9.295847E-3,5.6069917E-3,2.4605619E-2,-8.678376E-3,-2.4266349E-4,1.416185E-3,-9.9083735E-3,-1.6341144E-2,2.3326734E-2,-2.3737576E-2,1.4191077E-3,-6.753518E-3,-2.2975208E-2],"split_indices":[198,22,293,72,226,208,67,206,167,2,303,312,335,268,256,0,0,225,116,71,0,57,80,261,141,76,6,32,0,2,14,51,0,4,373,0,69,0,0,0,0,128,383,4,164,0,0,306,306,0,0,31,14,78,379,0,0,0,0,0,0,0,0,0,0,0,0,0,0,0,0,0,0,0,0,0,0,0,0,0,0,0,0],"split_type":[0,0,0,0,0,0,0,0,0,0,0,0,0,0,0,0,0,0,0,0,0,0,0,0,0,0,0,0,0,0,0,0,0,0,0,0,0,0,0,0,0,0,0,0,0,0,0,0,0,0,0,0,0,0,0,0,0,0,0,0,0,0,0,0,0,0,0,0,0,0,0,0,0,0,0,0,0,0,0,0,0,0,0],"sum_hessian":[2.2615E3,3.125E2,1.949E3,2.265E2,8.6E1,1.15E3,7.99E2,1.45E1,2.12E2,4.45E1,4.15E1,4.995E2,6.505E2,3.35E1,7.655E2,9E0,5.5E0,1.76E2,3.6E1,3.55E1,9E0,1.75E1,2.4E1,1.63E2,3.365E2,3.9E1,6.115E2,1.85E1,1.5E1,4.65E2,3.005E2,1.68E2,8E0,2.5E1,1.1E1,5E0,3.05E1,1.15E1,6E0,1.5E1,9E0,1E2,6.3E1,1.29E2,2.075E2,5E0,3.4E1,1.225E2,4.89E2,1.35E1,5E0,3.37E2,1.28E2,1.25E2,1.755E2,9E0,1.59E2,9E0,1.6E1,6E0,5E0,2.4E1,6.5E0,1.2E1,8.8E1,1.7E1,4.6E1,6E0,1.23E2,1E1,1.975E2,1.055E2,1.7E1,2.28E2,2.61E2,2.435E2,9.35E1,1.19E2,9E0,1.19E2,6E0,1.355E2,4E1],"tree_param":{"num_deleted":"0","num_feature":"404","num_nodes":"83","size_leaf_vector":"1"}},{"base_weights":[-5.9568873E-3,1.8049186E-1,-1.5775573E-1,7.38692E-1,1.21176586E-1,6.2756576E-2,-2.7179784E-1,1.0723497E0,-4.035957E-2,2.703579E-1,-7.979067E-2,-1.3919196E-1,4.5185217E-1,-1.23352125E-1,-4.8893285E-1,1.4036832E0,-6.6965036E-2,1.8887573E-1,-1.4849592E-2,3.200284E-1,-5.747739E-1,1.4752845E-1,-2.596482E-1,2.8862467E-1,-2.1036288E-1,2.4258225E-1,9.547853E-1,-2.5266728E-1,1.8345694E-1,-7.2364974E-1,-1.7798007E-1,7.990076E-3,1.6431937E0,8.360694E-3,-1.1579287E-2,4.685687E-1,-9.725894E-3,1.0136716E0,2.5491676E-1,1.5060664E-2,-9.891553E-1,-2.1843329E-1,3.6379823E-1,-3.0948612E-1,5.653986E-1,2.3881402E-2,-6.79673E-2,-1.4189321E-1,-8.335157E-1,3.5228908E-1,-4.1715342E-1,6.8515867E-1,5.691738E-2,4.0638694E-1,-3.1592122E-1,2.5281915E-1,-2.3866653E-2,-8.6803967E-1,-4.2130682E-1,-2.6306048E-1,2.392654E-2,5.6302622E-2,1.3408234E-2,-4.569051E-3,2.4912573E-2,3.9362106E-2,4.0040794E-3,9.013247E-3,-2.565447E-2,-3.6942996E-2,-8.822072E-3,2.9779887E-2,-1.0019299E-2,-1.8941984E-3,1.9196147E-2,-6.325086E-3,-2.209866E-2,2.735291E-2,2.362864E-3,8.825282E-3,-1.2746473E-2,-6.795262E-3,6.1380425E-3,-6.9468827E-3,-2.9392105E-2,3.3045763E-3,1.5953194E-2,1.6418217E-3,-1.941212E-2,7.282705E-3,2.5572274E-2,-2.363671E-3,1.923525E-2,-4.475241E-3,-1.2828464E-2,-6.574739E-3,1.2621745E-2,-1.4664674E-3,-2.702028E-2,1.6229082E-2,-1.5360739E-2,-3.4556969E-3,-2.2131892E-2],"categories":[],"categories_nodes":[],"categories_segments":[],"categories_sizes":[],"default_left":[0,0,0,0,0,0,0,0,0,0,0,0,0,0,0,0,0,0,0,0,0,0,0,0,0,0,0,0,0,0,0,0,0,0,0,0,0,0,0,0,0,0,0,0,0,0,0,0,0,0,0,0,0,0,0,0,0,0,0,0,0,0,0,0,0,0,0,0,0,0,0,0,0,0,0,0,0,0,0,0,0,0,0,0,0,0,0,0,0,0,0,0,0,0,0,0,0,0,0,0,0,0,0],"id":8,"left_children":[1,3,5,7,9,11,13,15,17,19,21,23,25,27,29,31,33,35,-1,37,39,41,43,45,47,49,51,53,55,57,59,-1,61,-1,-1,63,-1,65,67,-1,69,71,73,75,77,-1,79,81,83,85,87,89,-1,91,93,95,-1,97,99,101,-1,-1,-1,-1,-1,-1,-1,-1,-1,-1,-1,-1,-1,-1,-1,-1,-1,-1,-1,-1,-1,-1,-1,-1,-1,-1,-1,-1,-1,-1,-1,-1,-1,-1,-1,-1,-1,-1,-1,-1,-1,-1,-1],"loss_changes":[6.479921E1,3.39308E1,3.1753447E1,2.5647034E1,2.7903492E1,3.3929703E1,2.675735E1,2.6141022E1,3.272095E0,2.2600254E1,1.6269674E1,8.723202E0,1.5292583E1,1.9705347E1,2.450393E1,1.4136116E1,1.9269859E0,3.1654649E0,0E0,2.2549541E1,1.3882705E1,1.4009244E1,9.303314E0,7.4727535E0,1.0313829E1,7.782786E0,9.626923E0,1.4677422E1,1.0217329E1,8.016106E0,1.2369101E1,0E0,1.1454674E1,0E0,0E0,3.2717452E0,0E0,1.1118881E1,2.3654873E1,0E0,3.3427658E0,9.567178E0,1.3123556E1,8.693447E0,2.119388E0,0E0,3.3563516E0,6.5404634E0,1.8855667E0,3.8962507E0,1.717063E0,2.3827877E0,0E0,3.5818367E0,5.877468E0,1.1068006E1,0E0,3.404686E0,5.863907E0,9.4257145E0,0E0,0E0,0E0,0E0,0E0,0E0,0E0,0E0,0E0,0E0,0E0,0E0,0E0,0E0,0E0,0E0,0E0,0E0,0E0,0E0,0E0,0E0,0E0,0E0,0E0,0E0,0E0,0E0,0E0,0E0,0E0,0E0,0E0,0E0,0E0,0E0,0E0,0E0,0E0,0E0,0E0,0E0,0E0],"parents":[2147483647,0,0,1,1,2,2,3,3,4,4,5,5,6,6,7,7,8,8,9,9,10,10,11,11,12,12,13,13,14,14,15,15,16,16,17,17,19,19,20,20,21,21,22,22,23,23,24,24,25,25,26,26,27,27,28,28,29,29,30,30,32,32,35,35,37,37,38,38,40,40,41,41,42,42,43,43,44,44,46,46,47,47,48,48,49,49,50,50,51,51,53,53,54,54,55,55,57,57,58,58,59,59],"right_children":[2,4,6,8,10,12,14,16,18,20,22,24,26,28,30,32,34,36,-1,38,40,42,44,46,48,50,52,54,56,58,60,-1,62,-1,-1,64,-1,66,68,-1,70,72,74,76,78,-1,80,82,84,86,88,90,-1,92,94,96,-1,98,100,102,-1,-1,-1,-1,-1,-1,-1,-1,-1,-1,-1,-1,-1,-1,-1,-1,-1,-1,-1,-1,-1,-1,-1,-1,-1,-1,-1,-1,-1,-1,-1,-1,-1,-1,-1,-1,-1,-1,-1,-1,-1,-1,-1],"split_conditions":[-2.6788834E-1,-7.366096E-1,-2.2948676E-1,2.8112829E-2,1.7920658E-2,1.3706726E-1,1.0296744E-1,3.0245686E-1,4.584786E-1,6.552723E-1,-1.9483271E-1,8.308584E-2,-2.3528144E-2,-7.3759526E-2,2.2463058E-1,2.26231E-2,1.2705922E-2,3.777813E-1,-1.4849592E-2,-4.4386008E-1,4.020811E-1,2.8225592E-1,9.381242E-2,1.9962671E-1,2.7776158E-1,2.2685367E-1,1.2097825E-1,-5.007111E-1,3.666599E-2,-2.4796423E-1,2.6561236E-1,7.990076E-3,4.84344E-1,8.360694E-3,-1.1579287E-2,-7.051733E-2,-9.725894E-3,-1.9898957E-1,2.3018324E-1,1.5060664E-2,1.1648258E0,-1.20042585E-1,1.8820176E-1,5.6861347E-1,2.790223E-2,2.3881402E-2,4.0602837E-2,1.8724668E-1,1.0628913E-1,3.1427476E-1,-5.4437086E-2,-6.611549E-2,5.691738E-2,-1.13609776E-1,1.4389624E-1,-8.293137E-1,-2.3866653E-2,-8.461044E-2,2.0451733E-1,-8.98555E-2,2.392654E-2,5.6302622E-2,1.3408234E-2,-4.569051E-3,2.4912573E-2,3.9362106E-2,4.0040794E-3,9.013247E-3,-2.565447E-2,-3.6942996E-2,-8.822072E-3,2.9779887E-2,-1.0019299E-2,-1.8941984E-3,1.9196147E-2,-6.325086E-3,-2.209866E-2,2.735291E-2,2.362864E-3,8.825282E-3,-1.2746473E-2,-6.795262E-3,6.1380425E-3,-6.9468827E-3,-2.9392105E-2,3.3045763E-3,1.5953194E-2,1.6418217E-3,-1.941212E-2,7.282705E-3,2.5572274E-2,-2.363671E-3,1.923525E-2,-4.475241E-3,-1.2828464E-2,-6.574739E-3,1.2621745E-2,-1.4664674E-3,-2.702028E-2,1.6229082E-2,-1.5360739E-2,-3.4556969E-3,-2.2131892E-2],"split_indices":[331,223,293,303,208,153,109,166,170,126,113,49,45,232,272,149,273,144,0,331,42,203,200,238,349,322,73,141,365,35,45,0,374,0,0,54,0,198,210,0,391,73,72,9,215,0,271,242,49,71,261,127,0,159,104,390,0,59,94,28,0,0,0,0,0,0,0,0,0,0,0,0,0,0,0,0,0,0,0,0,0,0,0,0,0,0,0,0,0,0,0,0,0,0,0,0,0,0,0,0,0,0,0],"split_type":[0,0,0,0,0,0,0,0,0,0,0,0,0,0,0,0,0,0,0,0,0,0,0,0,0,0,0,0,0,0,0,0,0,0,0,0,0,0,0,0,0,0,0,0,0,0,0,0,0,0,0,0,0,0,0,0,0,0,0,0,0,0,0,0,0,0,0,0,0,0,0,0,0,0,0,0,0,0,0,0,0,0,0,0,0,0,0,0,0,0,0,0,0,0,0,0,0,0,0,0,0,0,0],"sum_hessian":[2.2875E3,1.0265E3,1.261E3,9.75E1,9.29E2,4.3E2,8.31E2,6.8E1,2.95E1,5.33E2,3.96E2,2.835E2,1.465E2,4.945E2,3.365E2,5.25E1,1.55E1,2E1,9.5E0,5.04E2,2.9E1,1.75E2,2.21E2,4E1,2.435E2,1.045E2,4.2E1,3.48E2,1.465E2,1.91E2,1.455E2,9.5E0,4.3E1,7.5E0,8E0,1.3E1,7E0,4.2E1,4.62E2,8E0,2.1E1,6.5E1,1.1E2,2.09E2,1.2E1,1.6E1,2.4E1,2.205E2,2.3E1,9E1,1.45E1,3.4E1,8E0,3E1,3.18E2,1.375E2,9E0,1.28E2,6.3E1,1.345E2,1.1E1,3.55E1,7.5E0,5E0,8E0,3.1E1,1.1E1,4.445E2,1.75E1,1.5E1,6E0,5E0,6E1,4.35E1,6.65E1,1.71E2,3.8E1,6.5E0,5.5E0,1.2E1,1.2E1,1.775E2,4.3E1,5E0,1.8E1,3.9E1,5.1E1,5E0,9.5E0,1E1,2.4E1,1E1,2E1,1.285E2,1.895E2,3.6E1,1.015E2,5E0,1.23E2,5E0,5.8E1,1.035E2,3.1E1],"tree_param":{"num_deleted":"0","num_feature":"404","num_nodes":"103","size_leaf_vector":"1"}},{"base_weights":[-2.2143548E-2,4.3548906E-1,-7.9640165E-2,-9.511897E-2,6.903049E-1,6.2004816E-2,-1.8791932E-1,-6.3796437E-1,5.784749E-2,8.846571E-1,-2.3320377E-1,3.4224442E-1,-1.4539024E-1,1.03169724E-1,-2.9033718E-1,-9.48578E-3,-2.7738107E-2,-1.583925E-1,5.469011E-1,5.1045465E-1,1.3547773E0,7.753107E-2,-4.3055412E-1,8.1640804E-1,1.8638586E-1,-4.1472994E-2,-5.159331E-1,2.680624E-1,-3.3069283E-1,-5.963216E-1,-2.196963E-1,1.8731417E-1,-1.2399784E-2,-3.2158808E-3,2.843805E-2,9.529253E-1,2.1255194E-1,1.6759164E0,5.264353E-1,1.3481748E-2,-8.365317E-3,-1.8479997E-2,-2.2930074E-3,1.1125604E0,1.87018E-1,-6.464477E-1,2.4699613E-1,-2.0310128E-1,2.1194795E-1,-7.784472E-1,-2.8471887E-1,8.531412E-1,1.2744623E-1,-8.438554E-2,-9.874085E-1,-7.3288965E-1,1.2597074E-1,-7.185121E-1,-1.8295527E-1,-9.414402E-3,1.3555298E-2,3.920863E-2,1.7850572E-2,2.0398468E-2,9.5248084E-5,7.431124E-2,3.5020735E-2,-3.1432954E-3,2.3039361E-2,2.799892E-2,5.800415E-2,-5.607923E-3,1.7202863E-2,-2.781789E-2,3.4958783E-3,-4.350721E-3,1.0016119E-2,1.5461862E-2,-7.5705517E-3,1.2918267E-2,-6.7572715E-3,-2.6246918E-2,2.2400878E-3,-2.4840652E-3,-1.4314349E-2,3.880363E-2,2.5293313E-3,7.339629E-3,-2.0564523E-2,-6.3554333E-3,2.7328493E-2,-3.7656985E-2,-1.383243E-2,1.2500715E-2,-2.374914E-2,1.9944983E-2,-1.1366967E-3,-2.4324465E-3,-2.3828097E-2,2.195437E-3,-7.2253933E-3],"categories":[],"categories_nodes":[],"categories_segments":[],"categories_sizes":[],"default_left":[0,0,0,0,0,0,0,0,0,0,0,0,0,0,0,0,0,0,0,0,0,0,0,0,0,0,0,0,0,0,0,0,0,0,0,0,0,0,0,0,0,0,0,0,0,0,0,0,0,0,0,0,0,0,0,0,0,0,0,0,0,0,0,0,0,0,0,0,0,0,0,0,0,0,0,0,0,0,0,0,0,0,0,0,0,0,0,0,0,0,0,0,0,0,0,0,0,0,0,0,0],"id":9,"left_children":[1,3,5,7,9,11,13,15,17,19,21,23,25,27,29,-1,-1,31,33,35,37,39,41,43,45,47,49,51,53,55,57,59,-1,-1,-1,61,63,65,67,-1,-1,-1,-1,69,71,73,75,77,79,81,83,85,87,89,91,93,95,97,99,-1,-1,-1,-1,-1,-1,-1,-1,-1,-1,-1,-1,-1,-1,-1,-1,-1,-1,-1,-1,-1,-1,-1,-1,-1,-1,-1,-1,-1,-1,-1,-1,-1,-1,-1,-1,-1,-1,-1,-1,-1,-1],"loss_changes":[5.857961E1,3.366468E1,3.0340961E1,6.804432E0,3.0359947E1,4.9887928E1,3.3450012E1,1.3678293E0,6.9076905E0,2.376136E1,1.8730901E0,2.6822227E1,1.8981213E1,2.1014322E1,1.7798637E1,0E0,0E0,4.08744E0,5.3479176E0,1.0210699E1,1.5344528E1,1.7818325E0,1.167815E0,1.6567505E1,1.4091676E1,1.5874084E1,6.333639E0,1.7373974E1,1.3018741E1,1.5381844E1,1.224844E1,2.7930508E0,0E0,0E0,0E0,3.2136765E0,4.744157E0,1.4831139E1,2.9010692E0,0E0,0E0,0E0,0E0,7.1721954E0,4.442127E0,4.1789103E0,8.8350115E0,8.498916E0,1.4532059E1,4.179487E0,2.2528796E0,1.3770514E1,1.6603851E1,7.8050437E0,2.5224285E0,9.143303E0,2.276796E0,2.1569576E0,9.366709E0,0E0,0E0,0E0,0E0,0E0,0E0,0E0,0E0,0E0,0E0,0E0,0E0,0E0,0E0,0E0,0E0,0E0,0E0,0E0,0E0,0E0,0E0,0E0,0E0,0E0,0E0,0E0,0E0,0E0,0E0,0E0,0E0,0E0,0E0,0E0,0E0,0E0,0E0,0E0,0E0,0E0,0E0],"parents":[2147483647,0,0,1,1,2,2,3,3,4,4,5,5,6,6,7,7,8,8,9,9,10,10,11,11,12,12,13,13,14,14,17,17,18,18,19,19,20,20,21,21,22,22,23,23,24,24,25,25,26,26,27,27,28,28,29,29,30,30,31,31,35,35,36,36,37,37,38,38,43,43,44,44,45,45,46,46,47,47,48,48,49,49,50,50,51,51,52,52,53,53,54,54,55,55,56,56,57,57,58,58],"right_children":[2,4,6,8,10,12,14,16,18,20,22,24,26,28,30,-1,-1,32,34,36,38,40,42,44,46,48,50,52,54,56,58,60,-1,-1,-1,62,64,66,68,-1,-1,-1,-1,70,72,74,76,78,80,82,84,86,88,90,92,94,96,98,100,-1,-1,-1,-1,-1,-1,-1,-1,-1,-1,-1,-1,-1,-1,-1,-1,-1,-1,-1,-1,-1,-1,-1,-1,-1,-1,-1,-1,-1,-1,-1,-1,-1,-1,-1,-1,-1,-1,-1,-1,-1,-1],"split_conditions":[-7.255969E-1,-2.1681616E-1,-1.1867072E-1,7.668118E-2,3.1245375E-1,-2.5655106E-1,-4.3220145E-1,-1.5986185E-1,-3.0984616E-1,5.7557213E-1,4.6010095E-1,-6.4436793E-1,1.0187499E-1,-2.173264E-1,-3.3765867E-1,-9.48578E-3,-2.7738107E-2,4.01205E-1,1.0429378E-1,-1.7252207E-1,-1.0020946E-1,-3.1942442E-1,2.2765548E0,-2.1738127E-1,-9.713553E-3,1.825799E-1,-7.276571E-2,-4.4386008E-1,4.2710125E-1,3.813852E-1,-4.0324962E-1,-2.590597E-1,-1.2399784E-2,-3.2158808E-3,2.843805E-2,-1.4976224E-1,2.5321063E-1,3.286602E-1,3.8228387E-1,1.3481748E-2,-8.365317E-3,-1.8479997E-2,-2.2930074E-3,1.3602461E-1,-1.0142595E0,2.308111E-2,3.127553E-1,-6.5376014E-3,2.0422177E-1,2.310597E-1,3.497377E-3,1.4506987E-1,2.0115264E-1,5.4755634E-1,-1.9830826E-1,-8.213645E-2,1.8321544E-1,3.4773904E-1,2.5076404E-2,-9.414402E-3,1.3555298E-2,3.920863E-2,1.7850572E-2,2.0398468E-2,9.5248084E-5,7.431124E-2,3.5020735E-2,-3.1432954E-3,2.3039361E-2,2.799892E-2,5.800415E-2,-5.607923E-3,1.7202863E-2,-2.781789E-2,3.4958783E-3,-4.350721E-3,1.0016119E-2,1.5461862E-2,-7.5705517E-3,1.2918267E-2,-6.7572715E-3,-2.6246918E-2,2.2400878E-3,-2.4840652E-3,-1.4314349E-2,3.880363E-2,2.5293313E-3,7.339629E-3,-2.0564523E-2,-6.3554333E-3,2.7328493E-2,-3.7656985E-2,-1.383243E-2,1.2500715E-2,-2.374914E-2,1.9944983E-2,-1.1366967E-3,-2.4324465E-3,-2.3828097E-2,2.195437E-3,-7.2253933E-3],"split_indices":[251,338,274,169,166,326,373,379,377,307,236,390,109,186,35,0,0,93,188,270,357,64,391,141,95,234,62,331,212,18,17,132,0,0,0,20,90,74,234,0,0,0,0,73,390,72,280,172,322,49,189,59,136,222,96,19,292,27,218,0,0,0,0,0,0,0,0,0,0,0,0,0,0,0,0,0,0,0,0,0,0,0,0,0,0,0,0,0,0,0,0,0,0,0,0,0,0,0,0,0,0],"split_type":[0,0,0,0,0,0,0,0,0,0,0,0,0,0,0,0,0,0,0,0,0,0,0,0,0,0,0,0,0,0,0,0,0,0,0,0,0,0,0,0,0,0,0,0,0,0,0,0,0,0,0,0,0,0,0,0,0,0,0,0,0,0,0,0,0,0,0,0,0,0,0,0,0,0,0,0,0,0,0,0,0,0,0,0,0,0,0,0,0,0,0,0,0,0,0,0,0,0,0,0,0],"sum_hessian":[2.224E3,2.475E2,1.9765E3,8.05E1,1.67E2,8.565E2,1.12E3,1.7E1,6.35E1,1.38E2,2.9E1,3.64E2,4.925E2,2.915E2,8.285E2,9E0,8E0,4.45E1,1.9E1,7.8E1,6E1,1.15E1,1.75E1,8.9E1,2.75E2,3.855E2,1.07E2,2.115E2,8E1,1.54E2,6.745E2,1.9E1,2.55E1,7.5E0,1.15E1,3.05E1,4.75E1,4.25E1,1.75E1,5.5E0,6E0,1.1E1,6.5E0,6E1,2.9E1,1.8E1,2.57E2,2.355E2,1.5E2,4.9E1,5.8E1,4E1,1.715E2,5.9E1,2.1E1,1.295E2,2.45E1,4.5E1,6.295E2,6.5E0,1.25E1,1.4E1,1.65E1,1.4E1,3.35E1,1.5E1,2.75E1,5E0,1.25E1,5.1E1,9E0,1.5E1,1.4E1,1.3E1,5E0,4.65E1,2.105E2,1.45E1,2.21E2,1E2,5E1,4.4E1,5E0,2.9E1,2.9E1,2.5E1,1.5E1,1.505E2,2.1E1,5.3E1,6E0,1.3E1,8E0,6E0,1.235E2,5E0,1.95E1,5E0,4E1,1.16E2,5.135E2],"tree_param":{"num_deleted":"0","num_feature":"404","num_nodes":"101","size_leaf_vector":"1"}},{"base_weights":[-5.053557E-3,4.357795E-1,-7.195613E-2,1.865789E-1,8.8871354E-1,-2.61913E-1,4.9381595E-2,1.301431E0,9.237634E-2,1.1570829E0,1.5809797E-1,-3.012619E-1,5.2097726E-1,-6.383769E-1,9.129667E-2,2.0521631E-2,4.9110282E-2,2.8909113E-2,3.5289347E-2,-3.9381473E-3,1.3083599E0,-1.5731092E-1,1.6307056E-2,1.6045065E-1,-3.5206607E-1,3.9688647E-2,3.5432592E-1,-8.915308E-1,7.4740216E-2,2.5109714E-1,-5.8809415E-2,1.3178873E-1,-4.78894E-1,1.5487845E0,3.7858555E-1,7.294928E-3,-1.28514785E-2,-3.5428753E-1,4.197977E-1,-2.1949476E-1,-5.182788E-1,-5.515893E-3,1.3824008E-2,-4.1478816E-2,-7.049722E-1,2.2941004E-2,-1.1743843E-2,2.686659E-2,4.4120547E-1,-1.17177546E-1,4.528919E-1,1.9993782E-2,8.8471966E-4,3.421644E-3,-2.6810242E-2,6.846217E-2,3.510986E-2,2.0162476E-2,1.734408E-3,1.2494316E-3,-2.1689096E-2,1.6104395E-2,-7.4102413E-3,-8.472717E-3,7.859063E-3,-1.930636E-2,5.6656054E-4,-2.4168525E-2,-3.8937356E-3,3.8456742E-3,-2.2302257E-2,1.1432893E-2,5.5035986E-2,-1.230975E-3,-1.5409122E-2,5.158772E-3,2.4787018E-2],"categories":[],"categories_nodes":[],"categories_segments":[],"categories_sizes":[],"default_left":[0,0,0,0,0,0,0,0,0,0,0,0,0,0,0,0,0,0,0,0,0,0,0,0,0,0,0,0,0,0,0,0,0,0,0,0,0,0,0,0,0,0,0,0,0,0,0,0,0,0,0,0,0,0,0,0,0,0,0,0,0,0,0,0,0,0,0,0,0,0,0,0,0,0,0,0,0],"id":10,"left_children":[1,3,5,7,9,11,13,15,17,19,21,23,25,27,29,-1,-1,-1,31,-1,33,35,-1,37,39,-1,41,43,45,47,49,51,53,55,57,-1,-1,59,61,63,65,-1,-1,-1,67,-1,-1,69,71,73,75,-1,-1,-1,-1,-1,-1,-1,-1,-1,-1,-1,-1,-1,-1,-1,-1,-1,-1,-1,-1,-1,-1,-1,-1,-1,-1],"loss_changes":[6.6699974E1,3.346987E1,4.5269516E1,2.0201523E1,2.0502968E1,2.3738846E1,3.46224E1,1.9878693E0,8.893903E0,1.5178925E1,3.6721444E0,1.716832E1,4.4763165E0,1.2523092E1,2.7144089E1,0E0,0E0,0E0,8.473428E0,0E0,1.4837959E1,1.9496448E0,0E0,9.893924E0,1.4374283E1,0E0,1.9184308E0,3.697815E0,6.4108996E0,2.3348343E1,1.7495426E1,7.8291903E0,6.7424083E0,1.2453903E1,1.4204016E0,0E0,0E0,3.679469E0,3.9558983E0,1.1208536E1,1.959317E1,0E0,0E0,0E0,2.1531181E0,0E0,0E0,1.9801973E1,2.413321E1,1.5827864E1,6.150964E0,0E0,0E0,0E0,0E0,0E0,0E0,0E0,0E0,0E0,0E0,0E0,0E0,0E0,0E0,0E0,0E0,0E0,0E0,0E0,0E0,0E0,0E0,0E0,0E0,0E0,0E0],"parents":[2147483647,0,0,1,1,2,2,3,3,4,4,5,5,6,6,7,7,8,8,9,9,10,10,11,11,12,12,13,13,14,14,18,18,20,20,21,21,23,23,24,24,26,26,27,27,28,28,29,29,30,30,31,31,32,32,33,33,34,34,37,37,38,38,39,39,40,40,44,44,47,47,48,48,49,49,50,50],"right_children":[2,4,6,8,10,12,14,16,18,20,22,24,26,28,30,-1,-1,-1,32,-1,34,36,-1,38,40,-1,42,44,46,48,50,52,54,56,58,-1,-1,60,62,64,66,-1,-1,-1,68,-1,-1,70,72,74,76,-1,-1,-1,-1,-1,-1,-1,-1,-1,-1,-1,-1,-1,-1,-1,-1,-1,-1,-1,-1,-1,-1,-1,-1,-1,-1],"split_conditions":[-2.8414804E-1,3.2002014E-1,-1.5160094E-1,-1.8746832E-1,4.0477434E-1,1.979079E-1,-4.6084672E-1,-6.729047E-1,-5.1960546E-1,-3.639993E-2,5.1571E-1,-3.8049795E-2,-8.856803E-4,5.7690716E-1,-1.1910836E-1,2.0521631E-2,4.9110282E-2,2.8909113E-2,5.5626357E-1,-3.9381473E-3,-2.958302E-1,3.829569E-1,1.6307056E-2,2.3317096E-1,3.1212708E-1,3.9688647E-2,-5.423549E-2,-1.6523786E-1,1.6450348E-1,9.715824E-2,5.368285E-1,-1.2121965E-1,-3.8250273E-1,5.5509037E-1,3.8250595E-2,7.294928E-3,-1.28514785E-2,2.8881845E-3,2.6667938E-1,4.0082613E-1,9.45613E-2,-5.515893E-3,1.3824008E-2,-4.1478816E-2,-2.2313526E-1,2.2941004E-2,-1.1743843E-2,2.4080369E-1,1.2932573E-1,1.3934632E-1,2.8322685E-1,1.9993782E-2,8.8471966E-4,3.421644E-3,-2.6810242E-2,6.846217E-2,3.510986E-2,2.0162476E-2,1.734408E-3,1.2494316E-3,-2.1689096E-2,1.6104395E-2,-7.4102413E-3,-8.472717E-3,7.859063E-3,-1.930636E-2,5.6656054E-4,-2.4168525E-2,-3.8937356E-3,3.8456742E-3,-2.2302257E-2,1.1432893E-2,5.5035986E-2,-1.230975E-3,-1.5409122E-2,5.158772E-3,2.4787018E-2],"split_indices":[198,31,140,72,170,67,17,39,17,160,201,356,194,245,320,0,0,0,196,0,38,361,0,225,29,0,27,176,253,269,149,78,1,388,189,0,0,297,272,305,59,0,0,0,1,0,0,324,73,109,367,0,0,0,0,0,0,0,0,0,0,0,0,0,0,0,0,0,0,0,0,0,0,0,0,0,0],"split_type":[0,0,0,0,0,0,0,0,0,0,0,0,0,0,0,0,0,0,0,0,0,0,0,0,0,0,0,0,0,0,0,0,0,0,0,0,0,0,0,0,0,0,0,0,0,0,0,0,0,0,0,0,0,0,0,0,0,0,0,0,0,0,0,0,0,0,0,0,0,0,0,0,0,0,0,0,0],"sum_hessian":[2.2595E3,2.97E2,1.9625E3,1.925E2,1.045E2,7.645E2,1.198E3,1.4E1,1.785E2,7.6E1,2.85E1,7.285E2,3.6E1,6.8E1,1.13E3,6E0,8E0,1E1,1.685E2,8E0,6.8E1,1.6E1,1.25E1,7.2E1,6.565E2,5E0,3.1E1,5E1,1.8E1,5.47E2,5.83E2,1.425E2,2.6E1,5.35E1,1.45E1,6.5E0,9.5E0,2.4E1,4.8E1,3.665E2,2.9E2,5E0,2.6E1,1.2E1,3.8E1,7E0,1.1E1,2.515E2,2.955E2,5.24E2,5.9E1,2.2E1,1.205E2,1.1E1,1.5E1,1.65E1,3.7E1,7E0,7.5E0,1.2E1,1.2E1,4.1E1,7E0,3.245E2,4.2E1,2.35E2,5.5E1,3.2E1,6E0,2.23E2,2.85E1,2.845E2,1.1E1,4.405E2,8.35E1,3.45E1,2.45E1],"tree_param":{"num_deleted":"0","num_feature":"404","num_nodes":"77","size_leaf_vector":"1"}},{"base_weights":[-1.1054412E-3,1.7520672E-1,-1.4506844E-1,-3.596009E-2,3.524027E-1,-3.4416533E-1,2.8491264E-2,-1.3392602E-1,3.298124E-1,2.5779048E-1,1.0649197E0,-3.9433867E-1,4.8643893E-1,-2.0900442E-1,1.4225067E-1,-9.96848E-2,-2.535341E-2,-2.9683024E-1,4.268605E-1,7.561544E-1,1.7158258E-1,1.4941031E0,3.330985E-1,-2.3872438E-1,-5.916193E-1,6.9305354E-1,-8.150704E-3,-7.036557E-1,-8.097985E-2,3.2105306E-1,-9.10399E-2,-1.6192165E-1,2.0497148E-1,8.789109E-3,-1.9711483E-2,3.4756478E-2,3.2758167E-1,4.906088E-1,4.8061002E-2,2.6772085E-1,-1.996256E-1,1.1082846E0,6.477056E-2,-5.616732E-3,6.2825793E-1,-2.8822675E-1,4.2803317E-1,-1.2705906E-1,-6.6477436E-1,3.426266E-2,1.3316282E-2,-8.6414593E-1,-2.8655982E-1,-1.8803583E-1,5.020136E-1,5.068905E-1,-6.981606E-2,8.025716E-2,-5.260087E-1,-7.6478175E-3,1.2968632E-3,-1.217479E-2,1.1365518E-2,6.027384E-3,1.5706642E-2,1.861049E-2,-2.1467417E-2,1.0495945E-2,-9.585864E-3,7.845623E-3,-1.4636433E-2,3.917282E-2,1.354123E-2,2.9669167E-2,8.846893E-3,-9.638556E-3,1.1699644E-2,3.2227272E-3,3.1006614E-2,-1.0416543E-2,4.47603E-3,-2.2360394E-2,-6.2276074E-3,-9.754636E-3,-2.9280677E-2,-1.6167095E-2,1.2830911E-3,-7.90803E-3,7.8048944E-3,2.3205314E-2,-2.8147062E-3,5.6698103E-3,2.1910833E-2,1.0620671E-2,-8.929798E-3,2.4971543E-2,-8.0926623E-4,-2.0550337E-2,2.4074221E-2],"categories":[],"categories_nodes":[],"categories_segments":[],"categories_sizes":[],"default_left":[0,0,0,0,0,0,0,0,0,0,0,0,0,0,0,0,0,0,0,0,0,0,0,0,0,0,0,0,0,0,0,0,0,0,0,0,0,0,0,0,0,0,0,0,0,0,0,0,0,0,0,0,0,0,0,0,0,0,0,0,0,0,0,0,0,0,0,0,0,0,0,0,0,0,0,0,0,0,0,0,0,0,0,0,0,0,0,0,0,0,0,0,0,0,0,0,0,0,0],"id":11,"left_children":[1,3,5,7,9,11,13,15,17,19,21,23,25,27,29,31,-1,33,35,37,39,41,43,45,47,49,-1,51,53,55,57,59,61,-1,-1,-1,63,65,-1,67,69,71,-1,-1,73,75,77,79,81,-1,-1,83,85,87,89,91,93,95,97,-1,-1,-1,-1,-1,-1,-1,-1,-1,-1,-1,-1,-1,-1,-1,-1,-1,-1,-1,-1,-1,-1,-1,-1,-1,-1,-1,-1,-1,-1,-1,-1,-1,-1,-1,-1,-1,-1,-1,-1],"loss_changes":[5.8303467E1,3.864666E1,4.3704857E1,1.6957458E1,3.7577766E1,2.4737907E1,1.8306982E1,8.999024E0,6.2081537E0,2.1222816E1,2.007492E1,1.6927795E1,5.5140743E0,1.384341E1,1.9133743E1,6.802213E0,0E0,3.1669006E0,5.9402647E0,1.5611256E1,1.52205515E1,8.125198E0,4.0338697E0,1.0437769E1,8.2248535E0,2.5140686E0,0E0,2.7646618E0,1.1047867E1,1.8884981E1,1.4906736E1,5.67782E0,6.6322517E0,0E0,0E0,0E0,1.8310585E0,9.36396E0,0E0,1.6416588E1,1.1825253E1,3.0428886E0,0E0,0E0,1.6924524E0,6.660944E0,4.159949E0,2.1501355E0,7.61779E0,0E0,0E0,1.6122589E0,1.1865065E0,5.114946E0,4.5211906E0,1.2365112E1,8.26546E0,1.163644E1,1.2484316E1,0E0,0E0,0E0,0E0,0E0,0E0,0E0,0E0,0E0,0E0,0E0,0E0,0E0,0E0,0E0,0E0,0E0,0E0,0E0,0E0,0E0,0E0,0E0,0E0,0E0,0E0,0E0,0E0,0E0,0E0,0E0,0E0,0E0,0E0,0E0,0E0,0E0,0E0,0E0,0E0],"parents":[2147483647,0,0,1,1,2,2,3,3,4,4,5,5,6,6,7,7,8,8,9,9,10,10,11,11,12,12,13,13,14,14,15,15,17,17,18,18,19,19,20,20,21,21,22,22,23,23,24,24,25,25,27,27,28,28,29,29,30,30,31,31,32,32,36,36,37,37,39,39,40,40,41,41,44,44,45,45,46,46,47,47,48,48,51,51,52,52,53,53,54,54,55,55,56,56,57,57,58,58],"right_children":[2,4,6,8,10,12,14,16,18,20,22,24,26,28,30,32,-1,34,36,38,40,42,44,46,48,50,-1,52,54,56,58,60,62,-1,-1,-1,64,66,-1,68,70,72,-1,-1,74,76,78,80,82,-1,-1,84,86,88,90,92,94,96,98,-1,-1,-1,-1,-1,-1,-1,-1,-1,-1,-1,-1,-1,-1,-1,-1,-1,-1,-1,-1,-1,-1,-1,-1,-1,-1,-1,-1,-1,-1,-1,-1,-1,-1,-1,-1,-1,-1,-1,-1],"split_conditions":[-2.1583265E-1,1.7336157E-1,2.4987333E-2,2.4991794E-1,5.4817533E-1,-2.0694777E-2,1.0165811E-1,6.1548565E-2,1.0311027E-1,1.8191426E-1,-3.523991E-1,-2.9442674E-1,4.19043E-2,-2.0274371E-1,1.6921747E-2,2.80843E-1,-2.535341E-2,-2.2824986E-1,-1.2289192E-1,6.693871E-2,-7.436147E-2,-7.571973E-1,7.6216924E-1,1.801277E-2,-1.6822785E-1,-1.1539608E-3,-8.150704E-3,-8.486699E-3,1.16448045E-1,-1.0100566E-1,-4.159145E-2,-2.3617923E-1,-3.1333438E-1,8.789109E-3,-1.9711483E-2,3.4756478E-2,-2.680734E-1,-5.0353374E-2,4.8061002E-2,4.6653003E-1,7.185084E-2,-5.363866E-1,6.477056E-2,-5.616732E-3,3.740685E-1,3.3750236E-1,2.0964782E-1,2.1693864E-1,-1.2737477E-1,3.426266E-2,1.3316282E-2,1.7127103E-1,1.8250985E-1,3.0106923E-1,8.08695E-3,-3.5938002E-2,2.595309E-1,-7.1087785E-2,-3.1173676E-2,-7.6478175E-3,1.2968632E-3,-1.217479E-2,1.1365518E-2,6.027384E-3,1.5706642E-2,1.861049E-2,-2.1467417E-2,1.0495945E-2,-9.585864E-3,7.845623E-3,-1.4636433E-2,3.917282E-2,1.354123E-2,2.9669167E-2,8.846893E-3,-9.638556E-3,1.1699644E-2,3.2227272E-3,3.1006614E-2,-1.0416543E-2,4.47603E-3,-2.2360394E-2,-6.2276074E-3,-9.754636E-3,-2.9280677E-2,-1.6167095E-2,1.2830911E-3,-7.90803E-3,7.8048944E-3,2.3205314E-2,-2.8147062E-3,5.6698103E-3,2.1910833E-2,1.0620671E-2,-8.929798E-3,2.4971543E-2,-8.0926623E-4,-2.0550337E-2,2.4074221E-2],"split_indices":[293,368,130,193,22,313,370,327,269,339,181,111,354,162,291,236,0,366,63,14,2,146,284,90,291,354,0,33,170,198,28,259,362,0,0,0,40,128,0,169,46,97,0,0,366,227,368,218,8,0,0,14,59,43,193,319,18,172,162,0,0,0,0,0,0,0,0,0,0,0,0,0,0,0,0,0,0,0,0,0,0,0,0,0,0,0,0,0,0,0,0,0,0,0,0,0,0,0,0],"split_type":[0,0,0,0,0,0,0,0,0,0,0,0,0,0,0,0,0,0,0,0,0,0,0,0,0,0,0,0,0,0,0,0,0,0,0,0,0,0,0,0,0,0,0,0,0,0,0,0,0,0,0,0,0,0,0,0,0,0,0,0,0,0,0,0,0,0,0,0,0,0,0,0,0,0,0,0,0,0,0,0,0,0,0,0,0,0,0,0,0,0,0,0,0,0,0,0,0,0,0],"sum_hessian":[2.295E3,1.0315E3,1.2635E3,4.71E2,5.605E2,5.88E2,6.755E2,3.72E2,9.9E1,4.96E2,6.45E1,5.55E2,3.3E1,2.185E2,4.57E2,3.56E2,1.6E1,1.3E1,8.6E1,7.2E1,4.24E2,4E1,2.45E1,3.115E2,2.435E2,2.6E1,7E0,4.4E1,1.745E2,2.585E2,1.985E2,2.96E2,6E1,5E0,8E0,9E0,7.7E1,5.6E1,1.6E1,3.37E2,8.7E1,2.7E1,1.3E1,9E0,1.55E1,2.905E2,2.1E1,3.35E1,2.1E2,8E0,1.8E1,3.1E1,1.3E1,1.48E2,2.65E1,1.75E2,8.35E1,1.43E2,5.55E1,2.035E2,9.25E1,1.3E1,4.7E1,4.8E1,2.9E1,5.1E1,5E0,2.96E2,4.1E1,3.35E1,5.35E1,2E1,7E0,6.5E0,9E0,2.775E2,1.3E1,1.45E1,6.5E0,1.85E1,1.5E1,1.78E2,3.2E1,6E0,2.5E1,7E0,6E0,1.27E2,2.1E1,1.8E1,8.5E0,7.3E1,1.02E2,2.9E1,5.45E1,1.7E1,1.26E2,5E1,5.5E0],"tree_param":{"num_deleted":"0","num_feature":"404","num_nodes":"99","size_leaf_vector":"1"}},{"base_weights":[-7.725789E-3,4.2071775E-1,-6.504058E-2,-7.383719E-2,5.863488E-1,1.1347821E-1,-1.8296164E-1,-3.8666892E-1,1.8331072E-1,1.0671871E0,3.3703527E-1,4.0512058E-1,-3.490297E-2,-3.0061433E-1,9.120177E-3,-1.3986375E-2,6.7394366E-4,-1.9523138E-1,7.1600807E-1,1.2629433E0,-8.136013E-3,8.093427E-1,1.4755635E-1,5.9791046E-1,-2.1758104E-2,-3.8739797E-1,5.867373E-2,4.9992806E-1,-3.3364448E-1,-2.8192094E-1,1.23304136E-1,-1.0452923E-2,7.4179233E-3,2.8400494E-2,6.9967182E-3,1.0612575E0,7.044611E-2,1.8088947E-3,9.479046E-1,2.951703E-1,-4.3182552E-1,1.2379571E0,4.455956E-1,-2.6258373E-1,8.515973E-1,1.7557709E-2,-4.3879923E-1,3.1777952E-2,4.304373E-2,1.7705564E-1,4.0970854E-2,-4.9948838E-1,-2.1065888E-1,-3.655865E-1,5.6776965E-1,1.7702936E-1,-7.654103E-1,4.180547E-3,3.604705E-2,3.190424E-2,8.095659E-3,1.5028303E-2,-8.469356E-3,7.953922E-3,-2.2483768E-2,4.917605E-2,1.2985069E-2,1.0185346E-2,2.2898195E-2,6.4015375E-3,-1.8943142E-2,7.876171E-3,3.6880825E-2,-3.7869755E-3,-1.716772E-2,4.1966964E-3,-5.3324024E-3,-8.024147E-3,9.461849E-3,-8.784482E-3,-2.0773446E-2,1.5227175E-2,-7.167965E-3,-1.41049605E-2,7.3329746E-3,5.013409E-3,2.4902374E-2,1.5779352E-2,2.4921363E-3,-3.277045E-2,-1.4668518E-3],"categories":[],"categories_nodes":[],"categories_segments":[],"categories_sizes":[],"default_left":[0,0,0,0,0,0,0,0,0,0,0,0,0,0,0,0,0,0,0,0,0,0,0,0,0,0,0,0,0,0,0,0,0,0,0,0,0,0,0,0,0,0,0,0,0,0,0,0,0,0,0,0,0,0,0,0,0,0,0,0,0,0,0,0,0,0,0,0,0,0,0,0,0,0,0,0,0,0,0,0,0,0,0,0,0,0,0,0,0,0,0],"id":12,"left_children":[1,3,5,7,9,11,13,15,17,19,21,23,25,27,29,-1,-1,31,33,35,-1,37,39,41,43,45,47,49,51,53,55,-1,-1,-1,-1,57,-1,-1,59,61,63,65,67,69,71,-1,73,75,-1,77,-1,79,81,83,85,87,89,-1,-1,-1,-1,-1,-1,-1,-1,-1,-1,-1,-1,-1,-1,-1,-1,-1,-1,-1,-1,-1,-1,-1,-1,-1,-1,-1,-1,-1,-1,-1,-1,-1,-1],"loss_changes":[5.56716E1,2.1955189E1,4.2112488E1,5.5410748E0,2.3676155E1,3.4460434E1,2.7223164E1,1.0193362E0,7.8024254E0,1.815834E1,1.1827797E1,2.2109993E1,1.7455471E1,1.9919006E1,1.5271739E1,0E0,0E0,1.6453252E0,1.5610723E0,1.053141E1,0E0,3.886837E0,8.380609E0,1.7483765E1,1.7996195E1,5.8063316E0,1.5443819E1,8.144165E0,1.4539406E1,9.413702E0,1.5891808E1,0E0,0E0,0E0,0E0,6.558937E0,0E0,0E0,2.2206059E0,9.350773E0,4.626237E0,1.0597263E1,4.8296394E0,1.1897459E1,3.793951E0,0E0,4.3495045E0,9.346212E0,0E0,1.4987576E0,0E0,1.1960472E1,8.528276E0,7.6746426E0,1.1224334E0,1.0185726E1,4.397456E0,0E0,0E0,0E0,0E0,0E0,0E0,0E0,0E0,0E0,0E0,0E0,0E0,0E0,0E0,0E0,0E0,0E0,0E0,0E0,0E0,0E0,0E0,0E0,0E0,0E0,0E0,0E0,0E0,0E0,0E0,0E0,0E0,0E0,0E0],"parents":[2147483647,0,0,1,1,2,2,3,3,4,4,5,5,6,6,7,7,8,8,9,9,10,10,11,11,12,12,13,13,14,14,17,17,18,18,19,19,21,21,22,22,23,23,24,24,25,25,26,26,27,27,28,28,29,29,30,30,35,35,38,38,39,39,40,40,41,41,42,42,43,43,44,44,46,46,47,47,49,49,51,51,52,52,53,53,54,54,55,55,56,56],"right_children":[2,4,6,8,10,12,14,16,18,20,22,24,26,28,30,-1,-1,32,34,36,-1,38,40,42,44,46,48,50,52,54,56,-1,-1,-1,-1,58,-1,-1,60,62,64,66,68,70,72,-1,74,76,-1,78,-1,80,82,84,86,88,90,-1,-1,-1,-1,-1,-1,-1,-1,-1,-1,-1,-1,-1,-1,-1,-1,-1,-1,-1,-1,-1,-1,-1,-1,-1,-1,-1,-1,-1,-1,-1,-1,-1,-1],"split_conditions":[-6.335424E-1,2.762226E-1,-2.2948676E-1,-9.6789405E-2,1.719003E-1,-1.3821074E-1,-5.5856593E-3,6.264818E-1,-1.8843834E-1,3.1245375E-1,-1.5285473E-1,3.6798286E-1,-5.1362902E-2,-1.3115995E-2,1.6022593E-2,-1.3986375E-2,6.7394366E-4,-3.4087366E-1,2.7645862E-1,-7.172154E-2,-8.136013E-3,2.6853162E-1,4.6376154E-1,-2.515142E-1,-9.698039E-2,-1.452857E-1,2.0431577E-1,1.7001598E-1,3.767003E-2,3.795644E-1,2.7035362E-1,-1.0452923E-2,7.4179233E-3,2.8400494E-2,6.9967182E-3,-2.2577688E-1,7.044611E-2,1.8088947E-3,-3.4812903E-1,6.4821017E-1,-1.3832761E-1,-1.0297954E-1,-2.2470257E-1,-1.722062E-1,2.3351662E-1,1.7557709E-2,3.4458846E-2,-9.965384E-2,4.304373E-2,2.5679258E-1,4.0970854E-2,3.6350667E-1,-7.3594846E-2,-1.3307301E-2,-1.2496236E-1,2.7207982E-2,-2.2753811E-1,4.180547E-3,3.604705E-2,3.190424E-2,8.095659E-3,1.5028303E-2,-8.469356E-3,7.953922E-3,-2.2483768E-2,4.917605E-2,1.2985069E-2,1.0185346E-2,2.2898195E-2,6.4015375E-3,-1.8943142E-2,7.876171E-3,3.6880825E-2,-3.7869755E-3,-1.716772E-2,4.1966964E-3,-5.3324024E-3,-8.024147E-3,9.461849E-3,-8.784482E-3,-2.0773446E-2,1.5227175E-2,-7.167965E-3,-1.41049605E-2,7.3329746E-3,5.013409E-3,2.4902374E-2,1.5779352E-2,2.4921363E-3,-3.277045E-2,-1.4668518E-3],"split_indices":[76,257,293,128,383,208,33,360,263,166,270,225,73,183,9,0,0,26,148,55,0,295,23,141,31,52,67,207,156,61,324,0,0,0,0,338,0,0,267,126,55,128,259,28,372,0,358,139,0,144,0,298,271,72,381,138,123,0,0,0,0,0,0,0,0,0,0,0,0,0,0,0,0,0,0,0,0,0,0,0,0,0,0,0,0,0,0,0,0,0,0],"split_type":[0,0,0,0,0,0,0,0,0,0,0,0,0,0,0,0,0,0,0,0,0,0,0,0,0,0,0,0,0,0,0,0,0,0,0,0,0,0,0,0,0,0,0,0,0,0,0,0,0,0,0,0,0,0,0,0,0,0,0,0,0,0,0,0,0,0,0,0,0,0,0,0,0,0,0,0,0,0,0,0,0,0,0,0,0,0,0,0,0,0,0],"sum_hessian":[2.265E3,2.665E2,1.9985E3,6.7E1,1.995E2,7.95E2,1.2035E3,3E1,3.7E1,6.7E1,1.325E2,2.675E2,5.275E2,7.46E2,4.575E2,2.5E1,5E0,2.2E1,1.5E1,5.85E1,8.5E0,3.7E1,9.55E1,1.84E2,8.35E1,1.1E2,4.175E2,2.9E1,7.17E2,1.285E2,3.29E2,1.65E1,5.5E0,9.5E0,5.5E0,5.1E1,7.5E0,6E0,3.1E1,7.65E1,1.9E1,3.4E1,1.5E2,6.6E1,1.75E1,5E0,1.05E2,4.105E2,7E0,2.2E1,7E0,3.04E2,4.13E2,1.175E2,1.1E1,3.11E2,1.8E1,7E0,4.4E1,2.6E1,5E0,5.65E1,2E1,6E0,1.3E1,2.2E1,1.2E1,1.14E2,3.6E1,2.9E1,3.7E1,7.5E0,1E1,3.2E1,7.3E1,2.71E2,1.395E2,5E0,1.7E1,1.48E2,1.56E2,1.5E1,3.98E2,1.005E2,1.7E1,5E0,6E0,6.5E1,2.46E2,1.2E1,6E0],"tree_param":{"num_deleted":"0","num_feature":"404","num_nodes":"91","size_leaf_vector":"1"}},{"base_weights":[-3.0379617E-3,1.687113E-1,-1.3256568E-1,-2.7277574E-2,3.266116E-1,3.686172E-1,-1.9096544E-1,1.8873212E-1,-1.1689959E-1,5.0679183E-1,5.5452757E-2,6.174624E-1,-1.9413626E-1,9.400778E-2,-2.5608087E-1,5.2232787E-2,4.9150953E-1,-1.6008975E-1,3.9905474E-1,-1.9266948E-1,5.9535474E-1,2.0069191E-1,-5.234398E-1,7.006308E-1,-1.0769354E-2,-3.4308425E-1,1.7988471E-2,-5.2669708E-2,5.015115E-1,-4.554964E-1,-1.470963E-1,1.94831E-1,-3.2061186E-1,6.197042E-1,-7.639919E-3,2.3175791E-1,-2.0385338E-1,-2.3834459E-3,2.074359E-2,2.0437413E-1,-1.1055301E-2,9.5999616E-1,4.2208922E-1,-2.0275254E-2,2.881846E-1,-2.792042E-2,-8.2522315E-1,-3.927372E-3,7.6423544E-1,-6.413238E-4,-1.4241403E-2,3.139446E-2,-1.1783326E-1,3.589211E-2,3.4629413E-1,-3.3690488E-1,-7.3401594E-1,6.977243E-1,-1.8000376E-1,-2.427978E-4,1.3410482E-2,7.530703E-3,-1.4282156E-2,3.653773E-2,1.384572E-2,3.427358E-2,-1.6717098E-4,1.0115549E-2,-6.9204024E-3,-9.812872E-3,1.8921701E-2,3.4577154E-2,1.0090319E-2,8.498493E-3,2.1525616E-2,-1.0777678E-3,1.6695183E-2,-1.668029E-2,1.13127725E-2,-2.8549692E-2,-6.722916E-3,3.1113831E-2,1.6584383E-2,-2.8324904E-4,-2.2589194E-2,-1.1318524E-2,1.3176155E-2,-1.6840456E-2,-3.1125674E-3,-1.3292306E-3,-2.3597505E-2,6.3612047E-3,5.3327035E-2,-8.18287E-3,3.8677077E-3],"categories":[],"categories_nodes":[],"categories_segments":[],"categories_sizes":[],"default_left":[0,0,0,0,0,0,0,0,0,0,0,0,0,0,0,0,0,0,0,0,0,0,0,0,0,0,0,0,0,0,0,0,0,0,0,0,0,0,0,0,0,0,0,0,0,0,0,0,0,0,0,0,0,0,0,0,0,0,0,0,0,0,0,0,0,0,0,0,0,0,0,0,0,0,0,0,0,0,0,0,0,0,0,0,0,0,0,0,0,0,0,0,0,0,0],"id":13,"left_children":[1,3,5,7,9,11,13,15,17,19,21,23,25,27,29,31,33,35,37,39,41,43,45,47,-1,49,-1,51,53,55,57,59,61,63,-1,65,67,-1,-1,69,-1,71,73,-1,75,77,79,-1,81,-1,-1,-1,83,-1,85,87,89,91,93,-1,-1,-1,-1,-1,-1,-1,-1,-1,-1,-1,-1,-1,-1,-1,-1,-1,-1,-1,-1,-1,-1,-1,-1,-1,-1,-1,-1,-1,-1,-1,-1,-1,-1,-1,-1],"loss_changes":[5.01655E1,3.001174E1,3.769565E1,8.414286E0,2.6208351E1,1.8955051E1,2.140076E1,5.243764E0,6.905117E0,2.0092407E1,1.822383E1,7.844555E0,5.1712847E0,1.2877314E1,2.0318756E1,4.7943263E0,3.9362059E0,4.91747E0,3.4128578E0,2.6585197E0,1.76958E1,1.346219E1,6.481928E0,4.6750298E0,0E0,1.514308E0,0E0,1.1511625E1,5.733675E0,1.0685661E1,1.7028542E1,3.3299582E0,2.3411658E0,2.655202E0,0E0,6.274294E0,3.793435E0,0E0,0E0,2.9254086E0,0E0,1.0601509E1,7.834244E0,0E0,1.3760577E1,3.9526184E0,1.8387985E0,0E0,4.0711555E0,0E0,0E0,0E0,1.0388311E1,0E0,3.3926692E0,1.2186893E1,3.5182648E0,1.1685733E1,1.6827389E1,0E0,0E0,0E0,0E0,0E0,0E0,0E0,0E0,0E0,0E0,0E0,0E0,0E0,0E0,0E0,0E0,0E0,0E0,0E0,0E0,0E0,0E0,0E0,0E0,0E0,0E0,0E0,0E0,0E0,0E0,0E0,0E0,0E0,0E0,0E0,0E0],"parents":[2147483647,0,0,1,1,2,2,3,3,4,4,5,5,6,6,7,7,8,8,9,9,10,10,11,11,12,12,13,13,14,14,15,15,16,16,17,17,18,18,19,19,20,20,21,21,22,22,23,23,25,25,27,27,28,28,29,29,30,30,31,31,32,32,33,33,35,35,36,36,39,39,41,41,42,42,44,44,45,45,46,46,48,48,52,52,54,54,55,55,56,56,57,57,58,58],"right_children":[2,4,6,8,10,12,14,16,18,20,22,24,26,28,30,32,34,36,38,40,42,44,46,48,-1,50,-1,52,54,56,58,60,62,64,-1,66,68,-1,-1,70,-1,72,74,-1,76,78,80,-1,82,-1,-1,-1,84,-1,86,88,90,92,94,-1,-1,-1,-1,-1,-1,-1,-1,-1,-1,-1,-1,-1,-1,-1,-1,-1,-1,-1,-1,-1,-1,-1,-1,-1,-1,-1,-1,-1,-1,-1,-1,-1,-1,-1,-1],"split_conditions":[-2.2610268E-1,2.664243E-1,-2.2074051E-1,-4.065963E-1,3.6798286E-1,-2.2889246E-1,2.2962722E-1,-1.1684623E-1,2.5194228E-1,-1.1992053E0,-3.941046E-1,-1.3440265E-1,4.5835352E-1,-1.4063148E-1,3.1702608E-2,-1.7746231E-1,2.5067213E-1,-2.462216E-1,5.591023E-2,-8.1721306E-1,1.9308423E-1,-4.4577533E-1,1.01235084E-1,-6.369664E-2,-1.0769354E-2,6.5321326E-3,1.7988471E-2,-3.474666E-1,-3.1517553E-1,3.1163964E-1,-4.3235135E-1,-2.230543E-1,5.3822547E-3,-1.4256437E-1,-7.639919E-3,2.3074275E-1,-1.4925086E-1,-2.3834459E-3,2.074359E-2,-7.114914E-2,-1.1055301E-2,1.8743376E-1,-5.460936E-2,-2.0275254E-2,-1.5308627E-1,-4.4602454E-2,4.552445E-1,-3.927372E-3,-4.587082E-2,-6.413238E-4,-1.4241403E-2,3.139446E-2,6.505828E-1,3.589211E-2,-1.4700222E-1,5.9824932E-2,-7.6450326E-2,5.035016E-1,-1.0850783E-1,-2.427978E-4,1.3410482E-2,7.530703E-3,-1.4282156E-2,3.653773E-2,1.384572E-2,3.427358E-2,-1.6717098E-4,1.0115549E-2,-6.9204024E-3,-9.812872E-3,1.8921701E-2,3.4577154E-2,1.0090319E-2,8.498493E-3,2.1525616E-2,-1.0777678E-3,1.6695183E-2,-1.668029E-2,1.13127725E-2,-2.8549692E-2,-6.722916E-3,3.1113831E-2,1.6584383E-2,-2.8324904E-4,-2.2589194E-2,-1.1318524E-2,1.3176155E-2,-1.6840456E-2,-3.1125674E-3,-1.3292306E-3,-2.3597505E-2,6.3612047E-3,5.3327035E-2,-8.18287E-3,3.8677077E-3],"split_indices":[293,350,67,39,225,6,190,348,325,390,39,62,350,161,156,348,102,235,55,294,25,51,383,323,0,94,0,198,211,234,181,194,149,344,0,86,178,0,0,357,0,329,266,0,274,188,225,0,159,0,0,0,0,0,82,317,324,318,164,0,0,0,0,0,0,0,0,0,0,0,0,0,0,0,0,0,0,0,0,0,0,0,0,0,0,0,0,0,0,0,0,0,0,0,0],"split_type":[0,0,0,0,0,0,0,0,0,0,0,0,0,0,0,0,0,0,0,0,0,0,0,0,0,0,0,0,0,0,0,0,0,0,0,0,0,0,0,0,0,0,0,0,0,0,0,0,0,0,0,0,0,0,0,0,0,0,0,0,0,0,0,0,0,0,0,0,0,0,0,0,0,0,0,0,0,0,0,0,0,0,0,0,0,0,0,0,0,0,0,0,0,0,0],"sum_hessian":[2.253E3,9.685E2,1.2845E3,4.325E2,5.36E2,1.335E2,1.151E3,1.265E2,3.06E2,3.215E2,2.145E2,9.25E1,4.1E1,2.14E2,9.37E2,8.8E1,3.85E1,2.83E2,2.3E1,3.6E1,2.855E2,1.72E2,4.25E1,8.55E1,7E0,3.5E1,6E0,1.58E2,5.6E1,3.3E2,6.07E2,6.4E1,2.4E1,3.3E1,5.5E0,2.8E1,2.55E2,9E0,1.4E1,1.1E1,2.5E1,9.05E1,1.95E2,1.5E1,1.57E2,1.65E1,2.6E1,6E0,7.95E1,1.05E1,2.45E1,8E0,1.5E2,9E0,4.7E1,2.33E2,9.7E1,2.2E1,5.85E2,3.6E1,2.8E1,5E0,1.9E1,5.5E0,2.75E1,5E0,2.3E1,1.15E1,2.435E2,5E0,6E0,6.85E1,2.2E1,1.34E2,6.1E1,7.15E1,8.55E1,7E0,9.5E0,2.1E1,5E0,3.3E1,4.65E1,1.29E2,2.1E1,5E0,4.2E1,1.18E2,1.15E2,7E0,9E1,1.6E1,6E0,4.5E2,1.35E2],"tree_param":{"num_deleted":"0","num_feature":"404","num_nodes":"95","size_leaf_vector":"1"}},{"base_weights":[-5.0115297E-3,3.8521934E-1,-5.3631455E-2,-8.7585166E-2,5.564618E-1,7.681612E-2,-1.5605824E-1,2.1923535E-2,-1.7856908E-1,9.9798816E-1,3.3211568E-1,-1.7137834E-1,3.1556857E-1,-4.58907E-1,-7.545078E-2,-2.746843E-1,1.5136328E-2,1.1839846E0,-6.866332E-3,-9.3252085E-2,4.9295276E-1,-4.468057E-1,-5.6841172E-2,3.9605337E-1,-6.0439646E-1,-7.70363E-2,-6.252238E-1,3.454951E-1,-1.3434623E-1,6.481948E-3,-1.0007308E-2,1.4130026E0,3.530045E-1,-3.891422E-1,1.902658E-2,8.0869627E-1,2.1509057E-1,-3.340321E-1,-2.2891302E-2,-1.0077264E-1,1.148454E0,3.5049438E-1,1.5216645E0,-7.557786E-1,9.111238E-3,9.641323E-2,-6.591723E-1,-7.134703E-1,-4.554043E-2,7.0946217E-1,-1.0909428E-1,-4.596795E-1,-8.451898E-2,6.00154E-2,3.3776745E-2,1.9259566E-2,-2.734131E-3,-1.8921074E-2,5.0453558E-3,3.2059944E-3,2.9905979E-2,-7.4098087E-3,1.2128355E-2,7.867357E-3,-1.1726882E-2,8.942055E-3,-5.2768597E-3,1.8635865E-2,4.45291E-2,6.8607875E-3,2.009838E-2,2.3124004E-2,5.378681E-2,-2.9259622E-2,-9.257952E-3,4.9887523E-3,-1.593278E-2,-2.5249757E-2,-5.530129E-3,-6.5668663E-3,-2.3606835E-2,-1.785823E-2,1.5239655E-2,1.2711608E-2,3.249938E-2,-9.316417E-3,2.9620571E-2,1.1530205E-2,-1.7199868E-2,3.682171E-4,-8.20705E-3],"categories":[],"categories_nodes":[],"categories_segments":[],"categories_sizes":[],"default_left":[0,0,0,0,0,0,0,0,0,0,0,0,0,0,0,0,0,0,0,0,0,0,0,0,0,0,0,0,0,0,0,0,0,0,0,0,0,0,0,0,0,0,0,0,0,0,0,0,0,0,0,0,0,0,0,0,0,0,0,0,0,0,0,0,0,0,0,0,0,0,0,0,0,0,0,0,0,0,0,0,0,0,0,0,0,0,0,0,0,0,0],"id":14,"left_children":[1,3,5,7,9,11,13,-1,15,17,19,21,23,25,27,29,-1,31,-1,33,35,37,39,41,43,45,47,49,51,-1,-1,53,55,57,-1,59,61,63,-1,65,67,69,71,73,-1,75,77,79,81,83,85,87,89,-1,-1,-1,-1,-1,-1,-1,-1,-1,-1,-1,-1,-1,-1,-1,-1,-1,-1,-1,-1,-1,-1,-1,-1,-1,-1,-1,-1,-1,-1,-1,-1,-1,-1,-1,-1,-1,-1],"loss_changes":[4.3241142E1,2.0492207E1,2.708871E1,5.193671E0,1.8043205E1,5.2911358E1,2.7685053E1,0E0,4.2093616E0,1.441893E1,8.563624E0,1.3792043E1,3.392903E1,1.5099331E1,2.2309454E1,1.6616578E0,0E0,9.777916E0,0E0,7.7806063E0,7.765909E0,4.3278484E0,1.6556826E1,2.095369E1,5.315955E0,7.4849377E0,8.459244E0,1.8360235E1,1.2743099E1,0E0,0E0,4.8322372E0,1.7270418E0,3.5390463E0,0E0,5.4401207E0,4.427182E0,3.374508E0,0E0,9.056015E0,1.0258312E0,1.5566299E1,1.8765411E0,2.8406143E0,0E0,2.609644E0,1.3179145E0,5.0569305E0,7.301145E0,6.1107063E0,1.1350742E1,1.0244244E1,1.253792E1,0E0,0E0,0E0,0E0,0E0,0E0,0E0,0E0,0E0,0E0,0E0,0E0,0E0,0E0,0E0,0E0,0E0,0E0,0E0,0E0,0E0,0E0,0E0,0E0,0E0,0E0,0E0,0E0,0E0,0E0,0E0,0E0,0E0,0E0,0E0,0E0,0E0,0E0],"parents":[2147483647,0,0,1,1,2,2,3,3,4,4,5,5,6,6,8,8,9,9,10,10,11,11,12,12,13,13,14,14,15,15,17,17,19,19,20,20,21,21,22,22,23,23,24,24,25,25,26,26,27,27,28,28,31,31,32,32,33,33,35,35,36,36,37,37,39,39,40,40,41,41,42,42,43,43,45,45,46,46,47,47,48,48,49,49,50,50,51,51,52,52],"right_children":[2,4,6,8,10,12,14,-1,16,18,20,22,24,26,28,30,-1,32,-1,34,36,38,40,42,44,46,48,50,52,-1,-1,54,56,58,-1,60,62,64,-1,66,68,70,72,74,-1,76,78,80,82,84,86,88,90,-1,-1,-1,-1,-1,-1,-1,-1,-1,-1,-1,-1,-1,-1,-1,-1,-1,-1,-1,-1,-1,-1,-1,-1,-1,-1,-1,-1,-1,-1,-1,-1,-1,-1,-1,-1,-1,-1],"split_conditions":[-6.335424E-1,2.7788246E-1,-1.2053673E-1,1.0772892E-1,1.7323592E-1,6.701495E-2,-2.9896665E-1,2.1923535E-2,9.240455E-1,3.0245686E-1,9.0685524E-2,-1.1966707E-1,2.0460233E-2,1.4884779E-1,-4.926703E-1,-1.1045194E-1,1.5136328E-2,5.847117E-1,-6.866332E-3,2.7050638E-1,2.8925675E-1,-2.078551E-2,-1.907281E-1,1.2258783E-1,-2.4235275E-1,1.7712249E-1,3.8523918E-1,-3.8800716E-1,-6.8210594E-2,6.481948E-3,-1.0007308E-2,3.923932E-1,-7.879542E-2,7.033625E-2,1.902658E-2,-1.886643E-1,4.1853148E-1,-3.639234E-1,-2.2891302E-2,-3.0839556E-1,-7.4069485E-2,5.5868633E-2,4.9666855E-1,-1.6446778E-1,9.111238E-3,1.2125588E-1,3.6069435E-1,2.3281017E-1,-3.359356E-1,1.2652144E-1,-2.4958822E-1,-2.0353729E-1,-1.7283213E-1,6.00154E-2,3.3776745E-2,1.9259566E-2,-2.734131E-3,-1.8921074E-2,5.0453558E-3,3.2059944E-3,2.9905979E-2,-7.4098087E-3,1.2128355E-2,7.867357E-3,-1.1726882E-2,8.942055E-3,-5.2768597E-3,1.8635865E-2,4.45291E-2,6.8607875E-3,2.009838E-2,2.3124004E-2,5.378681E-2,-2.9259622E-2,-9.257952E-3,4.9887523E-3,-1.593278E-2,-2.5249757E-2,-5.530129E-3,-6.5668663E-3,-2.3606835E-2,-1.785823E-2,1.5239655E-2,1.2711608E-2,3.249938E-2,-9.316417E-3,2.9620571E-2,1.1530205E-2,-1.7199868E-2,3.682171E-4,-8.20705E-3],"split_indices":[76,257,274,177,383,269,35,0,12,166,166,284,189,144,112,225,0,183,0,154,285,178,239,73,313,150,351,282,56,0,0,322,276,78,0,31,393,125,0,10,12,45,117,233,0,31,380,154,163,241,313,310,141,0,0,0,0,0,0,0,0,0,0,0,0,0,0,0,0,0,0,0,0,0,0,0,0,0,0,0,0,0,0,0,0,0,0,0,0,0,0],"split_type":[0,0,0,0,0,0,0,0,0,0,0,0,0,0,0,0,0,0,0,0,0,0,0,0,0,0,0,0,0,0,0,0,0,0,0,0,0,0,0,0,0,0,0,0,0,0,0,0,0,0,0,0,0,0,0,0,0,0,0,0,0,0,0,0,0,0,0,0,0,0,0,0,0,0,0,0,0,0,0,0,0,0,0,0,0,0,0,0,0,0,0],"sum_hessian":[2.277E3,2.515E2,2.0255E3,6.7E1,1.845E2,8.91E2,1.1345E3,6E0,6.1E1,6.1E1,1.235E2,4.37E2,4.54E2,2.375E2,8.97E2,5.4E1,7E0,5.3E1,8E0,3.4E1,8.95E1,1.275E2,3.095E2,4.18E2,3.6E1,7.25E1,1.65E2,1.095E2,7.875E2,5.5E0,4.85E1,4.1E1,1.2E1,2.45E1,9.5E0,4.1E1,4.85E1,9.55E1,3.2E1,2.995E2,1E1,4.03E2,1.5E1,3.1E1,5E0,5.65E1,1.6E1,1.43E2,2.2E1,6.05E1,4.9E1,1.035E2,6.84E2,1.15E1,2.95E1,7E0,5E0,1.7E1,7.5E0,9E0,3.2E1,1.4E1,3.45E1,8E0,8.75E1,4.7E1,2.525E2,5E0,5E0,2.93E2,1.1E2,5E0,1E1,2E1,1.1E1,5.15E1,5E0,1.1E1,5E0,1.9E1,1.24E2,1.1E1,1.1E1,3.55E1,2.5E1,4.2E1,7E0,1.2E1,9.15E1,4.53E2,2.31E2],"tree_param":{"num_deleted":"0","num_feature":"404","num_nodes":"91","size_leaf_vector":"1"}},{"base_weights":[5.7658805E-3,3.811463E-1,-4.485964E-2,-2.5605291E-2,5.4186696E-1,7.834074E-2,-1.4005738E-1,3.6951703E-1,-1.192756E-1,1.0886568E0,2.950322E-1,3.068682E-1,-4.12631E-2,5.447323E-2,-2.614366E-1,-4.9881416E-4,2.8545134E-2,-1.8863507E-1,1.3876437E-2,8.828083E-1,6.4368166E-2,5.013002E-1,-8.497511E-2,5.7636297E-1,5.700047E-2,3.833586E-1,-1.2788846E-1,2.9593503E-1,-2.1369107E-1,-1.2691012E-1,-4.0608558E-1,6.575471E-3,-2.748129E-1,1.0100918E0,-7.523202E-3,3.441754E-1,1.0455272E0,-2.4834368E-1,2.7221268E-2,4.230447E-1,1.2222345E0,1.8073006E-1,-6.310427E-1,7.328862E-1,-2.0325066E-1,-5.2856817E-3,-3.8838455E-1,-4.8279002E-2,5.008754E-1,-3.0567003E-2,-6.1353487E-1,1.59716E-2,-1.7348641E-1,-6.628698E-2,-4.9791542E-1,-1.0511579E-2,5.248847E-3,1.1788423E-2,3.5052206E-2,1.2943344E-2,-8.566775E-3,1.1582684E-2,3.9605517E-2,1.5327526E-2,-1.45800635E-2,2.3211237E-2,8.652867E-3,4.1781455E-2,1.9297602E-2,7.478085E-3,-2.3738632E-2,-2.6048655E-2,2.0750056E-3,3.286963E-2,7.0646172E-3,1.8829923E-2,-2.0384464E-2,-6.748952E-3,6.1161085E-3,9.1756956E-4,-1.5849287E-2,4.6209246E-3,-1.8782644E-2,1.7605962E-2,-6.550488E-3,2.6549496E-2,-2.3239846E-3,9.238448E-3,-2.13993E-2,-1.8105832E-3,-1.3583475E-2,4.810839E-3,-1.040058E-2,-2.1404913E-2,-9.571279E-3],"categories":[],"categories_nodes":[],"categories_segments":[],"categories_sizes":[],"default_left":[0,0,0,0,0,0,0,0,0,0,0,0,0,0,0,0,0,0,0,0,0,0,0,0,0,0,0,0,0,0,0,0,0,0,0,0,0,0,0,0,0,0,0,0,0,0,0,0,0,0,0,0,0,0,0,0,0,0,0,0,0,0,0,0,0,0,0,0,0,0,0,0,0,0,0,0,0,0,0,0,0,0,0,0,0,0,0,0,0,0,0,0,0,0,0],"id":15,"left_children":[1,3,5,7,9,11,13,15,17,19,21,23,25,27,29,-1,-1,31,-1,33,-1,35,37,39,41,43,45,47,49,51,53,-1,55,57,-1,59,61,63,-1,65,67,69,71,73,75,77,79,81,83,85,87,-1,89,91,93,-1,-1,-1,-1,-1,-1,-1,-1,-1,-1,-1,-1,-1,-1,-1,-1,-1,-1,-1,-1,-1,-1,-1,-1,-1,-1,-1,-1,-1,-1,-1,-1,-1,-1,-1,-1,-1,-1,-1,-1],"loss_changes":[4.293725E1,1.7566628E1,2.3362213E1,2.8939393E0,2.5659912E1,2.3751165E1,2.65423E1,3.3867872E0,2.6296153E0,1.1051323E1,1.0545969E1,2.0067553E1,2.105212E1,2.8068233E1,1.3414177E1,0E0,0E0,2.0634894E0,0E0,7.684044E0,0E0,7.0796623E0,8.00705E0,1.3692867E1,1.3394532E1,2.0037464E1,1.5168282E1,1.6108065E1,1.5028169E1,1.1147098E1,1.0357803E1,0E0,1.6758687E0,4.0840797E0,0E0,3.915207E0,2.931551E0,7.8269897E0,0E0,5.323406E0,1.7691727E0,9.057911E0,4.046979E0,1.0748856E1,1.5067676E1,1.4932773E1,8.927069E0,1.0149533E1,8.972145E0,6.1658278E0,6.1498623E0,0E0,1.0621128E1,4.631336E0,9.875534E0,0E0,0E0,0E0,0E0,0E0,0E0,0E0,0E0,0E0,0E0,0E0,0E0,0E0,0E0,0E0,0E0,0E0,0E0,0E0,0E0,0E0,0E0,0E0,0E0,0E0,0E0,0E0,0E0,0E0,0E0,0E0,0E0,0E0,0E0,0E0,0E0,0E0,0E0,0E0,0E0],"parents":[2147483647,0,0,1,1,2,2,3,3,4,4,5,5,6,6,7,7,8,8,9,9,10,10,11,11,12,12,13,13,14,14,17,17,19,19,21,21,22,22,23,23,24,24,25,25,26,26,27,27,28,28,29,29,30,30,32,32,33,33,35,35,36,36,37,37,39,39,40,40,41,41,42,42,43,43,44,44,45,45,46,46,47,47,48,48,49,49,50,50,52,52,53,53,54,54],"right_children":[2,4,6,8,10,12,14,16,18,20,22,24,26,28,30,-1,-1,32,-1,34,-1,36,38,40,42,44,46,48,50,52,54,-1,56,58,-1,60,62,64,-1,66,68,70,72,74,76,78,80,82,84,86,88,-1,90,92,94,-1,-1,-1,-1,-1,-1,-1,-1,-1,-1,-1,-1,-1,-1,-1,-1,-1,-1,-1,-1,-1,-1,-1,-1,-1,-1,-1,-1,-1,-1,-1,-1,-1,-1,-1,-1,-1,-1,-1,-1],"split_conditions":[-6.335424E-1,-1.1992053E0,-2.5878006E-1,8.075043E-1,5.7973333E-2,2.3376156E-1,-3.7441468E-1,-3.6018264E-1,9.240455E-1,-6.841414E-2,-4.8099867E-1,-3.0332792E-1,-4.9099594E-1,8.133443E-2,1.6019475E-1,-4.9881416E-4,2.8545134E-2,-5.170338E-1,1.3876437E-2,1.375412E-1,6.4368166E-2,6.0338056E-1,4.0609723E-1,9.023471E-2,2.7207118E-1,-3.9072865E-1,2.4678054E-1,4.4739418E-2,1.75453E-1,-3.423765E-1,4.3767832E-2,6.575471E-3,9.937798E-1,-1.1743674E-1,-7.523202E-3,5.774837E-1,3.4244126E-1,-2.7235547E-1,2.7221268E-2,1.8407801E-1,1.6433564E-1,4.0797877E-1,1.7255917E-1,1.032952E-1,5.56043E-1,4.893089E-1,4.0485173E-1,-7.524377E-2,7.143496E-2,1.4084447E-2,-4.2580435E-1,1.59716E-2,-5.5011015E-2,2.8318363E-1,1.00645535E-1,-1.0511579E-2,5.248847E-3,1.1788423E-2,3.5052206E-2,1.2943344E-2,-8.566775E-3,1.1582684E-2,3.9605517E-2,1.5327526E-2,-1.45800635E-2,2.3211237E-2,8.652867E-3,4.1781455E-2,1.9297602E-2,7.478085E-3,-2.3738632E-2,-2.6048655E-2,2.0750056E-3,3.286963E-2,7.0646172E-3,1.8829923E-2,-2.0384464E-2,-6.748952E-3,6.1161085E-3,9.1756956E-4,-1.5849287E-2,4.6209246E-3,-1.8782644E-2,1.7605962E-2,-6.550488E-3,2.6549496E-2,-2.3239846E-3,9.238448E-3,-2.13993E-2,-1.8105832E-3,-1.3583475E-2,4.810839E-3,-1.040058E-2,-2.1404913E-2,-9.571279E-3],"split_indices":[76,390,331,156,13,37,39,24,12,55,330,333,112,358,165,0,0,112,0,334,0,7,197,45,254,282,25,377,154,355,61,0,218,137,0,138,126,276,0,238,348,349,156,221,322,219,374,2,119,314,355,0,128,238,314,0,0,0,0,0,0,0,0,0,0,0,0,0,0,0,0,0,0,0,0,0,0,0,0,0,0,0,0,0,0,0,0,0,0,0,0,0,0,0,0],"split_type":[0,0,0,0,0,0,0,0,0,0,0,0,0,0,0,0,0,0,0,0,0,0,0,0,0,0,0,0,0,0,0,0,0,0,0,0,0,0,0,0,0,0,0,0,0,0,0,0,0,0,0,0,0,0,0,0,0,0,0,0,0,0,0,0,0,0,0,0,0,0,0,0,0,0,0,0,0,0,0,0,0,0,0,0,0,0,0,0,0,0,0,0,0,0,0],"sum_hessian":[2.2575E3,2.675E2,1.99E3,7.6E1,1.915E2,8.675E2,1.1225E3,1.4E1,6.2E1,5.85E1,1.33E2,2.975E2,5.7E2,4.315E2,6.91E2,9E0,5E0,5.6E1,6E0,5.05E1,8E0,8.6E1,4.7E1,1.425E2,1.55E2,9.6E1,4.74E2,2.27E2,2.045E2,3.59E2,3.32E2,9.5E0,4.65E1,4.55E1,5E0,6.8E1,1.8E1,4.1E1,6E0,1.165E2,2.6E1,1.32E2,2.3E1,6E1,3.6E1,3.23E2,1.51E2,8.5E1,1.42E2,1.41E2,6.35E1,2.3E1,3.36E2,7.1E1,2.61E2,4E1,6.5E0,1E1,3.55E1,6E1,8E0,6E0,1.2E1,9.5E0,3.15E1,3.1E1,8.55E1,1.9E1,7E0,1.24E2,8E0,1.7E1,6E0,3.4E1,2.6E1,1.3E1,2.3E1,1.575E2,1.655E2,3.8E1,1.13E2,6.35E1,2.15E1,1.27E2,1.5E1,6E0,1.35E2,6E0,5.75E1,2.4E2,9.6E1,3.95E1,3.15E1,1.17E2,1.44E2],"tree_param":{"num_deleted":"0","num_feature":"404","num_nodes":"95","size_leaf_vector":"1"}},{"base_weights":[-2.5271117E-3,3.7324128E-1,-5.1998332E-2,-5.1818687E-2,5.5213255E-1,7.772583E-2,-1.4982136E-1,-2.5570998E-1,3.578831E-1,1.5098545E-1,7.4596304E-1,3.887518E-1,-1.01787746E-1,8.224331E-2,-2.3659877E-1,-1.20253E-1,-2.3228744E-2,-5.746917E-3,1.6243277E-2,8.062209E-1,-5.4777775E-2,-1.907257E-1,8.7848014E-1,-2.4588723E-1,4.8437557E-1,8.737126E-2,-2.3583817E-1,-6.999556E-1,1.4904512E-1,5.0543964E-1,-2.5342175E-1,1.7617388E-2,-2.2601563E-1,4.7774534E-3,3.6595244E-2,-1.8929212E-1,1.9495877E-2,-1.28729865E-2,3.4855192E-3,1.8341838E0,7.4958795E-1,-1.7962364E-2,3.186205E-1,4.2177647E-1,1.4206452E0,6.0576975E-1,6.784105E-3,-1.1092646E-1,-5.3643095E-1,-1.215769E-1,-3.4371357E-2,8.347533E-2,9.484807E-1,2.7999314E-2,-8.2521085E-3,-4.4027853E-1,-1.7945038E-1,5.466391E-3,-1.0372754E-2,1.1323377E-2,-1.073546E-2,7.239217E-2,2.7857494E-2,1.4214344E-2,3.0233717E-2,-5.0752467E-5,2.03755E-2,1.0207712E-2,2.5971077E-2,5.1968902E-2,2.1838732E-2,2.642029E-2,1.8912986E-3,8.639195E-3,-5.5866744E-3,5.530384E-3,-6.620004E-3,-7.86644E-3,-2.1681616E-2,-1.5851405E-2,9.117914E-3,-1.546704E-2,4.980355E-3,5.11008E-4,3.6643013E-2,5.4536983E-3,-1.5888028E-2,-1.9483566E-2,-4.3538804E-3],"categories":[],"categories_nodes":[],"categories_segments":[],"categories_sizes":[],"default_left":[0,0,0,0,0,0,0,0,0,0,0,0,0,0,0,0,0,0,0,0,0,0,0,0,0,0,0,0,0,0,0,0,0,0,0,0,0,0,0,0,0,0,0,0,0,0,0,0,0,0,0,0,0,0,0,0,0,0,0,0,0,0,0,0,0,0,0,0,0,0,0,0,0,0,0,0,0,0,0,0,0,0,0,0,0,0,0,0,0],"id":16,"left_children":[1,3,5,7,9,11,13,15,17,19,21,23,25,27,29,31,-1,-1,-1,33,35,37,39,41,43,45,47,49,51,53,55,-1,57,-1,-1,59,-1,-1,-1,61,63,-1,65,67,69,71,73,75,77,79,-1,81,83,-1,-1,85,87,-1,-1,-1,-1,-1,-1,-1,-1,-1,-1,-1,-1,-1,-1,-1,-1,-1,-1,-1,-1,-1,-1,-1,-1,-1,-1,-1,-1,-1,-1,-1,-1],"loss_changes":[4.266423E1,2.0331158E1,2.5746986E1,6.774284E0,1.450523E1,4.8754196E1,2.3309021E1,3.7001455E0,2.8268387E0,8.470623E0,1.5869652E1,1.9508465E1,1.4068298E1,1.6589928E1,1.0639023E1,3.4251146E0,0E0,0E0,0E0,3.8197594E0,4.7200494E0,1.2569821E0,1.2298401E1,8.656401E0,1.5694283E1,9.625319E0,1.2124678E1,6.3061075E0,1.5200914E1,6.601916E0,1.131036E1,0E0,1.9694177E0,0E0,0E0,4.099456E0,0E0,0E0,0E0,4.3122864E0,6.6075172E0,0E0,1.9645246E0,9.186848E0,2.4088707E0,4.5696487E0,1.093503E1,7.5096436E0,4.663437E0,2.2377641E0,0E0,1.3459908E1,5.572506E0,0E0,0E0,1.3042847E1,9.455261E0,0E0,0E0,0E0,0E0,0E0,0E0,0E0,0E0,0E0,0E0,0E0,0E0,0E0,0E0,0E0,0E0,0E0,0E0,0E0,0E0,0E0,0E0,0E0,0E0,0E0,0E0,0E0,0E0,0E0,0E0,0E0,0E0],"parents":[2147483647,0,0,1,1,2,2,3,3,4,4,5,5,6,6,7,7,8,8,9,9,10,10,11,11,12,12,13,13,14,14,15,15,19,19,20,20,21,21,22,22,23,23,24,24,25,25,26,26,27,27,28,28,29,29,30,30,32,32,35,35,39,39,40,40,42,42,43,43,44,44,45,45,46,46,47,47,48,48,49,49,51,51,52,52,55,55,56,56],"right_children":[2,4,6,8,10,12,14,16,18,20,22,24,26,28,30,32,-1,-1,-1,34,36,38,40,42,44,46,48,50,52,54,56,-1,58,-1,-1,60,-1,-1,-1,62,64,-1,66,68,70,72,74,76,78,80,-1,82,84,-1,-1,86,88,-1,-1,-1,-1,-1,-1,-1,-1,-1,-1,-1,-1,-1,-1,-1,-1,-1,-1,-1,-1,-1,-1,-1,-1,-1,-1,-1,-1,-1,-1,-1,-1],"split_conditions":[-6.335424E-1,6.499973E-2,-1.2053673E-1,-1.9936419E-1,2.9193178E-1,2.3123814E-1,-4.2490065E-1,4.0498355E-1,-1.9071087E-1,1.5492788E-1,-6.9278777E-1,4.6084285E-2,5.5482E-2,-4.7699142E-1,-2.9946834E-1,1.9590408E-2,-2.3228744E-2,-5.746917E-3,1.6243277E-2,-6.702449E-2,5.369071E-1,-5.9195197E-1,2.8571874E-1,1.3468614E-1,1.2258783E-1,-3.1998596E-1,-7.140578E-2,3.7243873E-1,2.7156255E-1,-2.1927644E-1,-2.1799596E-1,1.7617388E-2,3.1980187E-1,4.7774534E-3,3.6595244E-2,3.1253272E-1,1.9495877E-2,-1.28729865E-2,3.4855192E-3,1.2218245E-1,3.407073E-2,-1.7962364E-2,1.5867773E-1,-9.23866E-3,-1.3383116E-1,8.598316E-2,-2.594242E-1,-2.2139376E-1,-2.9922393E-1,3.625945E-1,-3.4371357E-2,-1.3231617E-1,-4.919638E-1,2.7999314E-2,-8.2521085E-3,-2.0974846E-1,-1.9976439E-1,5.466391E-3,-1.0372754E-2,1.1323377E-2,-1.073546E-2,7.239217E-2,2.7857494E-2,1.4214344E-2,3.0233717E-2,-5.0752467E-5,2.03755E-2,1.0207712E-2,2.5971077E-2,5.1968902E-2,2.1838732E-2,2.642029E-2,1.8912986E-3,8.639195E-3,-5.5866744E-3,5.530384E-3,-6.620004E-3,-7.86644E-3,-2.1681616E-2,-1.5851405E-2,9.117914E-3,-1.546704E-2,4.980355E-3,5.11008E-4,3.6643013E-2,5.4536983E-3,-1.5888028E-2,-1.9483566E-2,-4.3538804E-3],"split_indices":[76,48,274,267,90,339,373,128,139,144,239,269,91,51,158,144,0,0,0,319,229,379,177,358,73,35,2,53,128,6,159,0,90,0,0,177,0,0,0,192,278,0,256,255,107,210,252,30,239,109,0,155,60,0,0,194,89,0,0,0,0,0,0,0,0,0,0,0,0,0,0,0,0,0,0,0,0,0,0,0,0,0,0,0,0,0,0,0,0],"split_type":[0,0,0,0,0,0,0,0,0,0,0,0,0,0,0,0,0,0,0,0,0,0,0,0,0,0,0,0,0,0,0,0,0,0,0,0,0,0,0,0,0,0,0,0,0,0,0,0,0,0,0,0,0,0,0,0,0,0,0,0,0,0,0,0,0,0,0,0,0,0,0,0,0,0,0,0,0,0,0,0,0,0,0,0,0,0,0,0,0],"sum_hessian":[2.293E3,2.66E2,2.027E3,7.9E1,1.87E2,8.715E2,1.1555E3,5.3E1,2.6E1,6.15E1,1.255E2,3.185E2,5.53E2,3.145E2,8.41E2,4.3E1,1E1,6.5E0,1.95E1,1.4E1,4.75E1,1.55E1,1.1E2,4.15E1,2.77E2,2.295E2,3.235E2,2.4E1,2.905E2,1.8E1,8.23E2,5E0,3.8E1,6E0,8E0,4.05E1,7E0,8.5E0,7E0,1.15E1,9.85E1,2.55E1,1.6E1,2.61E2,1.6E1,3E1,1.995E2,2.295E2,9.4E1,1.1E1,1.3E1,2.695E2,2.1E1,1.15E1,6.5E0,2.32E2,5.91E2,8.5E0,2.95E1,9E0,3.15E1,6E0,5.5E0,4.9E1,4.95E1,9E0,7E0,2.22E2,3.9E1,1E1,6E0,1.95E1,1.05E1,8.1E1,1.185E2,6.2E1,1.675E2,3.9E1,5.5E1,5.5E0,5.5E0,3.2E1,2.375E2,5E0,1.6E1,2.9E1,2.03E2,3.9E1,5.52E2],"tree_param":{"num_deleted":"0","num_feature":"404","num_nodes":"89","size_leaf_vector":"1"}},{"base_weights":[1.106662E-2,3.834363E-1,-3.9088752E-2,-1.23359226E-1,5.315885E-1,1.065382E-1,-1.3598005E-1,-5.5347735E-1,2.4713448E-1,9.193021E-1,2.018759E-1,-1.07110165E-1,2.769318E-1,-2.730206E-1,6.730137E-3,-2.4763595E-2,-6.0934117E-3,5.286317E-1,-3.24537E-2,7.1324986E-1,2.0282683E0,1.9949973E-2,5.675965E-1,-5.0120366E-1,6.683315E-3,4.8517305E-1,9.036706E-2,-3.1936783E-1,6.1115134E-1,-1.9663166E-1,1.7786156E-1,2.7426673E-2,8.753508E-3,9.437893E-3,-7.6790596E-3,9.100589E-1,-4.2541604E-2,7.590633E-2,2.6864422E-2,-6.2649004E-2,2.0934891E-2,7.619909E-1,-1.2064466E-2,-2.6459426E-2,-3.8445452E-1,-1.9400628E-1,1.894575E-1,8.9368206E-1,3.012393E-1,5.817265E-1,-8.703872E-2,-1.9406094E-1,-5.214575E-1,1.2641644E0,1.8878587E-1,-1.22242525E-1,-9.2373097E-1,5.217528E-1,-3.0336888E-3,-3.5941831E-3,3.106016E-2,-1.0433045E-2,1.6529324E-2,-8.068164E-3,4.021609E-3,8.0871675E-3,2.9206928E-2,-1.33640235E-2,-4.961708E-4,-7.5558927E-3,1.2311159E-2,2.2693887E-2,3.4155985E-3,1.4402974E-2,3.4712814E-2,1.2108727E-2,-2.8469637E-3,4.570547E-2,1.2511159E-2,-2.4783136E-2,-1.4667725E-4,1.1877009E-2,-7.0540346E-3,-1.6916975E-2,1.4818686E-2,5.502408E-2,1.7850673E-2,9.9522285E-3,-6.001985E-3,-1.2724432E-2,8.6977985E-4,-3.150433E-2,-1.3459424E-2,1.915904E-2,-2.167852E-2,4.9025915E-3,-1.8217979E-2],"categories":[],"categories_nodes":[],"categories_segments":[],"categories_sizes":[],"default_left":[0,0,0,0,0,0,0,0,0,0,0,0,0,0,0,0,0,0,0,0,0,0,0,0,0,0,0,0,0,0,0,0,0,0,0,0,0,0,0,0,0,0,0,0,0,0,0,0,0,0,0,0,0,0,0,0,0,0,0,0,0,0,0,0,0,0,0,0,0,0,0,0,0,0,0,0,0,0,0,0,0,0,0,0,0,0,0,0,0,0,0,0,0,0,0,0,0],"id":17,"left_children":[1,3,5,7,9,11,13,15,17,19,21,23,25,27,29,-1,-1,31,33,35,37,39,41,43,45,47,49,51,53,55,57,-1,-1,-1,-1,59,61,-1,-1,63,-1,65,-1,-1,67,69,71,73,75,77,79,81,83,85,87,89,91,93,95,-1,-1,-1,-1,-1,-1,-1,-1,-1,-1,-1,-1,-1,-1,-1,-1,-1,-1,-1,-1,-1,-1,-1,-1,-1,-1,-1,-1,-1,-1,-1,-1,-1,-1,-1,-1,-1,-1],"loss_changes":[4.255969E1,2.0375496E1,2.8354393E1,1.0016859E1,2.6595654E1,2.9262325E1,2.3597456E1,2.5957623E0,2.693068E0,2.0489815E1,7.606826E0,1.6013111E1,1.7322319E1,2.5417713E1,2.0637514E1,0E0,0E0,1.2857943E0,1.4768028E0,1.2310318E1,5.9788666E0,4.3831115E0,7.4699306E0,3.217352E0,1.023404E1,1.558503E1,2.0709923E1,1.4725555E1,8.3114605E0,1.4545005E1,2.0032654E1,0E0,0E0,0E0,0E0,8.574921E0,3.4524531E0,0E0,0E0,2.8764946E0,0E0,3.0713997E0,0E0,0E0,1.4068317E0,4.754022E0,6.1726036E0,6.525749E0,6.000415E0,9.136009E0,1.0620889E1,8.889236E0,9.910477E0,3.4853497E0,1.1781378E0,1.1289995E1,1.0302792E0,1.6605806E1,2.1421461E1,0E0,0E0,0E0,0E0,0E0,0E0,0E0,0E0,0E0,0E0,0E0,0E0,0E0,0E0,0E0,0E0,0E0,